{"learner":{"attributes":{"best_iteration":"3","best_score":"1.1127027182158153","scikit_learn":"{\"_estimator_type\": \"regressor\"}"},"feature_names":[],"feature_types":[],"gradient_booster":{"model":{"cats":{"enc":[],"feature_segments":[],"sorted_idx":[]},"gbtree_model_param":{"num_parallel_tree":"1","num_trees":"34"},"iteration_indptr":[0,1,2,3,4,5,6,7,8,9,10,11,12,13,14,15,16,17,18,19,20,21,22,23,24,25,26,27,28,29,30,31,32,33,34],"tree_info":[0,0,0,0,0,0,0,0,0,0,0,0,0,0,0,0,0,0,0,0,0,0,0,0,0,0,0,0,0,0,0,0,0,0],"trees":[{"base_weights":[1.337934E-2,-6.65307E-2,9.3145E-1,-1.7607293E-1,4.54657E-1,2.2240317E-1,1.3359855E0,-4.113597E-1,-8.6315066E-2,-4.216867E-1,6.7038965E-1,4.7180727E-1,-1.04417644E-1,-0E0,1.5670683E0,9.013835E-3,-2.49048E-2,9.62999E-4,-1.721747E-2,-0E0,-3.3211105E-2,3.0934715E-4,4.3502167E-2,5.5859804E-2,-0E0,6.760376E-3,-2.6572958E-2,-0E0,1.0327033E-3,-0E0,8.30765E-2],"categories":[],"categories_nodes":[],"categories_segments":[],"categories_sizes":[],"default_left":[0,0,0,0,0,0,0,0,0,0,0,0,0,0,0,0,0,0,0,0,0,0,0,0,0,0,0,0,0,0,0],"id":0,"left_children":[1,3,5,7,9,11,13,15,17,19,21,23,25,27,29,-1,-1,-1,-1,-1,-1,-1,-1,-1,-1,-1,-1,-1,-1,-1,-1],"loss_changes":[3.980361E1,2.7673878E1,1.0473228E1,8.012753E0,1.6458914E1,1.9492304E0,7.9546013E0,6.0203342E0,8.466771E0,2.1396713E0,8.19952E0,4.0821733E0,1.2715117E0,1.4930664E-3,4.1013374E0,0E0,0E0,0E0,0E0,0E0,0E0,0E0,0E0,0E0,0E0,0E0,0E0,0E0,0E0,0E0,0E0],"parents":[2147483647,0,0,1,1,2,2,3,3,4,4,5,5,6,6,7,7,8,8,9,9,10,10,11,11,12,12,13,13,14,14],"right_children":[2,4,6,8,10,12,14,16,18,20,22,24,26,28,30,-1,-1,-1,-1,-1,-1,-1,-1,-1,-1,-1,-1,-1,-1,-1,-1],"split_conditions":[2.0769231E0,1.1E1,1.9E1,1.0833334E0,9.166667E-1,9E0,9E0,5.4545456E-1,1E1,1.1E1,1E0,8E0,1.4E1,7E0,2E0,9.013835E-3,-2.49048E-2,9.62999E-4,-1.721747E-2,-0E0,-3.3211105E-2,3.0934715E-4,4.3502167E-2,5.5859804E-2,-0E0,6.760376E-3,-2.6572958E-2,-0E0,1.0327033E-3,-0E0,8.30765E-2],"split_indices":[8,2,0,9,8,6,5,9,3,0,13,2,0,2,2,0,0,0,0,0,0,0,0,0,0,0,0,0,0,0,0],"split_type":[0,0,0,0,0,0,0,0,0,0,0,0,0,0,0,0,0,0,0,0,0,0,0,0,0,0,0,0,0,0,0],"sum_hessian":[5.28E2,4.86E2,4.2E1,4.04E2,8.2E1,1.7E1,2.5E1,1.07E2,2.97E2,1.5E1,6.7E1,1.1E1,6E0,4E0,2.1E1,1.2E1,9.5E1,2.09E2,8.8E1,5E0,1E1,1.7E1,5E1,4E0,7E0,3E0,3E0,2E0,2E0,1E0,2E1],"tree_param":{"num_deleted":"0","num_feature":"14","num_nodes":"31","size_leaf_vector":"1"}},{"base_weights":[-9.180582E-3,-8.783258E-2,9.266007E-1,3.7179542E-1,-2.0453542E-1,2.2011277E-1,1.4562106E0,-7.428377E-1,5.25097E-1,-4.429308E-1,-6.29607E-2,8.7990713E-1,-0E0,2.2007091E-1,1.7501858E0,-0E0,-5.1341183E-2,-2.3182079E-3,3.5652425E-2,-2.9097874E-2,-6.8863123E-3,2.5235912E-2,-6.029498E-3,5.6190755E-2,-0E0,3.7662354E-3,-6.9855875E-3,-0E0,1.7221058E-2,9.7914144E-2,1.6013868E-2],"categories":[],"categories_nodes":[],"categories_segments":[],"categories_sizes":[],"default_left":[0,0,0,0,0,0,0,0,0,0,0,0,0,0,0,0,0,0,0,0,0,0,0,0,0,0,0,0,0,0,0],"id":1,"left_children":[1,3,5,7,9,11,13,15,17,19,21,23,25,27,29,-1,-1,-1,-1,-1,-1,-1,-1,-1,-1,-1,-1,-1,-1,-1,-1],"loss_changes":[3.7592663E1,2.5828058E1,1.2622318E1,1.6856792E1,1.2530695E1,3.3135328E0,5.2649803E0,1.5619597E0,1.0006975E1,5.164158E0,7.8041096E0,1.6206074E-1,2.1414208E-1,3.3763975E-1,1.6903839E0,0E0,0E0,0E0,0E0,0E0,0E0,0E0,0E0,0E0,0E0,0E0,0E0,0E0,0E0,0E0,0E0],"parents":[2147483647,0,0,1,1,2,2,3,3,4,4,5,5,6,6,7,7,8,8,9,9,10,10,11,11,12,12,13,13,14,14],"right_children":[2,4,6,8,10,12,14,16,18,20,22,24,26,28,30,-1,-1,-1,-1,-1,-1,-1,-1,-1,-1,-1,-1,-1,-1,-1,-1],"split_conditions":[2.0769231E0,1.3333334E0,1E0,6E0,1.2666667E0,2.4E0,5E0,7E0,9.166667E-1,2E0,2E0,7E0,9E0,2E0,5E0,-0E0,-5.1341183E-2,-2.3182079E-3,3.5652425E-2,-2.9097874E-2,-6.8863123E-3,2.5235912E-2,-6.029498E-3,5.6190755E-2,-0E0,3.7662354E-3,-6.9855875E-3,-0E0,1.7221058E-2,9.7914144E-2,1.6013868E-2],"split_indices":[8,10,12,4,8,8,3,3,8,12,1,2,6,2,1,0,0,0,0,0,0,0,0,0,0,0,0,0,0,0,0],"split_type":[0,0,0,0,0,0,0,0,0,0,0,0,0,0,0,0,0,0,0,0,0,0,0,0,0,0,0,0,0,0,0],"sum_hessian":[5.19E2,4.81E2,3.8E1,9.5E1,3.86E2,1.8E1,2E1,1E1,8.5E1,1.4E2,2.46E2,4E0,1.4E1,5E0,1.5E1,4E0,6E0,2E1,6.5E1,9.3E1,4.7E1,2E1,2.26E2,2E0,2E0,7E0,7E0,1E0,4E0,1.2E1,3E0],"tree_param":{"num_deleted":"0","num_feature":"14","num_nodes":"31","size_leaf_vector":"1"}},{"base_weights":[-1.235705E-2,5.772228E-1,-1.4953494E-1,2.0115902E0,4.2358392E-1,-2.5527605E-1,3.640959E-1,-0E0,1.1094352E-1,1.1502888E-1,9.740842E-1,-8.98917E-2,-4.4442567E-1,-1.6685133E-1,6.360567E-1,-3.4991705E-3,2.4241341E-2,1.1980648E-2,6.262349E-2,-2.29454E-2,1.2171334E-4,-2.5570098E-2,5.2433475E-3,6.8285638E-3,-2.1038245E-2,6.355206E-3,4.5703564E-2],"categories":[],"categories_nodes":[],"categories_segments":[],"categories_sizes":[],"default_left":[0,0,0,0,0,0,0,0,0,0,0,0,0,0,0,0,0,0,0,0,0,0,0,0,0,0,0],"id":2,"left_children":[1,3,5,7,9,11,13,-1,-1,15,17,19,21,23,25,-1,-1,-1,-1,-1,-1,-1,-1,-1,-1,-1,-1],"loss_changes":[4.236457E1,1.799361E1,2.341187E1,2.530182E0,1.4284973E1,1.0651775E1,1.1097167E1,0E0,0E0,4.673394E0,4.4984474E0,7.1528616E0,6.538864E0,2.2579467E0,5.7886143E0,0E0,0E0,0E0,0E0,0E0,0E0,0E0,0E0,0E0,0E0,0E0,0E0],"parents":[2147483647,0,0,1,1,2,2,3,3,4,4,5,5,6,6,9,9,10,10,11,11,12,12,13,13,14,14],"right_children":[2,4,6,8,10,12,14,-1,-1,16,18,20,22,24,26,-1,-1,-1,-1,-1,-1,-1,-1,-1,-1,-1,-1],"split_conditions":[1.125E0,1.1111112E0,1.1E1,4E0,2.3E1,1.875E0,6E0,-0E0,1.1094352E-1,1E0,1.2222222E0,1.375E0,1.1E1,1.6086956E0,1.1E1,-3.4991705E-3,2.4241341E-2,1.1980648E-2,6.262349E-2,-2.29454E-2,1.2171334E-4,-2.5570098E-2,5.2433475E-3,6.8285638E-3,-2.1038245E-2,6.355206E-3,4.5703564E-2],"split_indices":[7,10,2,3,0,7,5,0,0,13,9,7,4,7,4,0,0,0,0,0,0,0,0,0,0,0,0],"split_type":[0,0,0,0,0,0,0,0,0,0,0,0,0,0,0,0,0,0,0,0,0,0,0,0,0,0,0],"sum_hessian":[5.26E2,9.7E1,4.29E2,7E0,9E1,3.58E2,7.1E1,1E0,6E0,6E1,3E1,1.95E2,1.63E2,2.3E1,4.8E1,3.9E1,2.1E1,1E1,2E1,4E1,1.55E2,1.47E2,1.6E1,9E0,1.4E1,1.9E1,2.9E1],"tree_param":{"num_deleted":"0","num_feature":"14","num_nodes":"27","size_leaf_vector":"1"}},{"base_weights":[-3.6978405E-2,5.0199443E-1,-1.6971359E-1,2.5894067E-1,8.8890857E-1,-5.459415E-1,-3.3835884E-2,4.0264836E-1,-2.9719985E-1,-0E0,1.097881E0,-6.004454E-1,-4.27308E-2,-1.7282018E-1,2.8072494E-1,4.1815294E-3,3.8669404E-2,2.3315274E-3,-3.126645E-2,-1.4678097E-2,5.132274E-3,1.0591583E-2,6.486262E-2,1.2314351E-2,-3.113592E-2,8.831883E-4,-2.6291339E-2,7.6004677E-3,-1.595023E-2,4.537592E-3,3.8628276E-2],"categories":[],"categories_nodes":[],"categories_segments":[],"categories_sizes":[],"default_left":[0,0,0,0,0,0,0,0,0,0,0,0,0,0,0,0,0,0,0,0,0,0,0,0,0,0,0,0,0,0,0],"id":3,"left_children":[1,3,5,7,9,11,13,15,17,19,21,23,25,27,29,-1,-1,-1,-1,-1,-1,-1,-1,-1,-1,-1,-1,-1,-1,-1,-1],"loss_changes":[3.8391697E1,8.428209E0,2.16557E1,5.759584E0,7.5471935E0,2.4312935E0,1.4107969E1,5.728363E0,2.145518E0,3.7010977E-1,3.64328E0,2.5018387E0,9.4515246E-1,1.1042578E1,8.141571E0,0E0,0E0,0E0,0E0,0E0,0E0,0E0,0E0,0E0,0E0,0E0,0E0,0E0,0E0,0E0,0E0],"parents":[2147483647,0,0,1,1,2,2,3,3,4,4,5,5,6,6,7,7,8,8,9,9,10,10,11,11,12,12,13,13,14,14],"right_children":[2,4,6,8,10,12,14,16,18,20,22,24,26,28,30,-1,-1,-1,-1,-1,-1,-1,-1,-1,-1,-1,-1,-1,-1,-1,-1],"split_conditions":[1.125E0,2.2E1,6E0,1.1E1,1.5555556E0,1.1E1,1.4736842E0,8.888889E-1,1.3333334E0,9E0,5E0,5E-1,1E0,1.4482758E0,1.2E1,4.1815294E-3,3.8669404E-2,2.3315274E-3,-3.126645E-2,-1.4678097E-2,5.132274E-3,1.0591583E-2,6.486262E-2,1.2314351E-2,-3.113592E-2,8.831883E-4,-2.6291339E-2,7.6004677E-3,-1.595023E-2,4.537592E-3,3.8628276E-2],"split_indices":[7,0,4,4,8,5,8,7,10,6,2,8,13,10,4,0,0,0,0,0,0,0,0,0,0,0,0,0,0,0,0],"split_type":[0,0,0,0,0,0,0,0,0,0,0,0,0,0,0,0,0,0,0,0,0,0,0,0,0,0,0,0,0,0,0],"sum_hessian":[5.38E2,1.04E2,4.34E2,6.7E1,3.7E1,1.12E2,3.22E2,5.5E1,1.2E1,7E0,3E1,9.9E1,1.3E1,2.26E2,9.6E1,3.2E1,2.3E1,5E0,7E0,2E0,5E0,7E0,2.3E1,1E0,9.8E1,1.1E1,2E0,6.8E1,1.58E2,7.2E1,2.4E1],"tree_param":{"num_deleted":"0","num_feature":"14","num_nodes":"31","size_leaf_vector":"1"}},{"base_weights":[-1.920545E-2,6.485602E-1,-1.61854E-1,3.212484E-1,1.3084275E0,-3.333054E-1,8.383014E-2,4.0559056E-1,-2.6382277E-2,1.8197677E0,6.7951375E-1,-5.1903635E-1,-1.6430187E-1,2.9420778E-1,-6.9317356E-2,6.4940876E-3,4.151913E-2,-0E0,9.627595E-2,-0E0,4.6386924E-2,-0E0,-2.986506E-2,9.436825E-3,-1.3856499E-2,-6.938794E-3,2.6994888E-2,1.2522965E-2,-1.5503517E-2],"categories":[],"categories_nodes":[],"categories_segments":[],"categories_sizes":[],"default_left":[0,0,0,0,0,0,0,0,0,0,0,0,0,0,0,0,0,0,0,0,0,0,0,0,0,0,0,0,0],"id":4,"left_children":[1,3,5,7,9,11,13,15,-1,17,19,21,23,25,27,-1,-1,-1,-1,-1,-1,-1,-1,-1,-1,-1,-1,-1,-1],"loss_changes":[5.0775494E1,1.7934177E1,1.9015009E1,4.8885975E0,5.1327515E0,7.491184E0,6.103194E0,6.0807714E0,0E0,2.0353699E0,3.1400394E0,4.994522E0,5.8828363E0,8.970697E0,8.144274E0,0E0,0E0,0E0,0E0,0E0,0E0,0E0,0E0,0E0,0E0,0E0,0E0,0E0,0E0],"parents":[2147483647,0,0,1,1,2,2,3,3,4,4,5,5,6,6,7,7,9,9,10,10,11,11,12,12,13,13,14,14],"right_children":[2,4,6,8,10,12,14,16,-1,18,20,22,24,26,28,-1,-1,-1,-1,-1,-1,-1,-1,-1,-1,-1,-1,-1,-1],"split_conditions":[1.1E0,1E0,3E0,1.3E1,2.8E1,1.2916666E0,2.4E1,1E0,-2.6382277E-2,8.148148E-1,1.6785715E0,1.64E0,6E0,1.4848485E0,7E0,6.4940876E-3,4.151913E-2,-0E0,9.627595E-2,-0E0,4.6386924E-2,-0E0,-2.986506E-2,9.436825E-3,-1.3856499E-2,-6.938794E-3,2.6994888E-2,1.2522965E-2,-1.5503517E-2],"split_indices":[7,12,12,4,0,8,0,13,0,10,10,7,6,7,1,0,0,0,0,0,0,0,0,0,0,0,0,0,0],"split_type":[0,0,0,0,0,0,0,0,0,0,0,0,0,0,0,0,0,0,0,0,0,0,0,0,0,0,0,0,0],"sum_hessian":[5.35E2,9.2E1,4.43E2,6.4E1,2.8E1,2.63E2,1.8E2,6E1,4E0,1.3E1,1.5E1,1.21E2,1.42E2,7.8E1,1.02E2,3.9E1,2.1E1,1E0,1.2E1,4E0,1.1E1,1.6E1,1.05E2,3.2E1,1.1E2,2.7E1,5.1E1,4.2E1,6E1],"tree_param":{"num_deleted":"0","num_feature":"14","num_nodes":"29","size_leaf_vector":"1"}},{"base_weights":[-1.9105634E-2,5.027093E-1,-1.4804193E-1,7.730607E-2,7.889172E-1,-3.0407223E-1,1.12344354E-1,-4.161888E-2,6.398036E-1,-7.2930865E-2,9.77808E-1,-4.6655494E-1,-9.7620025E-2,-3.140908E-2,4.5875847E-1,-1.1204185E-2,1.351004E-2,5.022071E-2,-0E0,3.4216016E-3,-2.689308E-2,5.3659838E-2,-7.699234E-3,9.465235E-3,-2.4429962E-2,-2.875246E-2,-1.2947115E-3,1.9738972E-2,-6.697307E-3,4.4304132E-3,4.8506115E-2],"categories":[],"categories_nodes":[],"categories_segments":[],"categories_sizes":[],"default_left":[0,0,0,0,0,0,0,0,0,0,0,0,0,0,0,0,0,0,0,0,0,0,0,0,0,0,0,0,0,0,0],"id":5,"left_children":[1,3,5,7,9,11,13,15,17,19,21,23,25,27,29,-1,-1,-1,-1,-1,-1,-1,-1,-1,-1,-1,-1,-1,-1,-1,-1],"loss_changes":[3.5987724E1,1.1887318E1,1.78959E1,3.681849E0,1.102375E1,8.575586E0,8.491375E0,2.1783087E0,1.6598513E0,1.2804655E0,6.727051E0,2.6139565E0,3.6743407E0,4.778448E0,8.181758E0,0E0,0E0,0E0,0E0,0E0,0E0,0E0,0E0,0E0,0E0,0E0,0E0,0E0,0E0,0E0,0E0],"parents":[2147483647,0,0,1,1,2,2,3,3,4,4,5,5,6,6,7,7,8,8,9,9,10,10,11,11,12,12,13,13,14,14],"right_children":[2,4,6,8,10,12,14,16,18,20,22,24,26,28,30,-1,-1,-1,-1,-1,-1,-1,-1,-1,-1,-1,-1,-1,-1,-1,-1],"split_conditions":[1.125E0,1.6086956E0,1.5454545E0,1.1E1,6.875E-1,1E0,1.5E0,1.4444444E0,1.5294118E0,6E0,2.15625E0,5E-1,1E0,1.6451613E0,1.2E1,-1.1204185E-2,1.351004E-2,5.022071E-2,-0E0,3.4216016E-3,-2.689308E-2,5.3659838E-2,-7.699234E-3,9.465235E-3,-2.4429962E-2,-2.875246E-2,-1.2947115E-3,1.9738972E-2,-6.697307E-3,4.4304132E-3,4.8506115E-2],"split_indices":[7,8,9,2,7,12,8,9,9,2,9,8,9,9,4,0,0,0,0,0,0,0,0,0,0,0,0,0,0,0,0],"split_type":[0,0,0,0,0,0,0,0,0,0,0,0,0,0,0,0,0,0,0,0,0,0,0,0,0,0,0,0,0,0,0],"sum_hessian":[5.37E2,1.04E2,4.33E2,4.4E1,6E1,2.73E2,1.6E2,3.6E1,8E0,1E1,5E1,1.49E2,1.24E2,1.12E2,4.8E1,2.5E1,1.1E1,4E0,4E0,7E0,3E0,4.7E1,3E0,3E0,1.46E2,1.3E1,1.11E2,1.9E1,9.3E1,3E1,1.8E1],"tree_param":{"num_deleted":"0","num_feature":"14","num_nodes":"31","size_leaf_vector":"1"}},{"base_weights":[-1.8990252E-2,-8.586428E-2,7.969956E-1,-1.8519025E-1,3.8987634E-1,2.8324243E-1,1.1608418E0,-6.4027846E-2,-3.5659268E-1,6.4163625E-1,-2.6203036E-1,7.041815E-1,-0E0,1.483547E0,2.8784314E-1,-0E0,-2.5237387E-2,-2.0467699E-2,2.374325E-3,6.175067E-2,1.1195488E-2,-2.7482275E-2,3.867361E-3,-0E0,3.8209308E-2,2.532429E-2,-4.0973937E-3,8.543271E-2,9.576765E-3,-0E0,2.318232E-2],"categories":[],"categories_nodes":[],"categories_segments":[],"categories_sizes":[],"default_left":[0,0,0,0,0,0,0,0,0,0,0,0,0,0,0,0,0,0,0,0,0,0,0,0,0,0,0,0,0,0,0],"id":6,"left_children":[1,3,5,7,9,11,13,15,17,19,21,23,25,27,29,-1,-1,-1,-1,-1,-1,-1,-1,-1,-1,-1,-1,-1,-1,-1,-1],"loss_changes":[2.8558256E1,2.3364925E1,5.4463387E0,8.132506E0,1.4500274E1,2.1546245E0,3.645073E0,7.010621E0,3.962082E0,1.3618113E1,2.829906E0,7.683611E-2,7.2526294E-1,1.8261051E0,6.9303566E-1,0E0,0E0,0E0,0E0,0E0,0E0,0E0,0E0,0E0,0E0,0E0,0E0,0E0,0E0,0E0,0E0],"parents":[2147483647,0,0,1,1,2,2,3,3,4,4,5,5,6,6,7,7,8,8,9,9,10,10,11,11,12,12,13,13,14,14],"right_children":[2,4,6,8,10,12,14,16,18,20,22,24,26,28,30,-1,-1,-1,-1,-1,-1,-1,-1,-1,-1,-1,-1,-1,-1,-1,-1],"split_conditions":[2.0769231E0,1.1E1,1E0,1.875E0,2.1785715E0,2.625E0,1.5E1,1.75E0,1E1,7E0,2E0,3E0,1.1E1,5E0,1.7894737E0,-0E0,-2.5237387E-2,-2.0467699E-2,2.374325E-3,6.175067E-2,1.1195488E-2,-2.7482275E-2,3.867361E-3,-0E0,3.8209308E-2,2.532429E-2,-4.0973937E-3,8.543271E-2,9.576765E-3,-0E0,2.318232E-2],"split_indices":[8,2,12,7,7,8,5,8,2,5,11,4,5,1,10,0,0,0,0,0,0,0,0,0,0,0,0,0,0,0,0],"split_type":[0,0,0,0,0,0,0,0,0,0,0,0,0,0,0,0,0,0,0,0,0,0,0,0,0,0,0,0,0,0,0],"sum_hessian":[5.33E2,4.95E2,3.8E1,4.12E2,8.3E1,1.8E1,2E1,2.46E2,1.66E2,6.1E1,2.2E1,6E0,1.2E1,1.3E1,7E0,2.16E2,3E1,1.49E2,1.7E1,2.3E1,3.8E1,1.3E1,9E0,1E0,5E0,1E0,1.1E1,1E1,3E0,2E0,5E0],"tree_param":{"num_deleted":"0","num_feature":"14","num_nodes":"31","size_leaf_vector":"1"}},{"base_weights":[1.8399537E-2,6.236182E-1,-1.1966754E-1,1.0276301E0,2.5024918E-1,-2.3484413E-1,1.7412947E-1,1.2151752E0,-2.5307196E-1,-8.368077E-2,5.827136E-1,1.54422205E-2,-2.8489006E-1,5.077891E-1,-0E0,7.806387E-2,1.7011594E-2,-1.9111756E-2,-0E0,-1.5950102E-2,6.086334E-3,-6.8588937E-3,4.787907E-2,-2.3398122E-2,2.5873348E-2,1.5454568E-2,-1.4978644E-2,-0E0,3.4930218E-2,8.826229E-3,-1.7656792E-2],"categories":[],"categories_nodes":[],"categories_segments":[],"categories_sizes":[],"default_left":[0,0,0,0,0,0,0,0,0,0,0,0,0,0,0,0,0,0,0,0,0,0,0,0,0,0,0,0,0,0,0],"id":7,"left_children":[1,3,5,7,9,11,13,15,17,19,21,23,25,27,29,-1,-1,-1,-1,-1,-1,-1,-1,-1,-1,-1,-1,-1,-1,-1,-1],"loss_changes":[4.5112E1,1.3496349E1,1.4791062E1,1.2592197E1,6.733775E0,4.215414E0,7.0470753E0,9.868721E0,3.8727498E-1,1.5847822E0,8.978435E0,1.2668134E1,2.444889E0,4.184699E0,5.127655E0,0E0,0E0,0E0,0E0,0E0,0E0,0E0,0E0,0E0,0E0,0E0,0E0,0E0,0E0,0E0,0E0],"parents":[2147483647,0,0,1,1,2,2,3,3,4,4,5,5,6,6,7,7,8,8,9,9,10,10,11,11,12,12,13,13,14,14],"right_children":[2,4,6,8,10,12,14,16,18,20,22,24,26,28,30,-1,-1,-1,-1,-1,-1,-1,-1,-1,-1,-1,-1,-1,-1,-1,-1],"split_conditions":[1.125E0,8E0,1E1,2.15625E0,1.1666666E0,6E0,6E0,5E0,5E0,5E0,1.5E1,5E0,6E-1,1.6451613E0,2.5E1,7.806387E-2,1.7011594E-2,-1.9111756E-2,-0E0,-1.5950102E-2,6.086334E-3,-6.8588937E-3,4.787907E-2,-2.3398122E-2,2.5873348E-2,1.5454568E-2,-1.4978644E-2,-0E0,3.4930218E-2,8.826229E-3,-1.7656792E-2],"split_indices":[7,6,2,9,9,3,1,1,1,3,0,3,8,9,0,0,0,0,0,0,0,0,0,0,0,0,0,0,0,0,0],"split_type":[0,0,0,0,0,0,0,0,0,0,0,0,0,0,0,0,0,0,0,0,0,0,0,0,0,0,0,0,0,0,0],"sum_hessian":[5.31E2,9.9E1,4.32E2,4.5E1,5.4E1,3.13E2,1.19E2,4E1,5E0,2.6E1,2.8E1,4.9E1,2.64E2,4E1,7.9E1,2.7E1,1.3E1,4E0,1E0,1.4E1,1.2E1,9E0,1.9E1,2.4E1,2.5E1,4E0,2.6E2,1.1E1,2.9E1,5.3E1,2.6E1],"tree_param":{"num_deleted":"0","num_feature":"14","num_nodes":"31","size_leaf_vector":"1"}},{"base_weights":[2.350115E-2,4.527429E-1,-7.356225E-2,1.8178314E0,2.7774245E-1,-1.8370189E-1,2.1402997E-1,-0E0,9.885433E-2,1.1147605E-2,7.5326526E-1,-5.3852476E-2,-3.336184E-1,-1.1635975E-1,4.2492512E-1,-6.582734E-3,1.7758297E-2,-1.5525879E-2,4.8064914E-2,3.824122E-2,-6.6280193E-3,-2.1312406E-2,-0E0,-2.3339292E-2,2.3075368E-3,3.603853E-2,2.995181E-3],"categories":[],"categories_nodes":[],"categories_segments":[],"categories_sizes":[],"default_left":[0,0,0,0,0,0,0,0,0,0,0,0,0,0,0,0,0,0,0,0,0,0,0,0,0,0,0],"id":8,"left_children":[1,3,5,7,9,11,13,-1,-1,15,17,19,21,23,25,-1,-1,-1,-1,-1,-1,-1,-1,-1,-1,-1,-1],"loss_changes":[2.2656704E1,2.115565E1,1.3791567E1,2.4369164E0,1.0822622E1,5.766217E0,8.639526E0,0E0,0E0,3.3149362E0,8.069544E0,1.0828391E1,4.468113E0,3.0440786E0,7.199812E0,0E0,0E0,0E0,0E0,0E0,0E0,0E0,0E0,0E0,0E0,0E0,0E0],"parents":[2147483647,0,0,1,1,2,2,3,3,4,4,5,5,6,6,9,9,10,10,11,11,12,12,13,13,14,14],"right_children":[2,4,6,8,10,12,14,-1,-1,16,18,20,22,24,26,-1,-1,-1,-1,-1,-1,-1,-1,-1,-1,-1,-1],"split_conditions":[1.125E0,1.1111112E0,1E1,5E-1,1E0,1.875E0,1.7E1,-0E0,9.885433E-2,1E0,1.3571428E0,1.125E0,3E0,1.0384616E0,2.7E1,-6.582734E-3,1.7758297E-2,-1.5525879E-2,4.8064914E-2,3.824122E-2,-6.6280193E-3,-2.1312406E-2,-0E0,-2.3339292E-2,2.3075368E-3,3.603853E-2,2.995181E-3],"split_indices":[7,10,2,10,12,7,0,0,0,13,10,10,12,10,0,0,0,0,0,0,0,0,0,0,0,0,0],"split_type":[0,0,0,0,0,0,0,0,0,0,0,0,0,0,0,0,0,0,0,0,0,0,0,0,0,0,0],"sum_hessian":[5.32E2,9.9E1,4.33E2,9E0,9E1,3.16E2,1.17E2,1E0,8E0,6E1,3E1,1.74E2,1.42E2,4.4E1,7.3E1,4.1E1,1.9E1,4E0,2.6E1,1.3E1,1.61E2,1.11E2,3.1E1,1.5E1,2.9E1,3.8E1,3.5E1],"tree_param":{"num_deleted":"0","num_feature":"14","num_nodes":"27","size_leaf_vector":"1"}},{"base_weights":[1.3449648E-2,2.557944E-1,-1.3999073E-1,5.1137686E-1,-0E0,-4.3279365E-1,-1.8816192E-2,5.5350137E-1,-1.935008E-2,5.722263E-1,-1.3234963E-1,2.2054173E-1,-5.191509E-1,2.8626528E-1,-1.3744272E-1,1.45692425E-2,4.0515378E-2,1.6004042E-3,4.1706253E-2,-2.2139875E-2,1.1891561E-3,2.7075533E-2,-8.284907E-3,-2.8401194E-2,1.8521171E-3,-9.739461E-3,2.9568125E-2,-2.1103052E-2,-1.6261662E-3],"categories":[],"categories_nodes":[],"categories_segments":[],"categories_sizes":[],"default_left":[0,0,0,0,0,0,0,0,0,0,0,0,0,0,0,0,0,0,0,0,0,0,0,0,0,0,0,0,0],"id":9,"left_children":[1,3,5,7,9,11,13,15,-1,17,19,21,23,25,27,-1,-1,-1,-1,-1,-1,-1,-1,-1,-1,-1,-1,-1,-1],"loss_changes":[1.9970783E1,1.3619658E1,1.1049519E1,4.442482E0,8.245267E0,5.6892223E0,8.360737E0,5.376423E0,0E0,1.9942098E0,4.676031E0,1.8120989E0,2.8323097E0,9.889153E0,4.6461554E0,0E0,0E0,0E0,0E0,0E0,0E0,0E0,0E0,0E0,0E0,0E0,0E0,0E0,0E0],"parents":[2147483647,0,0,1,1,2,2,3,3,4,4,5,5,6,6,7,7,9,9,10,10,11,11,12,12,13,13,14,14],"right_children":[2,4,6,8,10,12,14,16,-1,18,20,22,24,26,28,-1,-1,-1,-1,-1,-1,-1,-1,-1,-1,-1,-1,-1,-1],"split_conditions":[6E0,8E0,6E0,1.6E1,2E0,4E0,1.34375E0,1.5555556E0,-1.935008E-2,1E0,4E0,1.1E1,1.2E1,1E0,1.6521739E0,1.45692425E-2,4.0515378E-2,1.6004042E-3,4.1706253E-2,-2.2139875E-2,1.1891561E-3,2.7075533E-2,-8.284907E-3,-2.8401194E-2,1.8521171E-3,-9.739461E-3,2.9568125E-2,-2.1103052E-2,-1.6261662E-3],"split_indices":[1,6,4,5,1,5,10,8,0,1,1,3,5,10,10,0,0,0,0,0,0,0,0,0,0,0,0,0,0],"split_type":[0,0,0,0,0,0,0,0,0,0,0,0,0,0,0,0,0,0,0,0,0,0,0,0,0,0,0,0,0],"sum_hessian":[5.31E2,2.08E2,3.23E2,1.03E2,1.05E2,9.1E1,2.32E2,1E2,3E0,1.9E1,8.6E1,9E0,8.2E1,6.2E1,1.7E2,5.3E1,4.7E1,8E0,1.1E1,3E1,5.6E1,6E0,3E0,7.7E1,5E0,2.3E1,3.9E1,4.2E1,1.28E2],"tree_param":{"num_deleted":"0","num_feature":"14","num_nodes":"29","size_leaf_vector":"1"}},{"base_weights":[3.1222332E-2,5.1888835E-1,-7.78602E-2,1.5210644E0,3.7506825E-1,1.1656479E-2,-2.5536767E-1,1.7290682E0,-0E0,4.874984E-1,-4.7736233E-1,6.5169424E-2,-4.2546475E-1,-3.9406186E-1,-1.976356E-2,-0E0,9.497567E-2,2.6127151E-3,3.7528064E-2,-0E0,-3.524457E-2,-0E0,1.7078234E-2,3.1657366E-3,-2.8212199E-2,-0E0,-2.2641312E-2,-1.3560367E-2,5.2631814E-3],"categories":[],"categories_nodes":[],"categories_segments":[],"categories_sizes":[],"default_left":[0,0,0,0,0,0,0,0,0,0,0,0,0,0,0,0,0,0,0,0,0,0,0,0,0,0,0,0,0],"id":10,"left_children":[1,3,5,7,9,11,13,15,-1,17,19,21,23,25,27,-1,-1,-1,-1,-1,-1,-1,-1,-1,-1,-1,-1,-1,-1],"loss_changes":[2.9785942E1,1.20217495E1,7.3906775E0,4.7847824E0,9.224305E0,6.616918E0,4.6230774E0,2.885828E0,0E0,8.698816E0,1.3338535E0,4.522234E0,2.623406E0,2.4473972E0,2.1421604E0,0E0,0E0,0E0,0E0,0E0,0E0,0E0,0E0,0E0,0E0,0E0,0E0,0E0,0E0],"parents":[2147483647,0,0,1,1,2,2,3,3,4,4,5,5,6,6,7,7,9,9,10,10,11,11,12,12,13,13,14,14],"right_children":[2,4,6,8,10,12,14,16,-1,18,20,22,24,26,28,-1,-1,-1,-1,-1,-1,-1,-1,-1,-1,-1,-1,-1,-1],"split_conditions":[1.1E0,1.1111112E0,1E1,3.2E0,1.9714285E0,2.2608695E0,1.2916666E0,4E0,-0E0,1.5142857E0,1.0952381E0,1.9310344E0,5E0,3E0,1.1E1,-0E0,9.497567E-2,2.6127151E-3,3.7528064E-2,-0E0,-3.524457E-2,-0E0,1.7078234E-2,3.1657366E-3,-2.8212199E-2,-0E0,-2.2641312E-2,-1.3560367E-2,5.2631814E-3],"split_indices":[7,10,3,8,9,10,8,3,0,8,8,9,5,5,3,0,0,0,0,0,0,0,0,0,0,0,0,0,0],"split_type":[0,0,0,0,0,0,0,0,0,0,0,0,0,0,0,0,0,0,0,0,0,0,0,0,0,0,0,0,0],"sum_hessian":[5.49E2,1.01E2,4.48E2,1E1,9.1E1,2.95E2,1.53E2,9E0,1E0,8.2E1,9E0,2.66E2,2.9E1,9.3E1,6E1,1E0,8E0,3.3E1,4.9E1,3E0,6E0,2.19E2,4.7E1,5E0,2.4E1,1.1E1,8.2E1,2.2E1,3.8E1],"tree_param":{"num_deleted":"0","num_feature":"14","num_nodes":"29","size_leaf_vector":"1"}},{"base_weights":[5.9977532E-3,4.721828E-1,-9.4433986E-2,1.6519369E0,3.1933147E-1,-2.311989E-1,1.2441038E-1,-0E0,1.8333602E0,4.1102228E-1,-2.903498E-1,-4.1144863E-1,-2.2982664E-2,-3.9126735E-2,3.6298972E-1,-0E0,1.0242595E-1,4.39116E-3,3.1767394E-2,1.1406054E-2,-3.3834785E-2,-2.2067523E-2,3.0892778E-3,-2.263943E-2,1.8445094E-3,1.37597015E-2,-1.1696317E-2,6.7778355E-3,5.9179287E-2],"categories":[],"categories_nodes":[],"categories_segments":[],"categories_sizes":[],"default_left":[0,0,0,0,0,0,0,0,0,0,0,0,0,0,0,0,0,0,0,0,0,0,0,0,0,0,0,0,0],"id":11,"left_children":[1,3,5,7,9,11,13,-1,15,17,19,21,23,25,27,-1,-1,-1,-1,-1,-1,-1,-1,-1,-1,-1,-1,-1,-1],"loss_changes":[2.4346128E1,1.3917706E1,1.2705667E1,2.6457767E0,5.0234156E0,9.365721E0,6.56831E0,0E0,2.9029408E0,4.667018E0,2.7833729E0,2.366169E0,3.6705334E0,5.7802587E0,1.1037761E1,0E0,0E0,0E0,0E0,0E0,0E0,0E0,0E0,0E0,0E0,0E0,0E0,0E0,0E0],"parents":[2147483647,0,0,1,1,2,2,3,3,4,4,5,5,6,6,8,8,9,9,10,10,11,11,12,12,13,13,14,14],"right_children":[2,4,6,8,10,12,14,-1,16,18,20,22,24,26,28,-1,-1,-1,-1,-1,-1,-1,-1,-1,-1,-1,-1,-1,-1],"split_conditions":[1.125E0,1.1111112E0,1.5454545E0,4E0,1.9714285E0,1E0,1.1E1,-0E0,4E0,1.1666666E0,1.0952381E0,2.8E0,1.3548387E0,1.53125E0,1.5428572E0,-0E0,1.0242595E-1,4.39116E-3,3.1767394E-2,1.1406054E-2,-3.3834785E-2,-2.2067523E-2,3.0892778E-3,-2.263943E-2,1.8445094E-3,1.37597015E-2,-1.1696317E-2,6.7778355E-3,5.9179287E-2],"split_indices":[7,10,9,3,9,12,4,0,5,9,8,7,7,10,8,0,0,0,0,0,0,0,0,0,0,0,0,0,0],"split_type":[0,0,0,0,0,0,0,0,0,0,0,0,0,0,0,0,0,0,0,0,0,0,0,0,0,0,0,0,0],"sum_hessian":[5.09E2,9.1E1,4.18E2,8E0,8.3E1,2.6E2,1.58E2,1E0,7E0,7.4E1,9E0,1.36E2,1.24E2,9.2E1,6.6E1,1E0,6E0,3.3E1,4.1E1,3E0,6E0,1.3E2,6E0,1.6E1,1.08E2,3.3E1,5.9E1,5.4E1,1.2E1],"tree_param":{"num_deleted":"0","num_feature":"14","num_nodes":"29","size_leaf_vector":"1"}},{"base_weights":[1.2790412E-2,1.7223834E-1,-2.2053531E-1,3.8594994E-1,-5.0390035E-2,-3.8132483E-1,6.025102E-2,2.8379332E-2,5.4831654E-1,-2.654486E-1,1.4013222E-1,-4.385868E-1,-2.8121775E-2,4.4050515E-1,-2.4491727E-1,2.2201858E-2,-8.942068E-3,3.415585E-2,-9.243355E-3,3.1577963E-3,-1.7828587E-2,-6.945274E-4,4.3091577E-2,-2.4448639E-2,-2.5806148E-3,3.4181144E-2,-1.3899456E-2,6.0260553E-2,6.3665495E-3,-2.6433915E-2,2.4755008E-3],"categories":[],"categories_nodes":[],"categories_segments":[],"categories_sizes":[],"default_left":[0,0,0,0,0,0,0,0,0,0,0,0,0,0,0,0,0,0,0,0,0,0,0,0,0,0,0,0,0,0,0],"id":12,"left_children":[1,3,5,7,9,11,13,15,17,19,21,23,25,27,29,-1,-1,-1,-1,-1,-1,-1,-1,-1,-1,-1,-1,-1,-1,-1,-1],"loss_changes":[1.9931047E1,1.5661143E1,1.0084823E1,9.06654E0,6.5934567E0,2.336195E0,9.350636E0,5.16469E0,1.1806442E1,2.6178713E0,9.925284E0,1.7125816E0,4.0587068E0,7.1785107E0,4.0691776E0,0E0,0E0,0E0,0E0,0E0,0E0,0E0,0E0,0E0,0E0,0E0,0E0,0E0,0E0,0E0,0E0],"parents":[2147483647,0,0,1,1,2,2,3,3,4,4,5,5,6,6,7,7,8,8,9,9,10,10,11,11,12,12,13,13,14,14],"right_children":[2,4,6,8,10,12,14,16,18,20,22,24,26,28,30,-1,-1,-1,-1,-1,-1,-1,-1,-1,-1,-1,-1,-1,-1,-1,-1],"split_conditions":[8E0,8E0,2E0,1.3E1,1.9E1,2E0,2.4E1,7E0,4E0,7E0,1.7916666E0,1E1,7E0,1E0,7E0,2.2201858E-2,-8.942068E-3,3.415585E-2,-9.243355E-3,3.1577963E-3,-1.7828587E-2,-6.945274E-4,4.3091577E-2,-2.4448639E-2,-2.5806148E-3,3.4181144E-2,-1.3899456E-2,6.0260553E-2,6.3665495E-3,-2.6433915E-2,2.4755008E-3],"split_indices":[1,6,12,0,0,13,0,0,11,5,8,2,2,11,6,0,0,0,0,0,0,0,0,0,0,0,0,0,0,0,0],"split_type":[0,0,0,0,0,0,0,0,0,0,0,0,0,0,0,0,0,0,0,0,0,0,0,0,0,0,0,0,0,0,0],"sum_hessian":[5.34E2,3.2E2,2.14E2,1.65E2,1.55E2,1.38E2,7.6E1,5.4E1,1.11E2,7.5E1,8E1,1.16E2,2.2E1,3.5E1,4.1E1,1.9E1,3.5E1,9.5E1,1.6E1,1.4E1,6.1E1,6.6E1,1.4E1,1E2,1.6E1,4E0,1.8E1,8E0,2.7E1,2.2E1,1.9E1],"tree_param":{"num_deleted":"0","num_feature":"14","num_nodes":"31","size_leaf_vector":"1"}},{"base_weights":[-7.815153E-3,1.9252546E-1,-1.3894509E-1,2.992065E-1,-1.3254628E-1,-2.4845095E-1,1.6520785E-2,3.7376302E-1,-3.554819E-1,1.1300515E-1,-3.3866617E-1,2.6292565E-1,-2.9017344E-1,2.2090729E-1,-2.5622663E-1,5.3979464E-2,1.2250367E-2,-0E0,-3.4992106E-2,-2.1080403E-3,1.884105E-2,1.9305274E-2,-2.2440037E-2,4.8248507E-2,-2.8098075E-2,-2.1804148E-2,-5.2415477E-3,-2.1501346E-2,2.4598159E-2,-2.4889493E-2,-0E0],"categories":[],"categories_nodes":[],"categories_segments":[],"categories_sizes":[],"default_left":[0,0,0,0,0,0,0,0,0,0,0,0,0,0,0,0,0,0,0,0,0,0,0,0,0,0,0,0,0,0,0],"id":13,"left_children":[1,3,5,7,9,11,13,15,17,19,21,23,25,27,29,-1,-1,-1,-1,-1,-1,-1,-1,-1,-1,-1,-1,-1,-1,-1,-1],"loss_changes":[1.3791773E1,7.35268E0,5.711439E0,7.9053593E0,2.7884126E0,4.24885E0,7.324423E0,1.1319799E1,2.2044263E0,1.2385986E0,2.6773832E0,9.034373E0,4.271817E0,1.4053338E1,3.2363164E0,0E0,0E0,0E0,0E0,0E0,0E0,0E0,0E0,0E0,0E0,0E0,0E0,0E0,0E0,0E0,0E0],"parents":[2147483647,0,0,1,1,2,2,3,3,4,4,5,5,6,6,7,7,8,8,9,9,10,10,11,11,12,12,13,13,14,14],"right_children":[2,4,6,8,10,12,14,16,18,20,22,24,26,28,30,-1,-1,-1,-1,-1,-1,-1,-1,-1,-1,-1,-1,-1,-1,-1,-1],"split_conditions":[6E0,3E0,3E0,6E0,7E0,6E0,2.7E1,1.2222222E0,8E0,1.05E0,2E0,1.05E0,1.2916666E0,1.2E1,1.6521739E0,5.3979464E-2,1.2250367E-2,-0E0,-3.4992106E-2,-2.1080403E-3,1.884105E-2,1.9305274E-2,-2.2440037E-2,4.8248507E-2,-2.8098075E-2,-2.1804148E-2,-5.2415477E-3,-2.1501346E-2,2.4598159E-2,-2.4889493E-2,-0E0],"split_indices":[1,11,12,12,4,3,0,10,2,9,1,8,8,0,10,0,0,0,0,0,0,0,0,0,0,0,0,0,0,0,0],"split_type":[0,0,0,0,0,0,0,0,0,0,0,0,0,0,0,0,0,0,0,0,0,0,0,0,0,0,0,0,0,0,0],"sum_hessian":[5.24E2,2.04E2,3.2E2,1.56E2,4.8E1,1.91E2,1.29E2,1.42E2,1.4E1,2E1,2.8E1,1.2E1,1.79E2,7.6E1,5.3E1,1.9E1,1.23E2,7E0,7E0,1.1E1,9E0,2E0,2.6E1,7E0,5E0,9.6E1,8.3E1,2.1E1,5.5E1,2.6E1,2.7E1],"tree_param":{"num_deleted":"0","num_feature":"14","num_nodes":"31","size_leaf_vector":"1"}},{"base_weights":[1.0577698E-2,-9.4269715E-2,2.4841546E-1,1.6316536E-1,-1.6948906E-1,-2.168151E-1,4.3080345E-1,-2.0059583E-1,3.4390703E-1,-2.5625694E-1,-2.7634783E-3,-2.0727543E-2,-5.298174E-1,9.840909E-2,3.7099895E-1,-2.1833781E-2,1.1548855E-2,-8.172694E-3,2.4139076E-2,-3.3959884E-3,-1.8727627E-2,-1.7467523E-2,8.115828E-3,1.5983475E-2,-1.3777527E-2,-2.0067308E-3,-4.0417798E-2,-2.7360497E-2,2.1836974E-2],"categories":[],"categories_nodes":[],"categories_segments":[],"categories_sizes":[],"default_left":[0,0,0,0,0,0,0,0,0,0,0,0,0,0,0,0,0,0,0,0,0,0,0,0,0,0,0,0,0],"id":14,"left_children":[1,3,5,7,9,11,13,15,17,19,21,23,25,-1,27,-1,-1,-1,-1,-1,-1,-1,-1,-1,-1,-1,-1,-1,-1],"loss_changes":[1.3243621E1,7.047928E0,1.4227473E1,5.4736614E0,3.8411493E0,2.225584E0,7.552618E0,2.9550757E0,4.348198E0,3.585369E0,6.136587E0,2.8203504E0,1.2169757E0,0E0,7.340727E0,0E0,0E0,0E0,0E0,0E0,0E0,0E0,0E0,0E0,0E0,0E0,0E0,0E0,0E0],"parents":[2147483647,0,0,1,1,2,2,3,3,4,4,5,5,6,6,7,7,8,8,9,9,10,10,11,11,12,12,14,14],"right_children":[2,4,6,8,10,12,14,16,18,20,22,24,26,-1,28,-1,-1,-1,-1,-1,-1,-1,-1,-1,-1,-1,-1,-1,-1],"split_conditions":[1.5428572E0,1.34375E0,6E0,9E-1,2E0,1E1,6.666667E-1,9E0,1.34375E0,5E0,1.68E0,5E0,2E0,9.840909E-2,8.75E-1,-2.1833781E-2,1.1548855E-2,-8.172694E-3,2.4139076E-2,-3.3959884E-3,-1.8727627E-2,-1.7467523E-2,8.115828E-3,1.5983475E-2,-1.3777527E-2,-2.0067308E-3,-4.0417798E-2,-2.7360497E-2,2.1836974E-2],"split_indices":[8,10,4,10,12,6,9,5,9,2,10,1,2,0,9,0,0,0,0,0,0,0,0,0,0,0,0,0,0],"split_type":[0,0,0,0,0,0,0,0,0,0,0,0,0,0,0,0,0,0,0,0,0,0,0,0,0,0,0,0,0],"sum_hessian":[5.22E2,3.6E2,1.62E2,7.8E1,2.82E2,4.4E1,1.18E2,2.4E1,5.4E1,1.81E2,1.01E2,3E1,1.4E1,2E0,1.16E2,1.7E1,7E0,1E1,4.4E1,7.4E1,1.07E2,3.4E1,6.7E1,1.1E1,1.9E1,7E0,7E0,6E0,1.1E2],"tree_param":{"num_deleted":"0","num_feature":"14","num_nodes":"29","size_leaf_vector":"1"}},{"base_weights":[-1.7648507E-2,3.4730825E-1,-9.47912E-2,1.6034868E-1,8.6551654E-1,-2.2484337E-1,1.1108335E-1,2.8583136E-1,-1.870416E-1,-0E0,9.8888814E-1,-3.7597212E-1,-1.3035704E-1,7.5730485E-1,5.3124767E-2,-0E0,4.311123E-2,-1.6292857E-2,2.2068296E-2,-0E0,5.7655085E-2,-1.3902199E-2,-3.693637E-2,4.965023E-3,-1.2475773E-2,7.1774594E-2,3.35944E-3,-4.296901E-3,1.5972162E-2],"categories":[],"categories_nodes":[],"categories_segments":[],"categories_sizes":[],"default_left":[0,0,0,0,0,0,0,0,0,0,0,0,0,0,0,0,0,0,0,0,0,0,0,0,0,0,0,0,0],"id":15,"left_children":[1,3,5,7,9,11,13,15,17,-1,19,21,23,25,27,-1,-1,-1,-1,-1,-1,-1,-1,-1,-1,-1,-1,-1,-1],"loss_changes":[1.4873198E1,7.630844E0,1.2079235E1,3.2521818E0,3.1917706E0,3.3684635E0,5.5151434E0,8.557423E0,1.6267972E0,0E0,3.221817E0,2.2808104E0,5.0174127E0,4.2029934E0,6.181764E0,0E0,0E0,0E0,0E0,0E0,0E0,0E0,0E0,0E0,0E0,0E0,0E0,0E0,0E0],"parents":[2147483647,0,0,1,1,2,2,3,3,4,4,5,5,6,6,7,7,8,8,10,10,11,11,12,12,13,13,14,14],"right_children":[2,4,6,8,10,12,14,16,18,-1,20,22,24,26,28,-1,-1,-1,-1,-1,-1,-1,-1,-1,-1,-1,-1,-1,-1],"split_conditions":[1.08E0,2E0,1.5454545E0,1.8125E0,7E-1,1.2666667E0,1.5714285E0,8E0,9E0,-0E0,4E0,1.2E0,1.4090909E0,7E0,1.1E1,-0E0,4.311123E-2,-1.6292857E-2,2.2068296E-2,-0E0,5.7655085E-2,-1.3902199E-2,-3.693637E-2,4.965023E-3,-1.2475773E-2,7.1774594E-2,3.35944E-3,-4.296901E-3,1.5972162E-2],"split_indices":[7,12,9,9,7,8,9,4,3,0,2,8,8,6,2,0,0,0,0,0,0,0,0,0,0,0,0,0,0],"split_type":[0,0,0,0,0,0,0,0,0,0,0,0,0,0,0,0,0,0,0,0,0,0,0,0,0,0,0,0,0],"sum_hessian":[5.34E2,9E1,4.44E2,6.9E1,2.1E1,2.75E2,1.69E2,5.3E1,1.6E1,2E0,1.9E1,1E2,1.75E2,1.1E1,1.58E2,3.7E1,1.6E1,1.5E1,1E0,3E0,1.6E1,8.3E1,1.7E1,5.7E1,1.18E2,4E0,7E0,1.02E2,5.6E1],"tree_param":{"num_deleted":"0","num_feature":"14","num_nodes":"29","size_leaf_vector":"1"}},{"base_weights":[3.637845E-2,5.2835274E-1,-6.187667E-2,1.4131418E0,3.7393206E-1,4.039903E-2,-2.7458858E-1,-0E0,7.601233E-2,-2.5422573E-1,5.59816E-1,4.772368E-1,-5.7120197E-2,-3.5966402E-1,2.384255E-1,-0E0,-1.6944777E-2,5.785714E-3,3.8872655E-2,-4.583552E-3,5.385824E-2,-1.0489721E-2,2.862673E-3,-3.7037198E-2,-1.309731E-2,3.95882E-2,-8.141136E-3],"categories":[],"categories_nodes":[],"categories_segments":[],"categories_sizes":[],"default_left":[0,0,0,0,0,0,0,0,0,0,0,0,0,0,0,0,0,0,0,0,0,0,0,0,0,0,0],"id":16,"left_children":[1,3,5,7,9,11,13,-1,-1,15,17,19,21,23,25,-1,-1,-1,-1,-1,-1,-1,-1,-1,-1,-1,-1],"loss_changes":[2.5385927E1,9.375401E0,9.572958E0,1.3019142E0,9.568315E0,1.2708531E1,6.469265E0,0E0,0E0,6.4914036E-1,4.91605E0,1.9734665E1,4.2653756E0,3.3424263E0,5.151826E0,0E0,0E0,0E0,0E0,0E0,0E0,0E0,0E0,0E0,0E0,0E0,0E0],"parents":[2147483647,0,0,1,1,2,2,3,3,4,4,5,5,6,6,9,9,10,10,11,11,12,12,13,13,14,14],"right_children":[2,4,6,8,10,12,14,-1,-1,16,18,20,22,24,26,-1,-1,-1,-1,-1,-1,-1,-1,-1,-1,-1,-1],"split_conditions":[1.08E0,1.1428572E0,2.1666667E0,4E0,1.5294118E0,1.3333334E0,1.1E1,-0E0,7.601233E-2,6.666667E-1,1.5142857E0,1.5555556E0,1.5238096E0,1.0769231E0,9E0,-0E0,-1.6944777E-2,5.785714E-3,3.8872655E-2,-4.583552E-3,5.385824E-2,-1.0489721E-2,2.862673E-3,-3.7037198E-2,-1.309731E-2,3.95882E-2,-8.141136E-3],"split_indices":[7,10,7,5,10,10,5,0,0,7,8,7,7,10,6,0,0,0,0,0,0,0,0,0,0,0,0],"split_type":[0,0,0,0,0,0,0,0,0,0,0,0,0,0,0,0,0,0,0,0,0,0,0,0,0,0,0],"sum_hessian":[5.13E2,8.6E1,4.27E2,1E1,7.6E1,2.86E2,1.41E2,1E0,9E0,1.6E1,6E1,5.3E1,2.33E2,1.23E2,1.8E1,2E0,1.4E1,2.2E1,3.8E1,2.7E1,2.6E1,1.03E2,1.3E2,2.1E1,1.02E2,8E0,1E1],"tree_param":{"num_deleted":"0","num_feature":"14","num_nodes":"27","size_leaf_vector":"1"}},{"base_weights":[-1.1218247E-2,3.0881184E-1,-8.739838E-2,3.9720967E-1,-3.1710362E-1,-1.5160738E-1,2.1700397E-1,2.3248428E-2,6.633845E-1,-4.1010723E-2,1.0533881E-1,2.1412598E-1,-1.8600366E-1,-2.0249584E-1,4.1726613E-1,1.2751724E-2,-2.7905896E-2,3.7713747E-2,-4.381578E-3,1.9620923E-2,-1.1597242E-3,-2.0033827E-3,4.1705143E-2,-2.6270205E-2,-6.881095E-3,-0E0,-2.9260352E-2,3.5059616E-2,1.6105112E-3],"categories":[],"categories_nodes":[],"categories_segments":[],"categories_sizes":[],"default_left":[0,0,0,0,0,0,0,0,0,0,0,0,0,0,0,0,0,0,0,0,0,0,0,0,0,0,0,0,0],"id":17,"left_children":[1,3,5,7,9,11,13,15,17,-1,19,21,23,25,27,-1,-1,-1,-1,-1,-1,-1,-1,-1,-1,-1,-1,-1,-1],"loss_changes":[1.2460069E1,5.6636734E0,8.24187E0,7.999901E0,3.2886329E0,4.4660225E0,6.3482237E0,5.2331533E0,4.1446686E0,0E0,6.2272227E-1,5.3355994E0,4.5734816E0,1.9883693E0,4.7537556E0,0E0,0E0,0E0,0E0,0E0,0E0,0E0,0E0,0E0,0E0,0E0,0E0,0E0,0E0],"parents":[2147483647,0,0,1,1,2,2,3,3,4,4,5,5,6,6,7,7,8,8,10,10,11,11,12,12,13,13,14,14],"right_children":[2,4,6,8,10,12,14,16,18,-1,20,22,24,26,28,-1,-1,-1,-1,-1,-1,-1,-1,-1,-1,-1,-1,-1,-1],"split_conditions":[1.125E0,1.2E1,1.1E1,1.1666666E0,1E1,4E0,1.0588236E0,1.0416666E0,2.0714285E0,-4.1010723E-2,8.75E-1,1.0869565E0,1.375E0,1.3E1,2.0769231E0,1.2751724E-2,-2.7905896E-2,3.7713747E-2,-4.381578E-3,1.9620923E-2,-1.1597242E-3,-2.0033827E-3,4.1705143E-2,-2.6270205E-2,-6.881095E-3,-0E0,-2.9260352E-2,3.5059616E-2,1.6105112E-3],"split_indices":[7,4,2,9,5,5,8,9,9,0,7,8,7,4,9,0,0,0,0,0,0,0,0,0,0,0,0,0,0],"split_type":[0,0,0,0,0,0,0,0,0,0,0,0,0,0,0,0,0,0,0,0,0,0,0,0,0,0,0,0,0],"sum_hessian":[5.17E2,9.6E1,4.21E2,8.6E1,1E1,3.51E2,7E1,3.8E1,4.8E1,5E0,5E0,2.7E1,3.24E2,2.1E1,4.9E1,2.9E1,9E0,4.4E1,4E0,3E0,2E0,1.9E1,8E0,3.6E1,2.88E2,1.4E1,7E0,2.6E1,2.3E1],"tree_param":{"num_deleted":"0","num_feature":"14","num_nodes":"29","size_leaf_vector":"1"}},{"base_weights":[1.5635978E-2,1.1059027E-1,-2.4124722E-1,1.7098047E-2,4.8459488E-1,-3.0196682E-1,1.929551E-1,7.2066903E-1,-3.468087E-2,-0E0,6.54628E-1,-4.3846226E-1,-1.4082882E-1,4.7203753E-2,-4.783586E-3,4.8912894E-2,-1.0366426E-2,-1.8905891E-2,5.95054E-4,-1.5730212E-2,8.928033E-3,4.5638274E-2,9.016883E-3,-2.4367692E-2,-0E0,1.357712E-2,-1.1652841E-2,-1.5688222E-2,1.2326302E-2],"categories":[],"categories_nodes":[],"categories_segments":[],"categories_sizes":[],"default_left":[0,0,0,0,0,0,0,0,0,0,0,0,0,0,0,0,0,0,0,0,0,0,0,0,0,0,0,0,0],"id":18,"left_children":[1,3,5,7,9,11,13,15,17,19,21,23,25,-1,27,-1,-1,-1,-1,-1,-1,-1,-1,-1,-1,-1,-1,-1,-1],"loss_changes":[1.3093326E1,1.3420038E1,3.9797297E0,1.2472199E1,6.441429E0,2.1543922E0,3.3967361E0,6.692644E0,5.1803546E0,1.303611E0,5.699833E0,1.7772636E0,2.509517E0,0E0,1.2315382E0,0E0,0E0,0E0,0E0,0E0,0E0,0E0,0E0,0E0,0E0,0E0,0E0,0E0,0E0],"parents":[2147483647,0,0,1,1,2,2,3,3,4,4,5,5,6,6,7,7,8,8,9,9,10,10,11,11,12,12,14,14],"right_children":[2,4,6,8,10,12,14,16,18,20,22,24,26,-1,28,-1,-1,-1,-1,-1,-1,-1,-1,-1,-1,-1,-1,-1,-1],"split_conditions":[2.1666667E0,1.1E1,1.1E1,1.0588236E0,1E0,1.9E1,1.1666666E0,1E1,9E-1,4E0,2.2E0,1.5E1,2.1E1,4.7203753E-2,2.4E0,4.8912894E-2,-1.0366426E-2,-1.8905891E-2,5.95054E-4,-1.5730212E-2,8.928033E-3,4.5638274E-2,9.016883E-3,-2.4367692E-2,-0E0,1.357712E-2,-1.1652841E-2,-1.5688222E-2,1.2326302E-2],"split_indices":[7,2,5,8,13,0,8,6,9,1,9,1,0,0,7,0,0,0,0,0,0,0,0,0,0,0,0,0,0],"split_type":[0,0,0,0,0,0,0,0,0,0,0,0,0,0,0,0,0,0,0,0,0,0,0,0,0,0,0,0,0],"sum_hessian":[5.39E2,3.97E2,1.42E2,3.21E2,7.6E1,1.27E2,1.5E1,2.2E1,2.99E2,2E1,5.6E1,6.4E1,6.3E1,3E0,1.2E1,1.8E1,4E0,3.7E1,2.62E2,7E0,1.3E1,3.4E1,2.2E1,5.9E1,5E0,9E0,5.4E1,7E0,5E0],"tree_param":{"num_deleted":"0","num_feature":"14","num_nodes":"29","size_leaf_vector":"1"}},{"base_weights":[-1.1741684E-2,-5.6080155E-2,5.2647376E-1,-3.0396792E-1,1.18412655E-2,-0E0,1.0188777E0,-3.461788E-1,2.0037423E-1,-5.7169918E-2,2.5691617E-1,4.2298466E-1,-1.9112143E-1,-0E0,1.1873499E0,-1.921846E-2,1.2518542E-2,2.9748693E-2,-0E0,-5.6711757E-3,1.2137056E-2,1.7876303E-2,-7.395373E-3,-0E0,3.8274053E-2,-2.323747E-2,1.1940615E-3,-0E0,6.356017E-2],"categories":[],"categories_nodes":[],"categories_segments":[],"categories_sizes":[],"default_left":[0,0,0,0,0,0,0,0,0,0,0,0,0,0,0,0,0,0,0,0,0,0,0,0,0,0,0,0,0],"id":19,"left_children":[1,3,5,7,9,11,13,15,17,19,21,23,25,-1,27,-1,-1,-1,-1,-1,-1,-1,-1,-1,-1,-1,-1,-1,-1],"loss_changes":[1.2138106E1,8.539184E0,9.571958E0,2.559679E0,6.6909657E0,1.8715174E0,4.428316E0,2.613553E0,9.378549E-1,4.9142547E0,3.8527489E0,1.2949554E0,1.3105621E0,0E0,1.9918098E0,0E0,0E0,0E0,0E0,0E0,0E0,0E0,0E0,0E0,0E0,0E0,0E0,0E0,0E0],"parents":[2147483647,0,0,1,1,2,2,3,3,4,4,5,5,6,6,7,7,8,8,9,9,10,10,11,11,12,12,14,14],"right_children":[2,4,6,8,10,12,14,16,18,20,22,24,26,-1,28,-1,-1,-1,-1,-1,-1,-1,-1,-1,-1,-1,-1,-1,-1],"split_conditions":[2.0769231E0,1.0833334E0,1E0,1E1,1.5428572E0,2.4E0,4E0,2.8E0,6E0,2E0,6E0,8E0,5E0,-0E0,7E-1,-1.921846E-2,1.2518542E-2,2.9748693E-2,-0E0,-5.6711757E-3,1.2137056E-2,1.7876303E-2,-7.395373E-3,-0E0,3.8274053E-2,-2.323747E-2,1.1940615E-3,-0E0,6.356017E-2],"split_indices":[8,9,12,2,8,8,2,7,3,13,12,6,3,0,7,0,0,0,0,0,0,0,0,0,0,0,0,0,0],"split_type":[0,0,0,0,0,0,0,0,0,0,0,0,0,0,0,0,0,0,0,0,0,0,0,0,0,0,0,0,0],"sum_hessian":[5.25E2,4.88E2,3.7E1,1.07E2,3.81E2,1.9E1,1.8E1,1.01E2,6E0,2.95E2,8.6E1,6E0,1.3E1,2E0,1.6E1,9.7E1,4E0,2E0,4E0,2.52E2,4.3E1,7.1E1,1.5E1,3E0,3E0,7E0,6E0,1E0,1.5E1],"tree_param":{"num_deleted":"0","num_feature":"14","num_nodes":"29","size_leaf_vector":"1"}},{"base_weights":[-1.0151798E-2,-1.9880149E-1,9.043235E-2,-5.2335616E-2,-4.618508E-1,-1.6485095E-2,2.9517648E-1,2.6262397E-1,-2.0332319E-1,-5.379585E-1,1.0097393E-1,3.9875507E-2,-4.859501E-2,4.3288043E-1,-0E0,-0E0,3.399936E-2,9.981104E-3,-1.6608888E-2,-2.9866874E-2,-0E0,-1.4696817E-2,2.5328016E-2,-4.988413E-3,2.176377E-2,3.0434579E-2,-7.885656E-3,-2.0474093E-2,7.7570262E-3],"categories":[],"categories_nodes":[],"categories_segments":[],"categories_sizes":[],"default_left":[0,0,0,0,0,0,0,0,0,0,0,0,0,0,0,0,0,0,0,0,0,0,0,0,0,0,0,0,0],"id":20,"left_children":[1,3,5,7,9,11,13,15,17,19,21,-1,23,25,27,-1,-1,-1,-1,-1,-1,-1,-1,-1,-1,-1,-1,-1,-1],"loss_changes":[1.0315515E1,6.789093E0,7.893015E0,6.036501E0,3.3241768E0,5.2293196E0,5.348137E0,4.442561E0,4.8270597E0,1.870182E0,1.6372454E0,0E0,5.189481E0,9.4726925E0,2.7578285E0,0E0,0E0,0E0,0E0,0E0,0E0,0E0,0E0,0E0,0E0,0E0,0E0,0E0,0E0],"parents":[2147483647,0,0,1,1,2,2,3,3,4,4,5,5,6,6,7,7,8,8,9,9,10,10,12,12,13,13,14,14],"right_children":[2,4,6,8,10,12,14,16,18,20,22,-1,24,26,28,-1,-1,-1,-1,-1,-1,-1,-1,-1,-1,-1,-1,-1,-1],"split_conditions":[1.2916666E0,1.0588236E0,1.6086956E0,2.3333333E0,1.1E1,1.3043479E0,2.0769231E0,7E0,9E0,1.2E1,1.625E0,3.9875507E-2,2.4444444E0,4E0,1.4090909E0,-0E0,3.399936E-2,9.981104E-3,-1.6608888E-2,-2.9866874E-2,-0E0,-1.4696817E-2,2.5328016E-2,-4.988413E-3,2.176377E-2,3.0434579E-2,-7.885656E-3,-2.0474093E-2,7.7570262E-3],"split_indices":[8,8,9,7,2,8,9,3,3,4,7,0,8,12,7,0,0,0,0,0,0,0,0,0,0,0,0,0,0],"split_type":[0,0,0,0,0,0,0,0,0,0,0,0,0,0,0,0,0,0,0,0,0,0,0,0,0,0,0,0,0],"sum_hessian":[5.35E2,1.89E2,3.46E2,1.25E2,6.4E1,2.25E2,1.21E2,3.8E1,8.7E1,5.8E1,6E0,6E0,2.19E2,8.4E1,3.7E1,2.4E1,1.4E1,1.9E1,6.8E1,5.2E1,6E0,2E0,4E0,2.01E2,1.8E1,6.6E1,1.8E1,1.1E1,2.6E1],"tree_param":{"num_deleted":"0","num_feature":"14","num_nodes":"29","size_leaf_vector":"1"}},{"base_weights":[1.49496365E-2,3.8927466E-1,-6.0403217E-2,1.3252103E0,2.5423044E-1,-1.3715743E-1,2.2115225E-1,1.557398E0,-0E0,-8.063485E-3,4.9034363E-1,-1.1533546E-1,-6.4734954E-1,3.6337435E-1,-2.1373905E-1,-0E0,8.589546E-2,-2.237224E-2,7.499215E-3,-1.6551306E-2,3.3689495E-2,-3.8757673E-4,-1.16488105E-2,-4.0558722E-2,-0E0,-1.12386675E-4,3.0521234E-2,-3.6436006E-2,-0E0],"categories":[],"categories_nodes":[],"categories_segments":[],"categories_sizes":[],"default_left":[0,0,0,0,0,0,0,0,0,0,0,0,0,0,0,0,0,0,0,0,0,0,0,0,0,0,0,0,0],"id":21,"left_children":[1,3,5,7,9,11,13,15,-1,17,19,21,23,25,27,-1,-1,-1,-1,-1,-1,-1,-1,-1,-1,-1,-1,-1,-1],"loss_changes":[1.5694351E1,9.732914E0,9.718676E0,4.6022243E0,5.7213855E0,3.1166458E0,6.1110716E0,2.0431595E0,0E0,3.141133E0,7.683819E0,4.154611E0,1.670774E0,7.2492743E0,2.4238164E0,0E0,0E0,0E0,0E0,0E0,0E0,0E0,0E0,0E0,0E0,0E0,0E0,0E0,0E0],"parents":[2147483647,0,0,1,1,2,2,3,3,4,4,5,5,6,6,7,7,9,9,10,10,11,11,12,12,13,13,14,14],"right_children":[2,4,6,8,10,12,14,16,-1,18,20,22,24,26,28,-1,-1,-1,-1,-1,-1,-1,-1,-1,-1,-1,-1,-1,-1],"split_conditions":[1.1E0,1.1111112E0,1.1E1,3.2E0,1.6086956E0,1.8518518E0,1E1,7.8571427E-1,-0E0,1.0833334E0,1.3571428E0,1.875E0,9E0,1.53125E0,9E0,-0E0,8.589546E-2,-2.237224E-2,7.499215E-3,-1.6551306E-2,3.3689495E-2,-3.8757673E-4,-1.16488105E-2,-4.0558722E-2,-0E0,-1.12386675E-4,3.0521234E-2,-3.6436006E-2,-0E0],"split_indices":[7,10,4,8,8,8,1,8,0,9,10,7,4,7,3,0,0,0,0,0,0,0,0,0,0,0,0,0,0],"split_type":[0,0,0,0,0,0,0,0,0,0,0,0,0,0,0,0,0,0,0,0,0,0,0,0,0,0,0,0,0],"sum_hessian":[5.42E2,9.2E1,4.5E2,9E0,8.3E1,3.57E2,9.3E1,8E0,1E0,3.8E1,4.5E1,3.46E2,1.1E1,7.2E1,2.1E1,1E0,7E0,1.1E1,2.7E1,7E0,3.8E1,1.86E2,1.6E2,9E0,2E0,2.8E1,4.4E1,5E0,1.6E1],"tree_param":{"num_deleted":"0","num_feature":"14","num_nodes":"29","size_leaf_vector":"1"}},{"base_weights":[6.225294E-3,-8.685894E-2,1.4732392E-1,4.50566E-2,-2.5782612E-1,9.371807E-2,8.6096835E-1,-1.7310685E-2,3.2968712E-1,-2.949883E-1,2.665075E-2,2.7570534E-1,-1.6388232E-1,1.042157E0,-0E0,2.6682088E-2,-3.8544845E-3,4.6104427E-2,6.0676173E-3,3.7718993E-3,-1.5959738E-2,1.3156387E-2,-5.667667E-3,-7.416432E-3,2.379222E-2,-1.1894453E-2,2.023726E-2,6.0710877E-2,-0E0],"categories":[],"categories_nodes":[],"categories_segments":[],"categories_sizes":[],"default_left":[0,0,0,0,0,0,0,0,0,0,0,0,0,0,0,0,0,0,0,0,0,0,0,0,0,0,0,0,0],"id":22,"left_children":[1,3,5,7,9,11,13,15,17,19,21,23,25,27,-1,-1,-1,-1,-1,-1,-1,-1,-1,-1,-1,-1,-1,-1,-1],"loss_changes":[7.0078754E0,7.323186E0,7.1300907E0,3.4363487E0,1.7654638E0,9.672795E0,2.482952E0,4.2984476E0,3.0466268E0,1.423131E0,6.745764E-1,1.0744577E1,3.4493587E0,2.9903555E0,0E0,0E0,0E0,0E0,0E0,0E0,0E0,0E0,0E0,0E0,0E0,0E0,0E0,0E0,0E0],"parents":[2147483647,0,0,1,1,2,2,3,3,4,4,5,5,6,6,7,7,8,8,9,9,10,10,11,11,12,12,13,13],"right_children":[2,4,6,8,10,12,14,16,18,20,22,24,26,28,-1,-1,-1,-1,-1,-1,-1,-1,-1,-1,-1,-1,-1,-1,-1],"split_conditions":[3E0,1.8666667E0,3.6E1,1.6086956E0,3.2E1,2.7E1,1.1E1,6.666667E-1,6E0,6E0,1E1,1.2E1,2.5E0,2.3076923E0,-0E0,2.6682088E-2,-3.8544845E-3,4.6104427E-2,6.0676173E-3,3.7718993E-3,-1.5959738E-2,1.3156387E-2,-5.667667E-3,-7.416432E-3,2.379222E-2,-1.1894453E-2,2.023726E-2,6.0710877E-2,-0E0],"split_indices":[12,7,0,7,0,0,1,9,3,3,3,0,8,9,0,0,0,0,0,0,0,0,0,0,0,0,0,0,0],"split_type":[0,0,0,0,0,0,0,0,0,0,0,0,0,0,0,0,0,0,0,0,0,0,0,0,0,0,0,0,0],"sum_hessian":[5.26E2,3.13E2,2.13E2,1.74E2,1.39E2,2.01E2,1.2E1,1.41E2,3.3E1,1.26E2,1.3E1,1.2E2,8.1E1,1E1,2E0,1.1E1,1.3E2,6E0,2.7E1,5E0,1.21E2,7E0,6E0,3.7E1,8.3E1,7.4E1,7E0,9E0,1E0],"tree_param":{"num_deleted":"0","num_feature":"14","num_nodes":"29","size_leaf_vector":"1"}},{"base_weights":[-4.0554404E-3,-6.709173E-2,2.7031732E-1,-1.4300677E-2,-3.3265775E-1,4.0863287E-1,-2.0704305E-1,5.873554E-1,-5.889393E-2,-1.8555589E-1,-5.724643E-1,-0E0,5.49144E-1,-2.556701E-2,3.730317E-2,-0E0,3.9749596E-2,1.8413902E-3,-1.2965909E-2,-2.3169402E-2,-0E0,-3.3797443E-2,1.142713E-3,-2.2627085E-2,9.838344E-3,-3.4383384E-3,3.21277E-2,-0E0,1.1180533E-2],"categories":[],"categories_nodes":[],"categories_segments":[],"categories_sizes":[],"default_left":[0,0,0,0,0,0,0,0,0,0,0,0,0,0,0,0,0,0,0,0,0,0,0,0,0,0,0,0,0],"id":23,"left_children":[1,3,5,7,9,11,13,15,17,19,21,23,25,-1,27,-1,-1,-1,-1,-1,-1,-1,-1,-1,-1,-1,-1,-1,-1],"loss_changes":[9.18946E0,5.8775787E0,6.8320937E0,9.598016E0,1.5695996E0,4.231657E0,2.1012568E0,2.6080484E0,6.999512E0,2.0878448E0,2.1240149E0,2.0087118E0,3.958912E0,0E0,2.5900695E-1,0E0,0E0,0E0,0E0,0E0,0E0,0E0,0E0,0E0,0E0,0E0,0E0,0E0,0E0],"parents":[2147483647,0,0,1,1,2,2,3,3,4,4,5,5,6,6,7,7,8,8,9,9,10,10,11,11,12,12,14,14],"right_children":[2,4,6,8,10,12,14,16,18,20,22,24,26,-1,28,-1,-1,-1,-1,-1,-1,-1,-1,-1,-1,-1,-1,-1,-1],"split_conditions":[1.1E1,4E0,2.3333333E0,4E0,9E0,1E0,2E0,1.6785715E0,8E0,1.5E1,1.1E1,1.6363636E0,5E0,-2.556701E-2,6E0,-0E0,3.9749596E-2,1.8413902E-3,-1.2965909E-2,-2.3169402E-2,-0E0,-3.3797443E-2,1.142713E-3,-2.2627085E-2,9.838344E-3,-3.4383384E-3,3.21277E-2,-0E0,1.1180533E-2],"split_indices":[2,11,7,5,4,13,11,10,1,0,5,10,5,0,5,0,0,0,0,0,0,0,0,0,0,0,0,0,0],"split_type":[0,0,0,0,0,0,0,0,0,0,0,0,0,0,0,0,0,0,0,0,0,0,0,0,0,0,0,0,0],"sum_hessian":[5.4E2,4.43E2,9.7E1,3.74E2,6.9E1,7.7E1,2E1,2.3E1,3.51E2,4.7E1,2.2E1,2.1E1,5.6E1,1E1,1E1,7E0,1.6E1,2.35E2,1.16E2,1.6E1,3.1E1,2E1,2E0,5E0,1.6E1,6E0,5E1,6E0,4E0],"tree_param":{"num_deleted":"0","num_feature":"14","num_nodes":"29","size_leaf_vector":"1"}},{"base_weights":[3.418828E-2,2.624838E-1,-4.1632187E-2,1.2151501E0,1.4033613E-1,-1.6360131E-1,5.606159E-2,-0E0,1.4848443E0,-4.096758E-2,3.562385E-1,1.5561822E-1,-2.0145768E-1,1.8458563E-1,-1.6117421E-1,8.713002E-2,-9.586978E-3,1.50438715E-2,-7.988518E-3,2.9853819E-2,-1.603478E-2,-9.508145E-3,1.9837512E-2,-1.53606385E-2,-2.6620969E-3,3.6899E-3,4.5306336E-2,-1.6636087E-2,1.391533E-2],"categories":[],"categories_nodes":[],"categories_segments":[],"categories_sizes":[],"default_left":[0,0,0,0,0,0,0,0,0,0,0,0,0,0,0,0,0,0,0,0,0,0,0,0,0,0,0,0,0],"id":24,"left_children":[1,3,5,7,9,11,13,-1,15,17,19,21,23,25,27,-1,-1,-1,-1,-1,-1,-1,-1,-1,-1,-1,-1,-1,-1],"loss_changes":[9.541085E0,1.4389041E1,4.9054203E0,6.148983E0,5.210578E0,2.310369E0,6.196482E0,0E0,7.4539165E0,2.631707E0,1.0263966E1,1.7788887E0,2.240501E0,1.0230973E1,6.1869636E0,0E0,0E0,0E0,0E0,0E0,0E0,0E0,0E0,0E0,0E0,0E0,0E0,0E0,0E0],"parents":[2147483647,0,0,1,1,2,2,3,3,4,4,5,5,6,6,8,8,9,9,10,10,11,11,12,12,13,13,14,14],"right_children":[2,4,6,8,10,12,14,-1,16,18,20,22,24,26,28,-1,-1,-1,-1,-1,-1,-1,-1,-1,-1,-1,-1,-1,-1],"split_conditions":[6E0,1.1111112E0,1E0,5E0,1.5555556E0,4E0,2.7E1,-0E0,2E0,6E0,1.1E1,6E0,8E0,1.75E0,3.4E1,8.713002E-2,-9.586978E-3,1.50438715E-2,-7.988518E-3,2.9853819E-2,-1.603478E-2,-9.508145E-3,1.9837512E-2,-1.53606385E-2,-2.6620969E-3,3.6899E-3,4.5306336E-2,-1.6636087E-2,1.391533E-2],"split_indices":[3,10,12,4,8,5,0,0,13,6,6,0,5,8,0,0,0,0,0,0,0,0,0,0,0,0,0,0,0],"split_type":[0,0,0,0,0,0,0,0,0,0,0,0,0,0,0,0,0,0,0,0,0,0,0,0,0,0,0,0,0],"sum_hessian":[5.36E2,1.36E2,4E2,1.3E1,1.23E2,1.82E2,2.18E2,2E0,1.1E1,6.5E1,5.8E1,1.6E1,1.66E2,1.4E2,7.8E1,1E1,1E0,1.4E1,5.1E1,4.4E1,1.4E1,5E0,1.1E1,9.2E1,7.4E1,1.24E2,1.6E1,5.8E1,2E1],"tree_param":{"num_deleted":"0","num_feature":"14","num_nodes":"29","size_leaf_vector":"1"}},{"base_weights":[-0E0,-6.0356166E-2,2.8246093E-1,-9.605999E-3,-2.956297E-1,3.378265E-1,-3.9973527E-1,5.147774E-1,-4.448462E-2,-5.1033163E-1,-7.718723E-2,3.952606E-1,-2.4349646E-1,-2.6993472E-2,-0E0,-0E0,4.1903123E-2,2.91555E-3,-1.2528487E-2,-3.4665372E-2,-0E0,-2.2021974E-2,-0E0,2.575085E-2,-0E0,5.6983973E-3,-2.3931872E-2],"categories":[],"categories_nodes":[],"categories_segments":[],"categories_sizes":[],"default_left":[0,0,0,0,0,0,0,0,0,0,0,0,0,0,0,0,0,0,0,0,0,0,0,0,0,0,0],"id":25,"left_children":[1,3,5,7,9,11,13,15,17,19,21,23,25,-1,-1,-1,-1,-1,-1,-1,-1,-1,-1,-1,-1,-1,-1],"loss_changes":[9.242286E0,5.009851E0,3.7477055E0,6.358706E0,2.8943462E0,3.3177252E0,2.7294147E-1,3.0819492E0,7.6605787E0,3.011654E0,1.5956243E0,4.437106E0,1.0769024E0,0E0,0E0,0E0,0E0,0E0,0E0,0E0,0E0,0E0,0E0,0E0,0E0,0E0,0E0],"parents":[2147483647,0,0,1,1,2,2,3,3,4,4,5,5,6,6,7,7,8,8,9,9,10,10,11,11,12,12],"right_children":[2,4,6,8,10,12,14,16,18,20,22,24,26,-1,-1,-1,-1,-1,-1,-1,-1,-1,-1,-1,-1,-1,-1],"split_conditions":[1.1E1,4E0,2.4285715E0,4E0,9E0,1.95E0,2.75E0,9.285714E-1,8E0,1.7826087E0,1.1935484E0,1E1,2E0,-2.6993472E-2,-0E0,-0E0,4.1903123E-2,2.91555E-3,-1.2528487E-2,-3.4665372E-2,-0E0,-2.2021974E-2,-0E0,2.575085E-2,-0E0,5.6983973E-3,-2.3931872E-2],"split_indices":[2,11,9,5,1,10,9,8,1,10,9,1,1,0,0,0,0,0,0,0,0,0,0,0,0,0,0],"split_type":[0,0,0,0,0,0,0,0,0,0,0,0,0,0,0,0,0,0,0,0,0,0,0,0,0,0,0],"sum_hessian":[5.38E2,4.44E2,9.4E1,3.7E2,7.4E1,8.9E1,5E0,2E1,3.5E2,3.4E1,4E1,8.3E1,6E0,3E0,2E0,9E0,1.1E1,2.31E2,1.19E2,2.4E1,1E1,8E0,3.2E1,6.5E1,1.8E1,1E0,5E0],"tree_param":{"num_deleted":"0","num_feature":"14","num_nodes":"27","size_leaf_vector":"1"}},{"base_weights":[-1.6503077E-2,3.1346276E-1,-7.710638E-2,9.618734E-1,1.9434758E-1,-1.4431277E-1,2.4009123E-1,5.678562E-2,7.936876E-2,-0E0,4.5007324E-1,-2.7467254E-1,-5.2838326E-2,-3.80101E-1,3.820197E-1,1.861615E-2,-4.3763844E-3,2.0536773E-2,-6.402157E-3,-0E0,3.801924E-2,-6.883318E-3,-2.5697095E-2,-4.5909416E-3,3.6724173E-2,-1.9805765E-2,-0E0,3.6463033E-2,8.058691E-3],"categories":[],"categories_nodes":[],"categories_segments":[],"categories_sizes":[],"default_left":[0,0,0,0,0,0,0,0,0,0,0,0,0,0,0,0,0,0,0,0,0,0,0,0,0,0,0,0,0],"id":26,"left_children":[1,3,5,7,9,11,13,15,-1,17,19,21,23,25,27,-1,-1,-1,-1,-1,-1,-1,-1,-1,-1,-1,-1,-1,-1],"loss_changes":[1.0208348E1,4.626363E0,9.410597E0,4.165038E0,3.7557433E0,4.0568542E0,6.8654594E0,6.296637E-1,0E0,1.9668195E0,4.315596E0,4.0775156E0,6.3177547E0,1.0905027E-2,3.802866E0,0E0,0E0,0E0,0E0,0E0,0E0,0E0,0E0,0E0,0E0,0E0,0E0,0E0,0E0],"parents":[2147483647,0,0,1,1,2,2,3,3,4,4,5,5,6,6,7,7,9,9,10,10,11,11,12,12,13,13,14,14],"right_children":[2,4,6,8,10,12,14,16,-1,18,20,22,24,26,28,-1,-1,-1,-1,-1,-1,-1,-1,-1,-1,-1,-1,-1,-1],"split_conditions":[1.08E0,1.1111112E0,1.1E1,8.148148E-1,9.230769E-1,7E0,8.666667E-1,1.1E1,7.936876E-2,1.03125E0,1.5142857E0,6E0,2.625E0,3.1E1,1.2E1,1.861615E-2,-4.3763844E-3,2.0536773E-2,-6.402157E-3,-0E0,3.801924E-2,-6.883318E-3,-2.5697095E-2,-4.5909416E-3,3.6724173E-2,-1.9805765E-2,-0E0,3.6463033E-2,8.058691E-3],"split_indices":[7,10,2,10,7,5,8,5,0,8,8,5,7,0,2,0,0,0,0,0,0,0,0,0,0,0,0,0,0],"split_type":[0,0,0,0,0,0,0,0,0,0,0,0,0,0,0,0,0,0,0,0,0,0,0,0,0,0,0,0,0],"sum_hessian":[5.19E2,7.7E1,4.42E2,9E0,6.8E1,3.68E2,7.4E1,5E0,4E0,3.8E1,3E1,1.46E2,2.22E2,1.2E1,6.2E1,3E0,2E0,7E0,3.1E1,1.3E1,1.7E1,9.7E1,4.9E1,2.14E2,8E0,1.1E1,1E0,2.1E1,4.1E1],"tree_param":{"num_deleted":"0","num_feature":"14","num_nodes":"29","size_leaf_vector":"1"}},{"base_weights":[-1.0476167E-2,-9.8096624E-2,1.3162097E-1,-2.073568E-1,1.8644208E-2,-4.449147E-1,1.6964005E-1,-0E0,-2.8492838E-1,6.2399757E-1,-2.0375531E-2,-5.750636E-1,-0E0,4.2133144E-1,-0E0,-1.1497826E-2,2.0753998E-2,5.580521E-3,-1.6959904E-2,5.0866928E-2,-0E0,-1.738903E-2,3.975068E-3,-0E0,-3.2886893E-2,4.1205265E-2,-0E0,9.205728E-3,-1.804643E-2],"categories":[],"categories_nodes":[],"categories_segments":[],"categories_sizes":[],"default_left":[0,0,0,0,0,0,0,0,0,0,0,0,0,0,0,0,0,0,0,0,0,0,0,0,0,0,0,0,0],"id":27,"left_children":[1,3,5,7,9,11,13,15,17,19,21,23,-1,25,27,-1,-1,-1,-1,-1,-1,-1,-1,-1,-1,-1,-1,-1,-1],"loss_changes":[6.8150063E0,4.588652E0,4.3423653E0,2.6664276E0,4.484683E0,1.1959157E0,7.9542446E0,5.17039E0,3.0712204E0,3.2845426E0,5.3292336E0,6.3755107E-1,0E0,1.2566963E1,7.9422417E0,0E0,0E0,0E0,0E0,0E0,0E0,0E0,0E0,0E0,0E0,0E0,0E0,0E0,0E0],"parents":[2147483647,0,0,1,1,2,2,3,3,4,4,5,5,6,6,7,7,8,8,9,9,10,10,11,11,13,13,14,14],"right_children":[2,4,6,8,10,12,14,16,18,20,22,24,-1,26,28,-1,-1,-1,-1,-1,-1,-1,-1,-1,-1,-1,-1,-1,-1],"split_conditions":[1.5454545E0,1E0,7.6E-1,6E0,8.75E-1,2.9E1,1.34375E0,5E0,4E0,1.4E1,1.36E0,3E0,-0E0,2.0769231E0,1.85E0,-1.1497826E-2,2.0753998E-2,5.580521E-3,-1.6959904E-2,5.0866928E-2,-0E0,-1.738903E-2,3.975068E-3,-0E0,-3.2886893E-2,4.1205265E-2,-0E0,9.205728E-3,-1.804643E-2],"split_indices":[9,12,10,3,7,0,10,3,5,5,7,0,0,9,9,0,0,0,0,0,0,0,0,0,0,0,0,0,0],"split_type":[0,0,0,0,0,0,0,0,0,0,0,0,0,0,0,0,0,0,0,0,0,0,0,0,0,0,0,0,0],"sum_hessian":[5.47E2,3.43E2,2.04E2,1.81E2,1.62E2,1E1,1.94E2,5.3E1,1.28E2,1E1,1.52E2,9E0,1E0,7.5E1,1.19E2,3.6E1,1.7E1,1.3E1,1.15E2,6E0,4E0,3.7E1,1.15E2,1E0,8E0,3.7E1,3.8E1,8.1E1,3.8E1],"tree_param":{"num_deleted":"0","num_feature":"14","num_nodes":"29","size_leaf_vector":"1"}},{"base_weights":[4.3586483E-3,3.1787524E-1,-7.044636E-2,1.2118025E0,1.9213217E-1,1.3229774E-1,-1.231006E-1,-0E0,6.5555714E-2,2.734571E-1,-4.648658E-1,-2.1338335E-1,3.3048055E-1,-7.24208E-2,-3.8400298E-1,-0E0,2.4543E-2,-0E0,-3.30378E-2,-1.902735E-2,3.0996522E-2,2.9927522E-2,-2.9073795E-3,-1.3379303E-2,-9.1568363E-4,1.0934734E-2,-2.3135765E-2],"categories":[],"categories_nodes":[],"categories_segments":[],"categories_sizes":[],"default_left":[0,0,0,0,0,0,0,0,0,0,0,0,0,0,0,0,0,0,0,0,0,0,0,0,0,0,0],"id":28,"left_children":[1,3,5,7,9,11,13,-1,-1,15,17,19,21,23,25,-1,-1,-1,-1,-1,-1,-1,-1,-1,-1,-1,-1],"loss_changes":[1.25350065E1,9.880756E0,4.5042114E0,1.1623669E0,4.9950075E0,5.943297E0,3.9776716E0,0E0,0E0,5.292176E0,1.2215366E0,4.2238293E0,6.3745728E0,2.7532606E0,2.8389544E0,0E0,0E0,0E0,0E0,0E0,0E0,0E0,0E0,0E0,0E0,0E0,0E0],"parents":[2147483647,0,0,1,1,2,2,3,3,4,4,5,5,6,6,9,9,10,10,11,11,12,12,13,13,14,14],"right_children":[2,4,6,8,10,12,14,-1,-1,16,18,20,22,24,26,-1,-1,-1,-1,-1,-1,-1,-1,-1,-1,-1,-1],"split_conditions":[1.1071428E0,1.1111112E0,1.3333334E0,4E0,1.9714285E0,1E0,1.7407408E0,-0E0,6.5555714E-2,1.1481482E0,1.0952381E0,2E0,2.0454545E0,1.6470588E0,7E0,-0E0,2.4543E-2,-0E0,-3.30378E-2,-1.902735E-2,3.0996522E-2,2.9927522E-2,-2.9073795E-3,-1.3379303E-2,-9.1568363E-4,1.0934734E-2,-2.3135765E-2],"split_indices":[7,10,10,5,9,10,9,0,0,9,8,11,7,10,4,0,0,0,0,0,0,0,0,0,0,0,0],"split_type":[0,0,0,0,0,0,0,0,0,0,0,0,0,0,0,0,0,0,0,0,0,0,0,0,0,0,0],"sum_hessian":[5.21E2,1.02E2,4.19E2,1E1,9.2E1,8.2E1,3.37E2,1E0,9E0,8.4E1,8E0,2.8E1,5.4E1,2.87E2,5E1,3.7E1,4.7E1,2E0,6E0,2.5E1,3E0,3.3E1,2.1E1,5.7E1,2.3E2,4E0,4.6E1],"tree_param":{"num_deleted":"0","num_feature":"14","num_nodes":"27","size_leaf_vector":"1"}},{"base_weights":[-5.9973197E-3,-3.9123658E-2,2.90227E-1,1.2235838E-1,-8.1877425E-2,1.3101101E-1,9.3617463E-1,-1.8207736E-1,2.2934768E-1,2.6087973E-2,-1.555161E-1,3.597228E-1,-1.5317166E-1,5.3908195E-2,7.401099E-2,-1.6048664E-2,2.3172965E-2,-5.9738564E-3,2.1467218E-2,-0E0,4.7987077E-2,-1.2549402E-2,2.3214319E-3,2.06321E-3,3.7193004E-2,-2.2860438E-2,2.286911E-4,1.1319197E-2,-0E0],"categories":[],"categories_nodes":[],"categories_segments":[],"categories_sizes":[],"default_left":[0,0,0,0,0,0,0,0,0,0,0,0,0,0,0,0,0,0,0,0,0,0,0,0,0,0,0,0,0],"id":29,"left_children":[1,3,5,7,9,11,13,15,17,19,21,23,25,27,-1,-1,-1,-1,-1,-1,-1,-1,-1,-1,-1,-1,-1,-1,-1],"loss_changes":[4.971633E0,3.298806E0,3.942522E0,3.2530456E0,3.2083542E0,3.116523E0,2.426117E0,2.1877177E0,5.584215E0,4.041178E0,4.7624927E0,2.4106271E0,1.3430406E0,1.6339037E-1,0E0,0E0,0E0,0E0,0E0,0E0,0E0,0E0,0E0,0E0,0E0,0E0,0E0,0E0,0E0],"parents":[2147483647,0,0,1,1,2,2,3,3,4,4,5,5,6,6,7,7,8,8,9,9,10,10,11,11,12,12,13,13],"right_children":[2,4,6,8,10,12,14,16,18,20,22,24,26,28,-1,-1,-1,-1,-1,-1,-1,-1,-1,-1,-1,-1,-1,-1,-1],"split_conditions":[1.3E1,1.2727273E0,1.2E1,9.166667E-1,6E0,7E0,1.2E1,3E0,1.2E1,2.3333333E0,1E1,5E0,1.6875E0,1E0,7.401099E-2,-1.6048664E-2,2.3172965E-2,-5.9738564E-3,2.1467218E-2,-0E0,4.7987077E-2,-1.2549402E-2,2.3214319E-3,2.06321E-3,3.7193004E-2,-2.2860438E-2,2.286911E-4,1.1319197E-2,-0E0],"split_indices":[5,10,4,8,2,2,2,13,0,8,2,2,8,13,0,0,0,0,0,0,0,0,0,0,0,0,0,0,0],"split_type":[0,0,0,0,0,0,0,0,0,0,0,0,0,0,0,0,0,0,0,0,0,0,0,0,0,0,0,0,0],"sum_hessian":[5.29E2,4.8E2,4.9E1,9.5E1,3.85E2,4.2E1,7E0,2.2E1,7.3E1,1.51E2,2.34E2,2.5E1,1.7E1,4E0,3E0,2E1,2E0,2.5E1,4.8E1,1.48E2,3E0,1.62E2,7.2E1,1.6E1,9E0,7E0,1E1,2E0,2E0],"tree_param":{"num_deleted":"0","num_feature":"14","num_nodes":"29","size_leaf_vector":"1"}},{"base_weights":[2.273155E-2,-7.118203E-2,1.2301697E-1,-1.976125E-1,3.547817E-2,9.853929E-2,1.0140078E-1,-2.3945504E-1,4.0874204E-1,-3.9917815E-2,5.542668E-1,-3.95464E-1,1.5443982E-1,-4.3205335E-3,-2.004006E-2,3.1624097E-2,-9.1134786E-4,7.6196605E-4,-1.8099781E-2,4.0025067E-2,-3.4847076E-4,-3.5846785E-2,2.0173085E-3,-7.8627765E-3,1.0606842E-2],"categories":[],"categories_nodes":[],"categories_segments":[],"categories_sizes":[],"default_left":[0,0,0,0,0,0,0,0,0,0,0,0,0,0,0,0,0,0,0,0,0,0,0,0,0],"id":30,"left_children":[1,3,5,7,9,-1,11,13,15,17,19,21,23,-1,-1,-1,-1,-1,-1,-1,-1,-1,-1,-1,-1],"loss_changes":[5.2025776E0,3.914766E0,8.392351E0,3.3138676E0,6.316937E0,0E0,6.9264326E0,2.559824E0,1.3480226E0,2.6378193E0,3.634913E0,4.1524434E0,4.5199656E0,0E0,0E0,0E0,0E0,0E0,0E0,0E0,0E0,0E0,0E0,0E0,0E0],"parents":[2147483647,0,0,1,1,2,2,3,3,4,4,6,6,7,7,8,8,9,9,10,10,11,11,12,12],"right_children":[2,4,6,8,10,-1,12,14,16,18,20,22,24,-1,-1,-1,-1,-1,-1,-1,-1,-1,-1,-1,-1],"split_conditions":[8E0,1.9E1,5.4545456E-1,1.9E0,1.826087E0,9.853929E-2,4E0,1.4210526E0,1.2E1,1.5789474E0,1.9473684E0,4E0,8.947368E-1,-4.3205335E-3,-2.004006E-2,3.1624097E-2,-9.1134786E-4,7.6196605E-4,-1.8099781E-2,4.0025067E-2,-3.4847076E-4,-3.5846785E-2,2.0173085E-3,-7.8627765E-3,1.0606842E-2],"split_indices":[4,0,9,9,8,0,3,8,1,8,10,1,8,0,0,0,0,0,0,0,0,0,0,0,0],"split_type":[0,0,0,0,0,0,0,0,0,0,0,0,0,0,0,0,0,0,0,0,0,0,0,0,0],"sum_hessian":[5.44E2,2.76E2,2.68E2,1.3E2,1.46E2,1E0,2.67E2,1.24E2,6E0,1.27E2,1.9E1,2.3E1,2.44E2,6.8E1,5.6E1,5E0,1E0,1.07E2,2E1,1.4E1,5E0,1.4E1,9E0,3.5E1,2.09E2],"tree_param":{"num_deleted":"0","num_feature":"14","num_nodes":"25","size_leaf_vector":"1"}},{"base_weights":[1.7159486E-2,-5.7635043E-2,2.3683277E-1,1.3657605E-2,-1.8788889E-1,3.8693437E-1,-1.5773788E-1,4.1828355E-1,-7.449769E-2,-3.2193342E-1,3.3819087E-2,4.7978735E-1,-3.4573194E-2,-5.73287E-1,4.8617788E-2,4.4765327E-2,-1.2710937E-3,-1.4266783E-2,-0E0,-2.2366812E-2,-4.1708453E-3,2.425954E-2,-4.3611005E-3,-2.384075E-3,2.6911948E-2,1.0252229E-2,-2.8017743E-2,-3.3215337E-2,-0E0,-2.6494532E-3,2.182027E-2],"categories":[],"categories_nodes":[],"categories_segments":[],"categories_sizes":[],"default_left":[0,0,0,0,0,0,0,0,0,0,0,0,0,0,0,0,0,0,0,0,0,0,0,0,0,0,0,0,0,0,0],"id":31,"left_children":[1,3,5,7,9,11,13,15,17,19,21,23,25,27,29,-1,-1,-1,-1,-1,-1,-1,-1,-1,-1,-1,-1,-1,-1,-1,-1],"loss_changes":[9.1788645E0,3.9436111E0,8.760408E0,9.611202E0,4.717678E0,4.59918E0,3.867888E0,1.1169422E1,3.100558E0,2.269742E0,3.4390295E0,3.2576313E0,2.8584092E0,1.1920538E0,1.4228513E0,0E0,0E0,0E0,0E0,0E0,0E0,0E0,0E0,0E0,0E0,0E0,0E0,0E0,0E0,0E0,0E0],"parents":[2147483647,0,0,1,1,2,2,3,3,4,4,5,5,6,6,7,7,8,8,9,9,10,10,11,11,12,12,13,13,14,14],"right_children":[2,4,6,8,10,12,14,16,18,20,22,24,26,28,30,-1,-1,-1,-1,-1,-1,-1,-1,-1,-1,-1,-1,-1,-1,-1,-1],"split_conditions":[1.5714285E0,2.1515152E0,1E1,1.25E0,7E0,4E0,6E0,7E0,1.2666667E0,1.8461539E0,9.285714E-1,1E0,2.2E1,2.0454545E0,1.5882353E0,4.4765327E-2,-1.2710937E-3,-1.4266783E-2,-0E0,-2.2366812E-2,-4.1708453E-3,2.425954E-2,-4.3611005E-3,-2.384075E-3,2.6911948E-2,1.0252229E-2,-2.8017743E-2,-3.3215337E-2,-0E0,-2.6494532E-3,2.182027E-2],"split_indices":[8,7,6,10,5,12,4,5,8,10,8,1,0,7,7,0,0,0,0,0,0,0,0,0,0,0,0,0,0,0,0],"split_type":[0,0,0,0,0,0,0,0,0,0,0,0,0,0,0,0,0,0,0,0,0,0,0,0,0,0,0,0,0,0,0],"sum_hessian":[5.45E2,4.04E2,1.41E2,2.57E2,1.47E2,1.04E2,3.7E1,4.7E1,2.1E2,9.4E1,5.3E1,8.7E1,1.7E1,1.3E1,2.4E1,2.3E1,2.4E1,5.1E1,1.59E2,5.8E1,3.6E1,1.2E1,4.1E1,7E0,8E1,1.1E1,6E0,1.2E1,1E0,1.8E1,6E0],"tree_param":{"num_deleted":"0","num_feature":"14","num_nodes":"31","size_leaf_vector":"1"}},{"base_weights":[1.7862746E-2,-6.48252E-2,1.7444369E-1,-7.6186005E-4,-3.1753075E-1,3.230586E-1,-0E0,-1.4232942E-1,1.05019175E-1,-0E0,-4.2770764E-1,4.5701414E-1,-2.3196892E-1,-1.7320773E-1,3.38269E-1,-3.1887486E-3,-2.301958E-2,6.159238E-2,3.195428E-3,1.622516E-2,-2.7404884E-2,-3.0217914E-2,-4.6713483E-3,-0E0,3.2332107E-2,-2.0990595E-2,2.3363877E-2,-1.6471142E-2,3.6049471E-3,4.9645226E-3,3.9795406E-2],"categories":[],"categories_nodes":[],"categories_segments":[],"categories_sizes":[],"default_left":[0,0,0,0,0,0,0,0,0,0,0,0,0,0,0,0,0,0,0,0,0,0,0,0,0,0,0,0,0,0,0],"id":32,"left_children":[1,3,5,7,9,11,13,15,17,19,21,23,25,27,29,-1,-1,-1,-1,-1,-1,-1,-1,-1,-1,-1,-1,-1,-1,-1,-1],"loss_changes":[6.904522E0,5.1775646E0,4.530893E0,4.1853886E0,2.2682033E0,7.633094E0,5.473896E0,2.4924781E0,5.743306E0,3.569362E0,2.0814867E0,6.8118706E0,2.6767354E0,2.5347059E0,2.5406547E0,0E0,0E0,0E0,0E0,0E0,0E0,0E0,0E0,0E0,0E0,0E0,0E0,0E0,0E0,0E0,0E0],"parents":[2147483647,0,0,1,1,2,2,3,3,4,4,5,5,6,6,7,7,8,8,9,9,10,10,11,11,12,12,13,13,14,14],"right_children":[2,4,6,8,10,12,14,16,18,20,22,24,26,28,30,-1,-1,-1,-1,-1,-1,-1,-1,-1,-1,-1,-1,-1,-1,-1,-1],"split_conditions":[1.5454545E0,1.4E0,8E0,6E0,5E0,2.2058823E0,1.2E1,2.2916667E0,6.666667E-1,1.8461539E0,1.9090909E0,9.166667E-1,3.1E1,1.2E1,1.2E1,-3.1887486E-3,-2.301958E-2,6.159238E-2,3.195428E-3,1.622516E-2,-2.7404884E-2,-3.0217914E-2,-4.6713483E-3,-0E0,3.2332107E-2,-2.0990595E-2,2.3363877E-2,-1.6471142E-2,3.6049471E-3,4.9645226E-3,3.9795406E-2],"split_indices":[9,9,5,4,1,9,5,10,9,10,10,8,0,4,4,0,0,0,0,0,0,0,0,0,0,0,0,0,0,0,0],"split_type":[0,0,0,0,0,0,0,0,0,0,0,0,0,0,0,0,0,0,0,0,0,0,0,0,0,0,0,0,0,0,0],"sum_hessian":[5.22E2,3.38E2,1.84E2,2.74E2,6.4E1,9.6E1,8.8E1,1.21E2,1.53E2,1.7E1,4.7E1,7.9E1,1.7E1,5.7E1,3.1E1,1.01E2,2E1,3E0,1.5E2,1.1E1,6E0,2.8E1,1.9E1,2.4E1,5.5E1,1.5E1,2E0,3.7E1,2E1,2.3E1,8E0],"tree_param":{"num_deleted":"0","num_feature":"14","num_nodes":"31","size_leaf_vector":"1"}},{"base_weights":[-5.020048E-3,-7.651547E-2,1.08470075E-1,3.561111E-3,-2.0544457E-1,4.898556E-1,3.0327516E-2,-2.0186415E-2,6.751543E-1,-3.4340224E-1,-0E0,6.282773E-1,-1.7919946E-1,5.8145505E-1,-0E0,-1.31108165E-2,2.648739E-3,5.055527E-2,-0E0,1.4352867E-2,-1.9313315E-2,6.007077E-3,-1.6046096E-2,3.7790373E-2,-0E0,-0E0,-2.4036406E-2,-0E0,6.2710285E-2,-3.1780654E-3,2.8137172E-2],"categories":[],"categories_nodes":[],"categories_segments":[],"categories_sizes":[],"default_left":[0,0,0,0,0,0,0,0,0,0,0,0,0,0,0,0,0,0,0,0,0,0,0,0,0,0,0,0,0,0,0],"id":33,"left_children":[1,3,5,7,9,11,13,15,17,19,21,23,25,27,29,-1,-1,-1,-1,-1,-1,-1,-1,-1,-1,-1,-1,-1,-1,-1,-1],"loss_changes":[4.374239E0,3.6977227E0,5.5521317E0,3.9528644E0,3.8160648E0,3.6278415E0,3.3903666E0,3.7449567E0,1.7482545E0,2.4409666E0,2.195369E0,2.1743822E0,6.3222975E-1,5.1017313E0,5.516568E0,0E0,0E0,0E0,0E0,0E0,0E0,0E0,0E0,0E0,0E0,0E0,0E0,0E0,0E0,0E0,0E0],"parents":[2147483647,0,0,1,1,2,2,3,3,4,4,5,5,6,6,7,7,8,8,9,9,10,10,11,11,12,12,13,13,14,14],"right_children":[2,4,6,8,10,12,14,16,18,20,22,24,26,28,30,-1,-1,-1,-1,-1,-1,-1,-1,-1,-1,-1,-1,-1,-1,-1,-1],"split_conditions":[1.5454545E0,1.8125E0,6E0,1.7222222E0,1E0,5E0,1.5714285E0,4E0,1E0,5E-1,4E0,2.030303E0,2E0,9E0,3.4E1,-1.31108165E-2,2.648739E-3,5.055527E-2,-0E0,1.4352867E-2,-1.9313315E-2,6.007077E-3,-1.6046096E-2,3.7790373E-2,-0E0,-0E0,-2.4036406E-2,-0E0,6.2710285E-2,-3.1780654E-3,2.8137172E-2],"split_indices":[9,7,2,7,12,12,9,2,11,8,12,9,2,2,0,0,0,0,0,0,0,0,0,0,0,0,0,0,0,0,0],"split_type":[0,0,0,0,0,0,0,0,0,0,0,0,0,0,0,0,0,0,0,0,0,0,0,0,0,0,0,0,0,0,0],"sum_hessian":[5.4E2,3.37E2,2.03E2,2.04E2,1.33E2,3.1E1,1.72E2,1.97E2,7E0,7.9E1,5.4E1,2.7E1,4E0,9E0,1.63E2,4.8E1,1.49E2,4E0,3E0,3E0,7.6E1,4E1,1.4E1,2.2E1,5E0,2E0,2E0,5E0,4E0,1.49E2,1.4E1],"tree_param":{"num_deleted":"0","num_feature":"14","num_nodes":"31","size_leaf_vector":"1"}}]},"name":"gbtree"},"learner_model_param":{"base_score":"[1.4638554E0]","boost_from_average":"1","num_class":"0","num_feature":"14","num_target":"1"},"objective":{"name":"reg:squarederror","reg_loss_param":{"scale_pos_weight":"1"}}},"version":[3,1,3]}