{"learner":{"attributes":{"best_iteration":"22","best_score":"1.0831093571042707","scikit_learn":"{\"_estimator_type\": \"regressor\"}"},"feature_names":[],"feature_types":[],"gradient_booster":{"model":{"cats":{"enc":[],"feature_segments":[],"sorted_idx":[]},"gbtree_model_param":{"num_parallel_tree":"1","num_trees":"53"},"iteration_indptr":[0,1,2,3,4,5,6,7,8,9,10,11,12,13,14,15,16,17,18,19,20,21,22,23,24,25,26,27,28,29,30,31,32,33,34,35,36,37,38,39,40,41,42,43,44,45,46,47,48,49,50,51,52,53],"tree_info":[0,0,0,0,0,0,0,0,0,0,0,0,0,0,0,0,0,0,0,0,0,0,0,0,0,0,0,0,0,0,0,0,0,0,0,0,0,0,0,0,0,0,0,0,0,0,0,0,0,0,0,0,0],"trees":[{"base_weights":[2.4165662E-3,1.6393133E-1,-2.6720124E-1,-0E0,2.897332E-1,-0E0,-3.3503357E-1,-1.6395697E-1,1.289822E-2,2.8438767E-2,1.3091373E-1,-3.8833987E-2,-7.2899363E-3,-0E0,-1.6866552E-2,-4.276058E-3,1.6943583E-2],"categories":[],"categories_nodes":[],"categories_segments":[],"categories_sizes":[],"default_left":[0,0,0,0,0,0,0,0,0,0,0,0,0,0,0,0,0],"id":0,"left_children":[1,3,5,7,9,-1,11,13,-1,-1,15,-1,-1,-1,-1,-1,-1],"loss_changes":[1.6352434E1,6.220184E0,2.1805944E0,3.0758843E0,1.0300703E0,0E0,3.052E0,1.3620661E0,0E0,0E0,2.8274703E0,0E0,0E0,0E0,0E0,0E0,0E0],"parents":[2147483647,0,0,1,1,2,2,3,3,4,4,6,6,7,7,10,10],"right_children":[2,4,6,8,10,-1,12,14,-1,-1,16,-1,-1,-1,-1,-1,-1],"split_conditions":[1.5164148E3,1.4886937E3,3E0,2E0,1.4605776E3,-0E0,1E0,1.4488677E3,1.289822E-2,2.8438767E-2,1E0,-3.8833987E-2,-7.2899363E-3,-0E0,-1.6866552E-2,-4.276058E-3,1.6943583E-2],"split_indices":[25,26,28,11,25,0,11,25,0,0,12,0,0,0,0,0,0],"split_type":[0,0,0,0,0,0,0,0,0,0,0,0,0,0,0,0,0],"sum_hessian":[3.787978E2,2.4632759E2,1.3247021E2,9.528941E1,1.5103818E2,2.9810242E1,1.0265997E2,6.2139217E1,3.3150192E1,6.644591E1,8.459227E1,3.9288136E1,6.3371838E1,1.5786519E1,4.6352695E1,2.1128403E1,6.3463863E1],"tree_param":{"num_deleted":"0","num_feature":"31","num_nodes":"17","size_leaf_vector":"1"}},{"base_weights":[-3.285257E-2,8.773591E-2,-2.5722378E-1,2.1631968E-1,-1.0802452E-1,-5.0834883E-2,-4.225142E-1,3.1597185E-1,-0E0,-2.031495E-1,4.0450323E-5,-1.5184921E-1,-0E0,-3.4989376E-2,-0E0,2.4621852E-2,-0E0,-2.0052833E-2,-0E0,-0E0,-1.9435538E-2],"categories":[],"categories_nodes":[],"categories_segments":[],"categories_sizes":[],"default_left":[0,0,0,0,0,0,0,0,0,0,0,0,0,0,0,0,0,0,0,0,0],"id":1,"left_children":[1,3,5,7,9,11,13,15,-1,17,-1,19,-1,-1,-1,-1,-1,-1,-1,-1,-1],"loss_changes":[1.0133669E1,5.958768E0,2.708455E0,3.8647566E0,1.5560415E0,7.068393E-1,1.4842014E0,1.5325937E0,0E0,1.484859E0,0E0,9.277516E-1,0E0,0E0,0E0,0E0,0E0,0E0,0E0,0E0,0E0],"parents":[2147483647,0,0,1,1,2,2,3,3,4,4,5,5,6,6,7,7,9,9,11,11],"right_children":[2,4,6,8,10,12,14,16,-1,18,-1,20,-1,-1,-1,-1,-1,-1,-1,-1,-1],"split_conditions":[1.5080492E3,9E0,4E0,1E0,1.5152163E3,7E0,1.5488506E3,2E0,-0E0,1.3E1,4.0450323E-5,5E0,-0E0,-3.4989376E-2,-0E0,2.4621852E-2,-0E0,-2.0052833E-2,-0E0,-0E0,-1.9435538E-2],"split_indices":[25,5,13,10,26,4,26,22,0,5,0,4,0,0,0,0,0,0,0,0,0],"split_type":[0,0,0,0,0,0,0,0,0,0,0,0,0,0,0,0,0,0,0,0,0],"sum_hessian":[3.4574112E2,2.1506389E2,1.3067723E2,1.4125198E2,7.3811905E1,6.989974E1,6.077749E1,1.0341704E2,3.7834946E1,5.655256E1,1.7259344E1,3.5984898E1,3.3914845E1,4.4371338E1,1.6406149E1,8.7295235E1,1.6121798E1,4.1221737E1,1.5330822E1,1.709094E1,1.8893957E1],"tree_param":{"num_deleted":"0","num_feature":"31","num_nodes":"21","size_leaf_vector":"1"}},{"base_weights":[1.0963122E-2,1.7760006E-1,-8.906744E-2,1.976616E-2,-0E0,8.236573E-2,-2.3025367E-1,1.4752357E-1,-0E0,-3.06701E-4,-2.9465294E-1,-0E0,1.5253212E-2,-8.1341555E-3,-3.807412E-2],"categories":[],"categories_nodes":[],"categories_segments":[],"categories_sizes":[],"default_left":[0,0,0,0,0,0,0,0,0,0,0,0,0,0,0],"id":2,"left_children":[1,3,5,-1,-1,7,9,11,-1,-1,13,-1,-1,-1,-1],"loss_changes":[6.4221E0,2.4658093E0,5.798149E0,0E0,0E0,7.371292E-1,7.6185656E-1,6.551627E-1,0E0,0E0,1.3889718E0,0E0,0E0,0E0,0E0],"parents":[2147483647,0,0,1,1,2,2,5,5,6,6,7,7,10,10],"right_children":[2,4,6,-1,-1,8,10,12,-1,-1,14,-1,-1,-1,-1],"split_conditions":[9E0,7E0,6E0,1.976616E-2,-0E0,7E0,1.2E1,4E0,-0E0,-3.06701E-4,6E0,-0E0,1.5253212E-2,-8.1341555E-3,-3.807412E-2],"split_indices":[29,0,0,0,0,1,29,1,0,0,1,0,0,0,0],"split_type":[0,0,0,0,0,0,0,0,0,0,0,0,0,0,0],"sum_hessian":[3.597518E2,1.4826964E2,2.1148215E2,8.0477974E1,6.779167E1,8.397746E1,1.27504684E2,5.810763E1,2.586983E1,4.197758E1,8.552711E1,2.2605587E1,3.5502045E1,6.323706E1,2.2290043E1],"tree_param":{"num_deleted":"0","num_feature":"31","num_nodes":"15","size_leaf_vector":"1"}},{"base_weights":[-3.110106E-2,1.3821447E-1,-2.0630021E-1,1.7819008E-2,-0E0,-4.1757798E-1,-8.453972E-2,2.0171686E-1,-1.5620343E-1,-3.757551E-2,-0E0,-1.7959689E-1,3.6119446E-3,-0E0,2.1405369E-2,-2.2744926E-2,-0E0,-0E0,-2.761031E-1,-2.4213834E-2,-0E0],"categories":[],"categories_nodes":[],"categories_segments":[],"categories_sizes":[],"default_left":[0,0,0,0,0,0,0,0,0,0,0,0,0,0,0,0,0,0,0,0,0],"id":3,"left_children":[1,3,5,-1,7,9,11,13,15,-1,-1,17,-1,-1,-1,-1,-1,-1,19,-1,-1],"loss_changes":[1.0644345E1,2.0760565E0,2.710559E0,0E0,3.247368E0,1.8911114E0,2.2227805E0,7.9116106E-1,1.5430148E0,0E0,0E0,2.3986351E0,0E0,0E0,0E0,0E0,0E0,0E0,1.2175503E0,0E0,0E0],"parents":[2147483647,0,0,1,1,2,2,4,4,5,5,6,6,7,7,8,8,11,11,18,18],"right_children":[2,4,6,-1,8,10,12,14,16,-1,-1,18,-1,-1,-1,-1,-1,-1,20,-1,-1],"split_conditions":[-1.8706451E1,-9.2970375E1,6E0,1.7819008E-2,1.5171249E3,2E0,2E0,7E0,-4E0,-3.757551E-2,-0E0,1E0,3.6119446E-3,-0E0,2.1405369E-2,-2.2744926E-2,-0E0,-0E0,1.1E1,-2.4213834E-2,-0E0],"split_indices":[27,27,3,0,26,17,16,3,30,0,0,21,0,0,0,0,0,0,3,0,0],"split_type":[0,0,0,0,0,0,0,0,0,0,0,0,0,0,0,0,0,0,0,0,0],"sum_hessian":[3.446456E2,1.6462193E2,1.8002368E2,7.194325E1,9.267867E1,5.198947E1,1.2803421E2,4.926487E1,4.3413803E1,3.367107E1,1.83184E1,9.1555374E1,3.6478836E1,2.3497408E1,2.5767464E1,2.0416996E1,2.2996807E1,2.2979223E1,6.857616E1,4.8303425E1,2.027273E1],"tree_param":{"num_deleted":"0","num_feature":"31","num_nodes":"21","size_leaf_vector":"1"}},{"base_weights":[-1.058065E-2,1.0366566E-1,-2.8036729E-1,-0E0,2.7589673E-1,-4.7222504E-1,-0E0,-1.3088855E-1,1.3156505E-1,3.6647165E-1,-0E0,-0E0,-3.7908826E-2,1.2932958E-2,-6.567757E-3,-0E0,-2.503971E-1,-0E0,1.583337E-2,-0E0,2.9708412E-2,-3.2645185E-2,-0E0],"categories":[],"categories_nodes":[],"categories_segments":[],"categories_sizes":[],"default_left":[0,0,0,0,0,0,0,0,0,0,0,0,0,0,0,0,0,0,0,0,0,0,0],"id":4,"left_children":[1,3,5,7,9,11,13,15,17,19,-1,-1,-1,-1,-1,-1,21,-1,-1,-1,-1,-1,-1],"loss_changes":[1.1336429E1,4.5097237E0,6.8072033E0,2.5302906E0,1.8520985E0,1.9287138E0,1.0573783E0,1.9673126E0,5.7774734E-1,9.1390324E-1,0E0,0E0,0E0,0E0,0E0,0E0,1.3137593E0,0E0,0E0,0E0,0E0,0E0,0E0],"parents":[2147483647,0,0,1,1,2,2,3,3,4,4,5,5,6,6,7,7,8,8,9,9,16,16],"right_children":[2,4,6,8,10,12,14,16,18,20,-1,-1,-1,-1,-1,-1,22,-1,-1,-1,-1,-1,-1],"split_conditions":[1.8666667E0,1.7E1,1.5269773E3,1.5333333E0,9E0,1.4476229E3,1.5550084E3,1.125E0,2E0,1.6129032E0,-0E0,-0E0,-3.7908826E-2,1.2932958E-2,-6.567757E-3,-0E0,1E0,-0E0,1.583337E-2,-0E0,2.9708412E-2,-3.2645185E-2,-0E0],"split_indices":[6,28,26,6,1,26,26,6,10,7,0,0,0,0,0,0,10,0,0,0,0,0,0],"split_type":[0,0,0,0,0,0,0,0,0,0,0,0,0,0,0,0,0,0,0,0,0,0,0],"sum_hessian":[3.4070316E2,2.3074664E2,1.0995651E2,1.4134532E2,8.940133E1,6.745987E1,4.2496647E1,7.555107E1,6.579424E1,6.3239758E1,2.6161573E1,1.516013E1,5.2299736E1,1.8789856E1,2.370679E1,2.5579336E1,4.9971737E1,3.6921696E1,2.8872547E1,1.6160723E1,4.7079033E1,1.670606E1,3.3265675E1],"tree_param":{"num_deleted":"0","num_feature":"31","num_nodes":"23","size_leaf_vector":"1"}},{"base_weights":[1.25430375E-2,2.837962E-1,-1.5683566E-1,3.147558E-2,1.0896414E-1,-2.2927316E-1,-0E0,1.6980376E-2,-0E0,-1.5040357E-2,-2.9380169E-2,-1.5006699E-2,8.81658E-3,-1.22735515E-1,1.0621614E-3,-1.750141E-2,-0E0],"categories":[],"categories_nodes":[],"categories_segments":[],"categories_sizes":[],"default_left":[0,0,0,0,0,0,0,0,0,0,0,0,0,0,0,0,0],"id":5,"left_children":[1,3,5,-1,7,9,11,-1,-1,13,-1,-1,-1,15,-1,-1,-1],"loss_changes":[1.6664541E1,2.3407125E0,2.2150164E0,0E0,1.6822989E0,4.5174637E0,2.2491386E0,0E0,0E0,6.771466E-1,0E0,0E0,0E0,1.2536955E0,0E0,0E0,0E0],"parents":[2147483647,0,0,1,1,2,2,4,4,5,5,6,6,9,9,13,13],"right_children":[2,4,6,-1,8,10,12,-1,-1,14,-1,-1,-1,16,-1,-1,-1],"split_conditions":[-4E0,1.1515151E0,3E0,3.147558E-2,1.08E0,2.0285714E0,1.6666666E0,1.6980376E-2,-0E0,2E0,-2.9380169E-2,-1.5006699E-2,8.81658E-3,1.5E1,1.0621614E-3,-1.750141E-2,-0E0],"split_indices":[30,9,11,0,6,6,6,0,0,22,0,0,0,28,0,0,0],"split_type":[0,0,0,0,0,0,0,0,0,0,0,0,0,0,0,0,0],"sum_hessian":[3.46738E2,1.4111249E2,2.0562552E2,5.5714718E1,8.539777E1,1.3685635E2,6.876917E1,3.9786957E1,4.5610813E1,7.793858E1,5.8917767E1,2.6597834E1,4.2171337E1,4.2711353E1,3.522723E1,2.5678343E1,1.703301E1],"tree_param":{"num_deleted":"0","num_feature":"31","num_nodes":"17","size_leaf_vector":"1"}},{"base_weights":[-3.477826E-2,1.8761091E-1,-2.9491162E-1,2.144413E-2,-0E0,-3.5693994E-1,-0E0,-3.3682197E-2,-1.1544811E-1,1.3000439E-3,-2.7562138E-2],"categories":[],"categories_nodes":[],"categories_segments":[],"categories_sizes":[],"default_left":[0,0,0,0,0,0,0,0,0,0,0],"id":6,"left_children":[1,3,5,-1,-1,7,-1,-1,9,-1,-1],"loss_changes":[2.1514399E1,5.275327E0,3.0744581E0,0E0,0E0,2.5610237E0,0E0,0E0,4.1887083E0,0E0,0E0],"parents":[2147483647,0,0,1,1,2,2,5,5,8,8],"right_children":[2,4,6,-1,-1,8,-1,-1,10,-1,-1],"split_conditions":[-1.8706451E1,1.4731946E3,1E1,2.144413E-2,-0E0,1.28125E0,-0E0,-3.3682197E-2,1.875E0,1.3000439E-3,-2.7562138E-2],"split_indices":[27,25,1,0,0,8,0,0,6,0,0],"split_type":[0,0,0,0,0,0,0,0,0,0,0],"sum_hessian":[3.5938345E2,1.863558E2,1.7302765E2,1.1397365E2,7.238216E1,1.4135242E2,3.1675232E1,7.663457E1,6.471784E1,3.7479794E1,2.723805E1],"tree_param":{"num_deleted":"0","num_feature":"31","num_nodes":"11","size_leaf_vector":"1"}},{"base_weights":[-0E0,-2.3000616E-1,8.898426E-2,-0E0,-2.934266E-2,-0E0,2.2632563E-1,-1.2180011E-1,1.5847425E-1,2.0582868E-2,-0E0,-0E0,-1.7718647E-1,-0E0,1.7459637E-2,-1.7251818E-2,-0E0],"categories":[],"categories_nodes":[],"categories_segments":[],"categories_sizes":[],"default_left":[0,0,0,0,0,0,0,0,0,0,0,0,0,0,0,0,0],"id":7,"left_children":[1,3,5,-1,-1,7,9,11,13,-1,-1,-1,15,-1,-1,-1,-1],"loss_changes":[7.750432E0,5.3011556E0,3.5003047E0,0E0,0E0,2.6651297E0,1.7639542E0,5.501667E-1,9.8189485E-1,0E0,0E0,0E0,6.189159E-1,0E0,0E0,0E0,0E0],"parents":[2147483647,0,0,1,1,2,2,5,5,6,6,7,7,8,8,12,12],"right_children":[2,4,6,-1,-1,8,10,12,14,-1,-1,-1,16,-1,-1,-1,-1],"split_conditions":[1.2727273E0,1E0,9E0,-0E0,-2.934266E-2,1.8E1,9E0,4E0,5E0,2.0582868E-2,-0E0,-0E0,1.4333333E0,-0E0,1.7459637E-2,-1.7251818E-2,-0E0],"split_indices":[7,24,3,0,0,28,2,1,2,0,0,0,8,0,0,0,0],"split_type":[0,0,0,0,0,0,0,0,0,0,0,0,0,0,0,0,0],"sum_hessian":[3.4730182E2,1.0734646E2,2.3995537E2,5.199328E1,5.5353176E1,1.3691202E2,1.0304335E2,8.618973E1,5.0722294E1,7.352256E1,2.9520792E1,2.9425243E1,5.6764484E1,1.9194399E1,3.1527897E1,3.482527E1,2.193921E1],"tree_param":{"num_deleted":"0","num_feature":"31","num_nodes":"17","size_leaf_vector":"1"}},{"base_weights":[2.4344651E-2,1.8154238E-1,-1.20739594E-1,2.5105792E-1,-0E0,-0E0,-1.987346E-1,-0E0,1.8939836E-2,9.9396985E-3,-6.4806864E-3,-2.271172E-1,-0E0,-0E0,-2.8125367E-1,-4.05382E-1,-4.1759223E-2,-3.9139654E-2,-1.331729E-3,-1.0529861E-2,-0E0],"categories":[],"categories_nodes":[],"categories_segments":[],"categories_sizes":[],"default_left":[0,0,0,0,0,0,0,0,0,0,0,0,0,0,0,0,0,0,0,0,0],"id":8,"left_children":[1,3,5,7,-1,9,11,-1,-1,-1,-1,13,-1,-1,15,17,19,-1,-1,-1,-1],"loss_changes":[8.167716E0,2.6920805E0,2.0324063E0,9.768982E-1,0E0,9.834581E-1,4.5440435E-1,0E0,0E0,0E0,0E0,1.2527871E0,0E0,0E0,5.9626675E-1,5.020127E-1,5.131901E-1,0E0,0E0,0E0,0E0],"parents":[2147483647,0,0,1,1,2,2,3,3,5,5,6,6,11,11,14,14,15,15,16,16],"right_children":[2,4,6,8,-1,10,12,-1,-1,-1,-1,14,-1,-1,16,18,20,-1,-1,-1,-1],"split_conditions":[-1.1596859E1,3E0,1E0,4E0,-0E0,4.6983215E1,3E0,-0E0,1.8939836E-2,9.9396985E-3,-6.4806864E-3,8E0,-0E0,-0E0,1.1E1,4E0,1E0,-3.9139654E-2,-1.331729E-3,-1.0529861E-2,-0E0],"split_indices":[27,10,24,5,0,27,17,0,0,0,0,5,0,0,5,13,21,0,0,0,0],"split_type":[0,0,0,0,0,0,0,0,0,0,0,0,0,0,0,0,0,0,0,0,0],"sum_hessian":[3.4254123E2,1.7654301E2,1.6599823E2,1.3367792E2,4.286509E1,5.5046658E1,1.1095158E2,1.6303946E1,1.1737398E2,3.0230946E1,2.481571E1,9.310199E1,1.7849585E1,1.7535316E1,7.556667E1,3.8113247E1,3.7453423E1,1.8390615E1,1.9722633E1,2.0860823E1,1.6592602E1],"tree_param":{"num_deleted":"0","num_feature":"31","num_nodes":"21","size_leaf_vector":"1"}},{"base_weights":[-1.7657375E-2,1.326905E-1,-1.6021203E-1,2.5529838E-1,-0E0,-2.3006278E-1,-0E0,2.0184765E-2,-0E0,8.662631E-3,-1.8972804E-1,-5.142361E-1,-9.418606E-2,1.4083876E-2,-2.99996E-3,-0E0,-2.7736703E-2,-4.8226286E-2,-4.6377536E-3,-2.3614544E-1,-0E0,-2.872144E-2,-0E0,8.8678915E-3,-1.739719E-5],"categories":[],"categories_nodes":[],"categories_segments":[],"categories_sizes":[],"default_left":[0,0,0,0,0,0,0,0,0,0,0,0,0,0,0,0,0,0,0,0,0,0,0,0,0],"id":9,"left_children":[1,3,5,7,9,11,13,-1,-1,-1,15,17,19,-1,-1,-1,-1,-1,-1,21,23,-1,-1,-1,-1],"loss_changes":[7.771553E0,3.2012565E0,2.9597387E0,9.252448E-1,1.9578158E0,3.4049187E0,1.024897E0,0E0,0E0,0E0,1.7137716E0,4.6613026E-1,2.3507223E0,0E0,0E0,0E0,0E0,0E0,0E0,2.7536378E0,4.587023E-1,0E0,0E0,0E0,0E0],"parents":[2147483647,0,0,1,1,2,2,3,3,4,4,5,5,6,6,10,10,11,11,12,12,19,19,20,20],"right_children":[2,4,6,8,10,12,14,-1,-1,-1,16,18,20,-1,-1,-1,-1,-1,-1,22,24,-1,-1,-1,-1],"split_conditions":[-2E0,1.4731946E3,2E0,1.925926E0,1.3529412E0,3E0,7E0,2.0184765E-2,-0E0,8.662631E-3,1.5333333E0,1.4736842E0,1.4770793E3,1.4083876E-2,-2.99996E-3,-0E0,-2.7736703E-2,-4.8226286E-2,-4.6377536E-3,8E0,1.3043479E0,-2.872144E-2,-0E0,8.8678915E-3,-1.739719E-5],"split_indices":[30,25,18,8,9,30,5,0,0,0,8,8,26,0,0,0,0,0,0,4,8,0,0,0,0],"split_type":[0,0,0,0,0,0,0,0,0,0,0,0,0,0,0,0,0,0,0,0,0,0,0,0,0],"sum_hessian":[3.5214243E2,1.586061E2,1.9353633E2,8.990362E1,6.870248E1,1.4832253E2,4.5213806E1,7.415656E1,1.5747056E1,3.435153E1,3.435095E1,3.6461273E1,1.1186125E2,1.9122217E1,2.609159E1,1.931806E1,1.5032889E1,1.7985228E1,1.8476046E1,5.7578167E1,5.428308E1,3.0577793E1,2.7000376E1,2.3431147E1,3.0851933E1],"tree_param":{"num_deleted":"0","num_feature":"31","num_nodes":"25","size_leaf_vector":"1"}},{"base_weights":[-8.2826597E-4,7.739871E-2,-3.0747896E-1,-0E0,2.2450812E-1,-3.5188366E-2,-0E0,4.2673543E-2,-6.227743E-2,-0E0,2.1867745E-2,1.304611E-1,-2.6667733E-3,-1.5444858E-2,-0E0,-0E0,1.1546704E-2],"categories":[],"categories_nodes":[],"categories_segments":[],"categories_sizes":[],"default_left":[0,0,0,0,0,0,0,0,0,0,0,0,0,0,0,0,0],"id":10,"left_children":[1,3,5,7,9,-1,-1,11,13,-1,-1,15,-1,-1,-1,-1,-1],"loss_changes":[9.970692E0,3.3122003E0,5.1023464E0,5.238117E-1,2.3239202E0,0E0,0E0,1.2115468E0,1.4876399E0,0E0,0E0,5.064373E-1,0E0,0E0,0E0,0E0,0E0],"parents":[2147483647,0,0,1,1,2,2,3,3,4,4,7,7,8,8,11,11],"right_children":[2,4,6,8,10,-1,-1,12,14,-1,-1,16,-1,-1,-1,-1,-1],"split_conditions":[1E1,1.1E1,1.3E0,1.3E1,1E0,-3.5188366E-2,-0E0,2E0,8E0,-0E0,2.1867745E-2,5E0,-2.6667733E-3,-1.5444858E-2,-0E0,-0E0,1.1546704E-2],"split_indices":[2,4,7,29,11,0,0,23,4,0,0,29,0,0,0,0,0],"split_type":[0,0,0,0,0,0,0,0,0,0,0,0,0,0,0,0,0],"sum_hessian":[3.738593E2,2.8975278E2,8.4106544E1,1.9208656E2,9.766621E1,4.5595345E1,3.8511204E1,1.1531848E2,7.676808E1,3.094844E1,6.6717766E1,7.7203125E1,3.8115356E1,3.1070192E1,4.569789E1,1.6954046E1,6.0249077E1],"tree_param":{"num_deleted":"0","num_feature":"31","num_nodes":"17","size_leaf_vector":"1"}},{"base_weights":[2.8978664E-2,1.4508899E-1,-3.577736E-2,2.0498386E-1,-0E0,-1.6882391E-1,1.5605274E-1,2.5848404E-1,-0E0,-2.2576237E-2,-2.3625772E-2,-0E0,2.136169E-2,2.0107359E-2,-0E0,-0E0,-1.3766382E-2],"categories":[],"categories_nodes":[],"categories_segments":[],"categories_sizes":[],"default_left":[0,0,0,0,0,0,0,0,0,0,0,0,0,0,0,0,0],"id":11,"left_children":[1,3,5,7,-1,9,11,13,-1,-1,15,-1,-1,-1,-1,-1,-1],"loss_changes":[3.2248688E0,1.2888997E0,5.745189E0,9.760351E-1,0E0,2.1026626E0,3.0879672E0,4.5892525E-1,0E0,0E0,1.0078919E0,0E0,0E0,0E0,0E0,0E0,0E0],"parents":[2147483647,0,0,1,1,2,2,3,3,5,5,6,6,7,7,10,10],"right_children":[2,4,6,8,-1,10,12,14,-1,-1,16,-1,-1,-1,-1,-1,-1],"split_conditions":[1E0,4E0,1.5454545E0,4E0,-0E0,9E0,2E0,1.6129032E0,-0E0,-2.2576237E-2,1.3888888E0,-0E0,2.136169E-2,2.0107359E-2,-0E0,-0E0,-1.3766382E-2],"split_indices":[24,13,7,11,0,5,11,7,0,0,7,0,0,0,0,0,0],"split_type":[0,0,0,0,0,0,0,0,0,0,0,0,0,0,0,0,0],"sum_hessian":[3.6931143E2,1.5182408E2,2.1748734E2,1.05330124E2,4.6493965E1,1.4022772E2,7.725961E1,7.980252E1,2.5527605E1,5.129379E1,8.893394E1,3.0391645E1,4.6867966E1,6.3736576E1,1.606594E1,6.660262E1,2.2331312E1],"tree_param":{"num_deleted":"0","num_feature":"31","num_nodes":"17","size_leaf_vector":"1"}},{"base_weights":[-0E0,1.3203473E-1,-1.5989463E-1,1.1338359E-2,-0E0,-2.7822152E-1,-0E0,-3.450301E-1,-0E0,-3.1746656E-2,-5.9527252E-2,-0E0,-1.1458765E-2],"categories":[],"categories_nodes":[],"categories_segments":[],"categories_sizes":[],"default_left":[0,0,0,0,0,0,0,0,0,0,0,0,0],"id":12,"left_children":[1,3,5,-1,-1,7,-1,9,-1,-1,11,-1,-1],"loss_changes":[7.2563086E0,1.0070679E0,3.563981E0,0E0,0E0,2.0656037E0,0E0,9.251509E-1,0E0,0E0,5.0633013E-1,0E0,0E0],"parents":[2147483647,0,0,1,1,2,2,5,5,7,7,10,10],"right_children":[2,4,6,-1,-1,8,-1,10,-1,-1,12,-1,-1],"split_conditions":[-1.547365E1,4E0,2E0,1.1338359E-2,-0E0,1.5187173E3,-0E0,8E0,-0E0,-3.1746656E-2,2.1290324E0,-0E0,-1.1458765E-2],"split_indices":[27,11,11,0,0,26,0,30,0,0,6,0,0],"split_type":[0,0,0,0,0,0,0,0,0,0,0,0,0],"sum_hessian":[3.3445627E2,1.7407045E2,1.6038582E2,1.4038684E2,3.3683605E1,9.712642E1,6.3259396E1,7.9519745E1,1.760667E1,4.448268E1,3.5037067E1,1.5904352E1,1.9132715E1],"tree_param":{"num_deleted":"0","num_feature":"31","num_nodes":"13","size_leaf_vector":"1"}},{"base_weights":[-4.542343E-3,1.2950198E-1,-1.8519531E-1,2.0821093E-2,-0E0,-2.3271456E-1,-0E0,5.4412767E-2,-1.029731E-2,-0E0,-3.0924553E-1,1.1465361E-2,-0E0,-0E0,-4.2157605E-1,1.7629178E-3,-1.0138727E-2,-3.3704847E-2,-0E0],"categories":[],"categories_nodes":[],"categories_segments":[],"categories_sizes":[],"default_left":[0,0,0,0,0,0,0,0,0,0,0,0,0,0,0,0,0,0,0],"id":13,"left_children":[1,3,5,-1,7,9,-1,11,-1,-1,13,-1,15,-1,17,-1,-1,-1,-1],"loss_changes":[8.279334E0,3.3513584E0,2.027882E0,0E0,7.224848E-1,1.9066029E0,0E0,1.0332623E0,0E0,0E0,2.136715E0,0E0,5.294892E-1,0E0,9.084749E-1,0E0,0E0,0E0,0E0],"parents":[2147483647,0,0,1,1,2,2,4,4,5,5,7,7,10,10,12,12,14,14],"right_children":[2,4,6,-1,8,10,-1,12,-1,-1,14,-1,16,-1,18,-1,-1,-1,-1],"split_conditions":[-1E0,7E0,2E0,2.0821093E-2,3E0,4E0,-0E0,4E0,-1.029731E-2,-0E0,3E0,1.1465361E-2,1.6428572E0,-0E0,2.4594595E0,1.7629178E-3,-1.0138727E-2,-3.3704847E-2,-0E0],"split_indices":[30,1,14,0,23,1,0,29,0,0,19,0,8,0,6,0,0,0,0],"split_type":[0,0,0,0,0,0,0,0,0,0,0,0,0,0,0,0,0,0,0],"sum_hessian":[3.2761676E2,1.7654405E2,1.5107272E2,6.3198563E1,1.1334549E2,1.3208633E2,1.8986387E1,9.819434E1,1.5151141E1,3.857308E1,9.351325E1,4.2793785E1,5.5400562E1,3.2474564E1,6.1038692E1,3.6218815E1,1.9181746E1,4.5740494E1,1.52982E1],"tree_param":{"num_deleted":"0","num_feature":"31","num_nodes":"19","size_leaf_vector":"1"}},{"base_weights":[1.113954E-2,-1.9791803E-1,1.0233873E-1,-3.7263116E-1,-0E0,1.4249662E-2,-0E0,-0E0,-4.6379454E-2,-2.3094282E-2,8.4101506E-2,1.6895821E-2,-0E0],"categories":[],"categories_nodes":[],"categories_segments":[],"categories_sizes":[],"default_left":[0,0,0,0,0,0,0,0,0,0,0,0,0],"id":14,"left_children":[1,3,5,7,-1,-1,9,-1,-1,-1,11,-1,-1],"loss_changes":[6.0371065E0,4.081517E0,2.256067E0,5.2991624E0,0E0,0E0,3.5534394E0,0E0,0E0,0E0,1.4783871E0,0E0,0E0],"parents":[2147483647,0,0,1,1,2,2,3,3,6,6,10,10],"right_children":[2,4,6,8,-1,-1,10,-1,-1,-1,12,-1,-1],"split_conditions":[1.2916666E0,4E0,1.4739766E3,3E0,-0E0,1.4249662E-2,1.0454545E0,-0E0,-4.6379454E-2,-2.3094282E-2,1.3448275E0,1.6895821E-2,-0E0],"split_indices":[7,19,25,19,0,0,8,0,0,0,7,0,0],"split_type":[0,0,0,0,0,0,0,0,0,0,0,0,0],"sum_hessian":[3.2973523E2,8.659077E1,2.4314447E2,5.1797977E1,3.4792786E1,1.0427794E2,1.3886653E2,2.766378E1,2.4134197E1,1.9895859E1,1.1897067E2,3.406766E1,8.490301E1],"tree_param":{"num_deleted":"0","num_feature":"31","num_nodes":"13","size_leaf_vector":"1"}},{"base_weights":[-2.5031295E-2,9.086383E-2,-1.2935352E-1,-6.033735E-4,1.8713063E-1,8.755951E-2,-2.3499964E-1,2.3613276E-1,-0E0,-2.873839E-3,1.7916951E-2,-3.316493E-1,-0E0,1.9679349E-2,-0E0,-3.6576755E-2,-1.4786345E-1,-0E0,-3.0373526E-1,-3.342275E-2,-0E0],"categories":[],"categories_nodes":[],"categories_segments":[],"categories_sizes":[],"default_left":[0,0,0,0,0,0,0,0,0,0,0,0,0,0,0,0,0,0,0,0,0],"id":15,"left_children":[1,3,5,-1,7,9,11,13,-1,-1,-1,15,-1,-1,-1,-1,17,-1,19,-1,-1],"loss_changes":[4.514833E0,2.161212E0,5.358822E0,0E0,1.0577636E0,2.239769E0,2.9632387E0,8.2343674E-1,0E0,0E0,0E0,1.2059956E0,0E0,0E0,0E0,0E0,2.6664476E0,0E0,1.5074334E0,0E0,0E0],"parents":[2147483647,0,0,1,1,2,2,4,4,5,5,6,6,7,7,11,11,16,16,18,18],"right_children":[2,4,6,-1,8,10,12,14,-1,-1,-1,16,-1,-1,-1,-1,18,-1,20,-1,-1],"split_conditions":[1E0,5E0,1.4609023E3,-6.033735E-4,4E0,8E0,2E0,1.5164148E3,-0E0,-2.873839E-3,1.7916951E-2,4E0,-0E0,1.9679349E-2,-0E0,-3.6576755E-2,7E0,-0E0,3E0,-3.342275E-2,-0E0],"split_indices":[24,5,25,0,11,3,11,25,0,0,0,30,0,0,0,0,0,0,19,0,0],"split_type":[0,0,0,0,0,0,0,0,0,0,0,0,0,0,0,0,0,0,0,0,0],"sum_hessian":[3.558557E2,1.5162465E2,2.0423106E2,5.6450073E1,9.517457E1,5.5357254E1,1.4887381E2,7.7693665E1,1.7480904E1,2.1140488E1,3.4216766E1,1.0028393E2,4.8589886E1,5.891808E1,1.8775587E1,3.4327183E1,6.595674E1,2.3573942E1,4.2382797E1,2.00539E1,2.23289E1],"tree_param":{"num_deleted":"0","num_feature":"31","num_nodes":"21","size_leaf_vector":"1"}},{"base_weights":[6.402341E-2,1.5832199E-2,-9.8989986E-2,-0E0,-1.5819211E-1,-3.8708737E-1,-1.7265672E-2,-3.9575767E-2,-0E0,4.341289E-3,-2.2868091E-1,-0E0,-3.4066774E-2],"categories":[],"categories_nodes":[],"categories_segments":[],"categories_sizes":[],"default_left":[0,0,0,0,0,0,0,0,0,0,0,0,0],"id":16,"left_children":[1,-1,3,-1,5,7,9,-1,-1,-1,11,-1,-1],"loss_changes":[1.1091964E1,0E0,1.3390806E0,0E0,2.4961183E0,1.8114824E0,2.231417E0,0E0,0E0,0E0,2.7996275E0,0E0,0E0],"parents":[2147483647,0,0,2,2,4,4,5,5,6,6,10,10],"right_children":[2,-1,4,-1,6,8,10,-1,-1,-1,12,-1,-1],"split_conditions":[-1.3629803E1,1.5832199E-2,7E0,-0E0,3.7353477E1,1.5333333E0,1.5522761E3,-3.9575767E-2,-0E0,4.341289E-3,9.444444E-1,-0E0,-3.4066774E-2],"split_indices":[27,0,5,0,27,7,25,0,0,0,7,0,0],"split_type":[0,0,0,0,0,0,0,0,0,0,0,0,0],"sum_hessian":[3.7205054E2,1.916903E2,1.8036021E2,5.794119E1,1.2241902E2,3.457556E1,8.784346E1,1.8485575E1,1.6089987E1,5.185465E1,3.598881E1,2.0081808E1,1.5907002E1],"tree_param":{"num_deleted":"0","num_feature":"31","num_nodes":"13","size_leaf_vector":"1"}},{"base_weights":[1.0253522E-2,5.6891274E-2,-2.2272322E-1,1.0961619E-1,-1.3819571E-1,-3.622539E-2,-0E0,1.5398292E-2,4.0648926E-2,-0E0,-2.0218004E-2,-7.7392706E-3,1.0200999E-1,2.0595372E-1,-0E0,2.3414616E-2,-0E0,-9.2004895E-2,6.1315815E-3,-1.795413E-2,-0E0],"categories":[],"categories_nodes":[],"categories_segments":[],"categories_sizes":[],"default_left":[0,0,0,0,0,0,0,0,0,0,0,0,0,0,0,0,0,0,0,0,0],"id":17,"left_children":[1,3,5,7,9,-1,-1,-1,11,-1,-1,-1,13,15,17,-1,-1,19,-1,-1,-1],"loss_changes":[3.4800785E0,3.306826E0,5.4306192E0,1.2279661E0,1.4105748E0,0E0,0E0,0E0,1.8772762E0,0E0,0E0,0E0,1.4325324E0,1.043942E0,7.835727E-1,0E0,0E0,9.940544E-1,0E0,0E0,0E0],"parents":[2147483647,0,0,1,1,2,2,3,3,4,4,8,8,12,12,13,13,14,14,17,17],"right_children":[2,4,6,8,10,-1,-1,-1,12,-1,-1,-1,14,16,18,-1,-1,20,-1,-1,-1],"split_conditions":[1.5809503E3,2.030303E0,1.667592E3,1.4605776E3,1.4665057E3,-3.622539E-2,-0E0,1.5398292E-2,1.4868639E3,-0E0,-2.0218004E-2,-7.7392706E-3,1.3333334E0,3.2163322E1,1.875E0,2.3414616E-2,-0E0,1.7142857E0,6.1315815E-3,-1.795413E-2,-0E0],"split_indices":[25,9,25,25,26,0,0,0,25,0,0,0,8,27,8,0,0,9,0,0,0],"split_type":[0,0,0,0,0,0,0,0,0,0,0,0,0,0,0,0,0,0,0,0,0],"sum_hessian":[3.717365E2,3.2499625E2,4.6740246E1,2.7204E2,5.2956238E1,2.4235731E1,2.2504515E1,7.696708E1,1.9507294E2,2.8518106E1,2.4438131E1,3.701618E1,1.5805676E2,7.04205E1,8.763626E1,3.125148E1,3.916902E1,3.6429325E1,5.1206936E1,1.5697144E1,2.0732183E1],"tree_param":{"num_deleted":"0","num_feature":"31","num_nodes":"21","size_leaf_vector":"1"}},{"base_weights":[-0E0,1.19428776E-1,-1.2368559E-1,1.4170805E-1,-0E0,-1.8226814E-1,3.2385248E-3,-0E0,1.689827E-1,-0E0,-2.195085E-1,4.818681E-2,1.7827934E-2,-3.0148963E-2,-7.687021E-2,1.735813E-2,-9.8322265E-2,-0E0,-1.8237136E-1,-1.5400997E-2,-0E0,-0E0,-1.9573778E-2],"categories":[],"categories_nodes":[],"categories_segments":[],"categories_sizes":[],"default_left":[0,0,0,0,0,0,0,0,0,0,0,0,0,0,0,0,0,0,0,0,0,0,0],"id":18,"left_children":[1,3,5,7,-1,9,-1,-1,11,-1,13,15,-1,-1,17,-1,19,-1,21,-1,-1,-1,-1],"loss_changes":[5.720913E0,8.2024384E-1,2.4622333E0,7.3347974E-1,0E0,1.6579361E0,0E0,0E0,5.567932E-1,0E0,2.6639843E0,3.403397E0,0E0,0E0,1.2231486E0,0E0,6.528042E-1,0E0,1.1346116E0,0E0,0E0,0E0,0E0],"parents":[2147483647,0,0,1,1,2,2,3,3,5,5,8,8,10,10,11,11,14,14,16,16,18,18],"right_children":[2,4,6,8,-1,10,-1,-1,12,-1,14,16,-1,-1,18,-1,20,-1,22,-1,-1,-1,-1],"split_conditions":[-1E0,5E0,1E1,1E0,-0E0,8.181818E-1,3.2385248E-3,-0E0,1.488288E3,-0E0,1.2666667E0,1.4449631E3,1.7827934E-2,-3.0148963E-2,9E0,1.735813E-2,7E0,-0E0,3E0,-1.5400997E-2,-0E0,-0E0,-1.9573778E-2],"split_indices":[30,13,1,23,0,7,0,0,25,0,7,25,0,0,5,0,5,0,1,0,0,0,0],"split_type":[0,0,0,0,0,0,0,0,0,0,0,0,0,0,0,0,0,0,0,0,0,0,0],"sum_hessian":[3.815402E2,1.9256615E2,1.8897403E2,1.768052E2,1.5760939E1,1.5718642E2,3.178762E1,2.7618721E1,1.491865E2,1.5277325E1,1.4190909E2,8.5567635E1,6.3618855E1,4.1889034E1,1.0002005E2,4.478449E1,4.0783146E1,4.779242E1,5.2227634E1,1.756448E1,2.3218668E1,2.0214025E1,3.201361E1],"tree_param":{"num_deleted":"0","num_feature":"31","num_nodes":"23","size_leaf_vector":"1"}},{"base_weights":[-1.5896985E-3,-8.1406094E-2,1.2259405E-1,-0E0,-2.3459013E-1,-4.9316575E-5,1.8370822E-1,8.771067E-2,-1.5285479E-1,-6.9225036E-2,-2.9810833E-2,-0E0,1.79287E-2,-6.280426E-4,1.960995E-1,-1.988556E-2,-0E0,-0E0,-1.797952E-1,-0E0,1.808318E-2,-0E0,-1.955366E-2],"categories":[],"categories_nodes":[],"categories_segments":[],"categories_sizes":[],"default_left":[0,0,0,0,0,0,0,0,0,0,0,0,0,0,0,0,0,0,0,0,0,0,0],"id":19,"left_children":[1,3,5,7,9,-1,11,13,15,17,-1,-1,-1,-1,19,-1,-1,-1,21,-1,-1,-1,-1],"loss_changes":[3.235766E0,3.1402583E0,1.5600978E0,1.8972243E0,9.029913E-1,0E0,7.5099754E-1,1.7571718E0,8.4484434E-1,1.1192936E0,0E0,0E0,0E0,0E0,8.688407E-1,0E0,0E0,0E0,8.7225926E-1,0E0,0E0,0E0,0E0],"parents":[2147483647,0,0,1,1,2,2,3,3,4,4,6,6,7,7,8,8,9,9,14,14,18,18],"right_children":[2,4,6,8,10,-1,12,14,16,18,-1,-1,-1,-1,20,-1,-1,-1,22,-1,-1,-1,-1],"split_conditions":[1E1,8E0,5E0,2E0,1.507703E3,-4.9316575E-5,6E0,1.1E1,3E0,1.2E1,-2.9810833E-2,-0E0,1.79287E-2,-6.280426E-4,1.6153846E0,-1.988556E-2,-0E0,-0E0,1.6756756E0,-0E0,1.808318E-2,-0E0,-1.955366E-2],"split_indices":[1,0,28,24,26,0,0,29,30,29,0,0,0,0,9,0,0,0,9,0,0,0,0],"split_type":[0,0,0,0,0,0,0,0,0,0,0,0,0,0,0,0,0,0,0,0,0,0,0],"sum_hessian":[3.3646527E2,2.2389867E2,1.1256661E2,1.423552E2,8.154347E1,1.7774702E1,9.479191E1,9.6762985E1,4.5592213E1,5.774876E1,2.3794718E1,4.0974358E1,5.3817547E1,3.4050224E1,6.2712757E1,1.9668736E1,2.592348E1,1.6964687E1,4.078407E1,1.8892162E1,4.3820595E1,1.6745556E1,2.4038515E1],"tree_param":{"num_deleted":"0","num_feature":"31","num_nodes":"23","size_leaf_vector":"1"}},{"base_weights":[1.5989844E-2,-1.2067046E-1,8.5813574E-2,-3.8326494E-2,-0E0,1.4067222E-1,-1.19231455E-2,1.4355597E-2,-9.2261955E-2,-0E0,1.7057633E-1,1.8082862E-3,-6.0367486E-3,-1.9050846E-2,-0E0,7.47691E-3,-5.600571E-3,-0E0,2.4058113E-1,2.1829007E-2,-0E0],"categories":[],"categories_nodes":[],"categories_segments":[],"categories_sizes":[],"default_left":[0,0,0,0,0,0,0,0,0,0,0,0,0,0,0,0,0,0,0,0,0],"id":20,"left_children":[1,3,5,-1,7,9,11,-1,13,15,17,-1,-1,-1,-1,-1,-1,-1,19,-1,-1],"loss_changes":[3.4192972E0,7.7967815E0,1.9066596E0,0E0,2.0846252E0,4.833176E-1,4.6565554E-1,0E0,1.5039023E0,5.303977E-1,9.1824913E-1,0E0,0E0,0E0,0E0,0E0,0E0,0E0,1.7786283E0,0E0,0E0],"parents":[2147483647,0,0,1,1,2,2,4,4,5,5,6,6,8,8,9,9,10,10,18,18],"right_children":[2,4,6,-1,8,10,12,-1,14,16,18,-1,-1,-1,-1,-1,-1,-1,20,-1,-1],"split_conditions":[1.2916666E0,1E0,1E1,-3.8326494E-2,7E0,1.4886937E3,1.36E0,1.4355597E-2,1E1,1.4661245E3,6E0,1.8082862E-3,-6.0367486E-3,-1.9050846E-2,-0E0,7.47691E-3,-5.600571E-3,-0E0,1.7E0,2.1829007E-2,-0E0],"split_indices":[7,22,5,0,5,26,7,0,5,26,5,0,0,0,0,0,0,0,7,0,0],"split_type":[0,0,0,0,0,0,0,0,0,0,0,0,0,0,0,0,0,0,0,0,0],"sum_hessian":[3.6623364E2,1.0488562E2,2.6134802E2,2.5872908E1,7.901272E1,1.9131293E2,7.003508E1,3.3769924E1,4.524279E1,4.549004E1,1.4582289E2,1.5734699E1,5.4300385E1,2.0902061E1,2.434073E1,2.9101585E1,1.6388456E1,5.805402E1,8.7768875E1,6.349887E1,2.4269999E1],"tree_param":{"num_deleted":"0","num_feature":"31","num_nodes":"21","size_leaf_vector":"1"}},{"base_weights":[-0E0,1.886396E-1,-4.886437E-2,-0E0,2.341353E-2,4.5018706E-2,-8.583619E-2,1.2390509E-1,-0E0,-1.3818431E-1,-0E0,1.4614687E-2,-0E0,-2.1243517E-1,-0E0,-0E0,-3.661694E-1,7.25288E-3,-1.293376E-2,-0E0,-3.5879172E-2],"categories":[],"categories_nodes":[],"categories_segments":[],"categories_sizes":[],"default_left":[0,0,0,0,0,0,0,0,0,0,0,0,0,0,0,0,0,0,0,0,0],"id":21,"left_children":[1,3,5,-1,-1,7,9,11,-1,13,-1,-1,-1,15,-1,17,19,-1,-1,-1,-1],"loss_changes":[3.071185E0,2.53511E0,1.1918519E0,0E0,0E0,5.23883E-1,1.4808811E0,4.5640486E-1,0E0,2.2225647E0,0E0,0E0,0E0,3.9248543E0,0E0,1.199352E0,3.705824E0,0E0,0E0,0E0,0E0],"parents":[2147483647,0,0,1,1,2,2,5,5,6,6,7,7,9,9,13,13,15,15,16,16],"right_children":[2,4,6,-1,-1,8,10,12,-1,14,-1,-1,-1,16,-1,18,20,-1,-1,-1,-1],"split_conditions":[-9.688974E1,1.2E0,1.1666666E0,-0E0,2.341353E-2,-1.1596859E1,4E0,1.4887849E3,-0E0,1.1E1,-0E0,1.4614687E-2,-0E0,9E0,-0E0,1.5524506E3,1.4625968E3,7.25288E-3,-1.293376E-2,-0E0,-3.5879172E-2],"split_indices":[27,9,6,0,0,27,10,26,0,5,0,0,0,29,0,26,26,0,0,0,0],"split_type":[0,0,0,0,0,0,0,0,0,0,0,0,0,0,0,0,0,0,0,0,0],"sum_hessian":[3.5669797E2,6.363264E1,2.930653E2,2.6227058E1,3.7405582E1,5.3809536E1,2.3925578E2,3.8779785E1,1.5029752E1,1.6814E2,7.111577E1,2.0253796E1,1.8525988E1,1.1876654E2,4.9373463E1,5.1390106E1,6.7376434E1,3.3302345E1,1.8087763E1,2.4336897E1,4.3039536E1],"tree_param":{"num_deleted":"0","num_feature":"31","num_nodes":"21","size_leaf_vector":"1"}},{"base_weights":[-4.30852E-2,4.9036752E-2,-1.5276447E-1,1.7734364E-2,-0E0,-2.261732E-1,-0E0,-9.105784E-2,3.1399917E-2,-2.962208E-1,-0E0,-1.1347705E-2,3.3806565E-3,-0E0,-1.7827978E-2,8.291033E-3,-0E0,-0E0,-2.78168E-2],"categories":[],"categories_nodes":[],"categories_segments":[],"categories_sizes":[],"default_left":[0,0,0,0,0,0,0,0,0,0,0,0,0,0,0,0,0,0,0],"id":22,"left_children":[1,3,5,-1,7,9,11,13,15,17,-1,-1,-1,-1,-1,-1,-1,-1,-1],"loss_changes":[3.7829888E0,2.6388865E0,1.6326709E0,0E0,5.6596875E-1,1.9882865E0,7.252641E-1,1.6023922E0,5.400759E-1,3.1623058E0,0E0,0E0,0E0,0E0,0E0,0E0,0E0,0E0,0E0],"parents":[2147483647,0,0,1,1,2,2,4,4,5,5,6,6,7,7,8,8,9,9],"right_children":[2,4,6,-1,8,10,12,14,16,18,-1,-1,-1,-1,-1,-1,-1,-1,-1],"split_conditions":[-1E0,1.1764706E0,2E0,1.7734364E-2,1E0,1.5333333E0,1.4820957E3,1.5041614E3,1E0,3E0,-0E0,-1.1347705E-2,3.3806565E-3,-0E0,-1.7827978E-2,8.291033E-3,-0E0,-0E0,-2.78168E-2],"split_indices":[30,7,11,0,12,7,26,26,22,13,0,0,0,0,0,0,0,0,0],"split_type":[0,0,0,0,0,0,0,0,0,0,0,0,0,0,0,0,0,0,0],"sum_hessian":[3.30784E2,1.6194106E2,1.6884296E2,4.0610474E1,1.2133058E2,1.0741078E2,6.1432167E1,5.751557E1,6.381501E1,8.410153E1,2.3309254E1,1.8463999E1,4.2968166E1,3.0562431E1,2.6953142E1,3.683987E1,2.6975138E1,2.4168243E1,5.993329E1],"tree_param":{"num_deleted":"0","num_feature":"31","num_nodes":"19","size_leaf_vector":"1"}},{"base_weights":[2.872389E-2,1.774541E-2,-0E0,-1.7608156E-2,2.683414E-2,-1.1970514E-1,8.370353E-2,-0E0,-1.3601834E-2,1.5552339E-1,-0E0,1.3568939E-2,-0E0,4.2235972E-3,-7.8926384E-2,-1.875329E-2,-0E0],"categories":[],"categories_nodes":[],"categories_segments":[],"categories_sizes":[],"default_left":[0,0,0,0,0,0,0,0,0,0,0,0,0,0,0,0,0],"id":23,"left_children":[1,-1,3,-1,5,7,9,-1,-1,11,13,-1,-1,-1,15,-1,-1],"loss_changes":[2.2602592E0,0E0,2.1589823E0,0E0,2.3971972E0,7.082861E-1,1.2770386E0,0E0,0E0,1.0926459E0,5.862477E-1,0E0,0E0,0E0,1.553376E0,0E0,0E0],"parents":[2147483647,0,0,2,2,4,4,5,5,6,6,9,9,10,10,14,14],"right_children":[2,-1,4,-1,6,8,10,-1,-1,12,14,-1,-1,-1,16,-1,-1],"split_conditions":[1.406887E3,1.774541E-2,1.4437423E3,-1.7608156E-2,1.4700547E3,1.422846E3,1E0,-0E0,-1.3601834E-2,3E0,1E0,1.3568939E-2,-0E0,4.2235972E-3,5E0,-1.875329E-2,-0E0],"split_indices":[25,0,25,0,26,26,24,0,0,23,30,0,0,0,30,0,0],"split_type":[0,0,0,0,0,0,0,0,0,0,0,0,0,0,0,0,0],"sum_hessian":[3.5683813E2,3.372404E1,3.231141E2,2.537723E1,2.9773688E2,6.383071E1,2.3390617E2,2.61891E1,3.7641613E1,1.1854905E2,1.1535712E2,9.564439E1,2.2904657E1,7.110584E1,4.4251274E1,2.0810804E1,2.344047E1],"tree_param":{"num_deleted":"0","num_feature":"31","num_nodes":"17","size_leaf_vector":"1"}},{"base_weights":[5.245589E-2,1.5821299E-1,-4.5182507E-2,2.0741025E-1,-7.413813E-3,-1.4857557E-1,1.1970785E-2,2.2491537E-1,-0E0,-3.2054698E-1,-0E0,-1.4770356E-2,7.93189E-3,6.5687293E-4,2.8144E-1,-3.3336062E-2,-0E0,1.1455967E-2,-5.5137216E-3,3.6468406E-3,-1.4711456E-2,2.3371128E-2,-0E0],"categories":[],"categories_nodes":[],"categories_segments":[],"categories_sizes":[],"default_left":[0,0,0,0,0,0,0,0,0,0,0,0,0,0,0,0,0,0,0,0,0,0,0],"id":24,"left_children":[1,3,5,7,-1,9,11,13,-1,15,17,19,-1,-1,21,-1,-1,-1,-1,-1,-1,-1,-1],"loss_changes":[4.3513384E0,3.0834632E0,1.5855148E0,6.010246E-1,0E0,2.8490987E0,6.6570663E-1,9.254389E-1,0E0,1.1043806E0,8.2522845E-1,1.3658329E0,0E0,0E0,1.3254929E0,0E0,0E0,0E0,0E0,0E0,0E0,0E0,0E0],"parents":[2147483647,0,0,1,1,2,2,3,3,5,5,6,6,7,7,9,9,10,10,11,11,14,14],"right_children":[2,4,6,8,-1,10,12,14,-1,16,18,20,-1,-1,22,-1,-1,-1,-1,-1,-1,-1,-1],"split_conditions":[-1E0,4E0,1.28125E0,2.15625E0,-7.413813E-3,8E0,1.2916666E0,1E0,-0E0,1.0666667E0,1.4054054E0,8.695652E-1,7.93189E-3,6.5687293E-4,1.6190476E0,-3.3336062E-2,-0E0,1.1455967E-2,-5.5137216E-3,3.6468406E-3,-1.4711456E-2,2.3371128E-2,-0E0],"split_indices":[30,10,8,8,0,4,7,21,0,8,7,7,0,0,6,0,0,0,0,0,0,0,0],"split_type":[0,0,0,0,0,0,0,0,0,0,0,0,0,0,0,0,0,0,0,0,0,0,0],"sum_hessian":[3.7534598E2,1.9788351E2,1.7746248E2,1.7966779E2,1.8215733E1,8.505971E1,9.240277E1,1.6424832E2,1.5419469E1,4.378865E1,4.1271053E1,4.741092E1,4.499185E1,4.874788E1,1.15500435E2,2.1046976E1,2.2741673E1,1.9867834E1,2.140322E1,2.320016E1,2.421076E1,8.53204E1,3.018004E1],"tree_param":{"num_deleted":"0","num_feature":"31","num_nodes":"23","size_leaf_vector":"1"}},{"base_weights":[1.7556531E-2,-3.9560616E-2,1.6343457E-1,-1.6772427E-1,5.507104E-2,2.1301843E-1,-0E0,-0E0,-2.8714514E-1,9.40297E-3,-5.1937416E-2,-0E0,1.9038979E-2,-2.8603654E-2,-2.3054516E-4,-1.4646561E-2,-0E0],"categories":[],"categories_nodes":[],"categories_segments":[],"categories_sizes":[],"default_left":[0,0,0,0,0,0,0,0,0,0,0,0,0,0,0,0,0],"id":25,"left_children":[1,3,5,7,9,11,-1,-1,13,-1,15,-1,-1,-1,-1,-1,-1],"loss_changes":[3.5548098E0,3.463842E0,1.1028175E0,2.3630545E0,1.5197136E0,1.8292818E0,0E0,0E0,1.1666546E0,0E0,8.633169E-1,0E0,0E0,0E0,0E0,0E0,0E0],"parents":[2147483647,0,0,1,1,2,2,3,3,4,4,5,5,8,8,10,10],"right_children":[2,4,6,8,10,12,-1,-1,14,-1,16,-1,-1,-1,-1,-1,-1],"split_conditions":[1E1,1.3E1,3E0,1E0,1.6E1,4E0,-0E0,-0E0,1E0,9.40297E-3,1.7E1,-0E0,1.9038979E-2,-2.8603654E-2,-2.3054516E-4,-1.4646561E-2,-0E0],"split_indices":[3,28,21,24,29,0,0,0,11,0,28,0,0,0,0,0,0],"split_type":[0,0,0,0,0,0,0,0,0,0,0,0,0,0,0,0,0],"sum_hessian":[3.6556415E2,2.4560345E2,1.1996072E2,1.2032123E2,1.2528222E2,9.375796E1,2.6202755E1,5.2467426E1,6.78538E1,8.893184E1,3.6350388E1,1.9456417E1,7.4301544E1,3.564842E1,3.220538E1,1.7508482E1,1.8841904E1],"tree_param":{"num_deleted":"0","num_feature":"31","num_nodes":"17","size_leaf_vector":"1"}},{"base_weights":[-1.2473704E-2,3.5615664E-2,-2.5306034E-1,8.6385064E-2,-5.0922625E-2,-2.2830581E-2,-0E0,-0E0,1.14298E-2,-2.2187406E-2,8.944691E-2,9.143514E-2,-1.224022E-2,-0E0,1.8085944E-2,2.0979847E-1,-0E0,2.1447267E-2,-0E0],"categories":[],"categories_nodes":[],"categories_segments":[],"categories_sizes":[],"default_left":[0,0,0,0,0,0,0,0,0,0,0,0,0,0,0,0,0,0,0],"id":26,"left_children":[1,3,5,7,9,-1,-1,11,-1,-1,13,15,-1,-1,-1,17,-1,-1,-1],"loss_changes":[4.877764E0,1.3757639E0,9.286957E-1,1.3446205E0,4.0487866E0,0E0,0E0,1.7850218E0,0E0,0E0,1.1519575E0,1.4960856E0,0E0,0E0,0E0,1.1635573E0,0E0,0E0,0E0],"parents":[2147483647,0,0,1,1,2,2,3,3,4,4,7,7,10,10,11,11,15,15],"right_children":[2,4,6,8,10,-1,-1,12,-1,-1,14,16,-1,-1,-1,18,-1,-1,-1],"split_conditions":[1.6E1,1.552666E3,1.1483356E2,1.4333333E0,1.6126061E3,-2.2830581E-2,-0E0,1.8125E0,1.14298E-2,-2.2187406E-2,1.5833334E0,8E0,-1.224022E-2,-0E0,1.8085944E-2,1.5016992E3,-0E0,2.1447267E-2,-0E0],"split_indices":[29,26,27,8,26,0,0,6,0,0,6,5,0,0,0,26,0,0,0],"split_type":[0,0,0,0,0,0,0,0,0,0,0,0,0,0,0,0,0,0,0],"sum_hessian":[3.4570572E2,2.770541E2,6.865163E1,2.0208226E2,7.497184E1,4.4717175E1,2.3934458E1,1.0590689E2,9.617536E1,3.2743546E1,4.2228294E1,7.453325E1,3.1373642E1,2.4239876E1,1.7988419E1,4.58631E1,2.8670153E1,2.952913E1,1.633397E1],"tree_param":{"num_deleted":"0","num_feature":"31","num_nodes":"19","size_leaf_vector":"1"}},{"base_weights":[-8.758594E-3,8.667297E-2,-5.71916E-2,-0E0,1.13589E-2,-1.7929828E-1,-0E0,-1.798791E-2,-0E0,-1.2298606E-1,9.366519E-2,-2.1417001E-1,-0E0,-8.0375344E-4,1.720814E-2,-0E0,-2.815325E-2],"categories":[],"categories_nodes":[],"categories_segments":[],"categories_sizes":[],"default_left":[0,0,0,0,0,0,0,0,0,0,0,0,0,0,0,0,0],"id":27,"left_children":[1,3,5,-1,-1,7,9,-1,-1,11,13,15,-1,-1,-1,-1,-1],"loss_changes":[1.6629965E0,7.1921796E-1,2.123229E0,0E0,0E0,2.504694E0,2.1800966E0,0E0,0E0,1.0946699E0,2.87459E0,1.366363E0,0E0,0E0,0E0,0E0,0E0],"parents":[2147483647,0,0,1,1,2,2,5,5,6,6,9,9,10,10,11,11],"right_children":[2,4,6,-1,-1,8,10,-1,-1,12,14,16,-1,-1,-1,-1,-1],"split_conditions":[1.1666666E0,1E0,1.2631578E0,-0E0,1.13589E-2,2.6111112E0,1.548387E0,-1.798791E-2,-0E0,2E0,1.1E1,-1E0,-0E0,-8.0375344E-4,1.720814E-2,-0E0,-2.815325E-2],"split_indices":[6,17,7,0,0,6,6,0,0,18,28,30,0,0,0,0,0],"split_type":[0,0,0,0,0,0,0,0,0,0,0,0,0,0,0,0,0],"sum_hessian":[3.7800845E2,1.0029599E2,2.7771246E2,5.1009888E1,4.9286102E1,9.1768875E1,1.859436E2,7.431208E1,1.745679E1,7.578221E1,1.1016139E2,4.6965225E1,2.8816986E1,5.4353634E1,5.5807755E1,2.906045E1,1.7904776E1],"tree_param":{"num_deleted":"0","num_feature":"31","num_nodes":"17","size_leaf_vector":"1"}},{"base_weights":[2.5530914E-3,-3.4093726E-2,1.0232902E-1,-0E0,-1.2670625E-2,1.4213721E-1,-0E0,6.979554E-2,-4.0448945E-2,1.30716665E-2,-0E0,-0E0,1.2493685E-2,6.755269E-2,-2.3776942E-1,-0E0,1.0052506E-2,-2.3003824E-2,-0E0],"categories":[],"categories_nodes":[],"categories_segments":[],"categories_sizes":[],"default_left":[0,0,0,0,0,0,0,0,0,0,0,0,0,0,0,0,0,0,0],"id":28,"left_children":[1,3,5,7,-1,9,-1,11,13,-1,-1,-1,-1,15,17,-1,-1,-1,-1],"loss_changes":[1.5217131E0,1.1926854E0,6.905855E-1,5.376547E-1,0E0,1.0217544E0,0E0,1.0579946E0,3.2510161E0,0E0,0E0,0E0,0E0,7.077225E-1,9.1209984E-1,0E0,0E0,0E0,0E0],"parents":[2147483647,0,0,1,1,2,2,3,3,5,5,7,7,8,8,13,13,14,14],"right_children":[2,4,6,8,-1,10,-1,12,14,-1,-1,-1,-1,16,18,-1,-1,-1,-1],"split_conditions":[1.5350771E3,2E0,1.6504797E3,1.2647059E0,-1.2670625E-2,2.1176472E0,-0E0,3E0,3E0,1.30716665E-2,-0E0,-0E0,1.2493685E-2,1E0,1E0,-0E0,1.0052506E-2,-2.3003824E-2,-0E0],"split_indices":[26,15,26,6,0,6,0,19,19,0,0,0,0,15,14,0,0,0,0],"split_type":[0,0,0,0,0,0,0,0,0,0,0,0,0,0,0,0,0,0,0],"sum_hessian":[3.402834E2,2.2258792E2,1.1769547E2,1.8462923E2,3.795869E1,9.382586E1,2.3869617E1,6.714416E1,1.1748508E2,7.551843E1,1.8307425E1,2.9633318E1,3.7510838E1,6.477377E1,5.27113E1,2.2337698E1,4.2436077E1,3.1636692E1,2.107461E1],"tree_param":{"num_deleted":"0","num_feature":"31","num_nodes":"19","size_leaf_vector":"1"}},{"base_weights":[-0E0,1.411647E-1,-5.3249523E-2,-0E0,1.8013851E-1,-0E0,-1.8121296E-1,1.52735235E-2,-0E0,-1.4327815E-2,4.2300142E-2,-3.7462737E-2,-0E0,8.989917E-2,-1.0243149E-2,-0E0,1.6333382E-1,-0E0,1.496291E-2],"categories":[],"categories_nodes":[],"categories_segments":[],"categories_sizes":[],"default_left":[0,0,0,0,0,0,0,0,0,0,0,0,0,0,0,0,0,0,0],"id":29,"left_children":[1,3,5,-1,7,9,11,-1,-1,-1,13,-1,-1,15,-1,-1,17,-1,-1],"loss_changes":[2.6933112E0,4.9570775E-1,1.7251227E0,0E0,6.217041E-1,1.9380314E0,4.006407E0,0E0,0E0,0E0,1.3363292E0,0E0,0E0,1.2515976E0,0E0,0E0,1.0431073E0,0E0,0E0],"parents":[2147483647,0,0,1,1,2,2,4,4,5,5,6,6,10,10,13,13,16,16],"right_children":[2,4,6,-1,8,10,12,-1,-1,-1,14,-1,-1,16,-1,-1,18,-1,-1],"split_conditions":[1.4565471E3,2E0,1E1,-0E0,2E0,1.482073E3,1.5288169E3,1.52735235E-2,-0E0,-1.4327815E-2,1.5815875E3,-3.7462737E-2,-0E0,1.548387E0,-1.0243149E-2,-0E0,1E0,-0E0,1.496291E-2],"split_indices":[25,0,2,0,23,25,25,0,0,0,25,0,0,6,0,0,23,0,0],"split_type":[0,0,0,0,0,0,0,0,0,0,0,0,0,0,0,0,0,0,0],"sum_hessian":[3.6253885E2,9.3678375E1,2.6886047E2,2.1962437E1,7.171594E1,1.9568683E2,7.317366E1,5.5834854E1,1.5881086E1,3.3182163E1,1.6250467E2,1.8029823E1,5.5143833E1,1.473863E2,1.5118359E1,5.778711E1,8.95992E1,2.1890987E1,6.7708206E1],"tree_param":{"num_deleted":"0","num_feature":"31","num_nodes":"19","size_leaf_vector":"1"}},{"base_weights":[2.3895284E-2,5.5129558E-2,-7.8734316E-2,1.15153685E-1,-6.5625876E-2,-1.5166834E-2,-0E0,1.5802749E-1,-7.4030883E-3,-1.6698007E-1,-0E0,-0E0,2.071448E-1,-1.724702E-2,-0E0,2.4206455E-1,-0E0,2.625727E-1,-0E0,-0E0,1.9353127E-2],"categories":[],"categories_nodes":[],"categories_segments":[],"categories_sizes":[],"default_left":[0,0,0,0,0,0,0,0,0,0,0,0,0,0,0,0,0,0,0,0,0],"id":30,"left_children":[1,3,5,7,9,-1,-1,11,-1,13,-1,-1,15,-1,-1,17,-1,19,-1,-1,-1],"loss_changes":[1.0712124E0,2.4144158E0,1.2755173E0,2.406382E0,9.228649E-1,0E0,0E0,2.0482793E0,0E0,4.979657E-1,0E0,0E0,1.684197E0,0E0,0E0,4.774313E-1,0E0,5.918884E-1,0E0,0E0,0E0],"parents":[2147483647,0,0,1,1,2,2,3,3,4,4,7,7,9,9,12,12,15,15,17,17],"right_children":[2,4,6,8,10,-1,-1,12,-1,14,-1,-1,16,-1,-1,18,-1,20,-1,-1,-1],"split_conditions":[4E0,4E0,1.451613E0,2.2E0,1.5405406E0,-1.5166834E-2,-0E0,1.0769231E0,-7.4030883E-3,1.84375E0,-0E0,-0E0,2.0714285E0,-1.724702E-2,-0E0,2.0454545E0,-0E0,2E0,-0E0,-0E0,1.9353127E-2],"split_indices":[11,13,7,9,8,0,0,8,0,9,0,0,8,0,0,9,0,13,0,0,0],"split_type":[0,0,0,0,0,0,0,0,0,0,0,0,0,0,0,0,0,0,0,0,0],"sum_hessian":[3.5530594E2,3.0157547E2,5.3730453E1,2.2239185E2,7.918363E1,2.8993382E1,2.473707E1,2.016255E2,2.076634E1,4.2945377E1,3.6238255E1,3.7724133E1,1.6390138E2,2.4020163E1,1.8925215E1,1.4801213E2,1.5889242E1,1.322958E2,1.571633E1,1.6071495E1,1.1622431E2],"tree_param":{"num_deleted":"0","num_feature":"31","num_nodes":"21","size_leaf_vector":"1"}},{"base_weights":[-5.079038E-2,7.0575625E-2,-1.9088024E-1,2.1705298E-1,-7.0022633E-3,-3.7106544E-1,-6.3253924E-2,-0E0,1.8518163E-2,-1.1627659E-1,4.44162E-3,-3.6092722E-4,-3.5658725E-2,1.8880218E-2,-2.1898767E-1,-0E0,-1.6489323E-2,-5.027579E-4,9.227989E-3,-3.342571E-1,-0E0,-0E0,-3.338575E-2],"categories":[],"categories_nodes":[],"categories_segments":[],"categories_sizes":[],"default_left":[0,0,0,0,0,0,0,0,0,0,0,0,0,0,0,0,0,0,0,0,0,0,0],"id":31,"left_children":[1,3,5,7,9,11,13,-1,-1,15,-1,-1,-1,17,19,-1,-1,-1,-1,21,-1,-1,-1],"loss_changes":[6.3907065E0,2.7684038E0,2.348795E0,5.3082466E-1,1.0053346E0,1.5023966E0,2.286109E0,0E0,0E0,8.343825E-1,0E0,0E0,0E0,6.953878E-1,1.7848592E0,0E0,0E0,0E0,0E0,1.6152711E0,0E0,0E0,0E0],"parents":[2147483647,0,0,1,1,2,2,3,3,4,4,5,5,6,6,9,9,13,13,14,14,19,19],"right_children":[2,4,6,8,10,12,14,-1,-1,16,-1,-1,-1,18,20,-1,-1,-1,-1,22,-1,-1,-1],"split_conditions":[-1E0,1.0666667E0,4E0,4E0,1.75E0,1E0,9E0,-0E0,1.8518163E-2,1.4E1,4.44162E-3,-3.6092722E-4,-3.5658725E-2,7E0,1.3E1,-0E0,-1.6489323E-2,-5.027579E-4,9.227989E-3,6E0,-0E0,-0E0,-3.338575E-2],"split_indices":[30,6,30,2,9,22,2,0,0,28,0,0,0,2,2,0,0,0,0,30,0,0,0],"split_type":[0,0,0,0,0,0,0,0,0,0,0,0,0,0,0,0,0,0,0,0,0,0,0],"sum_hessian":[3.4413828E2,1.7071735E2,1.7342091E2,7.418647E1,9.6530876E1,5.7423016E1,1.159979E2,2.2428034E1,5.1758434E1,5.87276E1,3.7803272E1,2.5570084E1,3.1852934E1,6.1712494E1,5.4285408E1,3.396321E1,2.4764387E1,2.6653128E1,3.505937E1,3.766602E1,1.6619389E1,1.5699816E1,2.1966202E1],"tree_param":{"num_deleted":"0","num_feature":"31","num_nodes":"23","size_leaf_vector":"1"}},{"base_weights":[5.016926E-2,-1.586514E-2,8.5783236E-2,-0E0,1.6930659E-1,4.850321E-2,-7.036279E-2,2.3684995E-2,4.474917E-2,8.123872E-3,-0E0,-1.8171625E-2,-0E0,-8.3620526E-2,1.4784332E-1,-1.4283437E-2,-0E0,-0E0,1.6411738E-2,1.3814618E-2,-5.304842E-3],"categories":[],"categories_nodes":[],"categories_segments":[],"categories_sizes":[],"default_left":[0,0,0,0,0,0,0,0,0,0,0,0,0,0,0,0,0,0,0,0,0],"id":32,"left_children":[1,-1,3,5,7,9,11,-1,13,-1,-1,-1,-1,15,17,-1,-1,19,-1,-1,-1],"loss_changes":[3.5285716E0,0E0,3.1441374E0,6.402804E-1,3.1146827E0,5.7832754E-1,1.6462499E0,0E0,2.0874028E0,0E0,0E0,0E0,0E0,8.3242357E-1,8.6983943E-1,0E0,0E0,1.0586971E0,0E0,0E0,0E0],"parents":[2147483647,0,0,2,2,3,3,4,4,5,5,6,6,8,8,13,13,14,14,17,17],"right_children":[2,-1,4,6,8,10,12,-1,14,-1,-1,-1,-1,16,18,-1,-1,20,-1,-1,-1],"split_conditions":[8.888889E-1,-1.586514E-2,2E0,1E1,1.34375E0,1E1,1.3E1,2.3684995E-2,1E0,8.123872E-3,-0E0,-1.8171625E-2,-0E0,4E0,1.5625E0,-1.4283437E-2,-0E0,1.1111112E0,1.6411738E-2,1.3814618E-2,-5.304842E-3],"split_indices":[8,0,11,29,8,3,29,0,18,0,0,0,0,13,6,0,0,6,0,0,0],"split_type":[0,0,0,0,0,0,0,0,0,0,0,0,0,0,0,0,0,0,0,0,0],"sum_hessian":[3.9287668E2,2.99566E1,3.6292007E2,1.6216081E2,2.0075926E2,7.048962E1,9.1671196E1,6.678532E1,1.3397394E2,4.837762E1,2.2111994E1,2.599314E1,6.567806E1,4.361635E1,9.03576E1,2.2705479E1,2.091087E1,4.4613693E1,4.57439E1,1.7772655E1,2.6841038E1],"tree_param":{"num_deleted":"0","num_feature":"31","num_nodes":"21","size_leaf_vector":"1"}},{"base_weights":[3.2059003E-2,1.2383607E-1,-4.166708E-2,1.4154754E-2,6.5703513E-3,2.296471E-4,-1.393838E-1,1.5994577E-2,-7.6436944E-2,-2.3267677E-1,-0E0,-0E0,-2.3170125E-1,-3.4113216E-1,-0E0,-0E0,-2.41274E-2,-0E0,-3.244154E-2],"categories":[],"categories_nodes":[],"categories_segments":[],"categories_sizes":[],"default_left":[0,0,0,0,0,0,0,0,0,0,0,0,0,0,0,0,0,0,0],"id":33,"left_children":[1,3,5,-1,7,-1,9,-1,11,13,-1,-1,15,17,-1,-1,-1,-1,-1],"loss_changes":[2.9963088E0,1.2136676E0,1.3877904E0,0E0,2.7095149E0,0E0,1.2456801E0,0E0,1.5859606E0,1.427419E0,0E0,0E0,8.516792E-1,8.995576E-1,0E0,0E0,0E0,0E0,0E0],"parents":[2147483647,0,0,1,1,2,2,4,4,6,6,8,8,9,9,12,12,13,13],"right_children":[2,4,6,-1,8,-1,10,-1,12,14,-1,-1,16,18,-1,-1,-1,-1,-1],"split_conditions":[-1.0913908E1,1E0,9E0,1.4154754E-2,1.4054054E0,2.296471E-4,2E0,1.5994577E-2,7E0,5E0,-0E0,-0E0,3E0,1.3103448E0,-0E0,-0E0,-2.41274E-2,-0E0,-3.244154E-2],"split_indices":[27,24,0,0,8,0,22,0,1,13,0,0,13,8,0,0,0,0,0],"split_type":[0,0,0,0,0,0,0,0,0,0,0,0,0,0,0,0,0,0,0],"sum_hessian":[3.9205765E2,1.9658125E2,1.954764E2,9.3024765E1,1.0355648E2,1.0920993E2,8.626646E1,3.7886715E1,6.566977E1,5.215854E1,3.410792E1,3.1493868E1,3.4175903E1,3.50236E1,1.7134935E1,1.5056641E1,1.911926E1,1.5165156E1,1.9858446E1],"tree_param":{"num_deleted":"0","num_feature":"31","num_nodes":"19","size_leaf_vector":"1"}},{"base_weights":[4.1514733E-3,2.1370484E-1,-4.81141E-2,1.8676765E-2,-0E0,-0E0,-1.6231245E-1,4.747289E-2,-2.0077398E-1,-0E0,-2.259243E-2,1.3810334E-1,-0E0,-2.2353282E-2,-0E0,-1.3221702E-2,-0E0,-0E0,1.4834129E-2,-1.4704663E-1,1.1093346E-1,-0E0,-2.2765983E-2,1.6239133E-2,-0E0],"categories":[],"categories_nodes":[],"categories_segments":[],"categories_sizes":[],"default_left":[0,0,0,0,0,0,0,0,0,0,0,0,0,0,0,0,0,0,0,0,0,0,0,0,0],"id":34,"left_children":[1,3,5,-1,-1,7,9,11,13,15,-1,17,19,-1,-1,-1,-1,-1,-1,21,23,-1,-1,-1,-1],"loss_changes":[4.563569E0,1.5278625E0,1.5165694E0,0E0,0E0,1.8716955E0,1.0560222E0,8.177324E-1,7.684444E-1,6.996379E-1,0E0,9.88273E-1,1.7305181E0,0E0,0E0,0E0,0E0,0E0,0E0,1.5051992E0,8.65219E-1,0E0,0E0,0E0,0E0],"parents":[2147483647,0,0,1,1,2,2,5,5,6,6,7,7,8,8,9,9,11,11,12,12,19,19,20,20],"right_children":[2,4,6,-1,-1,8,10,12,14,16,-1,18,20,-1,-1,-1,-1,-1,-1,22,24,-1,-1,-1,-1],"split_conditions":[-9.607183E1,1.6695237E3,1.4E1,1.8676765E-2,-0E0,1.5809503E3,1.4731946E3,1.4743031E3,1.640971E3,1.4351346E3,-2.259243E-2,1.4245259E3,1.4285715E0,-2.2353282E-2,-0E0,-1.3221702E-2,-0E0,-0E0,1.4834129E-2,1.5157908E3,1E0,-0E0,-2.2765983E-2,1.6239133E-2,-0E0],"split_indices":[27,26,28,0,0,25,25,26,25,25,0,26,8,0,0,0,0,0,0,25,24,0,0,0,0],"split_type":[0,0,0,0,0,0,0,0,0,0,0,0,0,0,0,0,0,0,0,0,0,0,0,0,0],"sum_hessian":[3.5418793E2,8.337015E1,2.7081778E2,6.767729E1,1.5692851E1,1.9202777E2,7.879002E1,1.5737096E2,3.4656815E1,5.3341415E1,2.5448612E1,5.8984013E1,9.838694E1,1.7708042E1,1.6948772E1,1.5192026E1,3.814939E1,1.7484364E1,4.149965E1,4.5519604E1,5.2867336E1,2.6193312E1,1.932629E1,2.3641249E1,2.922609E1],"tree_param":{"num_deleted":"0","num_feature":"31","num_nodes":"25","size_leaf_vector":"1"}},{"base_weights":[8.814503E-2,1.2316781E-1,-2.6256235E-2,1.889912E-1,4.6015576E-2,-1.562173E-2,-0E0,-0E0,2.2834656E-1,1.1711999E-2,-0E0,1.8831488E-2,-0E0,-1.201562E-1,4.87065E-3,-1.8853543E-2,-0E0],"categories":[],"categories_nodes":[],"categories_segments":[],"categories_sizes":[],"default_left":[0,0,0,0,0,0,0,0,0,0,0,0,0,0,0,0,0],"id":35,"left_children":[1,3,5,7,9,-1,-1,-1,11,-1,13,-1,-1,15,-1,-1,-1],"loss_changes":[1.899173E0,6.9937944E-1,1.1703445E0,1.2388101E0,1.5233567E0,0E0,0E0,0E0,1.2235942E0,0E0,1.1736953E0,0E0,0E0,1.3726859E0,0E0,0E0,0E0],"parents":[2147483647,0,0,1,1,2,2,3,3,4,4,8,8,10,10,13,13],"right_children":[2,4,6,8,10,-1,-1,-1,12,-1,14,-1,-1,16,-1,-1,-1],"split_conditions":[4E0,1E0,6E0,4E0,1E0,-1.562173E-2,-0E0,-0E0,6E0,1.1711999E-2,2E0,1.8831488E-2,-0E0,2.7005363E1,4.87065E-3,-1.8853543E-2,-0E0],"split_indices":[10,24,4,0,16,0,0,0,11,0,16,0,0,27,0,0,0],"split_type":[0,0,0,0,0,0,0,0,0,0,0,0,0,0,0,0,0],"sum_hessian":[3.7769275E2,3.142402E2,6.3452553E1,1.4098747E2,1.7325272E2,1.9605814E1,4.384674E1,2.1540037E1,1.1944744E2,5.9391785E1,1.1386093E2,9.361471E1,2.5832735E1,5.6504047E1,5.7356888E1,2.54039E1,3.1100145E1],"tree_param":{"num_deleted":"0","num_feature":"31","num_nodes":"17","size_leaf_vector":"1"}},{"base_weights":[1.7728895E-2,-7.887397E-2,6.814876E-2,-0E0,-1.9494487E-1,1.0001327E-1,-9.339671E-3,-0E0,-1.9888792E-2,1.7125143E-2,3.9117422E-2,-0E0,1.3404189E-1,1.7262599E-1,-0E0,1.493624E-2,-0E0],"categories":[],"categories_nodes":[],"categories_segments":[],"categories_sizes":[],"default_left":[0,0,0,0,0,0,0,0,0,0,0,0,0,0,0,0,0],"id":36,"left_children":[1,3,5,-1,7,9,-1,-1,-1,-1,11,-1,13,15,-1,-1,-1],"loss_changes":[1.6805702E0,1.4176531E0,1.5914705E0,0E0,5.2461576E-1,1.134752E0,0E0,0E0,0E0,0E0,1.1641711E0,0E0,4.8468578E-1,4.602337E-1,0E0,0E0,0E0],"parents":[2147483647,0,0,1,1,2,2,4,4,5,5,10,10,12,12,13,13],"right_children":[2,4,6,-1,8,10,-1,-1,-1,-1,12,-1,14,16,-1,-1,-1],"split_conditions":[1.4750863E3,3E0,3E0,-0E0,1.5217651E3,-9E0,-9.339671E-3,-0E0,-1.9888792E-2,1.7125143E-2,1.1E1,-0E0,2E0,1.527275E3,-0E0,1.493624E-2,-0E0],"split_indices":[26,13,16,0,25,30,0,0,0,0,29,0,24,25,0,0,0],"split_type":[0,0,0,0,0,0,0,0,0,0,0,0,0,0,0,0,0],"sum_hessian":[3.4740958E2,9.294405E1,2.5446552E2,4.2784027E1,5.0160027E1,2.3760132E2,1.68642E1,2.410393E1,2.6056097E1,4.6954906E1,1.9064641E2,1.1219533E2,7.845109E1,6.2445946E1,1.6005142E1,4.5699013E1,1.6746931E1],"tree_param":{"num_deleted":"0","num_feature":"31","num_nodes":"17","size_leaf_vector":"1"}},{"base_weights":[4.315979E-2,1.4214748E-1,-0E0,-0E0,1.9203262E-1,-2.503371E-2,4.564288E-2,-0E0,1.8049704E-2,1.7330603E-1,-5.9924554E-4,1.6199285E-2,-0E0,-6.6527314E-2,7.3972516E-2,-1.5880875E-1,7.5300033E-3,-0E0,1.6692666E-2,-0E0,-2.9337984E-2],"categories":[],"categories_nodes":[],"categories_segments":[],"categories_sizes":[],"default_left":[0,0,0,0,0,0,0,0,0,0,0,0,0,0,0,0,0,0,0,0,0],"id":37,"left_children":[1,3,5,-1,7,-1,9,-1,-1,11,13,-1,-1,15,17,19,-1,-1,-1,-1,-1],"loss_changes":[1.7816627E0,1.0124915E0,4.7813783E0,0E0,6.023164E-1,0E0,1.9673588E0,0E0,0E0,6.1652946E-1,6.97389E-1,0E0,0E0,1.9605263E0,1.0853579E0,3.9266105E0,0E0,0E0,0E0,0E0,0E0],"parents":[2147483647,0,0,1,1,2,2,4,4,6,6,9,9,10,10,13,13,14,14,15,15],"right_children":[2,4,6,-1,8,-1,10,-1,-1,12,14,-1,-1,16,18,20,-1,-1,-1,-1,-1],"split_conditions":[1.4739766E3,1.4814404E3,1.4868639E3,-0E0,1.4442405E3,-2.503371E-2,1.5125732E3,-0E0,1.8049704E-2,1.2E1,1.2E1,1.6199285E-2,-0E0,1.6261392E3,1.5062152E3,9E0,7.5300033E-3,-0E0,1.6692666E-2,-0E0,-2.9337984E-2],"split_indices":[25,26,25,0,25,0,25,0,0,28,0,0,0,25,26,0,0,0,0,0,0],"split_type":[0,0,0,0,0,0,0,0,0,0,0,0,0,0,0,0,0,0,0,0,0],"sum_hessian":[3.677617E2,1.19519424E2,2.4824228E2,2.7849007E1,9.167042E1,2.8182497E1,2.2005978E2,3.8036144E1,5.363427E1,7.814024E1,1.4191954E2,4.945591E1,2.8684338E1,1.0232823E2,3.9591305E1,8.161106E1,2.0717178E1,2.1132988E1,1.8458315E1,5.276588E1,2.8845177E1],"tree_param":{"num_deleted":"0","num_feature":"31","num_nodes":"21","size_leaf_vector":"1"}},{"base_weights":[3.8965724E-2,-0E0,9.512182E-2,9.6205294E-2,-1.0811694E-1,1.4415191E-2,6.604362E-3,1.248286E-2,-0E0,-0E0,-2.8032068E-2,6.2790453E-3,-4.109909E-2,-0E0,-9.913575E-3],"categories":[],"categories_nodes":[],"categories_segments":[],"categories_sizes":[],"default_left":[0,0,0,0,0,0,0,0,0,0,0,0,0,0,0],"id":38,"left_children":[1,3,5,7,9,-1,11,-1,-1,-1,-1,-1,13,-1,-1],"loss_changes":[1.0802386E0,2.0452573E0,1.0827439E0,1.1530983E0,4.691646E0,0E0,7.286879E-1,0E0,0E0,0E0,0E0,0E0,7.171571E-1,0E0,0E0],"parents":[2147483647,0,0,1,1,2,2,3,3,4,4,6,6,12,12],"right_children":[2,4,6,8,10,-1,12,-1,-1,-1,-1,-1,14,-1,-1],"split_conditions":[1.7692307E0,1.3529412E0,8E0,2.0769231E0,1.3928572E0,1.4415191E-2,-1E0,1.248286E-2,-0E0,-0E0,-2.8032068E-2,6.2790453E-3,5E0,-0E0,-9.913575E-3],"split_indices":[9,9,28,8,8,0,30,0,0,0,0,0,3,0,0],"split_type":[0,0,0,0,0,0,0,0,0,0,0,0,0,0,0],"sum_hessian":[3.662013E2,1.8770961E2,1.7849168E2,8.5456604E1,1.02253006E2,5.6041943E1,1.2244974E2,5.4081486E1,3.1375114E1,7.116829E1,3.1084717E1,7.040307E1,5.2046665E1,1.7782106E1,3.426456E1],"tree_param":{"num_deleted":"0","num_feature":"31","num_nodes":"15","size_leaf_vector":"1"}},{"base_weights":[-0E0,-1.0447258E-1,2.9151816E-2,8.517478E-5,-1.9081156E-1,-0E0,1.2744063E-1,-2.7621382E-1,-0E0,6.303261E-2,-9.261819E-2,1.5046647E-2,-0E0,-3.889663E-2,-0E0,-0E0,1.1297807E-2,-2.313361E-2,-0E0],"categories":[],"categories_nodes":[],"categories_segments":[],"categories_sizes":[],"default_left":[0,0,0,0,0,0,0,0,0,0,0,0,0,0,0,0,0,0,0],"id":39,"left_children":[1,3,5,-1,7,9,11,13,-1,15,17,-1,-1,-1,-1,-1,-1,-1,-1],"loss_changes":[1.3196063E0,1.6427927E0,1.1087475E0,0E0,9.4295526E-1,1.1003405E0,1.6235642E0,2.3779302E0,0E0,1.1449921E0,1.6461394E0,0E0,0E0,0E0,0E0,0E0,0E0,0E0,0E0],"parents":[2147483647,0,0,1,1,2,2,4,4,5,5,6,6,7,7,9,9,10,10],"right_children":[2,4,6,-1,8,10,12,14,-1,16,18,-1,-1,-1,-1,-1,-1,-1,-1],"split_conditions":[8E0,3E0,2E0,8.517478E-5,1.1E1,6E0,3E0,8E0,-0E0,1.1904762E0,1E0,1.5046647E-2,-0E0,-3.889663E-2,-0E0,-0E0,1.1297807E-2,-2.313361E-2,-0E0],"split_indices":[28,28,23,0,0,1,23,4,0,8,23,0,0,0,0,0,0,0,0],"split_type":[0,0,0,0,0,0,0,0,0,0,0,0,0,0,0,0,0,0,0],"sum_hessian":[3.4423456E2,9.8750786E1,2.4548376E2,2.6002895E1,7.274789E1,1.6704268E2,7.8441086E1,4.560223E1,2.7145658E1,7.990448E1,8.71382E1,5.5687958E1,2.2753134E1,1.5242904E1,3.0359325E1,3.0764809E1,4.913967E1,1.7512823E1,6.9625374E1],"tree_param":{"num_deleted":"0","num_feature":"31","num_nodes":"19","size_leaf_vector":"1"}},{"base_weights":[5.6647707E-2,9.9798724E-2,-1.5906123E-3,-0E0,1.1473993E-1,2.8471725E-2,1.4656827E-2,1.150571E-1,-5.269364E-2,-0E0,1.4994964E-1,-0E0,-1.4604919E-1,-0E0,1.6945906E-2,-1.840195E-2,-0E0],"categories":[],"categories_nodes":[],"categories_segments":[],"categories_sizes":[],"default_left":[0,0,0,0,0,0,0,0,0,0,0,0,0,0,0,0,0],"id":40,"left_children":[1,3,-1,-1,5,7,-1,9,11,-1,13,-1,15,-1,-1,-1,-1],"loss_changes":[1.5329113E0,6.45622E-1,0E0,0E0,1.2747965E0,1.3679068E0,0E0,4.4351423E-1,7.6129526E-1,0E0,1.6594481E0,0E0,1.0739489E0,0E0,0E0,0E0,0E0],"parents":[2147483647,0,0,1,1,4,4,5,5,7,7,8,8,10,10,12,12],"right_children":[2,4,-1,-1,6,8,-1,10,12,-1,14,-1,16,-1,-1,-1,-1],"split_conditions":[4.3072582E1,9.5652175E-1,-1.5906123E-3,-0E0,1.6363636E0,7E0,1.4656827E-2,1.4E0,1.25E0,-0E0,1E0,-0E0,1E0,-0E0,1.6945906E-2,-1.840195E-2,-0E0],"split_indices":[27,7,0,0,6,2,0,7,6,0,11,0,20,0,0,0,0],"split_type":[0,0,0,0,0,0,0,0,0,0,0,0,0,0,0,0,0],"sum_hessian":[3.545796E2,2.6078848E2,9.379112E1,1.5143251E1,2.4564522E2,1.5592665E2,8.9718575E1,9.7355835E1,5.8570816E1,2.147143E1,7.588441E1,1.7708332E1,4.086248E1,2.4963316E1,5.092109E1,2.3836237E1,1.7026243E1],"tree_param":{"num_deleted":"0","num_feature":"31","num_nodes":"17","size_leaf_vector":"1"}},{"base_weights":[4.2919073E-2,7.841033E-2,-7.639759E-2,1.5414295E-1,-5.2158996E-2,-1.9548036E-2,-0E0,2.3726396E-1,-0E0,-0E0,-1.2803411E-1,-0E0,2.7598792E-1,-1.4505625E-2,-0E0,2.1432964E-2,-0E0],"categories":[],"categories_nodes":[],"categories_segments":[],"categories_sizes":[],"default_left":[0,0,0,0,0,0,0,0,0,0,0,0,0,0,0,0,0],"id":41,"left_children":[1,3,5,7,9,-1,-1,11,-1,-1,13,-1,15,-1,-1,-1,-1],"loss_changes":[1.4407396E0,3.2108169E0,1.2624027E0,1.825954E0,6.745175E-1,0E0,0E0,9.636984E-1,0E0,0E0,7.976745E-1,0E0,4.981966E-1,0E0,0E0,0E0,0E0],"parents":[2147483647,0,0,1,1,2,2,3,3,4,4,7,7,10,10,12,12],"right_children":[2,4,6,8,10,-1,-1,12,-1,-1,14,-1,16,-1,-1,-1,-1],"split_conditions":[4E0,9E0,1.7E0,1E0,1.875E0,-1.9548036E-2,-0E0,-1.1012267E2,-0E0,-0E0,2.4666667E0,-0E0,1E1,-1.4505625E-2,-0E0,2.1432964E-2,-0E0],"split_indices":[10,5,9,20,9,0,0,27,0,0,9,0,2,0,0,0,0],"split_type":[0,0,0,0,0,0,0,0,0,0,0,0,0,0,0,0,0],"sum_hessian":[3.3162207E2,2.8070013E2,5.0921944E1,1.956142E2,8.508594E1,1.5742338E1,3.5179604E1,1.1336919E2,8.224501E1,3.21692E1,5.291674E1,1.7665491E1,9.57037E1,3.3783485E1,1.9133251E1,7.558143E1,2.0122265E1],"tree_param":{"num_deleted":"0","num_feature":"31","num_nodes":"17","size_leaf_vector":"1"}},{"base_weights":[-3.4450356E-2,8.817525E-3,-1.0575711E-1,1.21610776E-1,-3.2148607E-2,-1.6826594E-1,-0E0,-0E0,1.2577671E-2,2.7403934E-3,-2.0445949E-1,-2.565578E-1,-0E0,-2.2412445E-2,-0E0,-0E0,-3.4664637E-1,-3.468873E-2,-0E0],"categories":[],"categories_nodes":[],"categories_segments":[],"categories_sizes":[],"default_left":[0,0,0,0,0,0,0,0,0,0,0,0,0,0,0,0,0,0,0],"id":42,"left_children":[1,3,5,7,9,11,-1,-1,-1,-1,13,15,-1,-1,-1,-1,17,-1,-1],"loss_changes":[1.3605242E0,1.1332577E0,1.4347526E0,7.1025586E-1,1.9273783E0,8.464799E-1,0E0,0E0,0E0,0E0,7.467525E-1,8.859148E-1,0E0,0E0,0E0,0E0,1.920876E0,0E0,0E0],"parents":[2147483647,0,0,1,1,2,2,3,3,4,4,5,5,10,10,11,11,16,16],"right_children":[2,4,6,8,10,12,-1,-1,-1,-1,14,16,-1,-1,-1,-1,18,-1,-1],"split_conditions":[-2E0,1.1E0,1E0,8.125E-1,1.4E1,2.1142857E0,-0E0,-0E0,1.2577671E-2,2.7403934E-3,-8E0,1.21875E0,-0E0,-2.2412445E-2,-0E0,-0E0,1.6E0,-3.468873E-2,-0E0],"split_indices":[30,6,20,6,28,6,0,0,0,0,30,7,0,0,0,0,6,0,0],"split_type":[0,0,0,0,0,0,0,0,0,0,0,0,0,0,0,0,0,0,0],"sum_hessian":[3.1880756E2,1.6703604E2,1.5177151E2,6.755145E1,9.948459E1,1.0892205E2,4.284947E1,2.055894E1,4.6992516E1,5.6017952E1,4.346664E1,5.8106495E1,5.0815556E1,2.120648E1,2.226016E1,2.018009E1,3.7926407E1,2.2676506E1,1.5249901E1],"tree_param":{"num_deleted":"0","num_feature":"31","num_nodes":"19","size_leaf_vector":"1"}},{"base_weights":[3.3995055E-2,6.808184E-2,-1.1809676E-1,1.2156669E-1,-5.5870492E-2,-2.298598E-2,-0E0,1.466943E-1,-0E0,-1.334373E-1,-0E0,1.2690541E-2,-0E0,-0E0,-1.7920922E-2,-7.749591E-2,1.1618997E-2,-0E0,-1.2765717E-2],"categories":[],"categories_nodes":[],"categories_segments":[],"categories_sizes":[],"default_left":[0,0,0,0,0,0,0,0,0,0,0,0,0,0,0,0,0,0,0],"id":43,"left_children":[1,3,5,7,9,-1,-1,11,-1,13,-1,-1,15,-1,-1,17,-1,-1,-1],"loss_changes":[1.65334E0,2.3135648E0,2.472768E0,1.2452712E0,7.6043755E-1,0E0,0E0,9.0225744E-1,0E0,6.060284E-1,0E0,0E0,1.1615599E0,0E0,0E0,5.7489145E-1,0E0,0E0,0E0],"parents":[2147483647,0,0,1,1,2,2,3,3,4,4,7,7,9,9,12,12,15,15],"right_children":[2,4,6,8,10,-1,-1,12,-1,14,-1,-1,16,-1,-1,18,-1,-1,-1],"split_conditions":[1.5815875E3,1.7E0,1.6689169E3,3E0,1.5925926E0,-2.298598E-2,-0E0,1.9615384E0,-0E0,1.4294443E3,-0E0,1.2690541E-2,9E0,-0E0,-1.7920922E-2,5E0,1.1618997E-2,-0E0,-1.2765717E-2],"split_indices":[25,7,25,16,6,0,0,6,0,25,0,0,5,0,0,5,0,0,0],"split_type":[0,0,0,0,0,0,0,0,0,0,0,0,0,0,0,0,0,0,0],"sum_hessian":[3.481016E2,3.0589713E2,4.220447E1,2.3498242E2,7.091471E1,2.359164E1,1.8612833E1,2.1836037E2,1.6622051E1,5.2814926E1,1.8099785E1,1.5539717E2,6.2963196E1,3.3260876E1,1.9554054E1,3.454042E1,2.8422777E1,1.5287492E1,1.9252928E1],"tree_param":{"num_deleted":"0","num_feature":"31","num_nodes":"19","size_leaf_vector":"1"}},{"base_weights":[2.2401989E-2,-1.5115574E-2,1.2195079E-1,-2.3029437E-2,1.0880076E-2,1.5221699E-1,-0E0,6.399711E-2,-8.5326694E-2,1.5746817E-2,-0E0,1.11261755E-1,-2.777828E-3,-0E0,-1.3865701E-2,1.5748176E-1,-0E0,2.0000078E-2,-0E0],"categories":[],"categories_nodes":[],"categories_segments":[],"categories_sizes":[],"default_left":[0,0,0,0,0,0,0,0,0,0,0,0,0,0,0,0,0,0,0],"id":44,"left_children":[1,3,5,-1,7,9,-1,11,13,-1,-1,15,-1,-1,-1,17,-1,-1,-1],"loss_changes":[1.6352086E0,3.0865195E0,5.86594E-1,0E0,9.060327E-1,8.221977E-1,0E0,1.020211E0,8.2202643E-1,0E0,0E0,7.939378E-1,0E0,0E0,0E0,1.6892357E0,0E0,0E0,0E0],"parents":[2147483647,0,0,1,1,2,2,4,4,5,5,7,7,8,8,11,11,15,15],"right_children":[2,4,6,-1,8,10,-1,12,14,-1,-1,16,-1,-1,-1,18,-1,-1,-1],"split_conditions":[1.5142857E0,1.4839125E3,1.4927842E3,-2.3029437E-2,1.5438206E3,8E0,-0E0,1.2E1,1.5108585E3,1.5746817E-2,-0E0,1.5809503E3,-2.777828E-3,-0E0,-1.3865701E-2,1.1891892E0,-0E0,2.0000078E-2,-0E0],"split_indices":[7,25,25,0,26,5,0,5,25,0,0,25,0,0,0,7,0,0,0],"split_type":[0,0,0,0,0,0,0,0,0,0,0,0,0,0,0,0,0,0,0],"sum_hessian":[3.257394E2,2.1080154E2,1.1493787E2,2.3594927E1,1.872066E2,9.8081665E1,1.68562E1,1.4647757E2,4.0729046E1,5.453461E1,4.3547054E1,1.2572358E2,2.0753988E1,1.688453E1,2.3844519E1,9.3355774E1,3.2367805E1,4.302168E1,5.0334095E1],"tree_param":{"num_deleted":"0","num_feature":"31","num_nodes":"19","size_leaf_vector":"1"}},{"base_weights":[-2.3612954E-2,7.301676E-2,-9.216785E-2,1.3331816E-1,-0E0,-1.8913294E-1,-0E0,-0E0,1.4480624E-2,-0E0,-2.6231375E-1,5.287625E-3,-6.8916455E-3,-0E0,-3.8299707E-1,-4.167087E-2,-0E0],"categories":[],"categories_nodes":[],"categories_segments":[],"categories_sizes":[],"default_left":[0,0,0,0,0,0,0,0,0,0,0,0,0,0,0,0,0],"id":45,"left_children":[1,3,5,7,-1,9,11,-1,-1,-1,13,-1,-1,-1,15,-1,-1],"loss_changes":[2.2592127E0,9.004373E-1,2.1043856E0,6.4844775E-1,0E0,2.3436766E0,8.7749445E-1,0E0,0E0,0E0,3.2880468E0,0E0,0E0,0E0,4.904067E0,0E0,0E0],"parents":[2147483647,0,0,1,1,2,2,3,3,5,5,6,6,10,10,14,14],"right_children":[2,4,6,8,-1,10,12,-1,-1,-1,14,-1,-1,-1,16,-1,-1],"split_conditions":[1.4739766E3,2E0,2E0,7E0,-0E0,1.3870968E0,1.3428571E0,-0E0,1.4480624E-2,-0E0,1E0,5.287625E-3,-6.8916455E-3,-0E0,2E0,-4.167087E-2,-0E0],"split_indices":[25,24,11,5,0,9,7,0,0,0,24,0,0,0,22,0,0],"split_type":[0,0,0,0,0,0,0,0,0,0,0,0,0,0,0,0,0],"sum_hessian":[3.2445572E2,1.11749016E2,2.127067E2,8.220785E1,2.9541168E1,1.0719227E2,1.0551442E2,3.867506E1,4.3532787E1,1.8759436E1,8.843284E1,6.526686E1,4.024756E1,2.6031837E1,6.2400997E1,3.468532E1,2.7715675E1],"tree_param":{"num_deleted":"0","num_feature":"31","num_nodes":"17","size_leaf_vector":"1"}},{"base_weights":[3.3350173E-2,7.2161205E-2,-1.2968843E-2,-0E0,1.3810849E-1,-0E0,1.7185232E-1,1.1027757E-2,-9.7042015E-3,-0E0,2.0468743E-1,-0E0,1.652673E-2],"categories":[],"categories_nodes":[],"categories_segments":[],"categories_sizes":[],"default_left":[0,0,0,0,0,0,0,0,0,0,0,0,0],"id":46,"left_children":[1,3,-1,-1,5,7,9,-1,-1,-1,11,-1,-1],"loss_changes":[2.7533655E0,1.8078367E0,0E0,0E0,8.563442E-1,9.8742557E-1,6.955552E-1,0E0,0E0,0E0,1.2207065E0,0E0,0E0],"parents":[2147483647,0,0,1,1,4,4,5,5,6,6,10,10],"right_children":[2,4,-1,-1,6,8,10,-1,-1,-1,12,-1,-1],"split_conditions":[1.2547789E2,1.4895839E3,-1.2968843E-2,-0E0,6E0,7E0,1E0,1.1027757E-2,-9.7042015E-3,-0E0,7E0,-0E0,1.652673E-2],"split_indices":[27,25,0,0,3,0,17,0,0,0,0,0,0],"split_type":[0,0,0,0,0,0,0,0,0,0,0,0,0],"sum_hessian":[3.5762704E2,3.211912E2,3.643586E1,1.4077457E2,1.8041664E2,3.5897587E1,1.4451904E2,1.6577595E1,1.931999E1,2.687781E1,1.17641235E2,1.7188732E1,1.0045251E2],"tree_param":{"num_deleted":"0","num_feature":"31","num_nodes":"13","size_leaf_vector":"1"}},{"base_weights":[-0E0,-5.601967E-2,4.7096148E-2,-0E0,-2.7823653E-2,-0E0,1.1128575E-1,6.8405055E-2,-1.3661822E-2,1.0526787E-2,-0E0,-0E0,8.557219E-3],"categories":[],"categories_nodes":[],"categories_segments":[],"categories_sizes":[],"default_left":[0,0,0,0,0,0,0,0,0,0,0,0,0],"id":47,"left_children":[1,3,5,-1,-1,7,9,11,-1,-1,-1,-1,-1],"loss_changes":[9.391577E-1,3.0021446E0,1.0556256E0,0E0,0E0,2.0047724E0,8.704623E-1,5.055305E-1,0E0,0E0,0E0,0E0,0E0],"parents":[2147483647,0,0,1,1,2,2,5,5,6,6,7,7],"right_children":[2,4,6,-1,-1,8,10,12,-1,-1,-1,-1,-1],"split_conditions":[1.2916666E0,1.1891892E0,1.5333333E0,-0E0,-2.7823653E-2,1.3043479E0,1E1,8.4615386E-1,-1.3661822E-2,1.0526787E-2,-0E0,-0E0,8.557219E-3],"split_indices":[7,7,6,0,0,6,4,6,0,0,0,0,0],"split_type":[0,0,0,0,0,0,0,0,0,0,0,0,0],"sum_hessian":[3.6278577E2,1.2973856E2,2.3304723E2,1.1268735E2,1.7051205E1,1.0838588E2,1.2466134E2,7.121972E1,3.7166157E1,9.665091E1,2.8010427E1,2.1677298E1,4.9542423E1],"tree_param":{"num_deleted":"0","num_feature":"31","num_nodes":"13","size_leaf_vector":"1"}},{"base_weights":[5.1339664E-2,8.755096E-2,-1.5907793E-1,-0E0,1.4420211E-1,-1.9822983E-2,-0E0,7.89117E-2,-1.3179934E-2,1.8331073E-1,-0E0,-0E0,1.3248737E-1,2.104516E-1,-0E0,-0E0,1.3879744E-2,-0E0,1.7981663E-2],"categories":[],"categories_nodes":[],"categories_segments":[],"categories_sizes":[],"default_left":[0,0,0,0,0,0,0,0,0,0,0,0,0,0,0,0,0,0,0],"id":48,"left_children":[1,3,5,7,9,-1,-1,11,-1,13,-1,-1,15,17,-1,-1,-1,-1,-1],"loss_changes":[2.4824305E0,1.0681226E0,9.5564884E-1,2.0053577E0,1.4124105E0,0E0,0E0,8.0435514E-1,0E0,8.709407E-1,0E0,0E0,8.8158643E-1,1.8664641E0,0E0,0E0,0E0,0E0,0E0],"parents":[2147483647,0,0,1,1,2,2,3,3,4,4,7,7,9,9,12,12,13,13],"right_children":[2,4,6,8,10,-1,-1,12,-1,14,-1,-1,16,18,-1,-1,-1,-1,-1],"split_conditions":[1.5815875E3,1.5333333E0,2.52E0,1.3809524E0,5E0,-1.9822983E-2,-0E0,8.125E-1,-1.3179934E-2,1.9E1,-0E0,-0E0,8E0,1.4895839E3,-0E0,-0E0,1.3879744E-2,-0E0,1.7981663E-2],"split_indices":[25,6,6,6,13,0,0,6,0,29,0,0,4,25,0,0,0,0,0],"split_type":[0,0,0,0,0,0,0,0,0,0,0,0,0,0,0,0,0,0,0],"sum_hessian":[3.5322858E2,3.180615E2,3.5167057E1,1.5123169E2,1.6682982E2,1.9134819E1,1.603224E1,1.2227924E2,2.8952448E1,1.4419614E2,2.2633673E1,3.4894184E1,8.7385056E1,1.2838614E2,1.5810005E1,3.2621414E1,5.476364E1,2.434569E1,1.0404045E2],"tree_param":{"num_deleted":"0","num_feature":"31","num_nodes":"19","size_leaf_vector":"1"}},{"base_weights":[3.7084907E-2,8.545866E-2,-4.28888E-2,-0E0,1.1972738E-1,-1.2393244E-1,9.309626E-3,3.5353698E-2,1.4707801E-2,-0E0,-2.7086845E-1,1.0382834E-1,-2.662004E-3,-0E0,-2.6166234E-2,1.1325734E-2,-0E0],"categories":[],"categories_nodes":[],"categories_segments":[],"categories_sizes":[],"default_left":[0,0,0,0,0,0,0,0,0,0,0,0,0,0,0,0,0],"id":49,"left_children":[1,3,5,-1,7,9,-1,11,-1,-1,13,15,-1,-1,-1,-1,-1],"loss_changes":[1.6787839E0,1.1384112E0,1.7504083E0,0E0,8.534882E-1,2.574585E0,0E0,9.8400414E-1,0E0,0E0,1.911077E0,1.1627696E0,0E0,0E0,0E0,0E0,0E0],"parents":[2147483647,0,0,1,1,2,2,4,4,5,5,7,7,10,10,11,11],"right_children":[2,4,6,-1,8,10,-1,12,-1,-1,14,16,-1,-1,-1,-1,-1],"split_conditions":[9E0,5E0,1.6708151E3,-0E0,1E0,6E0,9.309626E-3,7E0,1.4707801E-2,-0E0,1.46875E0,8E0,-2.662004E-3,-0E0,-2.6166234E-2,1.1325734E-2,-0E0],"split_indices":[0,2,25,0,20,1,0,0,0,0,6,1,0,0,0,0,0],"split_type":[0,0,0,0,0,0,0,0,0,0,0,0,0,0,0,0,0],"sum_hessian":[3.8695926E2,2.7037802E2,1.1658126E2,5.4592724E1,2.1578528E2,9.559135E1,2.098991E1,1.3935197E2,7.643331E1,4.271892E1,5.2872425E1,9.8573906E1,4.077806E1,1.6271927E1,3.66005E1,7.6325714E1,2.2248198E1],"tree_param":{"num_deleted":"0","num_feature":"31","num_nodes":"17","size_leaf_vector":"1"}},{"base_weights":[-2.303805E-3,-8.635553E-2,7.303465E-2,-2.661697E-1,-0E0,1.7297296E-1,-0E0,-2.6751507E-2,-0E0,-6.536425E-2,3.9358206E-2,-0E0,1.7482257E-2,-1.2518492E-2,4.123774E-2,-0E0,-2.2173423E-2,1.1766151E-2,-0E0,-0E0,1.0874883E-2],"categories":[],"categories_nodes":[],"categories_segments":[],"categories_sizes":[],"default_left":[0,0,0,0,0,0,0,0,0,0,0,0,0,0,0,0,0,0,0,0,0],"id":50,"left_children":[1,3,5,7,9,11,13,-1,-1,15,17,-1,-1,-1,19,-1,-1,-1,-1,-1,-1],"loss_changes":[2.314034E0,2.291326E0,1.195289E0,1.8027844E0,4.4297513E-1,6.9082785E-1,7.717026E-1,0E0,0E0,1.8705181E0,5.924818E-1,0E0,0E0,0E0,6.7263633E-1,0E0,0E0,0E0,0E0,0E0,0E0],"parents":[2147483647,0,0,1,1,2,2,3,3,4,4,5,5,6,6,9,9,10,10,14,14],"right_children":[2,4,6,8,10,12,14,-1,-1,16,18,-1,-1,-1,20,-1,-1,-1,-1,-1,-1],"split_conditions":[1.4736842E0,1.65E0,1.5426993E3,2E0,1.4770793E3,1.5131936E3,8E0,-2.6751507E-2,-0E0,1.4586562E3,1.4887849E3,-0E0,1.7482257E-2,-1.2518492E-2,1.50508E3,-0E0,-2.2173423E-2,1.1766151E-2,-0E0,-0E0,1.0874883E-2],"split_indices":[8,9,26,16,26,26,28,0,0,26,26,0,0,0,25,0,0,0,0,0,0],"split_type":[0,0,0,0,0,0,0,0,0,0,0,0,0,0,0,0,0,0,0,0,0],"sum_hessian":[3.5187082E2,1.8978316E2,1.6208768E2,4.9796043E1,1.399871E2,6.653004E1,9.555764E1,3.1959114E1,1.7836927E1,7.700312E1,6.298399E1,2.8623814E1,3.7906223E1,1.5284021E1,8.027362E1,5.957915E1,1.742397E1,1.9754204E1,4.3229786E1,5.211925E1,2.8154367E1],"tree_param":{"num_deleted":"0","num_feature":"31","num_nodes":"21","size_leaf_vector":"1"}},{"base_weights":[5.53264E-3,3.276924E-2,-1.5018601E-2,7.1826845E-2,-1.6239733E-2,-0E0,1.2959112E-1,-1.5770113E-1,2.059498E-2,2.1164848E-1,-0E0,-0E0,-2.3667293E-2,1.2869421E-2,-3.4195725E-3,1.7835505E-2,-0E0,-1.3470611E-2,2.7721226E-3],"categories":[],"categories_nodes":[],"categories_segments":[],"categories_sizes":[],"default_left":[0,0,0,0,0,0,0,0,0,0,0,0,0,0,0,0,0,0,0],"id":51,"left_children":[1,3,-1,5,7,-1,9,11,13,15,17,-1,-1,-1,-1,-1,-1,-1,-1],"loss_changes":[1.5888431E0,8.725395E-1,0E0,1.3987002E0,1.1114097E0,0E0,2.3825865E0,1.8555549E0,1.4221683E0,7.7703E-1,9.6126866E-1,0E0,0E0,0E0,0E0,0E0,0E0,0E0,0E0],"parents":[2147483647,0,0,1,1,3,3,4,4,6,6,7,7,8,8,9,9,10,10],"right_children":[2,4,-1,6,8,-1,10,12,14,16,18,-1,-1,-1,-1,-1,-1,-1,-1],"split_conditions":[3E0,1E0,-1.5018601E-2,1E0,7E0,-0E0,6E0,1.0555556E0,-3E0,4E0,2E0,-0E0,-2.3667293E-2,1.2869421E-2,-3.4195725E-3,1.7835505E-2,-0E0,-1.3470611E-2,2.7721226E-3],"split_indices":[22,20,0,17,2,0,30,6,30,13,22,0,0,0,0,0,0,0,0],"split_type":[0,0,0,0,0,0,0,0,0,0,0,0,0,0,0,0,0,0,0],"sum_hessian":[3.6350012E2,3.417779E2,2.1722221E1,2.3229103E2,1.0948687E2,7.959787E1,1.5269316E2,4.1859356E1,6.762751E1,1.0867141E2,4.4021755E1,2.084311E1,2.1016249E1,3.4068233E1,3.3559277E1,7.882992E1,2.9841492E1,1.9879555E1,2.41422E1],"tree_param":{"num_deleted":"0","num_feature":"31","num_nodes":"19","size_leaf_vector":"1"}},{"base_weights":[-0E0,-1.09863475E-1,6.516383E-2,-1.9934785E-1,-0E0,-0E0,1.749843E-1,-0E0,-3.0781335E-1,1.0388625E-2,-4.057706E-2,1.7381106E-2,-0E0,-3.156746E-2,-1.6898817E-3,-1.53015535E-2,-0E0],"categories":[],"categories_nodes":[],"categories_segments":[],"categories_sizes":[],"default_left":[0,0,0,0,0,0,0,0,0,0,0,0,0,0,0,0,0],"id":52,"left_children":[1,3,5,7,-1,9,11,-1,13,-1,15,-1,-1,-1,-1,-1,-1],"loss_changes":[2.596821E0,1.9775996E0,1.7075667E0,1.6620915E0,0E0,7.333019E-1,1.6694226E0,0E0,6.823149E-1,0E0,9.153162E-1,0E0,0E0,0E0,0E0,0E0,0E0],"parents":[2147483647,0,0,1,1,2,2,3,3,5,5,6,6,8,8,10,10],"right_children":[2,4,6,8,-1,10,12,-1,14,-1,16,-1,-1,-1,-1,-1,-1],"split_conditions":[1.1E1,1E1,1.7352941E0,5E0,-0E0,7.777778E-1,2.15625E0,-0E0,1E0,1.0388625E-2,1.4662964E3,1.7381106E-2,-0E0,-3.156746E-2,-1.6898817E-3,-1.53015535E-2,-0E0],"split_indices":[28,3,8,28,0,8,8,0,11,0,26,0,0,0,0,0,0],"split_type":[0,0,0,0,0,0,0,0,0,0,0,0,0,0,0,0,0],"sum_hessian":[3.4854803E2,1.3686293E2,2.116851E2,8.9369835E1,4.749309E1,1.2898976E2,8.269534E1,3.5981346E1,5.338849E1,2.008855E1,1.08901215E2,6.1056324E1,2.1639017E1,2.4222006E1,2.9166485E1,1.8309692E1,9.059152E1],"tree_param":{"num_deleted":"0","num_feature":"31","num_nodes":"17","size_leaf_vector":"1"}}]},"name":"gbtree"},"learner_model_param":{"base_score":"[1.4460028E0]","boost_from_average":"1","num_class":"0","num_feature":"31","num_target":"1"},"objective":{"name":"reg:tweedie","tweedie_regression_param":{"tweedie_variance_power":"1.68173027"}}},"version":[3,1,3]}