{"learner":{"attributes":{"best_iteration":"33","best_score":"1.1589231585401716","scikit_learn":"{\"_estimator_type\": \"regressor\"}"},"feature_names":[],"feature_types":[],"gradient_booster":{"model":{"cats":{"enc":[],"feature_segments":[],"sorted_idx":[]},"gbtree_model_param":{"num_parallel_tree":"1","num_trees":"64"},"iteration_indptr":[0,1,2,3,4,5,6,7,8,9,10,11,12,13,14,15,16,17,18,19,20,21,22,23,24,25,26,27,28,29,30,31,32,33,34,35,36,37,38,39,40,41,42,43,44,45,46,47,48,49,50,51,52,53,54,55,56,57,58,59,60,61,62,63,64],"tree_info":[0,0,0,0,0,0,0,0,0,0,0,0,0,0,0,0,0,0,0,0,0,0,0,0,0,0,0,0,0,0,0,0,0,0,0,0,0,0,0,0,0,0,0,0,0,0,0,0,0,0,0,0,0,0,0,0,0,0,0,0,0,0,0,0],"trees":[{"base_weights":[6.7124316E-3,-2.1635588E-1,4.1393015E-1,2.571916E-1,-3.284538E-1,9.4730824E-1,2.641656E-1,4.8164827E-1,-3.2977623E-1,-7.8522556E-2,-5.335928E-1,1.147995E0,-5.2208584E-3,-4.3751472E-1,4.0923697E-1,3.3019114E-2,-1.2555485E-2,4.877202E-3,-2.9620482E-2,-1.4861121E-2,9.711858E-3,4.2046583E-3,-3.103425E-2,6.1594E-2,-0E0,-1.1328647E-2,-0E0,-0E0,-4.4734493E-2,6.4830766E-3,3.7520353E-2],"categories":[],"categories_nodes":[],"categories_segments":[],"categories_sizes":[],"default_left":[0,0,0,0,0,0,0,0,0,0,0,0,0,0,0,0,0,0,0,0,0,0,0,0,0,0,0,0,0,0,0],"id":0,"left_children":[1,3,5,7,9,11,13,15,17,19,21,23,25,27,29,-1,-1,-1,-1,-1,-1,-1,-1,-1,-1,-1,-1,-1,-1,-1,-1],"loss_changes":[4.8430294E1,1.8326057E1,1.3550636E1,8.887926E0,1.360391E1,8.702583E0,1.5662043E1,7.010001E0,2.5455441E0,7.9145827E0,8.711124E0,3.6527405E0,2.308044E-1,5.9251547E0,1.1135284E1,0E0,0E0,0E0,0E0,0E0,0E0,0E0,0E0,0E0,0E0,0E0,0E0,0E0,0E0,0E0,0E0],"parents":[2147483647,0,0,1,1,2,2,3,3,4,4,5,5,6,6,7,7,8,8,9,9,10,10,11,11,12,12,13,13,14,14],"right_children":[2,4,6,8,10,12,14,16,18,20,22,24,26,28,30,-1,-1,-1,-1,-1,-1,-1,-1,-1,-1,-1,-1,-1,-1,-1,-1],"split_conditions":[9E0,4E0,8.4615386E-1,1.5862069E0,1.4444444E0,6E0,1.2307693E0,1.5E1,1.8571428E0,8E0,5E0,3E0,9E0,2.030303E0,1.3793104E0,3.3019114E-2,-1.2555485E-2,4.877202E-3,-2.9620482E-2,-1.4861121E-2,9.711858E-3,4.2046583E-3,-3.103425E-2,6.1594E-2,-0E0,-1.1328647E-2,-0E0,-0E0,-4.4734493E-2,6.4830766E-3,3.7520353E-2],"split_indices":[3,2,8,8,8,11,10,6,10,5,2,13,6,9,9,0,0,0,0,0,0,0,0,0,0,0,0,0,0,0,0],"split_type":[0,0,0,0,0,0,0,0,0,0,0,0,0,0,0,0,0,0,0,0,0,0,0,0,0,0,0,0,0,0,0],"sum_hessian":[5.28E2,3.4E2,1.88E2,6.3E1,2.77E2,3.8E1,1.5E2,4.7E1,1.6E1,1.28E2,1.49E2,3.2E1,6E0,2.4E1,1.26E2,3.9E1,8E0,5E0,1.1E1,7.3E1,5.5E1,1.7E1,1.32E2,3E1,2E0,3E0,3E0,1.2E1,1.2E1,7.2E1,5.4E1],"tree_param":{"num_deleted":"0","num_feature":"14","num_nodes":"31","size_leaf_vector":"1"}},{"base_weights":[4.438599E-3,-2.0244145E-1,3.4384793E-1,3.3556414E-1,-3.9823103E-1,-0E0,5.395658E-1,-3.0563232E-1,4.9267614E-1,-2.5902382E-1,-8.322199E-1,2.5345147E-1,-4.072927E-1,8.2704127E-1,2.0014271E-1,3.777904E-2,-2.9956779E-2,2.8720612E-2,-4.361817E-3,-1.6896365E-2,1.5811957E-2,3.0336424E-3,-4.6137776E-2,-1.8599411E-2,3.685351E-2,2.0167648E-3,-3.6538716E-2,4.4187617E-2,-0E0,-1.8947056E-2,2.3481203E-2],"categories":[],"categories_nodes":[],"categories_segments":[],"categories_sizes":[],"default_left":[0,0,0,0,0,0,0,0,0,0,0,0,0,0,0,0,0,0,0,0,0,0,0,0,0,0,0,0,0,0,0],"id":1,"left_children":[1,3,5,7,9,11,13,15,17,19,21,23,25,27,29,-1,-1,-1,-1,-1,-1,-1,-1,-1,-1,-1,-1,-1,-1,-1,-1],"loss_changes":[3.6793777E1,3.423394E1,1.3823204E1,9.026149E0,1.299424E1,7.7522516E0,1.126302E1,5.661845E0,3.904026E0,8.556485E0,5.432602E0,1.4236462E1,5.0062366E0,2.6438217E0,1.011089E1,0E0,0E0,0E0,0E0,0E0,0E0,0E0,0E0,0E0,0E0,0E0,0E0,0E0,0E0,0E0,0E0],"parents":[2147483647,0,0,1,1,2,2,3,3,4,4,5,5,6,6,7,7,8,8,9,9,10,10,11,11,12,12,13,13,14,14],"right_children":[2,4,6,8,10,12,14,16,18,20,22,24,26,28,30,-1,-1,-1,-1,-1,-1,-1,-1,-1,-1,-1,-1,-1,-1,-1,-1],"split_conditions":[9E0,5E0,7E0,2E0,1.8709677E0,1.2E1,2E0,7.692308E-1,7E0,1.2E1,6.8421054E-1,9E0,1.1E1,5E0,1E0,3.777904E-2,-2.9956779E-2,2.8720612E-2,-4.361817E-3,-1.6896365E-2,1.5811957E-2,3.0336424E-3,-4.6137776E-2,-1.8599411E-2,3.685351E-2,2.0167648E-3,-3.6538716E-2,4.4187617E-2,-0E0,-1.8947056E-2,2.3481203E-2],"split_indices":[3,2,6,1,9,3,11,9,4,4,10,1,1,12,13,0,0,0,0,0,0,0,0,0,0,0,0,0,0,0,0],"split_type":[0,0,0,0,0,0,0,0,0,0,0,0,0,0,0,0,0,0,0,0,0,0,0,0,0,0,0,0,0,0,0],"sum_hessian":[5.19E2,3.21E2,1.98E2,8.4E1,2.37E2,7.1E1,1.27E2,1.5E1,6.9E1,1.83E2,5.4E1,4.3E1,2.8E1,6.6E1,6.1E1,2E0,1.3E1,6.2E1,7E0,1.63E2,2E1,4E0,5E1,1.8E1,2.5E1,1.1E1,1.7E1,6.1E1,5E0,1.8E1,4.3E1],"tree_param":{"num_deleted":"0","num_feature":"14","num_nodes":"31","size_leaf_vector":"1"}},{"base_weights":[-2.8832931E-2,-3.059525E-1,4.707915E-1,8.908306E-2,-3.890831E-1,5.335927E-1,-4.7298235E-1,5.33564E-1,-1.5450212E-1,-4.461912E-1,2.0346382E-1,6.3910437E-1,1.844455E-1,-9.200307E-1,6.4420514E-2,3.5245936E-2,-2.065208E-2,-2.5675923E-2,-0E0,2.3496227E-2,-2.4091378E-2,-3.3207864E-2,3.3229142E-2,2.2285698E-2,4.8823114E-2,2.0225586E-2,-2.5582893E-2,-5.2884888E-2,-0E0],"categories":[],"categories_nodes":[],"categories_segments":[],"categories_sizes":[],"default_left":[0,0,0,0,0,0,0,0,0,0,0,0,0,0,0,0,0,0,0,0,0,0,0,0,0,0,0,0,0],"id":2,"left_children":[1,3,5,7,9,11,13,15,17,19,21,23,25,27,-1,-1,-1,-1,-1,-1,-1,-1,-1,-1,-1,-1,-1,-1,-1],"loss_changes":[7.30866E1,1.1566696E1,1.155233E1,6.8364506E0,1.0006168E1,5.5385704E0,1.0465105E1,4.3782406E0,2.4011059E0,8.888729E0,1.0464383E1,6.6347694E0,7.173403E0,1.7400894E0,0E0,0E0,0E0,0E0,0E0,0E0,0E0,0E0,0E0,0E0,0E0,0E0,0E0,0E0,0E0],"parents":[2147483647,0,0,1,1,2,2,3,3,4,4,5,5,6,6,7,7,8,8,9,9,10,10,11,11,12,12,13,13],"right_children":[2,4,6,8,10,12,14,16,18,20,22,24,26,28,-1,-1,-1,-1,-1,-1,-1,-1,-1,-1,-1,-1,-1,-1,-1],"split_conditions":[1.9615384E0,4E0,2.2058823E0,1.8709677E0,1.1E1,2.5333333E0,2.4285715E0,1.6857142E0,1E1,8.2758623E-1,6E0,1E1,2.7E1,6E0,6.4420514E-2,3.5245936E-2,-2.065208E-2,-2.5675923E-2,-0E0,2.3496227E-2,-2.4091378E-2,-3.3207864E-2,3.3229142E-2,2.2285698E-2,4.8823114E-2,2.0225586E-2,-2.5582893E-2,-5.2884888E-2,-0E0],"split_indices":[7,2,9,10,3,7,9,7,6,9,5,6,0,12,0,0,0,0,0,0,0,0,0,0,0,0,0,0,0],"split_type":[0,0,0,0,0,0,0,0,0,0,0,0,0,0,0,0,0,0,0,0,0,0,0,0,0,0,0,0,0],"sum_hessian":[5.26E2,3.4E2,1.86E2,5.7E1,2.83E2,1.76E2,1E1,2.1E1,3.6E1,2.6E2,2.3E1,1.32E2,4.4E1,9E0,1E0,1.9E1,2E0,1.1E1,2.5E1,8E0,2.52E2,7E0,1.6E1,8.8E1,4.4E1,3.5E1,9E0,8E0,1E0],"tree_param":{"num_deleted":"0","num_feature":"14","num_nodes":"29","size_leaf_vector":"1"}},{"base_weights":[-2.1478472E-2,-2.6199076E-1,3.821457E-1,-3.9349484E-1,1.5421177E-2,-0E0,6.1862993E-1,-6.931114E-1,-2.270911E-1,-5.928737E-1,1.2553164E-1,-5.852587E-1,1.253805E-1,4.5660067E-1,1.1542511E0,-3.8044706E-2,5.0156354E-3,7.5883903E-3,-2.020759E-2,-0E0,-4.69012E-2,2.9112939E-2,-1.8468468E-3,-4.0550772E-2,9.306312E-3,-9.445745E-3,1.716589E-2,3.1399496E-2,-1.4533512E-2,7.8098044E-2,-0E0],"categories":[],"categories_nodes":[],"categories_segments":[],"categories_sizes":[],"default_left":[0,0,0,0,0,0,0,0,0,0,0,0,0,0,0,0,0,0,0,0,0,0,0,0,0,0,0,0,0,0,0],"id":3,"left_children":[1,3,5,7,9,11,13,15,17,19,21,23,25,27,29,-1,-1,-1,-1,-1,-1,-1,-1,-1,-1,-1,-1,-1,-1,-1,-1],"loss_changes":[5.2402832E1,1.2808891E1,1.8366432E1,1.0485378E1,6.911585E0,5.9806104E0,8.403492E0,5.104397E0,1.0708405E1,3.790596E0,7.589842E0,3.376423E0,4.669726E0,1.3354507E1,1.2268734E1,0E0,0E0,0E0,0E0,0E0,0E0,0E0,0E0,0E0,0E0,0E0,0E0,0E0,0E0,0E0,0E0],"parents":[2147483647,0,0,1,1,2,2,3,3,4,4,5,5,6,6,7,7,8,8,9,9,10,10,11,11,12,12,13,13,14,14],"right_children":[2,4,6,8,10,12,14,16,18,20,22,24,26,28,30,-1,-1,-1,-1,-1,-1,-1,-1,-1,-1,-1,-1,-1,-1,-1,-1],"split_conditions":[1.9310344E0,1.9583334E0,7E0,1.25E0,8E0,9.0909094E-1,2.9E1,1.3E1,7E0,2.030303E0,1.5E1,2.6666667E0,8E0,1.3666667E0,2.5333333E0,-3.8044706E-2,5.0156354E-3,7.5883903E-3,-2.020759E-2,-0E0,-4.69012E-2,2.9112939E-2,-1.8468468E-3,-4.0550772E-2,9.306312E-3,-9.445745E-3,1.716589E-2,3.1399496E-2,-1.4533512E-2,7.8098044E-2,-0E0],"split_indices":[7,10,6,7,0,10,0,6,4,10,0,7,4,8,7,0,0,0,0,0,0,0,0,0,0,0,0,0,0,0,0],"split_type":[0,0,0,0,0,0,0,0,0,0,0,0,0,0,0,0,0,0,0,0,0,0,0,0,0,0,0,0,0,0,0],"sum_hessian":[5.38E2,3.39E2,1.99E2,2.32E2,1.07E2,7.6E1,1.23E2,7.9E1,1.53E2,1.4E1,9.3E1,1.3E1,6.3E1,9.8E1,2.5E1,7.4E1,5E0,4.7E1,1.06E2,5E0,9E0,2.5E1,6.8E1,1.1E1,2E0,2.4E1,3.9E1,8.1E1,1.7E1,1.8E1,7E0],"tree_param":{"num_deleted":"0","num_feature":"14","num_nodes":"31","size_leaf_vector":"1"}},{"base_weights":[3.1546388E-2,-2.2656132E-1,4.8860303E-1,-4.813645E-1,-8.6720906E-2,6.6243625E-1,-0E0,-6.1218494E-1,-2.1659464E-2,4.1252062E-1,-1.5989916E-1,9.4492614E-1,3.9413399E-1,-4.5932245E-2,1.9161764E-1,-1.2310142E-2,-3.7311774E-2,-1.1255006E-2,6.501856E-2,-0E0,8.271315E-2,-1.8727003E-2,1.3595687E-3,5.371359E-2,-1.2407597E-3,2.9346142E-2,-9.152085E-3,-0E0,6.098267E-2],"categories":[],"categories_nodes":[],"categories_segments":[],"categories_sizes":[],"default_left":[0,0,0,0,0,0,0,0,0,0,0,0,0,0,0,0,0,0,0,0,0,0,0,0,0,0,0,0,0],"id":4,"left_children":[1,3,5,7,9,11,13,15,17,19,21,23,25,-1,27,-1,-1,-1,-1,-1,-1,-1,-1,-1,-1,-1,-1,-1,-1],"loss_changes":[6.371891E1,1.1573183E1,1.6737461E1,6.4727173E0,8.084653E0,9.054337E0,9.65105E0,3.1719093E0,7.2979655E0,1.3108043E1,8.3740015E0,9.556091E0,9.299962E0,0E0,8.035183E0,0E0,0E0,0E0,0E0,0E0,0E0,0E0,0E0,0E0,0E0,0E0,0E0,0E0,0E0],"parents":[2147483647,0,0,1,1,2,2,3,3,4,4,5,5,6,6,7,7,8,8,9,9,10,10,11,11,12,12,14,14],"right_children":[2,4,6,8,10,12,14,16,18,20,22,24,26,-1,28,-1,-1,-1,-1,-1,-1,-1,-1,-1,-1,-1,-1,-1,-1],"split_conditions":[1.9310344E0,1.625E0,1.3478261E0,9E0,1.6818181E0,1.1E1,1.0384616E0,1E0,3.4E1,9E0,2E0,2.6E0,3E0,-4.5932245E-2,3.1E1,-1.2310142E-2,-3.7311774E-2,-1.1255006E-2,6.501856E-2,-0E0,8.271315E-2,-1.8727003E-2,1.3595687E-3,5.371359E-2,-1.2407597E-3,2.9346142E-2,-9.152085E-3,-0E0,6.098267E-2],"split_indices":[7,10,8,1,10,3,10,13,0,1,10,7,12,0,0,0,0,0,0,0,0,0,0,0,0,0,0,0,0],"split_type":[0,0,0,0,0,0,0,0,0,0,0,0,0,0,0,0,0,0,0,0,0,0,0,0,0,0,0,0,0],"sum_hessian":[5.35E2,3.41E2,1.94E2,1.17E2,2.24E2,1.43E2,5.1E1,8.9E1,2.8E1,2.6E1,1.98E2,6.6E1,7.7E1,8E0,4.3E1,2.7E1,6.2E1,2.6E1,2E0,2.1E1,5E0,9.4E1,1.04E2,5.9E1,7E0,5.9E1,1.8E1,3.8E1,5E0],"tree_param":{"num_deleted":"0","num_feature":"14","num_nodes":"29","size_leaf_vector":"1"}},{"base_weights":[-2.6094632E-2,-2.4213335E-1,3.527255E-1,3.1821823E-1,-2.962032E-1,4.417688E-1,-1.9904526E-1,-8.1683844E-2,6.5658116E-1,-5.090605E-1,-1.6319624E-1,1.21012166E-1,7.358877E-1,1.1730685E0,-4.9163863E-1,-2.2405302E-2,1.9584324E-2,-0E0,4.2072974E-2,7.340066E-3,-3.0072173E-2,1.9276422E-2,-1.11316405E-2,1.5212029E-2,-1.9530207E-2,-1.0195175E-2,3.9864093E-2,-0E0,7.4042134E-2,-4.5986096E-3,-4.8041783E-2],"categories":[],"categories_nodes":[],"categories_segments":[],"categories_sizes":[],"default_left":[0,0,0,0,0,0,0,0,0,0,0,0,0,0,0,0,0,0,0,0,0,0,0,0,0,0,0,0,0,0,0],"id":5,"left_children":[1,3,5,7,9,11,13,15,17,19,21,23,25,27,29,-1,-1,-1,-1,-1,-1,-1,-1,-1,-1,-1,-1,-1,-1,-1,-1],"loss_changes":[4.408826E1,1.0587368E1,9.9306965E0,4.64705E0,8.19203E0,1.5000248E1,1.0822651E1,2.661316E0,2.0145006E0,7.7670517E0,6.5050206E0,8.013146E0,5.828083E0,1.4827275E0,3.2214122E0,0E0,0E0,0E0,0E0,0E0,0E0,0E0,0E0,0E0,0E0,0E0,0E0,0E0,0E0,0E0,0E0],"parents":[2147483647,0,0,1,1,2,2,3,3,4,4,5,5,6,6,7,7,8,8,9,9,10,10,11,11,12,12,13,13,14,14],"right_children":[2,4,6,8,10,12,14,16,18,20,22,24,26,28,30,-1,-1,-1,-1,-1,-1,-1,-1,-1,-1,-1,-1,-1,-1,-1,-1],"split_conditions":[1.9310344E0,8.2758623E-1,2.0714285E0,1.0555556E0,1.3E0,2E1,6E-1,1.2E1,1.375E0,4E0,1.3548387E0,1.6E1,3E0,1.3E1,2.2E1,-2.2405302E-2,1.9584324E-2,-0E0,4.2072974E-2,7.340066E-3,-3.0072173E-2,1.9276422E-2,-1.11316405E-2,1.5212029E-2,-1.9530207E-2,-1.0195175E-2,3.9864093E-2,-0E0,7.4042134E-2,-4.5986096E-3,-4.8041783E-2],"split_indices":[7,9,9,7,7,0,8,0,8,2,7,0,4,4,0,0,0,0,0,0,0,0,0,0,0,0,0,0,0,0,0],"split_type":[0,0,0,0,0,0,0,0,0,0,0,0,0,0,0,0,0,0,0,0,0,0,0,0,0,0,0,0,0,0,0],"sum_hessian":[5.37E2,3.44E2,1.93E2,2.8E1,3.16E2,1.68E2,2.5E1,1.2E1,1.6E1,1.17E2,1.99E2,8.3E1,8.5E1,3E0,2.2E1,8E0,4E0,4E0,1.2E1,1.3E1,1.04E2,1.7E1,1.82E2,6.3E1,2E1,4E0,8.1E1,1E0,2E0,1.4E1,8E0],"tree_param":{"num_deleted":"0","num_feature":"14","num_nodes":"31","size_leaf_vector":"1"}},{"base_weights":[2.3337036E-2,-1.9822693E-1,3.9889666E-1,-9.838267E-2,-5.1048684E-1,-3.1188196E-1,4.727444E-1,-4.3246472E-1,3.0234193E-3,-5.7009065E-1,3.444737E-2,8.812375E-2,-4.0500607E-2,9.657758E-1,3.6043426E-1,-3.3384822E-2,-0E0,1.226423E-2,-1.12255765E-2,-0E0,-3.2541994E-2,3.6909696E-2,-1.2048396E-2,1.9489916E-2,-1.6814718E-3,6.642246E-2,-0E0,2.2074161E-2,-0E0],"categories":[],"categories_nodes":[],"categories_segments":[],"categories_sizes":[],"default_left":[0,0,0,0,0,0,0,0,0,0,0,0,0,0,0,0,0,0,0,0,0,0,0,0,0,0,0,0,0],"id":6,"left_children":[1,3,5,7,9,11,13,15,17,19,21,23,-1,25,27,-1,-1,-1,-1,-1,-1,-1,-1,-1,-1,-1,-1,-1,-1],"loss_changes":[4.479528E1,9.775801E0,1.0906149E1,9.188854E0,3.1147919E0,4.5151772E0,8.312481E0,6.812358E0,1.0990146E1,3.758978E0,2.217717E0,7.6149523E-1,0E0,1.0326719E1,4.909075E0,0E0,0E0,0E0,0E0,0E0,0E0,0E0,0E0,0E0,0E0,0E0,0E0,0E0,0E0],"parents":[2147483647,0,0,1,1,2,2,3,3,4,4,5,5,6,6,7,7,8,8,9,9,10,10,11,11,13,13,14,14],"right_children":[2,4,6,8,10,12,14,16,18,20,22,24,-1,26,28,-1,-1,-1,-1,-1,-1,-1,-1,-1,-1,-1,-1,-1,-1],"split_conditions":[1.88E0,1.75E0,1E0,1.3043479E0,2.25E0,2E0,8.148148E-1,1.8636364E0,8E0,5E0,5E0,1.1E1,-4.0500607E-2,1.3E1,2.5333333E0,-3.3384822E-2,-0E0,1.226423E-2,-1.12255765E-2,-0E0,-3.2541994E-2,3.6909696E-2,-1.2048396E-2,1.9489916E-2,-1.6814718E-3,6.642246E-2,-0E0,2.2074161E-2,-0E0],"split_indices":[7,8,10,8,10,12,8,10,4,4,2,2,0,1,7,0,0,0,0,0,0,0,0,0,0,0,0,0,0],"split_type":[0,0,0,0,0,0,0,0,0,0,0,0,0,0,0,0,0,0,0,0,0,0,0,0,0,0,0,0,0],"sum_hessian":[5.33E2,3.34E2,1.99E2,2.57E2,7.7E1,1.7E1,1.82E2,6.1E1,1.96E2,7.1E1,6E0,9E0,8E0,3E1,1.52E2,4E1,2.1E1,9.7E1,9.9E1,8E0,6.3E1,2E0,4E0,4E0,5E0,2.1E1,9E0,1.26E2,2.6E1],"tree_param":{"num_deleted":"0","num_feature":"14","num_nodes":"29","size_leaf_vector":"1"}},{"base_weights":[1.4969166E-2,-2.0817216E-1,3.97042E-1,2.5660852E-1,-3.103062E-1,6.2115543E-2,5.670555E-1,5.0513273E-1,-2.4075913E-1,-5.8862406E-1,-1.378198E-1,2.1355292E-1,-4.758722E-1,6.0106784E-1,-3.1463616E-2,3.575625E-2,-1.0493035E-2,1.0992198E-2,-3.3840526E-2,-3.954312E-2,3.0209275E-4,2.7566541E-2,-1.116309E-2,1.8376725E-2,-1.5244247E-2,-0E0,-2.936281E-2,-5.581355E-3,3.2293558E-2],"categories":[],"categories_nodes":[],"categories_segments":[],"categories_sizes":[],"default_left":[0,0,0,0,0,0,0,0,0,0,0,0,0,0,0,0,0,0,0,0,0,0,0,0,0,0,0,0,0],"id":7,"left_children":[1,3,5,7,9,11,13,15,17,19,21,23,25,27,-1,-1,-1,-1,-1,-1,-1,-1,-1,-1,-1,-1,-1,-1,-1],"loss_changes":[4.5711796E1,1.6099297E1,1.0620991E1,7.801469E0,1.2473547E1,5.6338534E0,5.808483E0,6.961315E0,4.596664E0,1.3239342E1,1.0190431E1,4.8209515E0,1.0272856E0,4.713608E0,0E0,0E0,0E0,0E0,0E0,0E0,0E0,0E0,0E0,0E0,0E0,0E0,0E0,0E0,0E0],"parents":[2147483647,0,0,1,1,2,2,3,3,4,4,5,5,6,6,7,7,8,8,9,9,10,10,11,11,12,12,13,13],"right_children":[2,4,6,8,10,12,14,16,18,20,22,24,26,28,-1,-1,-1,-1,-1,-1,-1,-1,-1,-1,-1,-1,-1,-1,-1],"split_conditions":[1.9310344E0,4E0,7E0,7E0,1.2857143E0,1.3846154E0,1.7777778E0,1.7419355E0,4E0,1.1E1,1.3529412E0,1.3E1,6E0,7.3333335E-1,-3.1463616E-2,3.575625E-2,-1.0493035E-2,1.0992198E-2,-3.3840526E-2,-3.954312E-2,3.0209275E-4,2.7566541E-2,-1.116309E-2,1.8376725E-2,-1.5244247E-2,-0E0,-2.936281E-2,-5.581355E-3,3.2293558E-2],"split_indices":[7,2,6,1,7,8,8,8,4,4,7,1,2,9,0,0,0,0,0,0,0,0,0,0,0,0,0,0,0],"split_type":[0,0,0,0,0,0,0,0,0,0,0,0,0,0,0,0,0,0,0,0,0,0,0,0,0,0,0,0,0],"sum_hessian":[5.31E2,3.34E2,1.97E2,5.8E1,2.76E2,6.9E1,1.28E2,4E1,1.8E1,1.02E2,1.74E2,5.6E1,1.3E1,1.26E2,2E0,3.2E1,8E0,8E0,1E1,7.7E1,2.5E1,1.7E1,1.57E2,4.5E1,1.1E1,2E0,1.1E1,6E0,1.2E2],"tree_param":{"num_deleted":"0","num_feature":"14","num_nodes":"29","size_leaf_vector":"1"}},{"base_weights":[-2.0789856E-2,-2.1260224E-1,3.2665935E-1,2.6498348E-1,-2.7595955E-1,-3.1232944E-2,5.37311E-1,7.0214844E-1,-6.768441E-2,-3.4483686E-1,3.618892E-2,9.2953354E-2,-7.566447E-1,-9.928779E-2,5.807043E-1,-4.813454E-3,5.4131467E-2,1.31891E-2,-1.3640195E-2,-2.6084421E-2,-6.4324955E-3,-6.4589777E-3,4.2142693E-2,-8.716204E-3,1.9422311E-2,-4.326926E-2,-0E0,-1.8793909E-2,4.609592E-3,5.1737696E-2,2.1604648E-2],"categories":[],"categories_nodes":[],"categories_segments":[],"categories_sizes":[],"default_left":[0,0,0,0,0,0,0,0,0,0,0,0,0,0,0,0,0,0,0,0,0,0,0,0,0,0,0,0,0,0,0],"id":8,"left_children":[1,3,5,7,9,11,13,15,17,19,21,23,25,27,29,-1,-1,-1,-1,-1,-1,-1,-1,-1,-1,-1,-1,-1,-1,-1,-1],"loss_changes":[3.5545258E1,1.0605252E1,1.4742384E1,6.450266E0,6.9601E0,7.0301814E0,3.8966026E0,6.7626734E0,1.6467428E0,9.017523E0,8.147127E0,5.0149207E0,1.2794824E0,7.328763E-1,5.5885963E0,0E0,0E0,0E0,0E0,0E0,0E0,0E0,0E0,0E0,0E0,0E0,0E0,0E0,0E0,0E0,0E0],"parents":[2147483647,0,0,1,1,2,2,3,3,4,4,5,5,6,6,7,7,8,8,9,9,10,10,11,11,12,12,13,13,14,14],"right_children":[2,4,6,8,10,12,14,16,18,20,22,24,26,28,30,-1,-1,-1,-1,-1,-1,-1,-1,-1,-1,-1,-1,-1,-1,-1,-1],"split_conditions":[1.9615384E0,9.411765E-1,7E0,1.6E1,9E0,2.2E0,7.3333335E-1,5.4545456E-1,1.3461539E0,1.7692307E0,3.1E1,1E0,3.5E1,1E0,1.137931E0,-4.813454E-3,5.4131467E-2,1.31891E-2,-1.3640195E-2,-2.6084421E-2,-6.4324955E-3,-6.4589777E-3,4.2142693E-2,-8.716204E-3,1.9422311E-2,-4.326926E-2,-0E0,-1.8793909E-2,4.609592E-3,5.1737696E-2,2.1604648E-2],"split_indices":[7,9,6,0,1,9,9,9,7,10,0,12,0,13,9,0,0,0,0,0,0,0,0,0,0,0,0,0,0,0,0],"split_type":[0,0,0,0,0,0,0,0,0,0,0,0,0,0,0,0,0,0,0,0,0,0,0,0,0,0,0,0,0,0,0],"sum_hessian":[5.32E2,3.45E2,1.87E2,3.8E1,3.07E2,6.8E1,1.19E2,1.7E1,2.1E1,2.54E2,5.3E1,5.8E1,1E1,6E0,1.13E2,5E0,1.2E1,6E0,1.5E1,1.36E2,1.18E2,4.4E1,9E0,2.9E1,2.9E1,9E0,1E0,4E0,2E0,2.4E1,8.9E1],"tree_param":{"num_deleted":"0","num_feature":"14","num_nodes":"31","size_leaf_vector":"1"}},{"base_weights":[-4.1690324E-3,-1.7520335E-1,2.7990285E-1,-8.595509E-2,-4.7798043E-1,7.5628436E-1,1.46214E-1,-5.06155E-1,-1.3892815E-2,-6.802472E-2,-6.5448344E-1,8.719571E-1,-0E0,-3.8788825E-1,2.7293196E-1,2.0787686E-3,-3.4858987E-2,-4.7890678E-2,4.5889925E-4,8.720025E-3,-9.434717E-3,-3.6946803E-2,2.042362E-3,4.7034986E-2,-0E0,-0E0,-3.2155424E-2,2.9880196E-2,1.3214251E-3],"categories":[],"categories_nodes":[],"categories_segments":[],"categories_sizes":[],"default_left":[0,0,0,0,0,0,0,0,0,0,0,0,0,0,0,0,0,0,0,0,0,0,0,0,0,0,0,0,0],"id":9,"left_children":[1,3,5,7,9,11,13,15,17,19,21,23,-1,25,27,-1,-1,-1,-1,-1,-1,-1,-1,-1,-1,-1,-1,-1,-1],"loss_changes":[2.584093E1,8.440431E0,1.157348E1,7.448332E0,4.5290546E0,4.014696E0,1.077118E1,4.5180798E0,5.937868E0,8.09617E-1,3.6501255E0,2.7783146E0,0E0,3.2128968E0,9.796551E0,0E0,0E0,0E0,0E0,0E0,0E0,0E0,0E0,0E0,0E0,0E0,0E0,0E0,0E0],"parents":[2147483647,0,0,1,1,2,2,3,3,4,4,5,5,6,6,7,7,8,8,9,9,10,10,11,11,13,13,14,14],"right_children":[2,4,6,8,10,12,14,16,18,20,22,24,-1,26,28,-1,-1,-1,-1,-1,-1,-1,-1,-1,-1,-1,-1,-1,-1],"split_conditions":[9E0,1.75E0,8.4615386E-1,1.1428572E0,1.1481482E0,6E0,1.2857143E0,6.8421054E-1,1E0,6E0,2.2058823E0,3E0,-0E0,1.2285714E0,1E0,2.0787686E-3,-3.4858987E-2,-4.7890678E-2,4.5889925E-4,8.720025E-3,-9.434717E-3,-3.6946803E-2,2.042362E-3,4.7034986E-2,-0E0,-0E0,-3.2155424E-2,2.9880196E-2,1.3214251E-3],"split_indices":[3,8,8,10,9,11,10,10,1,6,9,13,0,8,11,0,0,0,0,0,0,0,0,0,0,0,0,0,0],"split_type":[0,0,0,0,0,0,0,0,0,0,0,0,0,0,0,0,0,0,0,0,0,0,0,0,0,0,0,0,0],"sum_hessian":[5.31E2,3.34E2,1.97E2,2.62E2,7.2E1,4E1,1.57E2,3.5E1,2.27E2,2.4E1,4.8E1,3.5E1,5E0,2.8E1,1.29E2,8E0,2.7E1,5E0,2.22E2,5E0,1.9E1,4.4E1,4E0,3.3E1,2E0,1.1E1,1.7E1,5.3E1,7.6E1],"tree_param":{"num_deleted":"0","num_feature":"14","num_nodes":"29","size_leaf_vector":"1"}},{"base_weights":[-1.40547585E-2,-1.6004637E-1,3.5190508E-1,-4.8523036E-1,-7.369241E-2,-5.656376E-2,5.9929156E-1,-3.3310905E-1,-9.8438793E-1,-4.3186432E-1,2.8043907E-2,2.4810191E-2,-6.572594E-1,-1.14597686E-1,6.753469E-1,-2.6941275E-2,-0E0,-0E0,-5.3022802E-2,-0E0,-3.1585626E-2,1.3487339E-2,-7.064709E-3,1.7699134E-2,-9.3227625E-3,-3.8099974E-2,-0E0,-1.6331332E-2,-0E0,5.8828887E-2,2.317981E-2],"categories":[],"categories_nodes":[],"categories_segments":[],"categories_sizes":[],"default_left":[0,0,0,0,0,0,0,0,0,0,0,0,0,0,0,0,0,0,0,0,0,0,0,0,0,0,0,0,0,0,0],"id":10,"left_children":[1,3,5,7,9,11,13,15,17,19,21,23,25,27,29,-1,-1,-1,-1,-1,-1,-1,-1,-1,-1,-1,-1,-1,-1,-1,-1],"loss_changes":[2.9304222E1,1.0521526E1,1.6306799E1,4.3032055E0,1.19914E1,3.5164468E0,6.024906E0,4.4904957E0,1.4419651E0,6.6308203E0,1.0274746E1,3.8479826E0,6.8290997E-1,3.5532227E-1,7.14695E0,0E0,0E0,0E0,0E0,0E0,0E0,0E0,0E0,0E0,0E0,0E0,0E0,0E0,0E0,0E0,0E0],"parents":[2147483647,0,0,1,1,2,2,3,3,4,4,5,5,6,6,7,7,8,8,9,9,10,10,11,11,12,12,13,13,14,14],"right_children":[2,4,6,8,10,12,14,16,18,20,22,24,26,28,30,-1,-1,-1,-1,-1,-1,-1,-1,-1,-1,-1,-1,-1,-1,-1,-1],"split_conditions":[2.142857E0,1.3333334E0,7E0,1.4E1,1.0625E0,2.2E0,4E0,6E0,6E-1,7.3333335E-1,1E0,5E0,2.6666667E0,3E0,8.333333E-1,-2.6941275E-2,-0E0,-0E0,-5.3022802E-2,-0E0,-3.1585626E-2,1.3487339E-2,-7.064709E-3,1.7699134E-2,-9.3227625E-3,-3.8099974E-2,-0E0,-1.6331332E-2,-0E0,5.8828887E-2,2.317981E-2],"split_indices":[7,10,6,4,7,9,4,6,8,7,11,6,9,4,8,0,0,0,0,0,0,0,0,0,0,0,0,0,0,0,0],"split_type":[0,0,0,0,0,0,0,0,0,0,0,0,0,0,0,0,0,0,0,0,0,0,0,0,0,0,0,0,0,0,0],"sum_hessian":[5.49E2,3.95E2,1.54E2,7.9E1,3.16E2,5.7E1,9.7E1,6.4E1,1.5E1,7.1E1,2.45E2,5E1,7E0,8E0,8.9E1,3.9E1,2.5E1,1E0,1.4E1,2.2E1,4.9E1,1.03E2,1.42E2,2.1E1,2.9E1,6E0,1E0,3E0,5E0,2.3E1,6.6E1],"tree_param":{"num_deleted":"0","num_feature":"14","num_nodes":"31","size_leaf_vector":"1"}},{"base_weights":[4.900647E-2,-1.1617894E-1,2.9787153E-1,-6.258931E-1,-5.1552422E-2,-2.5464222E-1,3.7124422E-1,-7.033116E-1,1.5639713E-3,5.792422E-2,-3.545026E-1,-4.027546E-1,7.90566E-3,-2.589551E-1,4.2711025E-1,-3.7075076E-2,-0E0,1.4786934E-2,-1.4124358E-2,2.677281E-2,-2.0809999E-2,-4.188004E-4,-3.5565216E-2,-0E0,-3.3467438E-2,3.2706954E-2,9.590204E-3],"categories":[],"categories_nodes":[],"categories_segments":[],"categories_sizes":[],"default_left":[0,0,0,0,0,0,0,0,0,0,0,0,0,0,0,0,0,0,0,0,0,0,0,0,0,0,0],"id":11,"left_children":[1,3,5,7,9,11,13,15,-1,17,19,21,-1,23,25,-1,-1,-1,-1,-1,-1,-1,-1,-1,-1,-1,-1],"loss_changes":[2.1219683E1,9.3376465E0,8.629795E0,2.3585434E0,9.4314375E0,1.7768161E0,6.8297005E0,1.1330824E0,0E0,1.6369991E1,4.360593E0,1.644248E0,0E0,1.4918156E0,8.127611E0,0E0,0E0,0E0,0E0,0E0,0E0,0E0,0E0,0E0,0E0,0E0,0E0],"parents":[2147483647,0,0,1,1,2,2,3,3,4,4,5,5,6,6,7,7,9,9,10,10,11,11,13,13,14,14],"right_children":[2,4,6,8,10,12,14,16,-1,18,20,22,-1,24,26,-1,-1,-1,-1,-1,-1,-1,-1,-1,-1,-1,-1],"split_conditions":[1.7692307E0,1.0909091E0,5E0,2E0,1.5666667E0,4E0,1E0,1.3E1,1.5639713E-3,1.6571429E0,2E0,1.25E0,7.90566E-3,1.32E0,2E0,-3.7075076E-2,-0E0,1.4786934E-2,-1.4124358E-2,2.677281E-2,-2.0809999E-2,-4.188004E-4,-3.5565216E-2,-0E0,-3.3467438E-2,3.2706954E-2,9.590204E-3],"split_indices":[7,8,1,13,7,12,10,1,0,8,1,9,0,8,11,0,0,0,0,0,0,0,0,0,0,0,0],"split_type":[0,0,0,0,0,0,0,0,0,0,0,0,0,0,0,0,0,0,0,0,0,0,0,0,0,0,0],"sum_hessian":[5.09E2,3.04E2,2.05E2,3.1E1,2.73E2,2.2E1,1.83E2,2.9E1,2E0,1.99E2,7.4E1,1.8E1,4E0,1.3E1,1.7E2,2.8E1,1E0,1.19E2,8E1,3E0,7.1E1,1E1,8E0,9E0,4E0,8.3E1,8.7E1],"tree_param":{"num_deleted":"0","num_feature":"14","num_nodes":"27","size_leaf_vector":"1"}},{"base_weights":[-2.6818953E-2,-2.6504108E-1,7.4893355E-2,6.2148754E-2,-4.2308468E-1,1.1101799E-1,-4.7777638E-1,-7.3603684E-1,2.5292495E-1,-5.046247E-1,5.671835E-3,-2.3943901E-2,3.2054332E-1,-8.228002E-1,-0E0,-0E0,-3.898308E-2,1.9120138E-2,-1.2264371E-2,-1.2435286E-2,-3.8641043E-2,-2.0538066E-2,1.817377E-2,-1.0337314E-2,9.123816E-3,4.6338752E-2,1.1210485E-2,-4.6499982E-2,-0E0,1.1763046E-2,-9.8548E-3],"categories":[],"categories_nodes":[],"categories_segments":[],"categories_sizes":[],"default_left":[0,0,0,0,0,0,0,0,0,0,0,0,0,0,0,0,0,0,0,0,0,0,0,0,0,0,0,0,0,0,0],"id":12,"left_children":[1,3,5,7,9,11,13,15,17,19,21,23,25,27,29,-1,-1,-1,-1,-1,-1,-1,-1,-1,-1,-1,-1,-1,-1,-1,-1],"loss_changes":[1.3195153E1,8.855005E0,7.169729E0,7.790559E0,4.4363384E0,1.0304363E1,3.5546918E0,2.028513E-2,3.148394E0,5.3135853E0,2.7841885E0,8.13709E0,6.800997E0,1.48384E0,5.569167E-1,0E0,0E0,0E0,0E0,0E0,0E0,0E0,0E0,0E0,0E0,0E0,0E0,0E0,0E0,0E0,0E0],"parents":[2147483647,0,0,1,1,2,2,3,3,4,4,5,5,6,6,7,7,8,8,9,9,10,10,11,11,12,12,13,13,14,14],"right_children":[2,4,6,8,10,12,14,16,18,20,22,24,26,28,30,-1,-1,-1,-1,-1,-1,-1,-1,-1,-1,-1,-1,-1,-1,-1,-1],"split_conditions":[5E0,1.1764706E0,2.2333333E0,9E0,5E0,1.4761904E0,5E0,3E0,3.2E1,1E0,6E0,1E0,1.5238096E0,3E0,1E1,-0E0,-3.898308E-2,1.9120138E-2,-1.2264371E-2,-1.2435286E-2,-3.8641043E-2,-2.0538066E-2,1.817377E-2,-1.0337314E-2,9.123816E-3,4.6338752E-2,1.1210485E-2,-4.6499982E-2,-0E0,1.1763046E-2,-9.8548E-3],"split_indices":[1,9,9,0,12,9,6,6,0,12,6,13,9,13,1,0,0,0,0,0,0,0,0,0,0,0,0,0,0,0,0],"split_type":[0,0,0,0,0,0,0,0,0,0,0,0,0,0,0,0,0,0,0,0,0,0,0,0,0,0,0,0,0,0,0],"sum_hessian":[5.34E2,1.62E2,3.72E2,5.1E1,1.11E2,3.52E2,2E1,8E0,4.3E1,9.5E1,1.6E1,2.12E2,1.4E2,1.1E1,9E0,1E0,7E0,3.6E1,7E0,5.2E1,4.3E1,6E0,1E1,1.15E2,9.7E1,1.6E1,1.24E2,1E1,1E0,4E0,5E0],"tree_param":{"num_deleted":"0","num_feature":"14","num_nodes":"31","size_leaf_vector":"1"}},{"base_weights":[3.766269E-2,1.1938393E-1,-3.4607008E-1,3.16149E-1,1.330346E-3,1.5468247E-1,-6.1474115E-1,3.8288042E-1,-5.966161E-1,-2.1484733E-1,1.9253856E-1,-3.2775365E-2,6.992336E-1,-0E0,-7.662477E-1,1.2069372E-2,3.9568145E-2,-4.402532E-2,-0E0,-1.5097744E-2,1.3675908E-2,-1.8754957E-2,1.5094118E-2,1.9096905E-2,-1.5202105E-2,4.1047506E-2,-0E0,-1.0864378E-2,9.762756E-3,-4.1876573E-2,-0E0],"categories":[],"categories_nodes":[],"categories_segments":[],"categories_sizes":[],"default_left":[0,0,0,0,0,0,0,0,0,0,0,0,0,0,0,0,0,0,0,0,0,0,0,0,0,0,0,0,0,0,0],"id":13,"left_children":[1,3,5,7,9,11,13,15,17,19,21,23,25,27,29,-1,-1,-1,-1,-1,-1,-1,-1,-1,-1,-1,-1,-1,-1,-1,-1],"loss_changes":[1.6314503E1,9.82127E0,1.27783575E1,9.904985E0,1.1510189E1,3.9163663E0,5.025585E0,7.4370155E0,2.0772035E0,5.618753E0,9.437819E0,2.7399943E0,4.0988064E-1,6.9634145E-1,1.9230633E0,0E0,0E0,0E0,0E0,0E0,0E0,0E0,0E0,0E0,0E0,0E0,0E0,0E0,0E0,0E0,0E0],"parents":[2147483647,0,0,1,1,2,2,3,3,4,4,5,5,6,6,7,7,8,8,9,9,10,10,11,11,12,12,13,13,14,14],"right_children":[2,4,6,8,10,12,14,16,18,20,22,24,26,28,30,-1,-1,-1,-1,-1,-1,-1,-1,-1,-1,-1,-1,-1,-1,-1,-1],"split_conditions":[1.7419355E0,7E0,1.6E1,6E0,8E0,5E0,1.1333333E0,6E0,7E0,5E0,1.2121212E0,5E0,1E1,2.0625E0,1.2E1,1.2069372E-2,3.9568145E-2,-4.402532E-2,-0E0,-1.5097744E-2,1.3675908E-2,-1.8754957E-2,1.5094118E-2,1.9096905E-2,-1.5202105E-2,4.1047506E-2,-0E0,-1.0864378E-2,9.762756E-3,-4.1876573E-2,-0E0],"split_indices":[8,4,0,12,3,1,9,4,12,12,9,2,3,10,4,0,0,0,0,0,0,0,0,0,0,0,0,0,0,0,0],"split_type":[0,0,0,0,0,0,0,0,0,0,0,0,0,0,0,0,0,0,0,0,0,0,0,0,0,0,0,0,0,0,0],"sum_hessian":[5.24E2,4.35E2,8.9E1,1.59E2,2.76E2,3E1,5.9E1,1.5E2,9E0,1.27E2,1.49E2,2.2E1,8E0,1.3E1,4.6E1,1.15E2,3.5E1,6E0,3E0,1.1E2,1.7E1,2.2E1,1.27E2,7E0,1.5E1,6E0,2E0,8E0,5E0,4.1E1,5E0],"tree_param":{"num_deleted":"0","num_feature":"14","num_nodes":"31","size_leaf_vector":"1"}},{"base_weights":[-1.6446568E-2,-2.5482646E-1,1.1309684E-1,-4.7562733E-1,1.6751163E-2,5.127969E-1,5.0299555E-2,4.2059198E-2,-5.2321005E-1,2.214939E-1,-7.7415824E-1,7.6157504E-1,2.0762913E-2,-3.5071844E-1,1.3818948E-1,-1.1725205E-2,1.6755905E-2,-1.559061E-2,-3.4381844E-2,2.4029622E-3,3.0116258E-2,-4.2445898E-2,-0E0,7.0830815E-2,1.6629381E-2,-7.3252805E-3,9.26255E-3,-3.0884115E-2,-4.3160445E-3,-7.5114614E-5,1.9425763E-2],"categories":[],"categories_nodes":[],"categories_segments":[],"categories_sizes":[],"default_left":[0,0,0,0,0,0,0,0,0,0,0,0,0,0,0,0,0,0,0,0,0,0,0,0,0,0,0,0,0,0,0],"id":14,"left_children":[1,3,5,7,9,11,13,15,17,19,21,23,25,27,29,-1,-1,-1,-1,-1,-1,-1,-1,-1,-1,-1,-1,-1,-1,-1,-1],"loss_changes":[1.6350925E1,1.1714185E1,7.8694897E0,3.1129303E0,1.3225945E1,4.5186615E0,1.0275198E1,9.0741307E-1,2.1027393E0,3.8305748E0,1.2814608E0,5.271694E0,5.609452E-1,2.8511252E0,8.972643E0,0E0,0E0,0E0,0E0,0E0,0E0,0E0,0E0,0E0,0E0,0E0,0E0,0E0,0E0,0E0,0E0],"parents":[2147483647,0,0,1,1,2,2,3,3,4,4,5,5,6,6,7,7,8,8,9,9,10,10,11,11,12,12,13,13,14,14],"right_children":[2,4,6,8,10,12,14,16,18,20,22,24,26,28,30,-1,-1,-1,-1,-1,-1,-1,-1,-1,-1,-1,-1,-1,-1,-1,-1],"split_conditions":[1.625E0,8E0,1.6857142E0,6.8421054E-1,4E0,1.4444444E0,1.7727273E0,1.03125E0,1E1,2E0,1.2E1,6E0,1.5142857E0,7E0,1E0,-1.1725205E-2,1.6755905E-2,-1.559061E-2,-3.4381844E-2,2.4029622E-3,3.0116258E-2,-4.2445898E-2,-0E0,7.0830815E-2,1.6629381E-2,-7.3252805E-3,9.26255E-3,-3.0884115E-2,-4.3160445E-3,-7.5114614E-5,1.9425763E-2],"split_indices":[10,1,10,10,12,8,10,8,5,12,2,6,8,5,13,0,0,0,0,0,0,0,0,0,0,0,0,0,0,0,0],"split_type":[0,0,0,0,0,0,0,0,0,0,0,0,0,0,0,0,0,0,0,0,0,0,0,0,0,0,0,0,0,0,0],"sum_hessian":[5.22E2,1.86E2,3.36E2,1.04E2,8.2E1,4.2E1,2.94E2,7E0,9.7E1,6.7E1,1.5E1,2.6E1,1.6E1,5E1,2.44E2,2E0,5E0,4.7E1,5E1,4.9E1,1.8E1,1.4E1,1E0,8E0,1.8E1,5E0,1.1E1,2.2E1,2.8E1,1.55E2,8.9E1],"tree_param":{"num_deleted":"0","num_feature":"14","num_nodes":"31","size_leaf_vector":"1"}},{"base_weights":[-6.9520876E-2,-2.1909836E-1,1.8717985E-1,1.288932E-1,-2.9006827E-1,-1.1342824E-1,3.6800972E-1,2.745784E-1,-4.5333403E-1,-3.772258E-1,-1.6185403E-2,-0E0,-5.7202584E-1,2.9486275E-1,1.1016524E0,3.6427096E-2,-2.9475966E-3,-3.29426E-2,-0E0,-4.534105E-2,-1.5984492E-2,5.740471E-3,-4.1217502E-2,-1.2835676E-2,1.6338259E-2,-3.3235397E-2,-0E0,9.781695E-3,3.752956E-2,-0E0,6.103031E-2],"categories":[],"categories_nodes":[],"categories_segments":[],"categories_sizes":[],"default_left":[0,0,0,0,0,0,0,0,0,0,0,0,0,0,0,0,0,0,0,0,0,0,0,0,0,0,0,0,0,0,0],"id":15,"left_children":[1,3,5,7,9,11,13,15,17,19,21,23,25,27,29,-1,-1,-1,-1,-1,-1,-1,-1,-1,-1,-1,-1,-1,-1,-1,-1],"loss_changes":[2.0654842E1,8.651255E0,1.0944365E1,4.8003945E0,6.4364567E0,4.139027E0,4.797365E0,7.926017E0,1.0977712E0,4.8746166E0,8.632611E0,5.078135E0,8.9298534E-1,4.1018085E0,1.1344147E0,0E0,0E0,0E0,0E0,0E0,0E0,0E0,0E0,0E0,0E0,0E0,0E0,0E0,0E0,0E0,0E0],"parents":[2147483647,0,0,1,1,2,2,3,3,4,4,5,5,6,6,7,7,8,8,9,9,10,10,11,11,12,12,13,13,14,14],"right_children":[2,4,6,8,10,12,14,16,18,20,22,24,26,28,30,-1,-1,-1,-1,-1,-1,-1,-1,-1,-1,-1,-1,-1,-1,-1,-1],"split_conditions":[1.9310344E0,4E0,7E0,1.8387097E0,8E0,2.1111112E0,1.6E1,6E0,1.3E1,6E0,1.1E1,1E0,2.6666667E0,1E1,3E0,3.6427096E-2,-2.9475966E-3,-3.29426E-2,-0E0,-4.534105E-2,-1.5984492E-2,5.740471E-3,-4.1217502E-2,-1.2835676E-2,1.6338259E-2,-3.3235397E-2,-0E0,9.781695E-3,3.752956E-2,-0E0,6.103031E-2],"split_indices":[7,2,6,8,1,9,3,1,6,5,1,12,9,5,2,0,0,0,0,0,0,0,0,0,0,0,0,0,0,0,0],"split_type":[0,0,0,0,0,0,0,0,0,0,0,0,0,0,0,0,0,0,0,0,0,0,0,0,0,0,0,0,0,0,0],"sum_hessian":[5.34E2,3.4E2,1.94E2,5.5E1,2.85E2,7.1E1,1.23E2,4.6E1,9E0,2.13E2,7.2E1,5.7E1,1.4E1,1.15E2,8E0,2E1,2.6E1,6E0,3E0,1.7E1,1.96E2,6.2E1,1E1,3.1E1,2.6E1,1.2E1,2E0,9.8E1,1.7E1,1E0,7E0],"tree_param":{"num_deleted":"0","num_feature":"14","num_nodes":"31","size_leaf_vector":"1"}},{"base_weights":[-6.828584E-3,-1.329566E-1,2.8732076E-1,3.8208255E-1,-1.7399949E-1,4.1328907E-1,-1.958683E-2,5.246561E-1,-0E0,-1.4314342E-1,-8.2913756E-1,9.8457474E-1,2.1727733E-1,5.2029115E-1,-1.5344562E-1,2.9403139E-2,-0E0,-1.1457433E-2,6.0386593E-3,-9.885789E-3,8.981265E-3,-0E0,-4.6952985E-2,-0E0,6.552752E-2,1.782216E-2,-1.9059604E-2,3.498598E-2,-0E0,-1.1971178E-2,7.900425E-3],"categories":[],"categories_nodes":[],"categories_segments":[],"categories_sizes":[],"default_left":[0,0,0,0,0,0,0,0,0,0,0,0,0,0,0,0,0,0,0,0,0,0,0,0,0,0,0,0,0,0,0],"id":16,"left_children":[1,3,5,7,9,11,13,15,17,19,21,23,25,27,29,-1,-1,-1,-1,-1,-1,-1,-1,-1,-1,-1,-1,-1,-1,-1,-1],"loss_changes":[1.899113E1,7.5755568E0,6.301593E0,1.6449785E0,5.71268E0,1.0850904E1,2.896541E0,1.0299811E0,3.0192873E-1,5.8400292E0,1.7420797E0,7.803303E0,7.3000565E0,1.1521771E0,1.1423433E0,0E0,0E0,0E0,0E0,0E0,0E0,0E0,0E0,0E0,0E0,0E0,0E0,0E0,0E0,0E0,0E0],"parents":[2147483647,0,0,1,1,2,2,3,3,4,4,5,5,6,6,7,7,8,8,9,9,10,10,11,11,12,12,13,13,14,14],"right_children":[2,4,6,8,10,12,14,16,18,20,22,24,26,28,30,-1,-1,-1,-1,-1,-1,-1,-1,-1,-1,-1,-1,-1,-1,-1,-1],"split_conditions":[2.142857E0,4E0,1.2424242E0,2.5555556E0,1.6E1,2.3823528E0,2.1515152E0,9E0,2E0,1.2E1,1E0,4E0,3E0,1.3E1,2.1818182E0,2.9403139E-2,-0E0,-1.1457433E-2,6.0386593E-3,-9.885789E-3,8.981265E-3,-0E0,-4.6952985E-2,-0E0,6.552752E-2,1.782216E-2,-1.9059604E-2,3.498598E-2,-0E0,-1.1971178E-2,7.900425E-3],"split_indices":[7,4,8,10,4,7,7,1,2,4,12,5,12,1,10,0,0,0,0,0,0,0,0,0,0,0,0,0,0,0,0],"split_type":[0,0,0,0,0,0,0,0,0,0,0,0,0,0,0,0,0,0,0,0,0,0,0,0,0,0,0,0,0,0,0],"sum_hessian":[5.13E2,3.62E2,1.51E2,2.4E1,3.38E2,1.09E2,4.2E1,1.8E1,6E0,3.26E2,1.2E1,2.5E1,8.4E1,6E0,3.6E1,1.7E1,1E0,3E0,3E0,2.82E2,4.4E1,1E0,1.1E1,7E0,1.8E1,7E1,1.4E1,5E0,1E0,3.1E1,5E0],"tree_param":{"num_deleted":"0","num_feature":"14","num_nodes":"31","size_leaf_vector":"1"}},{"base_weights":[-8.1914235E-3,-1.6604526E-1,1.9042191E-1,-1.2081842E-1,-7.386452E-1,2.546624E-1,-2.735152E-1,2.0112489E-1,-1.9479178E-1,-0E0,-3.946465E-2,1.8266009E-1,7.488932E-1,6.3456213E-1,-5.216997E-1,-2.3394385E-2,1.4867104E-2,1.3875755E-2,-1.2626392E-2,2.2110363E-2,3.6648978E-3,1.3636983E-2,1.0255062E-1,-0E0,5.008402E-2,-9.366812E-3,-4.6085488E-2],"categories":[],"categories_nodes":[],"categories_segments":[],"categories_sizes":[],"default_left":[0,0,0,0,0,0,0,0,0,0,0,0,0,0,0,0,0,0,0,0,0,0,0,0,0,0,0],"id":17,"left_children":[1,3,5,7,9,11,13,15,17,-1,-1,19,21,23,25,-1,-1,-1,-1,-1,-1,-1,-1,-1,-1,-1,-1],"loss_changes":[1.6278997E1,6.5815125E0,6.8659363E0,6.589714E0,8.8605785E-1,6.069374E0,6.3560395E0,3.2244785E0,6.256592E0,0E0,0E0,4.5593014E0,1.1407362E1,1.2970924E0,1.6412959E0,0E0,0E0,0E0,0E0,0E0,0E0,0E0,0E0,0E0,0E0,0E0,0E0],"parents":[2147483647,0,0,1,1,2,2,3,3,4,4,5,5,6,6,7,7,8,8,11,11,12,12,13,13,14,14],"right_children":[2,4,6,8,10,12,14,16,18,-1,-1,20,22,24,26,-1,-1,-1,-1,-1,-1,-1,-1,-1,-1,-1,-1],"split_conditions":[1.6857142E0,1.6296296E0,2.0714285E0,4E0,2E0,3.3E1,7.5E-1,6E0,4E0,-0E0,-3.946465E-2,1.1111112E0,1.44E0,2.6875E0,1.4E1,-2.3394385E-2,1.4867104E-2,1.3875755E-2,-1.2626392E-2,2.2110363E-2,3.6648978E-3,1.3636983E-2,1.0255062E-1,-0E0,5.008402E-2,-9.366812E-3,-4.6085488E-2],"split_indices":[7,7,9,2,4,0,8,0,6,0,0,9,8,7,4,0,0,0,0,0,0,0,0,0,0,0,0],"split_type":[0,0,0,0,0,0,0,0,0,0,0,0,0,0,0,0,0,0,0,0,0,0,0,0,0,0,0],"sum_hessian":[5.17E2,2.91E2,2.26E2,2.73E2,1.8E1,2.01E2,2.5E1,4.8E1,2.25E2,1E0,1.7E1,1.79E2,2.2E1,4E0,2.1E1,4E0,4.4E1,2.2E1,2.03E2,4.9E1,1.3E2,1.8E1,4E0,2E0,2E0,1.4E1,7E0],"tree_param":{"num_deleted":"0","num_feature":"14","num_nodes":"27","size_leaf_vector":"1"}},{"base_weights":[7.318462E-4,-1.413168E-1,2.680757E-1,-6.022677E-1,-8.268722E-2,3.9413846E-1,-8.2753755E-2,-8.597541E-1,-2.1405834E-1,-4.796284E-2,-7.800813E-1,5.76405E-1,3.586935E-2,1.3332742E-2,-3.78419E-2,-0E0,-4.6252843E-2,3.4148737E-3,-2.0014863E-2,-8.9118764E-4,-4.3630544E-2,-0E0,-4.4248443E-2,1.82233E-2,5.1055398E-2,1.3078138E-2,-3.0984083E-2,-1.9410618E-2,1.2876722E-2],"categories":[],"categories_nodes":[],"categories_segments":[],"categories_sizes":[],"default_left":[0,0,0,0,0,0,0,0,0,0,0,0,0,0,0,0,0,0,0,0,0,0,0,0,0,0,0,0,0],"id":18,"left_children":[1,3,5,7,9,11,13,15,17,19,21,23,25,27,-1,-1,-1,-1,-1,-1,-1,-1,-1,-1,-1,-1,-1,-1,-1],"loss_changes":[2.070952E1,8.739758E0,8.785464E0,2.3985806E0,6.7561646E0,8.662029E0,3.9647763E0,1.5336094E0,1.3458431E0,6.6294665E0,1.5745115E0,6.7742996E0,7.5046177E0,4.2848115E0,0E0,0E0,0E0,0E0,0E0,0E0,0E0,0E0,0E0,0E0,0E0,0E0,0E0,0E0,0E0],"parents":[2147483647,0,0,1,1,2,2,3,3,4,4,5,5,6,6,7,7,8,8,9,9,10,10,11,11,12,12,13,13],"right_children":[2,4,6,8,10,12,14,16,18,20,22,24,26,28,-1,-1,-1,-1,-1,-1,-1,-1,-1,-1,-1,-1,-1,-1,-1],"split_conditions":[1.9615384E0,7E0,1.3478261E0,8E0,1.6E1,1.2E1,2.1538463E0,4E0,1.4347826E0,1.3E1,1.1E1,1.1538461E0,1.117647E0,7E0,-3.78419E-2,-0E0,-4.6252843E-2,3.4148737E-3,-2.0014863E-2,-8.9118764E-4,-4.3630544E-2,-0E0,-4.4248443E-2,1.82233E-2,5.1055398E-2,1.3078138E-2,-3.0984083E-2,-1.9410618E-2,1.2876722E-2],"split_indices":[7,0,8,5,4,3,9,6,8,3,0,8,8,1,0,0,0,0,0,0,0,0,0,0,0,0,0,0,0],"split_type":[0,0,0,0,0,0,0,0,0,0,0,0,0,0,0,0,0,0,0,0,0,0,0,0,0,0,0,0,0],"sum_hessian":[5.39E2,3.5E2,1.89E2,3.6E1,3.14E2,1.41E2,4.8E1,1.9E1,1.7E1,3.02E2,1.2E1,9.1E1,5E1,4.2E1,6E0,1E0,1.8E1,5E0,1.2E1,2.94E2,8E0,1E0,1.1E1,6.5E1,2.6E1,3.9E1,1.1E1,1.4E1,2.8E1],"tree_param":{"num_deleted":"0","num_feature":"14","num_nodes":"29","size_leaf_vector":"1"}},{"base_weights":[2.4029646E-2,-1.3763386E-1,2.3849812E-1,2.221195E-1,-1.9047844E-1,-7.225071E-4,3.808626E-1,4.7568426E-1,-3.041975E-1,-2.2427078E-1,1.9832844E-1,-2.6176298E-1,1.8982784E-1,1.0287373E0,2.5218946E-1,-0E0,3.7660755E-2,-2.1950213E-2,-0E0,-2.3952587E-2,-8.084117E-3,-1.2721507E-3,4.0279448E-2,-0E0,-2.2771522E-2,1.7938921E-2,-2.1868026E-2,6.0840424E-2,-0E0,1.5333386E-2,-4.1912254E-2],"categories":[],"categories_nodes":[],"categories_segments":[],"categories_sizes":[],"default_left":[0,0,0,0,0,0,0,0,0,0,0,0,0,0,0,0,0,0,0,0,0,0,0,0,0,0,0,0,0,0,0],"id":19,"left_children":[1,3,5,7,9,11,13,15,17,19,21,23,25,27,29,-1,-1,-1,-1,-1,-1,-1,-1,-1,-1,-1,-1,-1,-1,-1,-1],"loss_changes":[1.8404764E1,5.7066107E0,8.196524E0,5.259663E0,3.5547056E0,4.349614E0,1.0542753E1,3.9320264E0,7.667196E-1,3.1579123E0,3.4606986E0,2.0288656E0,5.1900735E0,3.5797596E0,7.3093376E0,0E0,0E0,0E0,0E0,0E0,0E0,0E0,0E0,0E0,0E0,0E0,0E0,0E0,0E0,0E0,0E0],"parents":[2147483647,0,0,1,1,2,2,3,3,4,4,5,5,6,6,7,7,8,8,9,9,10,10,11,11,12,12,13,13,14,14],"right_children":[2,4,6,8,10,12,14,16,18,20,22,24,26,28,30,-1,-1,-1,-1,-1,-1,-1,-1,-1,-1,-1,-1,-1,-1,-1,-1],"split_conditions":[1.6857142E0,9.230769E-1,7E0,2.3E1,1.3E1,1E0,8.214286E-1,5.4545456E-1,1.76E0,9E0,1.5555556E0,1.3E1,1.3E1,1E0,2.1538463E0,-0E0,3.7660755E-2,-2.1950213E-2,-0E0,-2.3952587E-2,-8.084117E-3,-1.2721507E-3,4.0279448E-2,-0E0,-2.2771522E-2,1.7938921E-2,-2.1868026E-2,6.0840424E-2,-0E0,1.5333386E-2,-4.1912254E-2],"split_indices":[7,9,6,0,6,12,8,9,8,0,8,0,3,12,9,0,0,0,0,0,0,0,0,0,0,0,0,0,0,0,0],"split_type":[0,0,0,0,0,0,0,0,0,0,0,0,0,0,0,0,0,0,0,0,0,0,0,0,0,0,0,0,0,0,0],"sum_hessian":[5.25E2,2.97E2,2.28E2,3.5E1,2.62E2,8.3E1,1.45E2,2.5E1,1E1,2.44E2,1.8E1,3.7E1,4.6E1,2.1E1,1.24E2,9E0,1.6E1,8E0,2E0,4.3E1,2.01E2,1.3E1,5E0,1.6E1,2.1E1,3.8E1,8E0,1.7E1,4E0,1.2E2,4E0],"tree_param":{"num_deleted":"0","num_feature":"14","num_nodes":"31","size_leaf_vector":"1"}},{"base_weights":[-5.4564844E-3,-1.9366105E-1,2.4705209E-1,1.4991431E-1,-2.74074E-1,3.2591888E-1,-1.1537405E-1,6.405196E-1,-1.1069598E-1,-3.6444145E-1,-0E0,4.3098217E-1,-0E0,-4.0523595E-1,4.7935596E-1,8.209262E-3,6.817534E-2,-1.7804231E-2,4.596283E-3,-1.999762E-2,2.2907564E-2,6.245523E-3,-3.9142862E-2,1.5397139E-2,4.6416607E-2,2.2141786E-2,-1.8913984E-2,-2.4273552E-2,4.510825E-3,-1.8211234E-2,3.936541E-2],"categories":[],"categories_nodes":[],"categories_segments":[],"categories_sizes":[],"default_left":[0,0,0,0,0,0,0,0,0,0,0,0,0,0,0,0,0,0,0,0,0,0,0,0,0,0,0,0,0,0,0],"id":20,"left_children":[1,3,5,7,9,11,13,15,17,19,21,23,25,27,29,-1,-1,-1,-1,-1,-1,-1,-1,-1,-1,-1,-1,-1,-1,-1,-1],"loss_changes":[2.5514606E1,8.764255E0,6.7696695E0,7.9879436E0,6.450224E0,6.8967075E0,7.0266476E0,5.5407553E0,2.177798E0,5.839779E0,6.0909047E0,7.238592E0,7.812153E0,1.5939021E0,4.100501E0,0E0,0E0,0E0,0E0,0E0,0E0,0E0,0E0,0E0,0E0,0E0,0E0,0E0,0E0,0E0,0E0],"parents":[2147483647,0,0,1,1,2,2,3,3,4,4,5,5,6,6,7,7,8,8,9,9,10,10,11,11,12,12,13,13,14,14],"right_children":[2,4,6,8,10,12,14,16,18,20,22,24,26,28,30,-1,-1,-1,-1,-1,-1,-1,-1,-1,-1,-1,-1,-1,-1,-1,-1],"split_conditions":[1.7142857E0,4E0,1.4736842E0,1.8709677E0,1.1E1,2.5333333E0,1.8846154E0,6E0,1E0,6E0,1.6E1,3.1E1,8.4375E-1,3.1E1,8E0,8.209262E-3,6.817534E-2,-1.7804231E-2,4.596283E-3,-1.999762E-2,2.2907564E-2,6.245523E-3,-3.9142862E-2,1.5397139E-2,4.6416607E-2,2.2141786E-2,-1.8913984E-2,-2.4273552E-2,4.510825E-3,-1.8211234E-2,3.936541E-2],"split_indices":[7,2,8,10,4,7,10,4,11,11,4,0,8,0,3,0,0,0,0,0,0,0,0,0,0,0,0,0,0,0,0],"split_type":[0,0,0,0,0,0,0,0,0,0,0,0,0,0,0,0,0,0,0,0,0,0,0,0,0,0,0,0,0,0,0],"sum_hessian":[5.35E2,3.09E2,2.26E2,5.6E1,2.53E2,1.88E2,3.8E1,2E1,3.6E1,1.91E2,6.2E1,1.44E2,4.4E1,2.7E1,1.1E1,1.4E1,6E0,1.8E1,1.8E1,1.85E2,6E0,5.5E1,7E0,1.19E2,2.5E1,1.9E1,2.5E1,2.5E1,2E0,2E0,9E0],"tree_param":{"num_deleted":"0","num_feature":"14","num_nodes":"31","size_leaf_vector":"1"}},{"base_weights":[-1.1539909E-2,-1.3801874E-1,2.2244954E-1,-2.1695204E-1,1.329225E-1,-5.071709E-1,2.775852E-1,3.38267E-1,-2.702422E-1,-8.825732E-2,4.638323E-1,-3.7673477E-2,8.168475E-3,3.3857718E-1,-1.9136837E-1,2.3055023E-2,-1.3776925E-2,-1.7830933E-2,-1.8733101E-3,2.7856645E-3,-4.2968474E-2,5.2115608E-2,-0E0,2.1552004E-2,-0E0,2.2575468E-2,-2.049538E-2],"categories":[],"categories_nodes":[],"categories_segments":[],"categories_sizes":[],"default_left":[0,0,0,0,0,0,0,0,0,0,0,0,0,0,0,0,0,0,0,0,0,0,0,0,0,0,0],"id":21,"left_children":[1,3,5,7,9,11,13,15,17,19,21,-1,-1,23,25,-1,-1,-1,-1,-1,-1,-1,-1,-1,-1,-1,-1],"loss_changes":[1.6046347E1,7.7514973E0,7.5645885E0,8.338862E0,6.182439E0,2.8391547E0,5.3213234E0,2.1479404E0,4.76326E0,6.037787E0,9.632225E0,0E0,0E0,5.218935E0,2.975647E0,0E0,0E0,0E0,0E0,0E0,0E0,0E0,0E0,0E0,0E0,0E0,0E0],"parents":[2147483647,0,0,1,1,2,2,3,3,4,4,5,5,6,6,7,7,8,8,9,9,10,10,13,13,14,14],"right_children":[2,4,6,8,10,12,14,16,18,20,22,-1,-1,24,26,-1,-1,-1,-1,-1,-1,-1,-1,-1,-1,-1,-1],"split_conditions":[1.9615384E0,9E0,9.0909094E-1,4E0,9E0,2.6666667E0,1.4736842E0,9E0,1.9583334E0,3.1E1,2E0,-3.7673477E-2,8.168475E-3,1.3E1,7E0,2.3055023E-2,-1.3776925E-2,-1.7830933E-2,-1.8733101E-3,2.7856645E-3,-4.2968474E-2,5.2115608E-2,-0E0,2.1552004E-2,-0E0,2.2575468E-2,-2.049538E-2],"split_indices":[7,3,10,4,1,7,8,1,10,0,11,0,0,1,0,0,0,0,0,0,0,0,0,0,0,0,0],"split_type":[0,0,0,0,0,0,0,0,0,0,0,0,0,0,0,0,0,0,0,0,0,0,0,0,0,0,0],"sum_hessian":[5.42E2,3.55E2,1.87E2,2.78E2,7.7E1,1.1E1,1.76E2,2.2E1,2.56E2,4.5E1,3.2E1,9E0,2E0,1.58E2,1.8E1,2E1,2E0,1.83E2,7.3E1,3.8E1,7E0,1.4E1,1.8E1,1.25E2,3.3E1,3E0,1.5E1],"tree_param":{"num_deleted":"0","num_feature":"14","num_nodes":"27","size_leaf_vector":"1"}},{"base_weights":[-4.863264E-2,1.3889807E-1,-1.2634908E-1,6.125432E-1,5.6497518E-2,-2.8626716E-1,3.9610103E-2,8.809397E-1,-1.7788528E-1,1.1614912E-1,-5.579519E-1,-6.3964313E-1,-1.997393E-1,1.1488436E-1,-3.751214E-1,-0E0,5.5802982E-2,-0E0,-1.7617827E-2,8.3268555E-3,-2.3865629E-2,-3.5087597E-2,-0E0,-3.4476444E-2,-0E0,-0E0,-1.7791284E-2,-3.3311322E-3,1.9126609E-2,-0E0,-3.6726825E-2],"categories":[],"categories_nodes":[],"categories_segments":[],"categories_sizes":[],"default_left":[0,0,0,0,0,0,0,0,0,0,0,0,0,0,0,0,0,0,0,0,0,0,0,0,0,0,0,0,0,0,0],"id":22,"left_children":[1,3,5,7,9,11,13,15,17,19,21,23,25,27,29,-1,-1,-1,-1,-1,-1,-1,-1,-1,-1,-1,-1,-1,-1,-1,-1],"loss_changes":[7.7016754E0,5.191885E0,1.0282467E1,5.2871523E0,4.511914E0,4.9467525E0,5.5330215E0,4.0105505E0,3.846606E-1,3.501522E0,9.17115E-1,1.4029903E0,4.8885984E0,8.054059E0,4.094409E0,0E0,0E0,0E0,0E0,0E0,0E0,0E0,0E0,0E0,0E0,0E0,0E0,0E0,0E0,0E0,0E0],"parents":[2147483647,0,0,1,1,2,2,3,3,4,4,5,5,6,6,7,7,8,8,9,9,10,10,11,11,12,12,13,13,14,14],"right_children":[2,4,6,8,10,12,14,16,18,20,22,24,26,28,30,-1,-1,-1,-1,-1,-1,-1,-1,-1,-1,-1,-1,-1,-1,-1,-1],"split_conditions":[5E0,8.75E-1,8E0,7E0,1.4E1,9E0,2.0714285E0,2.4166667E0,1.9E1,6E0,1.3E1,1.5E1,2.2E1,1E1,1.5E1,-0E0,5.5802982E-2,-0E0,-1.7617827E-2,8.3268555E-3,-2.3865629E-2,-3.5087597E-2,-0E0,-3.4476444E-2,-0E0,-0E0,-1.7791284E-2,-3.3311322E-3,1.9126609E-2,-0E0,-3.6726825E-2],"split_indices":[2,8,3,5,3,0,9,7,0,12,1,2,0,4,0,0,0,0,0,0,0,0,0,0,0,0,0,0,0,0,0],"split_type":[0,0,0,0,0,0,0,0,0,0,0,0,0,0,0,0,0,0,0,0,0,0,0,0,0,0,0,0,0,0,0],"sum_hessian":[5.26E2,1.5E2,3.76E2,1.9E1,1.31E2,1.94E2,1.82E2,1.5E1,4E0,1.22E2,9E0,3.4E1,1.6E2,1.57E2,2.5E1,3E0,1.2E1,1E0,3E0,1.15E2,7E0,7E0,2E0,3.2E1,2E0,7.2E1,8.8E1,9.2E1,6.5E1,1.2E1,1.3E1],"tree_param":{"num_deleted":"0","num_feature":"14","num_nodes":"31","size_leaf_vector":"1"}},{"base_weights":[1.6107127E-2,-9.10689E-2,2.1473174E-1,2.0478654E-1,-1.4955747E-1,3.0148414E-1,-1.4341493E-1,-3.1736034E-1,3.1058177E-1,-2.4546012E-1,1.12054996E-1,-3.282363E-1,3.7282282E-1,-3.3365276E-1,4.2448378E-1,-0E0,-2.5013296E-2,2.2352967E-2,-1.4645571E-2,-1.6096419E-2,3.5031897E-3,-2.0385427E-2,1.6688233E-2,-2.588948E-2,-0E0,2.1669444E-2,-7.302546E-3,-2.2411477E-2,-0E0,3.2826927E-2,-0E0],"categories":[],"categories_nodes":[],"categories_segments":[],"categories_sizes":[],"default_left":[0,0,0,0,0,0,0,0,0,0,0,0,0,0,0,0,0,0,0,0,0,0,0,0,0,0,0,0,0,0,0],"id":23,"left_children":[1,3,5,7,9,11,13,15,17,19,21,23,25,27,29,-1,-1,-1,-1,-1,-1,-1,-1,-1,-1,-1,-1,-1,-1,-1,-1],"loss_changes":[1.1680337E1,6.038516E0,6.2349873E0,3.206927E0,7.5885596E0,7.3485107E0,4.064922E0,5.203633E-1,4.34519E0,5.5816965E0,9.061011E0,1.1451583E0,4.923361E0,1.4373145E0,1.2701933E0,0E0,0E0,0E0,0E0,0E0,0E0,0E0,0E0,0E0,0E0,0E0,0E0,0E0,0E0,0E0,0E0],"parents":[2147483647,0,0,1,1,2,2,3,3,4,4,5,5,6,6,7,7,8,8,9,9,10,10,11,11,12,12,13,13,14,14],"right_children":[2,4,6,8,10,12,14,16,18,20,22,24,26,28,30,-1,-1,-1,-1,-1,-1,-1,-1,-1,-1,-1,-1,-1,-1,-1,-1],"split_conditions":[1.875E0,4E0,1.3E1,2E0,8E0,9.0909094E-1,1.5E1,1.7586207E0,1.6363636E0,2.0588236E0,5E0,8E0,1.2E1,1E1,8E0,-0E0,-2.5013296E-2,2.2352967E-2,-1.4645571E-2,-1.6096419E-2,3.5031897E-3,-2.0385427E-2,1.6688233E-2,-2.588948E-2,-0E0,2.1669444E-2,-7.302546E-3,-2.2411477E-2,-0E0,3.2826927E-2,-0E0],"split_indices":[7,2,1,1,1,10,3,10,7,10,5,5,5,2,2,0,0,0,0,0,0,0,0,0,0,0,0,0,0,0,0],"split_type":[0,0,0,0,0,0,0,0,0,0,0,0,0,0,0,0,0,0,0,0,0,0,0,0,0,0,0,0,0,0,0],"sum_hessian":[5.4E2,3.48E2,1.92E2,5.4E1,2.94E2,1.57E2,3.5E1,7E0,4.7E1,2.18E2,7.6E1,1.4E1,1.43E2,2.8E1,7E0,3E0,4E0,4E1,7E0,1.78E2,4E1,2.1E1,5.5E1,9E0,5E0,1.3E2,1.3E1,2.2E1,6E0,5E0,2E0],"tree_param":{"num_deleted":"0","num_feature":"14","num_nodes":"31","size_leaf_vector":"1"}},{"base_weights":[1.1994834E-2,-9.348327E-2,1.2272123E-1,-1.9755307E-1,9.094203E-2,7.695457E-2,7.513273E-1,-1.4834318E-1,-7.4932265E-1,3.854226E-2,9.1551214E-1,7.7341664E-1,3.628705E-2,-0E0,1.1990799E0,-1.9596716E-2,-1.813666E-3,-0E0,-4.2744093E-2,1.0151274E-2,-9.738089E-3,-0E0,5.2134614E-2,-0E0,6.3913226E-2,3.3135333E-3,-2.2048263E-2,2.8197238E-2,-1.9702233E-2,6.544726E-2,-0E0],"categories":[],"categories_nodes":[],"categories_segments":[],"categories_sizes":[],"default_left":[0,0,0,0,0,0,0,0,0,0,0,0,0,0,0,0,0,0,0,0,0,0,0,0,0,0,0,0,0,0,0],"id":24,"left_children":[1,3,5,7,9,11,13,15,17,19,21,23,25,27,29,-1,-1,-1,-1,-1,-1,-1,-1,-1,-1,-1,-1,-1,-1,-1,-1],"loss_changes":[6.3240223E0,5.344488E0,6.7807527E0,3.7551723E0,3.1193123E0,6.2998543E0,5.782692E0,4.0957875E0,1.3859086E0,3.6172261E0,3.3493996E-2,4.7775354E0,3.1249442E0,1.9671097E0,1.179883E0,0E0,0E0,0E0,0E0,0E0,0E0,0E0,0E0,0E0,0E0,0E0,0E0,0E0,0E0,0E0,0E0],"parents":[2147483647,0,0,1,1,2,2,3,3,4,4,5,5,6,6,7,7,8,8,9,9,10,10,11,11,12,12,13,13,14,14],"right_children":[2,4,6,8,10,12,14,16,18,20,22,24,26,28,30,-1,-1,-1,-1,-1,-1,-1,-1,-1,-1,-1,-1,-1,-1,-1,-1],"split_conditions":[8E0,9E0,3.5E1,1.4E1,2E0,6E-1,1.34375E0,1.2E1,1.6666666E0,6E0,1.6E1,7E0,1.8181819E0,9.5238096E-1,1.5384616E0,-1.9596716E-2,-1.813666E-3,-0E0,-4.2744093E-2,1.0151274E-2,-9.738089E-3,-0E0,5.2134614E-2,-0E0,6.3913226E-2,3.3135333E-3,-2.2048263E-2,2.8197238E-2,-1.9702233E-2,6.544726E-2,-0E0],"split_indices":[3,6,0,4,13,8,9,0,9,2,0,6,8,9,8,0,0,0,0,0,0,0,0,0,0,0,0,0,0,0,0],"split_type":[0,0,0,0,0,0,0,0,0,0,0,0,0,0,0,0,0,0,0,0,0,0,0,0,0,0,0,0,0,0,0],"sum_hessian":[5.36E2,2.7E2,2.66E2,1.76E2,9.4E1,2.51E2,1.5E1,1.65E2,1.1E1,9.1E1,3E0,1.1E1,2.4E2,6E0,9E0,4.8E1,1.17E2,1E0,1E1,5.6E1,3.5E1,1E0,2E0,5E0,6E0,2.29E2,1.1E1,2E0,4E0,8E0,1E0],"tree_param":{"num_deleted":"0","num_feature":"14","num_nodes":"31","size_leaf_vector":"1"}},{"base_weights":[-0E0,-1.3392417E-1,1.7453907E-1,1.6179062E-1,-2.0588613E-1,2.860286E-1,-1.4002778E-1,5.2042216E-1,-1.8813644E-2,-2.7164072E-1,1.2205659E-1,1.1174085E-1,6.687999E-1,-0E0,-5.2384305E-1,1.3164364E-2,7.221392E-2,5.5621634E-3,-2.3838103E-2,-1.0503754E-2,-3.920518E-2,-1.9200178E-2,2.584358E-2,1.5937332E-2,-6.62423E-3,3.9792903E-2,-5.9693735E-3,1.3766347E-2,-1.7460981E-2,-3.4131873E-2,-0E0],"categories":[],"categories_nodes":[],"categories_segments":[],"categories_sizes":[],"default_left":[0,0,0,0,0,0,0,0,0,0,0,0,0,0,0,0,0,0,0,0,0,0,0,0,0,0,0,0,0,0,0],"id":25,"left_children":[1,3,5,7,9,11,13,15,17,19,21,23,25,27,29,-1,-1,-1,-1,-1,-1,-1,-1,-1,-1,-1,-1,-1,-1,-1,-1],"loss_changes":[1.2616013E1,6.6590066E0,8.360065E0,4.3053627E0,5.6225977E0,1.0748664E1,3.6355393E0,2.8294902E0,2.7381089E0,5.4631367E0,8.522495E0,6.493281E0,6.076641E0,4.2649856E0,1.4887156E0,0E0,0E0,0E0,0E0,0E0,0E0,0E0,0E0,0E0,0E0,0E0,0E0,0E0,0E0,0E0,0E0],"parents":[2147483647,0,0,1,1,2,2,3,3,4,4,5,5,6,6,7,7,8,8,9,9,10,10,11,11,12,12,13,13,14,14],"right_children":[2,4,6,8,10,12,14,16,18,20,22,24,26,28,30,-1,-1,-1,-1,-1,-1,-1,-1,-1,-1,-1,-1,-1,-1,-1,-1],"split_conditions":[1.6857142E0,4E0,1.7777778E0,1.8709677E0,9E0,2.7E1,2.7E1,1.8571428E0,7E0,1.625E0,5E0,1.7E1,2.5333333E0,1.3428571E0,3.3E1,1.3164364E-2,7.221392E-2,5.5621634E-3,-2.3838103E-2,-1.0503754E-2,-3.920518E-2,-1.9200178E-2,2.584358E-2,1.5937332E-2,-6.62423E-3,3.9792903E-2,-5.9693735E-3,1.3766347E-2,-1.7460981E-2,-3.4131873E-2,-0E0],"split_indices":[7,2,9,10,1,0,0,10,1,7,5,0,7,8,0,0,0,0,0,0,0,0,0,0,0,0,0,0,0,0,0],"split_type":[0,0,0,0,0,0,0,0,0,0,0,0,0,0,0,0,0,0,0,0,0,0,0,0,0,0,0,0,0,0,0],"sum_hessian":[5.38E2,3.07E2,2.31E2,5.7E1,2.5E2,1.73E2,5.8E1,2E1,3.7E1,2.11E2,3.9E1,1.22E2,5.1E1,4.2E1,1.6E1,1.8E1,2E0,2.8E1,9E0,1.92E2,1.9E1,1.6E1,2.3E1,6.8E1,5.4E1,4.5E1,6E0,2.5E1,1.7E1,1.2E1,4E0],"tree_param":{"num_deleted":"0","num_feature":"14","num_nodes":"31","size_leaf_vector":"1"}},{"base_weights":[-1.6139628E-2,-3.3252558E-1,3.3533897E-2,6.752694E-2,-5.3653544E-1,3.5163444E-1,-6.0902038E-3,-3.8337782E-1,5.516024E-1,-0E0,-5.9527236E-1,5.120757E-1,-3.5016432E-1,-3.7225887E-1,7.21835E-2,-2.5500698E-2,-0E0,4.5014992E-2,-9.655996E-4,-0E0,3.1190123E-3,-3.2100614E-2,-0E0,1.3459009E-2,6.295944E-2,-2.1017877E-2,-0E0,-9.4381E-3,-3.5013378E-2,5.786669E-3,-2.5358994E-2],"categories":[],"categories_nodes":[],"categories_segments":[],"categories_sizes":[],"default_left":[0,0,0,0,0,0,0,0,0,0,0,0,0,0,0,0,0,0,0,0,0,0,0,0,0,0,0,0,0,0,0],"id":26,"left_children":[1,3,5,7,9,11,13,15,17,19,21,23,25,27,29,-1,-1,-1,-1,-1,-1,-1,-1,-1,-1,-1,-1,-1,-1,-1,-1],"loss_changes":[8.495898E0,6.522032E0,6.001851E0,5.8330956E0,1.9397888E0,6.342245E0,1.1733279E1,8.9396715E-1,3.5945992E0,1.3619533E-2,1.4525795E0,6.038642E0,1.6041028E-1,3.2763662E0,7.9345865E0,0E0,0E0,0E0,0E0,0E0,0E0,0E0,0E0,0E0,0E0,0E0,0E0,0E0,0E0,0E0,0E0],"parents":[2147483647,0,0,1,1,2,2,3,3,4,4,5,5,6,6,7,7,8,8,9,9,10,10,11,11,12,12,13,13,14,14],"right_children":[2,4,6,8,10,12,14,16,18,20,22,24,26,28,30,-1,-1,-1,-1,-1,-1,-1,-1,-1,-1,-1,-1,-1,-1,-1,-1],"split_conditions":[1.0625E0,1.4482758E0,8.4375E-1,1.03125E0,5E-1,6E0,1.3333334E0,1.3E1,1.6785715E0,6E0,2E0,2.3E1,8E0,1.3E1,2.5333333E0,-2.5500698E-2,-0E0,4.5014992E-2,-9.655996E-4,-0E0,3.1190123E-3,-3.2100614E-2,-0E0,1.3459009E-2,6.295944E-2,-2.1017877E-2,-0E0,-9.4381E-3,-3.5013378E-2,5.786669E-3,-2.5358994E-2],"split_indices":[7,8,8,8,7,11,10,2,10,0,11,0,4,4,7,0,0,0,0,0,0,0,0,0,0,0,0,0,0,0,0],"split_type":[0,0,0,0,0,0,0,0,0,0,0,0,0,0,0,0,0,0,0,0,0,0,0,0,0,0,0,0,0,0,0],"sum_hessian":[5.19E2,7.2E1,4.47E2,2.3E1,4.9E1,5.1E1,3.96E2,1.1E1,1.2E1,4E0,4.5E1,4.3E1,8E0,7.1E1,3.25E2,9E0,2E0,8E0,4E0,2E0,2E0,4.2E1,3E0,3.5E1,8E0,6E0,2E0,4.9E1,2.2E1,3.05E2,2E1],"tree_param":{"num_deleted":"0","num_feature":"14","num_nodes":"31","size_leaf_vector":"1"}},{"base_weights":[1.5809804E-2,-1.2001803E-1,1.9598027E-1,2.5881872E-1,-2.0883173E-1,2.9445028E-1,-7.994398E-2,4.1594422E-1,-2.7674636E-1,-2.9362336E-1,1.7873402E-1,3.588427E-1,-1.731662E-2,-4.0974036E-1,9.39834E-2,3.860397E-2,-0E0,-0E0,-1.9820161E-2,-2.3648052E-2,-6.9225817E-3,1.9236926E-2,-2.6785746E-2,4.1991282E-2,1.4062414E-2,-1.7978167E-2,3.8701966E-2,2.4491947E-3,-3.1417936E-2,-2.0853689E-2,1.1702086E-2],"categories":[],"categories_nodes":[],"categories_segments":[],"categories_sizes":[],"default_left":[0,0,0,0,0,0,0,0,0,0,0,0,0,0,0,0,0,0,0,0,0,0,0,0,0,0,0,0,0,0,0],"id":27,"left_children":[1,3,5,7,9,11,13,15,17,19,21,23,25,27,29,-1,-1,-1,-1,-1,-1,-1,-1,-1,-1,-1,-1,-1,-1,-1,-1],"loss_changes":[1.35342245E1,1.0478138E1,6.7570953E0,5.1505423E0,8.557074E0,3.9543848E0,3.9011981E0,6.5596647E0,3.78295E-1,5.176012E0,6.707685E0,4.1788483E0,7.992748E0,2.9822545E0,2.7907102E0,0E0,0E0,0E0,0E0,0E0,0E0,0E0,0E0,0E0,0E0,0E0,0E0,0E0,0E0,0E0,0E0],"parents":[2147483647,0,0,1,1,2,2,3,3,4,4,5,5,6,6,7,7,8,8,9,9,10,10,11,11,12,12,13,13,14,14],"right_children":[2,4,6,8,10,12,14,16,18,20,22,24,26,28,30,-1,-1,-1,-1,-1,-1,-1,-1,-1,-1,-1,-1,-1,-1,-1,-1],"split_conditions":[1.6857142E0,4E0,1.7777778E0,1.76E0,1.2E1,1.3E1,2.107143E0,6E0,1.9166666E0,1.2857143E0,1.6E1,8.148148E-1,1.5E1,1E0,9.0909094E-1,3.860397E-2,-0E0,-0E0,-1.9820161E-2,-2.3648052E-2,-6.9225817E-3,1.9236926E-2,-2.6785746E-2,4.1991282E-2,1.4062414E-2,-1.7978167E-2,3.8701966E-2,2.4491947E-3,-3.1417936E-2,-2.0853689E-2,1.1702086E-2],"split_indices":[7,2,9,8,4,1,7,1,8,7,4,8,3,12,10,0,0,0,0,0,0,0,0,0,0,0,0,0,0,0,0],"split_type":[0,0,0,0,0,0,0,0,0,0,0,0,0,0,0,0,0,0,0,0,0,0,0,0,0,0,0,0,0,0,0],"sum_hessian":[5.47E2,3.09E2,2.38E2,5.6E1,2.53E2,1.78E2,6E1,4.5E1,1.1E1,2.1E2,4.3E1,1.5E2,2.8E1,2.2E1,3.8E1,2.3E1,2.2E1,4E0,7E0,9.3E1,1.17E2,3.5E1,8E0,1.7E1,1.33E2,2.1E1,7E0,6E0,1.6E1,6E0,3.2E1],"tree_param":{"num_deleted":"0","num_feature":"14","num_nodes":"31","size_leaf_vector":"1"}},{"base_weights":[2.8305642E-2,-5.65844E-2,2.3944116E-1,-4.0723512E-1,-9.2715975E-3,1.3841648E-1,7.2207624E-1,-2.541136E-1,-4.586149E-2,-7.184866E-2,3.5373184E-1,2.6690212E-1,-1.3230105E-1,9.963916E-1,-1.1365672E-1,-1.7846944E-2,3.3910887E-3,-2.1004632E-2,-8.252137E-5,3.10404E-2,-0E0,3.798846E-2,5.4112235E-3,2.1572484E-2,-1.4963455E-2,5.8820833E-2,-2.2522178E-3,-2.227058E-2,-0E0],"categories":[],"categories_nodes":[],"categories_segments":[],"categories_sizes":[],"default_left":[0,0,0,0,0,0,0,0,0,0,0,0,0,0,0,0,0,0,0,0,0,0,0,0,0,0,0,0,0],"id":28,"left_children":[1,3,5,7,9,11,13,15,-1,17,19,21,23,25,27,-1,-1,-1,-1,-1,-1,-1,-1,-1,-1,-1,-1,-1,-1],"loss_changes":[9.568106E0,5.7245235E0,6.4739475E0,1.7198186E0,7.263775E0,4.7267904E0,6.669338E0,1.5005891E0,0E0,6.5565825E0,4.3947997E0,6.1646066E0,3.873697E0,4.866806E0,6.1040413E-1,0E0,0E0,0E0,0E0,0E0,0E0,0E0,0E0,0E0,0E0,0E0,0E0,0E0,0E0],"parents":[2147483647,0,0,1,1,2,2,3,3,4,4,5,5,6,6,7,7,9,9,10,10,11,11,12,12,13,13,14,14],"right_children":[2,4,6,8,10,12,14,16,-1,18,20,22,24,26,28,-1,-1,-1,-1,-1,-1,-1,-1,-1,-1,-1,-1,-1,-1],"split_conditions":[2.1290324E0,7E0,3.2E1,2.3076923E0,2.1724138E0,1.2424242E0,2.5333333E0,4E0,-4.586149E-2,1.2058823E0,7E0,2.3823528E0,2.148148E0,7E0,3.8E1,-1.7846944E-2,3.3910887E-3,-2.1004632E-2,-8.252137E-5,3.10404E-2,-0E0,3.798846E-2,5.4112235E-3,2.1572484E-2,-1.4963455E-2,5.8820833E-2,-2.2522178E-3,-2.227058E-2,-0E0],"split_indices":[7,0,0,10,10,8,7,11,0,8,4,7,7,11,0,0,0,0,0,0,0,0,0,0,0,0,0,0,0],"split_type":[0,0,0,0,0,0,0,0,0,0,0,0,0,0,0,0,0,0,0,0,0,0,0,0,0,0,0,0,0],"sum_hessian":[5.21E2,3.69E2,1.52E2,4E1,3.29E2,1.29E2,2.3E1,3.4E1,6E0,2.84E2,4.5E1,9E1,3.9E1,1.8E1,5E0,2.8E1,6E0,4.4E1,2.4E2,2.5E1,2E1,1.9E1,7.1E1,7E0,3.2E1,1.6E1,2E0,2E0,3E0],"tree_param":{"num_deleted":"0","num_feature":"14","num_nodes":"29","size_leaf_vector":"1"}},{"base_weights":[-4.038714E-2,2.543201E-1,-7.8781635E-2,-4.5372435E-1,3.831919E-1,-3.3487695E-1,-1.6424432E-2,-2.8400216E-2,-0E0,5.186266E-1,-2.7582332E-1,-0E0,-4.4157323E-1,7.5966233E-1,-4.279024E-2,3.3887487E-2,-7.863122E-3,-1.58565E-2,-0E0,-1.4578864E-2,3.3035546E-3,-3.1452484E-3,-2.9614571E-2,-0E0,5.3943157E-2,-1.3408781E-4,-1.838956E-2],"categories":[],"categories_nodes":[],"categories_segments":[],"categories_sizes":[],"default_left":[0,0,0,0,0,0,0,0,0,0,0,0,0,0,0,0,0,0,0,0,0,0,0,0,0,0,0],"id":29,"left_children":[1,3,5,7,9,11,13,-1,-1,15,17,19,21,23,25,-1,-1,-1,-1,-1,-1,-1,-1,-1,-1,-1,-1],"loss_changes":[5.8571954E0,5.5282097E0,7.201953E0,3.4722877E-1,5.053933E0,2.9298716E0,7.220048E0,0E0,0E0,5.46632E0,1.0761857E-1,6.3773763E-1,3.084217E0,3.2570395E0,4.5228014E0,0E0,0E0,0E0,0E0,0E0,0E0,0E0,0E0,0E0,0E0,0E0,0E0],"parents":[2147483647,0,0,1,1,2,2,3,3,4,4,5,5,6,6,9,9,10,10,11,11,12,12,13,13,14,14],"right_children":[2,4,6,8,10,12,14,-1,-1,16,18,20,22,24,26,-1,-1,-1,-1,-1,-1,-1,-1,-1,-1,-1,-1],"split_conditions":[8.4375E-1,6E0,1.3333334E0,7E-1,6E0,8E0,1.3571428E0,-2.8400216E-2,-0E0,7E0,8E0,1.1666666E0,1.3E1,9E0,1.9166666E0,3.3887487E-2,-7.863122E-3,-1.58565E-2,-0E0,-1.4578864E-2,3.3035546E-3,-3.1452484E-3,-2.9614571E-2,-0E0,5.3943157E-2,-1.3408781E-4,-1.838956E-2],"split_indices":[8,3,10,8,11,2,10,0,0,5,2,8,0,0,8,0,0,0,0,0,0,0,0,0,0,0,0],"split_type":[0,0,0,0,0,0,0,0,0,0,0,0,0,0,0,0,0,0,0,0,0,0,0,0,0,0,0],"sum_hessian":[5.29E2,5.7E1,4.72E2,7E0,5E1,8.8E1,3.84E2,5E0,2E0,4.3E1,7E0,2.3E1,6.5E1,1E1,3.74E2,3.6E1,7E0,6E0,1E0,5E0,1.8E1,2.1E1,4.4E1,3E0,7E0,3.37E2,3.7E1],"tree_param":{"num_deleted":"0","num_feature":"14","num_nodes":"27","size_leaf_vector":"1"}},{"base_weights":[-2.965523E-2,5.4489743E-2,-1.7638405E-1,1.0037708E-2,3.101265E-1,1.8391287E-1,-3.2877642E-1,2.0818497E-1,-6.2168106E-2,7.0106256E-1,-0E0,4.0310705E-1,-9.284252E-2,-4.6291608E-1,-3.4397047E-2,3.0618293E-2,1.1408944E-3,-2.3367137E-2,6.042535E-4,-0E0,4.03652E-2,-2.5804926E-2,5.3121387E-3,-1.5573504E-2,2.8417796E-2,-1.8359184E-2,4.115423E-2,-2.5490938E-2,2.5172092E-5,-2.5744293E-2,7.4339113E-3],"categories":[],"categories_nodes":[],"categories_segments":[],"categories_sizes":[],"default_left":[0,0,0,0,0,0,0,0,0,0,0,0,0,0,0,0,0,0,0,0,0,0,0,0,0,0,0,0,0,0,0],"id":30,"left_children":[1,3,5,7,9,11,13,15,17,19,21,23,25,27,29,-1,-1,-1,-1,-1,-1,-1,-1,-1,-1,-1,-1,-1,-1,-1,-1],"loss_changes":[6.8713226E0,3.5785542E0,1.1409037E1,4.4218774E0,5.998532E0,3.9758613E0,5.2242994E0,5.5998297E0,6.9471555E0,1.4901752E0,1.7302239E0,4.714374E0,6.404984E0,2.6289215E0,4.835335E0,0E0,0E0,0E0,0E0,0E0,0E0,0E0,0E0,0E0,0E0,0E0,0E0,0E0,0E0,0E0,0E0],"parents":[2147483647,0,0,1,1,2,2,3,3,4,4,5,5,6,6,7,7,8,8,9,9,10,10,11,11,12,12,13,13,14,14],"right_children":[2,4,6,8,10,12,14,16,18,20,22,24,26,28,30,-1,-1,-1,-1,-1,-1,-1,-1,-1,-1,-1,-1,-1,-1,-1,-1],"split_conditions":[1.4736842E0,1.4117647E0,5E0,9.166667E-1,8E0,1.6875E0,1.8846154E0,5E0,1.03125E0,6.363636E-1,7E0,4E0,2.2608695E0,1.1E1,1.5714285E0,3.0618293E-2,1.1408944E-3,-2.3367137E-2,6.042535E-4,-0E0,4.03652E-2,-2.5804926E-2,5.3121387E-3,-1.5573504E-2,2.8417796E-2,-1.8359184E-2,4.115423E-2,-2.5490938E-2,2.5172092E-5,-2.5744293E-2,7.4339113E-3],"split_indices":[8,8,2,8,4,8,10,2,8,9,2,1,10,3,8,0,0,0,0,0,0,0,0,0,0,0,0,0,0,0,0],"split_type":[0,0,0,0,0,0,0,0,0,0,0,0,0,0,0,0,0,0,0,0,0,0,0,0,0,0,0,0,0,0,0],"sum_hessian":[5.44E2,3.42E2,2.02E2,2.96E2,4.6E1,5.8E1,1.44E2,8.2E1,2.14E2,2E1,2.6E1,3.4E1,2.4E1,9.6E1,4.8E1,2.3E1,5.9E1,3.4E1,1.8E2,3E0,1.7E1,4E0,2.2E1,5E0,2.9E1,2E1,4E0,8.9E1,7E0,1.4E1,3.4E1],"tree_param":{"num_deleted":"0","num_feature":"14","num_nodes":"31","size_leaf_vector":"1"}},{"base_weights":[1.6298225E-2,-1.3574606E-1,6.7621425E-2,-2.8077087E-1,9.114926E-2,-6.1365657E-2,1.9179997E-1,-3.3732256E-1,3.0740563E-2,2.9199567E-1,-1.7535737E-1,3.932618E-2,-3.6539197E-1,5.4439906E-2,4.7695005E-1,-1.98443E-2,1.4384517E-2,2.949063E-2,-2.460925E-3,1.2392941E-2,-1.8054696E-2,-2.6225306E-3,2.246104E-2,-7.7097714E-3,-4.713587E-2,2.8615791E-2,-2.1734217E-3,3.3298556E-2,-0E0],"categories":[],"categories_nodes":[],"categories_segments":[],"categories_sizes":[],"default_left":[0,0,0,0,0,0,0,0,0,0,0,0,0,0,0,0,0,0,0,0,0,0,0,0,0,0,0,0,0],"id":31,"left_children":[1,3,5,7,9,11,13,15,-1,17,19,21,23,25,27,-1,-1,-1,-1,-1,-1,-1,-1,-1,-1,-1,-1,-1,-1],"loss_changes":[4.210202E0,4.620887E0,6.787313E0,4.3132405E0,2.896552E0,6.48552E0,7.8704166E0,3.31454E0,0E0,3.785148E0,1.858923E0,6.056126E0,5.0863233E0,8.146468E0,6.599128E0,0E0,0E0,0E0,0E0,0E0,0E0,0E0,0E0,0E0,0E0,0E0,0E0,0E0,0E0],"parents":[2147483647,0,0,1,1,2,2,3,3,4,4,5,5,6,6,7,7,9,9,10,10,11,11,12,12,13,13,14,14],"right_children":[2,4,6,8,10,12,14,16,-1,18,20,22,24,26,28,-1,-1,-1,-1,-1,-1,-1,-1,-1,-1,-1,-1,-1,-1],"split_conditions":[1.2857143E0,9E0,2E1,2E0,1.6875E0,1.6E1,2.2E0,3E0,3.0740563E-2,8E0,6E0,1.5555556E0,2.4E0,1.4090909E0,2.5333333E0,-1.98443E-2,1.4384517E-2,2.949063E-2,-2.460925E-3,1.2392941E-2,-1.8054696E-2,-2.6225306E-3,2.246104E-2,-7.7097714E-3,-4.713587E-2,2.8615791E-2,-2.1734217E-3,3.3298556E-2,-0E0],"split_indices":[7,6,0,13,8,0,7,8,0,4,4,8,7,7,7,0,0,0,0,0,0,0,0,0,0,0,0,0,0],"split_type":[0,0,0,0,0,0,0,0,0,0,0,0,0,0,0,0,0,0,0,0,0,0,0,0,0,0,0,0,0],"sum_hessian":[5.45E2,1.32E2,4.13E2,8.3E1,4.9E1,1.99E2,2.14E2,8E1,3E0,3E1,1.9E1,1.48E2,5.1E1,1.48E2,6.6E1,7.5E1,5E0,1.7E1,1.3E1,4E0,1.5E1,1.2E2,2.8E1,4E1,1.1E1,2.4E1,1.24E2,4.8E1,1.8E1],"tree_param":{"num_deleted":"0","num_feature":"14","num_nodes":"29","size_leaf_vector":"1"}},{"base_weights":[-2.7790893E-2,-1.24954335E-1,1.10586815E-1,-5.3402835E-1,-8.7774746E-2,6.7494357E-1,6.9791086E-2,-6.665989E-1,-0E0,4.5133315E-2,-1.06297605E-1,1.0548475E0,-0E0,1.4587034E-1,-1.8858427E-1,-0E0,-3.5685226E-2,-5.7491465E-3,1.2163608E-2,-2.3513837E-3,-1.648374E-2,7.3690824E-2,-0E0,-2.7246664E-3,-0E0,-2.6088704E-3,1.3021218E-2,-0E0,-4.124595E-2],"categories":[],"categories_nodes":[],"categories_segments":[],"categories_sizes":[],"default_left":[0,0,0,0,0,0,0,0,0,0,0,0,0,0,0,0,0,0,0,0,0,0,0,0,0,0,0,0,0],"id":32,"left_children":[1,3,5,7,9,11,13,15,17,-1,19,21,23,25,27,-1,-1,-1,-1,-1,-1,-1,-1,-1,-1,-1,-1,-1,-1],"loss_changes":[7.0736856E0,4.0607615E0,4.0770683E0,1.963028E0,4.6770134E0,3.7636166E0,3.9594355E0,2.4914265E-1,2.534085E-1,0E0,3.4064128E0,2.4887667E0,1.0393329E-2,3.8472311E0,5.598123E0,0E0,0E0,0E0,0E0,0E0,0E0,0E0,0E0,0E0,0E0,0E0,0E0,0E0,0E0],"parents":[2147483647,0,0,1,1,2,2,3,3,4,4,5,5,6,6,7,7,8,8,10,10,11,11,12,12,13,13,14,14],"right_children":[2,4,6,8,10,12,14,16,18,-1,20,22,24,26,28,-1,-1,-1,-1,-1,-1,-1,-1,-1,-1,-1,-1,-1,-1],"split_conditions":[1.7142857E0,1.03125E0,6E-1,1.7142857E0,1.05E0,1.3E1,2.5333333E0,7.692308E-1,8.333333E-1,4.5133315E-2,1.5925926E0,1.4E1,9E0,1.6153846E0,1E1,-0E0,-3.5685226E-2,-5.7491465E-3,1.2163608E-2,-2.3513837E-3,-1.648374E-2,7.3690824E-2,-0E0,-2.7246664E-3,-0E0,-2.6088704E-3,1.3021218E-2,-0E0,-4.124595E-2],"split_indices":[7,8,8,9,8,1,7,9,7,0,7,0,4,10,4,0,0,0,0,0,0,0,0,0,0,0,0,0,0],"split_type":[0,0,0,0,0,0,0,0,0,0,0,0,0,0,0,0,0,0,0,0,0,0,0,0,0,0,0,0,0],"sum_hessian":[5.22E2,3.11E2,2.11E2,2.2E1,2.89E2,1.1E1,2E2,1.8E1,4E0,3E0,2.86E2,7E0,4E0,1.58E2,4.2E1,2E0,1.6E1,2E0,2E0,2.31E2,5.5E1,4E0,3E0,2E0,2E0,5.5E1,1.03E2,3.3E1,9E0],"tree_param":{"num_deleted":"0","num_feature":"14","num_nodes":"29","size_leaf_vector":"1"}},{"base_weights":[-3.471551E-2,-1.3419473E-1,9.406029E-2,-7.0293345E-2,-3.5203683E-1,-1.7821354E-1,2.4244435E-1,-3.0396682E-1,-0E0,2.7663399E-2,-3.937957E-1,-0E0,-5.614264E-1,5.101707E-1,3.656573E-2,-0E0,-3.345015E-2,1.5350224E-2,-4.440378E-3,-0E0,-2.1151057E-2,-9.356152E-3,2.4350354E-2,-0E0,-3.2642007E-2,1.6148984E-2,5.2663982E-2,2.2223083E-2,-6.5810704E-3],"categories":[],"categories_nodes":[],"categories_segments":[],"categories_sizes":[],"default_left":[0,0,0,0,0,0,0,0,0,0,0,0,0,0,0,0,0,0,0,0,0,0,0,0,0,0,0,0,0],"id":33,"left_children":[1,3,5,7,9,11,13,15,17,-1,19,21,23,25,27,-1,-1,-1,-1,-1,-1,-1,-1,-1,-1,-1,-1,-1,-1],"loss_changes":[6.9959626E0,3.8628397E0,9.522296E0,4.284498E0,2.6813393E0,5.1657047E0,7.8860693E0,6.8104844E0,5.3338428E0,0E0,1.026761E0,5.19938E0,1.4409151E0,4.6708565E0,6.60915E0,0E0,0E0,0E0,0E0,0E0,0E0,0E0,0E0,0E0,0E0,0E0,0E0,0E0,0E0],"parents":[2147483647,0,0,1,1,2,2,3,3,4,4,5,5,6,6,7,7,8,8,10,10,11,11,12,12,13,13,14,14],"right_children":[2,4,6,8,10,12,14,16,18,-1,20,22,24,26,28,-1,-1,-1,-1,-1,-1,-1,-1,-1,-1,-1,-1,-1,-1],"split_conditions":[1.7E0,1.5666667E0,7E0,1.3103448E0,2E0,1.3478261E0,9E0,1.1481482E0,1.4736842E0,2.7663399E-2,3E0,1.2058823E0,6E0,2.9E1,1.1333333E0,-0E0,-3.345015E-2,1.5350224E-2,-4.440378E-3,-0E0,-2.1151057E-2,-9.356152E-3,2.4350354E-2,-0E0,-3.2642007E-2,1.6148984E-2,5.2663982E-2,2.2223083E-2,-6.5810704E-3],"split_indices":[7,7,6,8,1,8,6,7,8,0,0,8,2,0,9,0,0,0,0,0,0,0,0,0,0,0,0,0,0],"split_type":[0,0,0,0,0,0,0,0,0,0,0,0,0,0,0,0,0,0,0,0,0,0,0,0,0,0,0,0,0],"sum_hessian":[5.4E2,3.09E2,2.31E2,2.44E2,6.5E1,7.9E1,1.52E2,5.8E1,1.86E2,1E0,6.4E1,5.6E1,2.3E1,6.3E1,8.9E1,3.2E1,2.6E1,4.3E1,1.43E2,3E0,6.1E1,4.2E1,1.4E1,3E0,2E1,5E1,1.3E1,2.7E1,6.2E1],"tree_param":{"num_deleted":"0","num_feature":"14","num_nodes":"29","size_leaf_vector":"1"}},{"base_weights":[1.7347354E-2,-1.9240056E-1,9.2085056E-2,1.4042579E-1,-2.611094E-1,-7.380131E-2,2.0016679E-1,-1.2851833E-1,6.057002E-1,8.3339155E-2,-3.5998732E-1,-1.686513E-1,2.9313686E-1,4.3808964E-1,1.1723089E-1,-0E0,-1.8401874E-2,4.7568634E-2,-5.444903E-3,2.0925304E-2,-1.6404927E-2,-1.9665707E-2,9.660675E-3,-4.606878E-3,-3.5389252E-2,3.5348456E-2,-2.922262E-2,4.4629704E-3,3.6057528E-2,-4.7522536E-3,1.6022464E-2],"categories":[],"categories_nodes":[],"categories_segments":[],"categories_sizes":[],"default_left":[0,0,0,0,0,0,0,0,0,0,0,0,0,0,0,0,0,0,0,0,0,0,0,0,0,0,0,0,0,0,0],"id":34,"left_children":[1,3,5,7,9,11,13,15,17,19,21,23,25,27,29,-1,-1,-1,-1,-1,-1,-1,-1,-1,-1,-1,-1,-1,-1,-1,-1],"loss_changes":[8.132687E0,3.2514453E0,7.1499104E0,3.2843032E0,4.221329E0,5.2224903E0,4.1132727E0,6.574563E-1,3.3445394E0,3.6749315E0,2.0010242E0,4.1967726E0,1.14559555E1,4.869338E0,8.186984E0,0E0,0E0,0E0,0E0,0E0,0E0,0E0,0E0,0E0,0E0,0E0,0E0,0E0,0E0,0E0,0E0],"parents":[2147483647,0,0,1,1,2,2,3,3,4,4,5,5,6,6,7,7,8,8,9,9,10,10,11,11,12,12,13,13,14,14],"right_children":[2,4,6,8,10,12,14,16,18,20,22,24,26,28,30,-1,-1,-1,-1,-1,-1,-1,-1,-1,-1,-1,-1,-1,-1,-1,-1],"split_conditions":[1.2857143E0,4E0,7E0,1.0625E0,5E0,1.3E1,1.1111112E0,1E0,7E0,2E1,5E0,1.3E1,2.2333333E0,1E0,1.4117647E0,-0E0,-1.8401874E-2,4.7568634E-2,-5.444903E-3,2.0925304E-2,-1.6404927E-2,-1.9665707E-2,9.660675E-3,-4.606878E-3,-3.5389252E-2,3.5348456E-2,-2.922262E-2,4.4629704E-3,3.6057528E-2,-4.7522536E-3,1.6022464E-2],"split_indices":[7,2,6,7,6,2,9,7,1,0,12,3,9,13,9,0,0,0,0,0,0,0,0,0,0,0,0,0,0,0,0],"split_type":[0,0,0,0,0,0,0,0,0,0,0,0,0,0,0,0,0,0,0,0,0,0,0,0,0,0,0,0,0,0,0],"sum_hessian":[5.22E2,1.33E2,3.89E2,2E1,1.13E2,1.5E2,2.39E2,1.2E1,8E0,2.3E1,9E1,1.22E2,2.8E1,5.7E1,1.82E2,7E0,5E0,6E0,2E0,1.4E1,9E0,8.7E1,3E0,1.1E2,1.2E1,2E1,8E0,2.8E1,2.9E1,8.7E1,9.5E1],"tree_param":{"num_deleted":"0","num_feature":"14","num_nodes":"31","size_leaf_vector":"1"}},{"base_weights":[-2.5239741E-2,-2.0974237E-1,1.4976249E-2,-8.382461E-2,-4.9171168E-1,-6.902993E-2,1.841428E-1,-6.030376E-1,-0E0,-0E0,-6.0164213E-1,-1.2600018E-1,4.4822907E-1,-7.6745406E-2,3.0047843E-1,-3.3327173E-2,-0E0,9.645354E-3,-1.1529603E-2,-0E0,4.4876E-3,-3.374267E-2,-0E0,2.9388478E-2,-7.7243643E-3,3.4489784E-2,-0E0,8.467641E-4,-2.0679457E-2,-2.3346383E-3,2.1277612E-2],"categories":[],"categories_nodes":[],"categories_segments":[],"categories_sizes":[],"default_left":[0,0,0,0,0,0,0,0,0,0,0,0,0,0,0,0,0,0,0,0,0,0,0,0,0,0,0,0,0,0,0],"id":35,"left_children":[1,3,5,7,9,11,13,15,17,19,21,23,25,27,29,-1,-1,-1,-1,-1,-1,-1,-1,-1,-1,-1,-1,-1,-1,-1,-1],"loss_changes":[4.3435235E0,3.0729036E0,6.607306E0,2.917184E0,2.0977974E0,8.647204E0,4.9778404E0,3.2166457E-1,3.139565E0,2.0138558E-2,1.4722195E0,5.2843943E0,3.0767179E0,1.8745024E0,5.2067966E0,0E0,0E0,0E0,0E0,0E0,0E0,0E0,0E0,0E0,0E0,0E0,0E0,0E0,0E0,0E0,0E0],"parents":[2147483647,0,0,1,1,2,2,3,3,4,4,5,5,6,6,7,7,8,8,9,9,10,10,11,11,12,12,13,13,14,14],"right_children":[2,4,6,8,10,12,14,16,18,20,22,24,26,28,30,-1,-1,-1,-1,-1,-1,-1,-1,-1,-1,-1,-1,-1,-1,-1,-1],"split_conditions":[1.3333334E0,1.5238096E0,1.4375E0,5E0,1.1481482E0,1.1E1,5E0,2.3076923E0,9E0,5E0,2.3181818E0,1.3571428E0,1.3E1,7E0,1.0333333E0,-3.3327173E-2,-0E0,9.645354E-3,-1.1529603E-2,-0E0,4.4876E-3,-3.374267E-2,-0E0,2.9388478E-2,-7.7243643E-3,3.4489784E-2,-0E0,8.467641E-4,-2.0679457E-2,-2.3346383E-3,2.1277612E-2],"split_indices":[10,8,9,3,9,4,1,9,1,1,9,10,4,3,8,0,0,0,0,0,0,0,0,0,0,0,0,0,0,0,0],"split_type":[0,0,0,0,0,0,0,0,0,0,0,0,0,0,0,0,0,0,0,0,0,0,0,0,0,0,0,0,0,0,0],"sum_hessian":[5.57E2,1.03E2,4.54E2,7.5E1,2.8E1,3E2,1.54E2,8E0,6.7E1,4E0,2.4E1,2.73E2,2.7E1,4.5E1,1.09E2,7E0,1E0,3.5E1,3.2E1,3E0,1E0,2.2E1,2E0,8E0,2.65E2,1.7E1,1E1,3.4E1,1.1E1,2.7E1,8.2E1],"tree_param":{"num_deleted":"0","num_feature":"14","num_nodes":"31","size_leaf_vector":"1"}},{"base_weights":[3.548023E-2,-1.3713898E-1,8.985203E-2,4.2187512E-1,-2.3553003E-1,1.1923716E-1,-4.0225443E-1,-0E0,9.0997857E-1,-3.4360453E-1,1.3015783E-1,1.5786012E-1,-2.4440554E-1,-3.836585E-2,-2.6589597E-2,1.1383823E-2,-1.0450895E-2,-0E0,5.0980877E-2,-2.245091E-2,-0E0,1.6665576E-2,-1.6211955E-2,-0E0,1.2994031E-2,-3.6295447E-2,2.2953635E-2,-1.9410824E-2,1.4929852E-2],"categories":[],"categories_nodes":[],"categories_segments":[],"categories_sizes":[],"default_left":[0,0,0,0,0,0,0,0,0,0,0,0,0,0,0,0,0,0,0,0,0,0,0,0,0,0,0,0,0],"id":36,"left_children":[1,3,5,7,9,11,13,15,17,19,21,23,25,-1,27,-1,-1,-1,-1,-1,-1,-1,-1,-1,-1,-1,-1,-1,-1],"loss_changes":[4.959652E0,6.7554464E0,5.7105503E0,3.0958323E0,4.529096E0,5.4418383E0,2.1240237E0,6.2906086E-1,5.470724E-1,3.1114569E0,2.3405228E0,5.6278925E0,1.2791515E1,0E0,1.851049E0,0E0,0E0,0E0,0E0,0E0,0E0,0E0,0E0,0E0,0E0,0E0,0E0,0E0,0E0],"parents":[2147483647,0,0,1,1,2,2,3,3,4,4,5,5,6,6,7,7,8,8,9,9,10,10,11,11,12,12,14,14],"right_children":[2,4,6,8,10,12,14,16,18,20,22,24,26,-1,28,-1,-1,-1,-1,-1,-1,-1,-1,-1,-1,-1,-1,-1,-1],"split_conditions":[1.2857143E0,4E0,2.2333333E0,1.0555556E0,1.1E1,2.2857144E0,7E0,1E0,4E0,2.0625E0,1.4E1,7E0,2.3448277E0,-3.836585E-2,6E0,1.1383823E-2,-1.0450895E-2,-0E0,5.0980877E-2,-2.245091E-2,-0E0,1.6665576E-2,-1.6211955E-2,-0E0,1.2994031E-2,-3.6295447E-2,2.2953635E-2,-1.9410824E-2,1.4929852E-2],"split_indices":[7,2,9,7,4,10,1,7,0,10,4,6,7,0,5,0,0,0,0,0,0,0,0,0,0,0,0,0,0],"split_type":[0,0,0,0,0,0,0,0,0,0,0,0,0,0,0,0,0,0,0,0,0,0,0,0,0,0,0,0,0],"sum_hessian":[5.3E2,1.22E2,4.08E2,1.6E1,1.06E2,3.88E2,2E1,1E1,6E0,8.4E1,2.2E1,3.54E2,3.4E1,8E0,1.2E1,6E0,4E0,1E0,5E0,6.4E1,2E1,1.7E1,5E0,1.41E2,2.13E2,2.1E1,1.3E1,7E0,5E0],"tree_param":{"num_deleted":"0","num_feature":"14","num_nodes":"29","size_leaf_vector":"1"}},{"base_weights":[1.822531E-2,5.5293284E-2,-2.2109854E-1,1.8127993E-2,2.380575E-1,3.6352236E-2,-3.4900665E-1,-5.5813002E-3,3.720695E-1,5.8224744E-1,-4.316282E-3,-1.793074E-2,6.089207E-1,-4.1120756E-1,-0E0,6.0679833E-3,-5.5191796E-3,2.9221157E-2,-2.2745749E-2,-0E0,3.165795E-2,3.612279E-2,-1.4173134E-2,1.2561152E-2,-1.1977119E-2,4.3620855E-2,-0E0,-2.3837399E-2,-0E0,-5.6619127E-3,2.1003958E-2],"categories":[],"categories_nodes":[],"categories_segments":[],"categories_sizes":[],"default_left":[0,0,0,0,0,0,0,0,0,0,0,0,0,0,0,0,0,0,0,0,0,0,0,0,0,0,0,0,0,0,0],"id":37,"left_children":[1,3,5,7,9,11,13,15,17,19,21,23,25,27,29,-1,-1,-1,-1,-1,-1,-1,-1,-1,-1,-1,-1,-1,-1,-1,-1],"loss_changes":[4.6030874E0,2.919621E0,2.5873928E0,3.6885216E0,6.796686E0,1.275603E0,1.4479127E0,4.924837E0,5.357665E0,1.2092619E0,8.693289E0,1.2417156E0,6.050333E-1,1.3951259E0,6.7533576E-1,0E0,0E0,0E0,0E0,0E0,0E0,0E0,0E0,0E0,0E0,0E0,0E0,0E0,0E0,0E0,0E0],"parents":[2147483647,0,0,1,1,2,2,3,3,4,4,5,5,6,6,7,7,8,8,9,9,10,10,11,11,12,12,13,13,14,14],"right_children":[2,4,6,8,10,12,14,16,18,20,22,24,26,28,30,-1,-1,-1,-1,-1,-1,-1,-1,-1,-1,-1,-1,-1,-1,-1,-1],"split_conditions":[1.8181819E0,1.2E1,1.5E1,1.2E1,1.3E1,1.4E1,2.8461537E0,7E0,6E0,5E0,9.4736844E-1,1.5294118E0,1E0,2E0,8E0,6.0679833E-3,-5.5191796E-3,2.9221157E-2,-2.2745749E-2,-0E0,3.165795E-2,3.612279E-2,-1.4173134E-2,1.2561152E-2,-1.1977119E-2,4.3620855E-2,-0E0,-2.3837399E-2,-0E0,-5.6619127E-3,2.1003958E-2],"split_indices":[8,4,0,2,4,0,8,4,11,2,8,10,1,11,2,0,0,0,0,0,0,0,0,0,0,0,0,0,0,0,0],"split_type":[0,0,0,0,0,0,0,0,0,0,0,0,0,0,0,0,0,0,0,0,0,0,0,0,0,0,0,0,0,0,0],"sum_hessian":[5.34E2,4.67E2,6.7E1,3.94E2,7.3E1,2E1,4.7E1,3.68E2,2.6E1,3.1E1,4.2E1,1.8E1,2E0,4.2E1,5E0,1.62E2,2.06E2,2.2E1,4E0,2E0,2.9E1,1E1,3.2E1,6E0,1.2E1,1E0,1E0,3.7E1,5E0,3E0,2E0],"tree_param":{"num_deleted":"0","num_feature":"14","num_nodes":"31","size_leaf_vector":"1"}},{"base_weights":[-2.0196887E-2,-2.3367359E-1,2.7330508E-2,-6.085582E-1,-1.05871096E-1,8.350559E-2,-1.9900349E-1,-0E0,-7.068702E-1,6.428256E-2,-3.8567558E-1,-9.862275E-2,1.8567358E-1,-3.2107157E-1,3.461209E-1,-4.051387E-2,-0E0,1.8418655E-2,-6.492792E-4,-2.8322488E-2,-0E0,1.2209144E-2,-8.277169E-3,5.1827002E-2,7.5776638E-3,-0E0,-2.2731861E-2,-9.6442355E-3,3.8276337E-2],"categories":[],"categories_nodes":[],"categories_segments":[],"categories_sizes":[],"default_left":[0,0,0,0,0,0,0,0,0,0,0,0,0,0,0,0,0,0,0,0,0,0,0,0,0,0,0,0,0],"id":38,"left_children":[1,3,5,7,9,11,13,-1,15,17,19,21,23,25,27,-1,-1,-1,-1,-1,-1,-1,-1,-1,-1,-1,-1,-1,-1],"loss_changes":[5.649101E0,4.0519123E0,5.4465203E0,1.540081E0,4.143557E0,6.6923347E0,5.6979246E0,0E0,1.9030228E0,1.5021436E0,2.3852363E0,2.8381212E0,5.2681055E0,2.7570786E0,4.0720296E0,0E0,0E0,0E0,0E0,0E0,0E0,0E0,0E0,0E0,0E0,0E0,0E0,0E0,0E0],"parents":[2147483647,0,0,1,1,2,2,3,3,4,4,5,5,6,6,8,8,9,9,10,10,11,11,12,12,13,13,14,14],"right_children":[2,4,6,8,10,12,14,-1,16,18,20,22,24,26,28,-1,-1,-1,-1,-1,-1,-1,-1,-1,-1,-1,-1,-1,-1],"split_conditions":[1.3333334E0,6E0,4E0,6.4705884E-1,2.2E1,1.4E0,1E1,-0E0,3E0,1.0555556E0,1E0,3E0,1.4090909E0,1.6E1,7E0,-4.051387E-2,-0E0,1.8418655E-2,-6.492792E-4,-2.8322488E-2,-0E0,1.2209144E-2,-8.277169E-3,5.1827002E-2,7.5776638E-3,-0E0,-2.2731861E-2,-9.6442355E-3,3.8276337E-2],"split_indices":[10,5,11,10,0,7,2,0,11,7,11,2,7,0,1,0,0,0,0,0,0,0,0,0,0,0,0,0,0],"split_type":[0,0,0,0,0,0,0,0,0,0,0,0,0,0,0,0,0,0,0,0,0,0,0,0,0,0,0,0,0],"sum_hessian":[5.34E2,1E2,4.34E2,2.2E1,7.8E1,3.52E2,8.2E1,3E0,1.9E1,4.7E1,3.1E1,1.23E2,2.29E2,6.9E1,1.3E1,1.7E1,2E0,1.1E1,3.6E1,2.1E1,1E1,1.7E1,1.06E2,6E0,2.23E2,2.2E1,4.7E1,5E0,8E0],"tree_param":{"num_deleted":"0","num_feature":"14","num_nodes":"29","size_leaf_vector":"1"}},{"base_weights":[3.563493E-2,-1.9900876E-1,8.447987E-2,-2.7244312E-1,4.415308E-2,1.9953439E-1,-5.3408466E-2,-3.358947E-1,6.2718354E-2,3.2706076E-1,-2.8257288E-2,2.5597972E-1,-3.5689598E-1,-1.3533248E-1,3.4485358E-1,-1.8554946E-2,-0E0,1.7000588E-2,-2.4930933E-3,-0E0,2.003643E-2,-1.6417956E-2,5.207454E-3,1.5078685E-2,-7.4390518E-3,-0E0,-2.766543E-2,3.476379E-2,-9.633878E-3,-5.4768234E-4,2.98845E-2],"categories":[],"categories_nodes":[],"categories_segments":[],"categories_sizes":[],"default_left":[0,0,0,0,0,0,0,0,0,0,0,0,0,0,0,0,0,0,0,0,0,0,0,0,0,0,0,0,0,0,0],"id":39,"left_children":[1,3,5,7,9,11,13,15,17,19,21,23,25,27,29,-1,-1,-1,-1,-1,-1,-1,-1,-1,-1,-1,-1,-1,-1,-1,-1],"loss_changes":[5.6699204E0,1.7373459E0,6.833207E0,1.7402673E0,6.7116165E-1,7.3698654E0,6.010715E0,1.067761E0,6.1214894E-1,1.8791181E-1,7.721998E-1,4.1786194E0,1.5218482E0,7.2955394E0,3.3403678E0,0E0,0E0,0E0,0E0,0E0,0E0,0E0,0E0,0E0,0E0,0E0,0E0,0E0,0E0,0E0,0E0],"parents":[2147483647,0,0,1,1,2,2,3,3,4,4,5,5,6,6,7,7,8,8,9,9,10,10,11,11,12,12,13,13,14,14],"right_children":[2,4,6,8,10,12,14,16,18,20,22,24,26,28,30,-1,-1,-1,-1,-1,-1,-1,-1,-1,-1,-1,-1,-1,-1,-1,-1],"split_conditions":[1.0625E0,1.1E1,2E0,1.5E1,1E0,2.2333333E0,3.2E1,2.0714285E0,1.2121212E0,1E0,6E0,1.8181819E0,1.2E1,8.2758623E-1,1.2121212E0,-1.8554946E-2,-0E0,1.7000588E-2,-2.4930933E-3,-0E0,2.003643E-2,-1.6417956E-2,5.207454E-3,1.5078685E-2,-7.4390518E-3,-0E0,-2.766543E-2,3.476379E-2,-9.633878E-3,-5.4768234E-4,2.98845E-2],"split_indices":[7,4,11,5,13,9,0,9,9,1,3,8,0,9,9,0,0,0,0,0,0,0,0,0,0,0,0,0,0,0,0],"split_type":[0,0,0,0,0,0,0,0,0,0,0,0,0,0,0,0,0,0,0,0,0,0,0,0,0,0,0,0,0,0,0],"sum_hessian":[5.01E2,8.2E1,4.19E2,6.6E1,1.6E1,2.32E2,1.87E2,5.8E1,8E0,5E0,1.1E1,2.13E2,1.9E1,1.58E2,2.9E1,5.5E1,3E0,4E0,4E0,1E0,4E0,5E0,6E0,1.94E2,1.9E1,7E0,1.2E1,8E0,1.5E2,1.1E1,1.8E1],"tree_param":{"num_deleted":"0","num_feature":"14","num_nodes":"31","size_leaf_vector":"1"}},{"base_weights":[-1.8547622E-2,7.0972286E-2,-1.625351E-1,4.8188202E-2,8.910087E-1,-3.182919E-1,-1.1027382E-2,8.620367E-2,-2.3033811E-1,5.9256222E-2,-4.1486742E-4,-3.588139E-1,6.1205115E-2,1.7820568E-1,-1.552915E-1,2.4298398E-2,1.9653437E-3,3.1877283E-2,-1.8532244E-2,-1.915699E-2,6.912378E-3,-0E0,1.2262055E-2,4.0698115E-2,2.4633642E-4,-2.5768582E-2,-3.048325E-4],"categories":[],"categories_nodes":[],"categories_segments":[],"categories_sizes":[],"default_left":[0,0,0,0,0,0,0,0,0,0,0,0,0,0,0,0,0,0,0,0,0,0,0,0,0,0,0],"id":40,"left_children":[1,3,5,7,9,11,13,15,17,-1,-1,19,21,23,25,-1,-1,-1,-1,-1,-1,-1,-1,-1,-1,-1,-1],"loss_changes":[6.959767E0,5.059285E0,4.5856733E0,3.2580264E0,3.1753263E0,1.8606606E0,3.0351956E0,4.7797837E0,4.410387E0,0E0,0E0,1.4428053E0,2.3880278E-1,4.1875234E0,3.046338E0,0E0,0E0,0E0,0E0,0E0,0E0,0E0,0E0,0E0,0E0,0E0,0E0],"parents":[2147483647,0,0,1,1,2,2,3,3,4,4,5,5,6,6,7,7,8,8,11,11,12,12,13,13,14,14],"right_children":[2,4,6,8,10,12,14,16,18,-1,-1,20,22,24,26,-1,-1,-1,-1,-1,-1,-1,-1,-1,-1,-1,-1],"split_conditions":[1.4736842E0,1.4666667E0,1.7692307E0,1.3E1,3.7E1,2.3181818E0,5E0,8.148148E-1,3E0,5.9256222E-2,-4.1486742E-4,7E0,9E0,1.8709677E0,1.1E1,2.4298398E-2,1.9653437E-3,3.1877283E-2,-1.8532244E-2,-1.915699E-2,6.912378E-3,-0E0,1.2262055E-2,4.0698115E-2,2.4633642E-4,-2.5768582E-2,-3.048325E-4],"split_indices":[8,8,10,1,0,9,2,8,2,0,0,11,0,10,0,0,0,0,0,0,0,0,0,0,0,0,0],"split_type":[0,0,0,0,0,0,0,0,0,0,0,0,0,0,0,0,0,0,0,0,0,0,0,0,0,0,0],"sum_hessian":[5.3E2,3.23E2,2.07E2,3.17E2,6E0,9.8E1,1.09E2,2.83E2,3.4E1,5E0,1E0,9.1E1,7E0,4.4E1,6.5E1,2.6E1,2.57E2,3E0,3.1E1,8.9E1,2E0,4E0,3E0,7E0,3.7E1,1.6E1,4.9E1],"tree_param":{"num_deleted":"0","num_feature":"14","num_nodes":"27","size_leaf_vector":"1"}},{"base_weights":[-0E0,-7.718517E-2,9.433199E-2,-2.356797E-2,-3.757887E-1,-9.5215924E-2,2.1197581E-1,-7.3824055E-2,2.9699677E-1,-4.7401896E-1,3.1810686E-2,-3.1680003E-1,1.8973492E-2,1.3026148E-1,7.038169E-1,-2.008332E-2,-1.3527545E-3,4.287411E-2,-0E0,-2.949743E-2,-8.8841264E-4,2.2585448E-2,-2.3893561E-2,-1.750252E-2,1.6443674E-2,2.8641673E-3,3.0788863E-2,7.325483E-2,1.103897E-2],"categories":[],"categories_nodes":[],"categories_segments":[],"categories_sizes":[],"default_left":[0,0,0,0,0,0,0,0,0,0,0,0,0,0,0,0,0,0,0,0,0,0,0,0,0,0,0,0,0],"id":41,"left_children":[1,3,5,7,9,11,13,15,17,19,-1,21,23,25,27,-1,-1,-1,-1,-1,-1,-1,-1,-1,-1,-1,-1,-1,-1],"loss_changes":[3.9095252E0,4.3664284E0,5.4876795E0,3.958125E0,4.5150657E0,2.5714216E0,5.117257E0,3.027867E0,5.5889397E0,1.5187244E0,0E0,4.4967356E0,6.727235E0,4.004205E0,4.9995985E0,0E0,0E0,0E0,0E0,0E0,0E0,0E0,0E0,0E0,0E0,0E0,0E0,0E0,0E0],"parents":[2147483647,0,0,1,1,2,2,3,3,4,4,5,5,6,6,7,7,8,8,9,9,11,11,12,12,13,13,14,14],"right_children":[2,4,6,8,10,12,14,16,18,20,-1,22,24,26,28,-1,-1,-1,-1,-1,-1,-1,-1,-1,-1,-1,-1,-1,-1],"split_conditions":[1.6923077E0,1.5925926E0,7E0,1.53125E0,1E1,1.2222222E0,1E1,5E0,7E0,1.4736842E0,3.1810686E-2,6E0,8E0,1.5E1,1E0,-2.008332E-2,-1.3527545E-3,4.287411E-2,-0E0,-2.949743E-2,-8.8841264E-4,2.2585448E-2,-2.3893561E-2,-1.750252E-2,1.6443674E-2,2.8641673E-3,3.0788863E-2,7.325483E-2,1.103897E-2],"split_indices":[7,7,6,7,1,10,2,5,4,8,0,4,4,3,13,0,0,0,0,0,0,0,0,0,0,0,0,0,0],"split_type":[0,0,0,0,0,0,0,0,0,0,0,0,0,0,0,0,0,0,0,0,0,0,0,0,0,0,0,0,0],"sum_hessian":[5.35E2,2.97E2,2.38E2,2.56E2,4.1E1,8.8E1,1.5E2,2.25E2,3.1E1,3.9E1,2E0,3.2E1,5.6E1,1.32E2,1.8E1,2.4E1,2.01E2,1E1,2.1E1,2.9E1,1E1,4E0,2.8E1,2.4E1,3.2E1,1.18E2,1.4E1,5E0,1.3E1],"tree_param":{"num_deleted":"0","num_feature":"14","num_nodes":"29","size_leaf_vector":"1"}},{"base_weights":[-6.660862E-3,2.7926663E-2,-2.0999447E-1,-1.3690975E-1,7.901062E-2,-4.2024362E-1,-0E0,-1.258444E-2,-4.2396927E-1,2.3972875E-2,4.423575E-1,-5.369119E-1,2.3531549E-2,1.5721701E-1,-5.318783E-1,2.0803554E-2,-3.6479556E-3,-0E0,-3.241742E-2,-1.4096126E-2,3.0467317E-3,-6.2485696E-3,2.8239785E-2,-3.8716372E-2,-2.2000133E-3,1.6537534E-2,-6.879005E-3,-2.9014593E-2,1.6031144E-2,-0E0,-2.9789073E-2],"categories":[],"categories_nodes":[],"categories_segments":[],"categories_sizes":[],"default_left":[0,0,0,0,0,0,0,0,0,0,0,0,0,0,0,0,0,0,0,0,0,0,0,0,0,0,0,0,0,0,0],"id":42,"left_children":[1,3,5,7,9,11,13,15,17,19,21,23,25,27,29,-1,-1,-1,-1,-1,-1,-1,-1,-1,-1,-1,-1,-1,-1,-1,-1],"loss_changes":[3.9217682E0,3.7517602E0,3.9117386E0,3.213541E0,6.5069914E0,2.732747E0,3.232629E0,1.6563574E0,2.6537056E0,3.2815082E0,3.5673265E0,3.2849503E0,6.821485E-1,4.056608E0,2.5756335E-1,0E0,0E0,0E0,0E0,0E0,0E0,0E0,0E0,0E0,0E0,0E0,0E0,0E0,0E0,0E0,0E0],"parents":[2147483647,0,0,1,1,2,2,3,3,4,4,5,5,6,6,7,7,8,8,9,9,10,10,11,11,12,12,13,13,14,14],"right_children":[2,4,6,8,10,12,14,16,18,20,22,24,26,28,30,-1,-1,-1,-1,-1,-1,-1,-1,-1,-1,-1,-1,-1,-1,-1,-1],"split_conditions":[4E0,1.3333334E0,8E0,1.3E1,1.2E1,7E0,2E0,9.166667E-1,2E0,7E0,1E1,8E0,2E0,1.2307693E0,4E0,2.0803554E-2,-3.6479556E-3,-0E0,-3.241742E-2,-1.4096126E-2,3.0467317E-3,-6.2485696E-3,2.8239785E-2,-3.8716372E-2,-2.2000133E-3,1.6537534E-2,-6.879005E-3,-2.9014593E-2,1.6031144E-2,-0E0,-2.9789073E-2],"split_indices":[11,10,4,4,4,11,13,9,12,0,0,5,13,9,6,0,0,0,0,0,0,0,0,0,0,0,0,0,0,0,0],"split_type":[0,0,0,0,0,0,0,0,0,0,0,0,0,0,0,0,0,0,0,0,0,0,0,0,0,0,0,0,0,0,0],"sum_hessian":[5.29E2,4.49E2,8E1,1.01E2,3.48E2,4.1E1,3.9E1,7.4E1,2.7E1,3.06E2,4.2E1,3.4E1,7E0,3.2E1,7E0,6E0,6.8E1,1E1,1.7E1,2.9E1,2.77E2,6E0,3.6E1,2.1E1,1.3E1,4E0,3E0,4E0,2.8E1,1E0,6E0],"tree_param":{"num_deleted":"0","num_feature":"14","num_nodes":"31","size_leaf_vector":"1"}},{"base_weights":[3.167806E-2,7.000441E-2,-2.3075233E-1,8.036379E-2,-3.191996E-2,-0E0,-3.2233077E-1,2.603919E-1,3.907533E-2,2.4374607E-1,-2.4793123E-1,-0E0,-4.4198677E-1,2.6491616E-2,5.091488E-3,-1.0066483E-2,4.258694E-3,-0E0,1.7432218E-2,-0E0,-1.8282885E-2,-2.8156484E-3,1.5372052E-2,-2.7829526E-2,-4.674666E-3],"categories":[],"categories_nodes":[],"categories_segments":[],"categories_sizes":[],"default_left":[0,0,0,0,0,0,0,0,0,0,0,0,0,0,0,0,0,0,0,0,0,0,0,0,0],"id":43,"left_children":[1,3,5,7,-1,9,11,13,15,17,19,21,23,-1,-1,-1,-1,-1,-1,-1,-1,-1,-1,-1,-1],"loss_changes":[5.1891937E0,2.942388E0,1.1890137E0,3.1230714E0,0E0,1.3922012E0,2.1162324E0,2.7693367E0,4.148555E0,4.0937197E-1,6.355346E-1,4.5229468E-1,6.4974356E-1,0E0,0E0,0E0,0E0,0E0,0E0,0E0,0E0,0E0,0E0,0E0,0E0],"parents":[2147483647,0,0,1,1,2,2,3,3,5,5,6,6,7,7,8,8,9,9,10,10,11,11,12,12],"right_children":[2,4,6,8,-1,10,12,14,16,18,20,22,24,-1,-1,-1,-1,-1,-1,-1,-1,-1,-1,-1,-1],"split_conditions":[1.8181819E0,3E0,1.5555556E0,4E0,-3.191996E-2,1.9E1,6E0,1.3E1,9E0,2E0,8E0,1.875E0,2.9E1,2.6491616E-2,5.091488E-3,-1.0066483E-2,4.258694E-3,-0E0,1.7432218E-2,-0E0,-1.8282885E-2,-2.8156484E-3,1.5372052E-2,-2.7829526E-2,-4.674666E-3],"split_indices":[8,10,10,2,0,0,6,0,0,1,2,10,0,0,0,0,0,0,0,0,0,0,0,0,0],"split_type":[0,0,0,0,0,0,0,0,0,0,0,0,0,0,0,0,0,0,0,0,0,0,0,0,0],"sum_hessian":[5.28E2,4.65E2,6.3E1,4.61E2,4E0,2E1,4.3E1,8E1,3.81E2,9E0,1.1E1,1E1,3.3E1,2.6E1,5.4E1,5.7E1,3.24E2,2E0,7E0,2E0,9E0,7E0,3E0,2.2E1,1.1E1],"tree_param":{"num_deleted":"0","num_feature":"14","num_nodes":"25","size_leaf_vector":"1"}},{"base_weights":[-1.8714603E-2,-1.06878474E-1,8.703352E-2,-8.052637E-2,-6.2812024E-1,-1.00389495E-1,2.0861031E-1,1.1791093E-2,-1.8505326E-1,-0E0,-6.9022375E-1,-3.325852E-1,7.970545E-2,2.601403E-1,-6.238829E-1,2.9675725E-3,-3.0980999E-2,-1.4715204E-2,-0E0,-3.6812294E-2,-0E0,-0E0,-2.997976E-2,2.3793671E-2,-4.7167726E-3,1.8785823E-2,-4.4581234E-3,-4.01739E-2,-0E0],"categories":[],"categories_nodes":[],"categories_segments":[],"categories_sizes":[],"default_left":[0,0,0,0,0,0,0,0,0,0,0,0,0,0,0,0,0,0,0,0,0,0,0,0,0,0,0,0,0],"id":44,"left_children":[1,3,5,7,9,11,13,15,17,-1,19,21,23,25,27,-1,-1,-1,-1,-1,-1,-1,-1,-1,-1,-1,-1,-1,-1],"loss_changes":[4.7466574E0,3.0821164E0,5.2779427E0,2.7964168E0,4.6513987E-1,3.9098368E0,5.9069233E0,3.7141283E0,2.7815351E0,0E0,1.472578E-1,3.6092505E0,3.7239733E0,5.766711E0,6.3144875E-1,0E0,0E0,0E0,0E0,0E0,0E0,0E0,0E0,0E0,0E0,0E0,0E0,0E0,0E0],"parents":[2147483647,0,0,1,1,2,2,3,3,4,4,5,5,6,6,7,7,8,8,10,10,11,11,12,12,13,13,14,14],"right_children":[2,4,6,8,10,12,14,16,18,-1,20,22,24,26,28,-1,-1,-1,-1,-1,-1,-1,-1,-1,-1,-1,-1,-1,-1],"split_conditions":[1.6857142E0,2.5454545E0,7E0,2E0,4E0,1E0,6E0,1.65E0,1E1,-0E0,1.1E1,1.3E1,3E0,2.5333333E0,1.1E1,2.9675725E-3,-3.0980999E-2,-1.4715204E-2,-0E0,-3.6812294E-2,-0E0,-0E0,-2.997976E-2,2.3793671E-2,-4.7167726E-3,1.8785823E-2,-4.4581234E-3,-4.01739E-2,-0E0],"split_indices":[7,10,6,12,3,12,12,7,4,0,5,0,12,7,3,0,0,0,0,0,0,0,0,0,0,0,0,0,0],"split_type":[0,0,0,0,0,0,0,0,0,0,0,0,0,0,0,0,0,0,0,0,0,0,0,0,0,0,0,0,0],"sum_hessian":[5.04E2,2.8E2,2.24E2,2.7E2,1E1,8.5E1,1.39E2,1.39E2,1.31E2,1E0,9E0,3.9E1,4.6E1,1.33E2,6E0,1.32E2,7E0,8.3E1,4.8E1,8E0,1E0,1.8E1,2.1E1,1.5E1,3.1E1,1.02E2,3.1E1,4E0,2E0],"tree_param":{"num_deleted":"0","num_feature":"14","num_nodes":"29","size_leaf_vector":"1"}},{"base_weights":[-1.2703653E-3,-2.0926952E-2,2.6378456E-1,8.119167E-2,-9.044956E-2,-6.2674314E-2,7.6700735E-1,1.5325749E-1,-4.4829598E-1,-3.8971367E-1,-2.4252933E-2,-0E0,-2.721923E-1,9.4940037E-1,-0E0,4.5607965E-3,3.8614433E-2,-3.2486346E-2,-0E0,-2.9995395E-2,-0E0,-0E0,-3.0065177E-2,-1.2150898E-2,1.5172079E-2,-3.0423958E-2,1.8273445E-2,-0E0,5.4220658E-2],"categories":[],"categories_nodes":[],"categories_segments":[],"categories_sizes":[],"default_left":[0,0,0,0,0,0,0,0,0,0,0,0,0,0,0,0,0,0,0,0,0,0,0,0,0,0,0,0,0],"id":45,"left_children":[1,3,5,7,9,11,13,15,17,19,21,23,25,27,-1,-1,-1,-1,-1,-1,-1,-1,-1,-1,-1,-1,-1,-1,-1],"loss_changes":[2.5502076E0,3.5877984E0,6.279872E0,7.3823757E0,5.6238947E0,4.7513947E-1,1.8352985E0,5.8478327E0,2.021439E0,4.8025465E0,3.285178E0,1.2255857E0,2.1848588E0,8.058901E-1,0E0,0E0,0E0,0E0,0E0,0E0,0E0,0E0,0E0,0E0,0E0,0E0,0E0,0E0,0E0],"parents":[2147483647,0,0,1,1,2,2,3,3,4,4,5,5,6,6,7,7,8,8,9,9,10,10,11,11,12,12,13,13],"right_children":[2,4,6,8,10,12,14,16,18,20,22,24,26,28,-1,-1,-1,-1,-1,-1,-1,-1,-1,-1,-1,-1,-1,-1,-1],"split_conditions":[3.5E1,1.6E1,1.7692307E0,2.2857144E0,1.9E1,1.56E0,1E1,2.6666667E0,8E0,1E1,2.2333333E0,1.2E0,1.1E1,3E0,-0E0,4.5607965E-3,3.8614433E-2,-3.2486346E-2,-0E0,-2.9995395E-2,-0E0,-0E0,-3.0065177E-2,-1.2150898E-2,1.5172079E-2,-3.0423958E-2,1.8273445E-2,-0E0,5.4220658E-2],"split_indices":[0,0,7,10,0,7,5,7,5,5,9,7,6,5,0,0,0,0,0,0,0,0,0,0,0,0,0,0,0],"split_type":[0,0,0,0,0,0,0,0,0,0,0,0,0,0,0,0,0,0,0,0,0,0,0,0,0,0,0,0,0],"sum_hessian":[5.33E2,5.01E2,3.2E1,1.97E2,3.04E2,1.9E1,1.3E1,1.76E2,2.1E1,5.1E1,2.53E2,1.3E1,6E0,1E1,3E0,1.63E2,1.3E1,1.4E1,7E0,3.4E1,1.7E1,2.45E2,8E0,6E0,7E0,5E0,1E0,2E0,8E0],"tree_param":{"num_deleted":"0","num_feature":"14","num_nodes":"29","size_leaf_vector":"1"}},{"base_weights":[2.0103225E-2,-2.0488459E-1,6.645454E-2,1.08466126E-1,-3.3950654E-1,-1.326228E-1,1.1334005E-1,-1.4844072E-1,2.957756E-1,-5.826974E-1,-1.0160546E-1,-0E0,-4.2008382E-1,9.146023E-1,8.904683E-2,-1.09702265E-2,-0E0,2.2088794E-2,-9.592188E-3,-0E0,-3.5439294E-2,-2.0474683E-2,2.6150185E-3,6.4796316E-3,-1.90961E-2,8.313819E-3,-2.714398E-2,5.7937738E-2,-3.2138776E-3,-0E0,1.2879612E-2],"categories":[],"categories_nodes":[],"categories_segments":[],"categories_sizes":[],"default_left":[0,0,0,0,0,0,0,0,0,0,0,0,0,0,0,0,0,0,0,0,0,0,0,0,0,0,0,0,0,0,0],"id":46,"left_children":[1,3,5,7,9,11,13,15,17,19,21,23,25,27,29,-1,-1,-1,-1,-1,-1,-1,-1,-1,-1,-1,-1,-1,-1,-1,-1],"loss_changes":[5.4873013E0,4.0195518E0,4.208161E0,1.4402802E0,2.9585605E0,3.4018602E0,6.066595E0,1.5170845E-1,1.6229298E0,2.794303E0,2.1188996E0,2.7165136E0,2.4920745E0,3.4766612E0,5.527294E0,0E0,0E0,0E0,0E0,0E0,0E0,0E0,0E0,0E0,0E0,0E0,0E0,0E0,0E0,0E0,0E0],"parents":[2147483647,0,0,1,1,2,2,3,3,4,4,5,5,6,6,7,7,8,8,9,9,10,10,11,11,12,12,13,13,14,14],"right_children":[2,4,6,8,10,12,14,16,18,20,22,24,26,28,30,-1,-1,-1,-1,-1,-1,-1,-1,-1,-1,-1,-1,-1,-1,-1,-1],"split_conditions":[9E0,4E0,1.3333334E0,1.3235294E0,1.4375E0,1.5238096E0,1.3571428E0,1.05E0,2.3888888E0,5E0,5E0,1.1E1,1.3E1,2.4444444E0,1.4375E0,-1.09702265E-2,-0E0,2.2088794E-2,-9.592188E-3,-0E0,-3.5439294E-2,-2.0474683E-2,2.6150185E-3,6.4796316E-3,-1.90961E-2,8.313819E-3,-2.714398E-2,5.7937738E-2,-3.2138776E-3,-0E0,1.2879612E-2],"split_indices":[0,2,10,7,9,8,10,9,10,6,0,1,0,7,9,0,0,0,0,0,0,0,0,0,0,0,0,0,0,0,0],"split_type":[0,0,0,0,0,0,0,0,0,0,0,0,0,0,0,0,0,0,0,0,0,0,0,0,0,0,0,0,0,0,0],"sum_hessian":[5.36E2,8.7E1,4.49E2,2.4E1,6.3E1,8.1E1,3.68E2,8E0,1.6E1,2.8E1,3.5E1,5.5E1,2.6E1,8E0,3.6E2,6E0,2E0,1.4E1,2E0,4E0,2.4E1,1.3E1,2.2E1,4.3E1,1.2E1,3E0,2.3E1,7E0,1E0,2.35E2,1.25E2],"tree_param":{"num_deleted":"0","num_feature":"14","num_nodes":"31","size_leaf_vector":"1"}},{"base_weights":[2.097733E-2,-3.6241196E-2,1.2326491E-1,-3.9379385E-1,6.791548E-4,-3.2578845E-2,2.9199946E-1,-4.9811602E-1,4.5796663E-1,-6.719544E-2,2.6423472E-1,-4.6044546E-1,1.0145127E-1,8.4351236E-1,8.668054E-2,-2.8011039E-2,-0E0,-0E0,3.1927377E-2,7.3249085E-4,-2.1795783E-2,-2.7971594E-3,2.7037168E-2,-0E0,-3.320933E-2,1.5375718E-2,-8.364529E-3,4.9901895E-2,-0E0,-2.4751218E-2,9.071935E-3],"categories":[],"categories_nodes":[],"categories_segments":[],"categories_sizes":[],"default_left":[0,0,0,0,0,0,0,0,0,0,0,0,0,0,0,0,0,0,0,0,0,0,0,0,0,0,0,0,0,0,0],"id":47,"left_children":[1,3,5,7,9,11,13,15,17,19,21,23,25,27,29,-1,-1,-1,-1,-1,-1,-1,-1,-1,-1,-1,-1,-1,-1,-1,-1],"loss_changes":[3.2571332E0,4.9016466E0,5.5460825E0,3.4479136E0,5.7423444E0,6.3071327E0,1.0227119E1,1.5084572E0,2.852903E-1,7.779187E0,6.4175515E0,2.9840384E0,4.5091677E0,4.2682056E0,3.9827964E0,0E0,0E0,0E0,0E0,0E0,0E0,0E0,0E0,0E0,0E0,0E0,0E0,0E0,0E0,0E0,0E0],"parents":[2147483647,0,0,1,1,2,2,3,3,4,4,5,5,6,6,7,7,8,8,9,9,10,10,11,11,12,12,13,13,14,14],"right_children":[2,4,6,8,10,12,14,16,18,20,22,24,26,28,30,-1,-1,-1,-1,-1,-1,-1,-1,-1,-1,-1,-1,-1,-1,-1,-1],"split_conditions":[1.9615384E0,5E0,8E0,3.4E1,8E0,7E0,1.3846154E0,2E0,1.1E1,1.625E0,1.2222222E0,5E0,1E0,1.3E1,7E0,-2.8011039E-2,-0E0,-0E0,3.1927377E-2,7.3249085E-4,-2.1795783E-2,-2.7971594E-3,2.7037168E-2,-0E0,-3.320933E-2,1.5375718E-2,-8.364529E-3,4.9901895E-2,-0E0,-2.4751218E-2,9.071935E-3],"split_indices":[7,5,4,0,1,6,9,13,1,7,9,6,12,4,2,0,0,0,0,0,0,0,0,0,0,0,0,0,0,0,0],"split_type":[0,0,0,0,0,0,0,0,0,0,0,0,0,0,0,0,0,0,0,0,0,0,0,0,0,0,0,0,0,0,0],"sum_hessian":[5.39E2,3.4E2,1.99E2,3.3E1,3.07E2,1.01E2,9.8E1,3.1E1,2E0,2.42E2,6.5E1,2.5E1,7.6E1,2.4E1,7.4E1,2.9E1,2E0,1E0,1E0,1.97E2,4.5E1,2.9E1,3.6E1,7E0,1.8E1,4.5E1,3.1E1,2.1E1,3E0,8E0,6.6E1],"tree_param":{"num_deleted":"0","num_feature":"14","num_nodes":"31","size_leaf_vector":"1"}},{"base_weights":[2.8028742E-3,-1.2318213E-1,4.5811206E-2,3.284441E-1,-2.193026E-1,4.4597888E-1,1.8287798E-2,-8.751193E-3,4.783327E-1,-2.6446885E-1,4.0359393E-1,-0E0,6.70516E-1,-2.8661898E-1,5.529356E-2,-0E0,3.522221E-2,-1.597869E-2,6.7944746E-3,-0E0,2.7689988E-2,1.3189465E-2,-8.458051E-3,4.463486E-2,-0E0,-2.0688822E-2,2.9491482E-2,1.5609501E-3,2.219747E-2],"categories":[],"categories_nodes":[],"categories_segments":[],"categories_sizes":[],"default_left":[0,0,0,0,0,0,0,0,0,0,0,0,0,0,0,0,0,0,0,0,0,0,0,0,0,0,0,0,0],"id":48,"left_children":[1,3,5,7,9,11,13,-1,15,17,19,21,23,25,27,-1,-1,-1,-1,-1,-1,-1,-1,-1,-1,-1,-1,-1,-1],"loss_changes":[2.8055577E0,5.620564E0,3.9566257E0,2.051367E0,3.1016436E0,2.2945886E0,4.0857453E0,0E0,2.4664207E0,2.5542746E0,6.280457E-1,4.9913195E-1,2.195774E0,4.480742E0,2.7180746E0,0E0,0E0,0E0,0E0,0E0,0E0,0E0,0E0,0E0,0E0,0E0,0E0,0E0,0E0],"parents":[2147483647,0,0,1,1,2,2,3,3,4,4,5,5,6,6,8,8,9,9,10,10,11,11,12,12,13,13,14,14],"right_children":[2,4,6,8,10,12,14,-1,16,18,20,22,24,26,28,-1,-1,-1,-1,-1,-1,-1,-1,-1,-1,-1,-1,-1,-1],"split_conditions":[1.2857143E0,4E0,1.3548387E0,1E0,2E0,1E0,1.4411764E0,-8.751193E-3,2E0,1.5E1,7E0,6E0,4E0,7E0,1.4E1,-0E0,3.522221E-2,-1.597869E-2,6.7944746E-3,-0E0,2.7689988E-2,1.3189465E-2,-8.458051E-3,4.463486E-2,-0E0,-2.0688822E-2,2.9491482E-2,1.5609501E-3,2.219747E-2],"split_indices":[7,2,7,2,13,12,7,0,1,5,1,2,12,12,6,0,0,0,0,0,0,0,0,0,0,0,0,0,0],"split_type":[0,0,0,0,0,0,0,0,0,0,0,0,0,0,0,0,0,0,0,0,0,0,0,0,0,0,0,0,0],"sum_hessian":[5.29E2,1.28E2,4.01E2,2E1,1.08E2,2.2E1,3.79E2,3E0,1.7E1,1.03E2,5E0,8E0,1.4E1,3.7E1,3.42E2,5E0,1.2E1,9.3E1,1E1,1E0,4E0,3E0,5E0,1E1,4E0,3.4E1,3E0,3.26E2,1.6E1],"tree_param":{"num_deleted":"0","num_feature":"14","num_nodes":"29","size_leaf_vector":"1"}},{"base_weights":[2.1888106E-3,-1.6735815E-1,4.2383723E-2,3.2172096E-1,-2.38569E-1,-4.1344446E-1,6.881243E-2,-1.9403202E-3,5.090119E-1,-2.8382376E-1,3.5466474E-2,-0E0,-5.2371085E-1,4.4010814E-2,4.141076E-1,-0E0,3.351778E-2,-0E0,-1.8346485E-2,-6.024146E-3,1.9790445E-5,-2.87759E-2,-0E0,-6.3481727E-3,5.9954626E-3,5.2615027E-3,7.9911865E-2],"categories":[],"categories_nodes":[],"categories_segments":[],"categories_sizes":[],"default_left":[0,0,0,0,0,0,0,0,0,0,0,0,0,0,0,0,0,0,0,0,0,0,0,0,0,0,0],"id":49,"left_children":[1,3,5,7,9,11,13,-1,15,17,-1,19,21,23,25,-1,-1,-1,-1,-1,-1,-1,-1,-1,-1,-1,-1],"loss_changes":[3.5827625E0,3.4973378E0,5.052912E0,1.2763553E0,3.715754E0,6.794386E-1,3.1413465E0,0E0,9.0893984E-1,2.3086557E0,0E0,7.9839274E-2,2.771988E-1,5.1999655E0,7.3709116E0,0E0,0E0,0E0,0E0,0E0,0E0,0E0,0E0,0E0,0E0,0E0,0E0],"parents":[2147483647,0,0,1,1,2,2,3,3,4,4,5,5,6,6,8,8,9,9,11,11,12,12,13,13,14,14],"right_children":[2,4,6,8,10,12,14,-1,16,18,-1,20,22,24,26,-1,-1,-1,-1,-1,-1,-1,-1,-1,-1,-1,-1],"split_conditions":[1.1111112E0,3E0,8.75E-1,1E0,1E1,9E0,1.3E1,-1.9403202E-3,6E0,5E0,3.5466474E-2,1E0,3E0,7E0,4E0,-0E0,3.351778E-2,-0E0,-1.8346485E-2,-6.024146E-3,1.9790445E-5,-2.87759E-2,-0E0,-6.3481727E-3,5.9954626E-3,5.2615027E-3,7.9911865E-2],"split_indices":[7,2,10,2,3,0,2,0,0,6,0,12,13,6,11,0,0,0,0,0,0,0,0,0,0,0,0],"split_type":[0,0,0,0,0,0,0,0,0,0,0,0,0,0,0,0,0,0,0,0,0,0,0,0,0,0,0],"sum_hessian":[5.41E2,9.8E1,4.43E2,1E1,8.8E1,2.1E1,4.22E2,2E0,8E0,8.6E1,2E0,6E0,1.5E1,3.98E2,2.4E1,2E0,6E0,1.8E1,6.8E1,4E0,2E0,1.3E1,2E0,1.18E2,2.8E2,2.1E1,3E0],"tree_param":{"num_deleted":"0","num_feature":"14","num_nodes":"27","size_leaf_vector":"1"}},{"base_weights":[-1.7088301E-3,4.304279E-1,-1.4909376E-2,-6.227276E-2,6.7533374E-1,-1.6010517E-1,1.7622385E-2,-0E0,-6.2495572E-3,8.6832094E-1,-3.1608962E-3,1.7176896E-1,-2.3782872E-1,-2.7847368E-2,4.037841E-1,6.1187994E-2,-0E0,3.754775E-2,-3.5010017E-3,-4.5884037E-3,-2.1311497E-2,1.9650605E-2,-2.432918E-3,-3.0754309E-3,3.0847514E-2],"categories":[],"categories_nodes":[],"categories_segments":[],"categories_sizes":[],"default_left":[0,0,0,0,0,0,0,0,0,0,0,0,0,0,0,0,0,0,0,0,0,0,0,0,0],"id":50,"left_children":[1,3,5,7,9,11,13,-1,-1,15,-1,17,19,21,23,-1,-1,-1,-1,-1,-1,-1,-1,-1,-1],"loss_changes":[2.6146092E0,2.3051243E0,2.5911136E0,3.7229218E-2,2.3840194E0,2.719678E0,7.7411103E0,0E0,0E0,2.5714998E0,0E0,3.2105217E0,1.7486024E0,2.9556315E0,5.224451E0,0E0,0E0,0E0,0E0,0E0,0E0,0E0,0E0,0E0,0E0],"parents":[2147483647,0,0,1,1,2,2,3,3,4,4,5,5,6,6,9,9,11,11,12,12,13,13,14,14],"right_children":[2,4,6,8,10,12,14,-1,-1,16,-1,18,20,22,24,-1,-1,-1,-1,-1,-1,-1,-1,-1,-1],"split_conditions":[6E-1,4E-1,1.3333334E0,7E0,1.4E1,9.166667E-1,1.2E1,-0E0,-6.2495572E-3,1.3E1,-3.1608962E-3,2.4E0,2.4E1,1.4E0,1.3E1,6.1187994E-2,-0E0,3.754775E-2,-3.5010017E-3,-4.5884037E-3,-2.1311497E-2,1.9650605E-2,-2.432918E-3,-3.0754309E-3,3.0847514E-2],"split_indices":[8,8,10,2,0,8,4,0,0,1,0,7,0,10,0,0,0,0,0,0,0,0,0,0,0],"split_type":[0,0,0,0,0,0,0,0,0,0,0,0,0,0,0,0,0,0,0,0,0,0,0,0,0],"sum_hessian":[5.28E2,1.2E1,5.16E2,3E0,9E0,9.9E1,4.17E2,1E0,2E0,8E0,1E0,1.6E1,8.3E1,3.72E2,4.5E1,5E0,3E0,5E0,1.1E1,5.1E1,3.2E1,1.4E1,3.58E2,1.3E1,3.2E1],"tree_param":{"num_deleted":"0","num_feature":"14","num_nodes":"25","size_leaf_vector":"1"}},{"base_weights":[1.7143603E-2,1.6445059E-1,-3.1124057E-2,-4.6682946E-2,2.9582575E-1,-2.2029094E-1,3.772652E-2,6.184055E-1,-1.7675194E-1,-1.857278E-1,3.8807717E-1,-3.3301562E-1,1.4025204E-1,-1.844333E-1,1.6707014E-1,3.4696132E-2,-0E0,2.063292E-2,-1.44746825E-2,-2.614261E-2,1.3270639E-2,4.9961763E-3,2.795647E-2,5.035751E-3,-2.2696523E-2,-2.380008E-2,2.9013468E-2,-6.7282276E-4,-1.600424E-2,1.1785633E-2,-1.4369014E-2],"categories":[],"categories_nodes":[],"categories_segments":[],"categories_sizes":[],"default_left":[0,0,0,0,0,0,0,0,0,0,0,0,0,0,0,0,0,0,0,0,0,0,0,0,0,0,0,0,0,0,0],"id":51,"left_children":[1,3,5,7,9,11,13,15,17,19,21,23,25,27,29,-1,-1,-1,-1,-1,-1,-1,-1,-1,-1,-1,-1,-1,-1,-1,-1],"loss_changes":[3.9769373E0,4.111529E0,5.437291E0,4.1774335E0,4.2419896E0,4.794416E0,8.433831E0,2.617457E-1,3.079555E0,2.5188184E0,3.0277748E0,5.010681E0,7.43322E0,2.1068869E0,5.9301276E0,0E0,0E0,0E0,0E0,0E0,0E0,0E0,0E0,0E0,0E0,0E0,0E0,0E0,0E0,0E0,0E0],"parents":[2147483647,0,0,1,1,2,2,3,3,4,4,5,5,6,6,7,7,8,8,9,9,10,10,11,11,12,12,13,13,14,14],"right_children":[2,4,6,8,10,12,14,16,18,20,22,24,26,28,30,-1,-1,-1,-1,-1,-1,-1,-1,-1,-1,-1,-1,-1,-1,-1,-1],"split_conditions":[1.137931E0,8E0,1.3461539E0,8.4375E-1,6.363636E-1,2.2727273E0,1.5294118E0,9E0,3E0,1E0,1.4666667E0,1.125E0,8.5714287E-1,2E0,1.7857143E0,3.4696132E-2,-0E0,2.063292E-2,-1.44746825E-2,-2.614261E-2,1.3270639E-2,4.9961763E-3,2.795647E-2,5.035751E-3,-2.2696523E-2,-2.380008E-2,2.9013468E-2,-6.7282276E-4,-1.600424E-2,1.1785633E-2,-1.4369014E-2],"split_indices":[9,6,9,8,9,7,10,2,6,11,7,7,8,12,8,0,0,0,0,0,0,0,0,0,0,0,0,0,0,0,0],"split_type":[0,0,0,0,0,0,0,0,0,0,0,0,0,0,0,0,0,0,0,0,0,0,0,0,0,0,0,0,0,0,0],"sum_hessian":[5.38E2,1.37E2,4.01E2,5E1,8.7E1,1.1E2,2.91E2,6E0,4.4E1,1.2E1,7.5E1,8.6E1,2.4E1,1.04E2,1.87E2,5E0,1E0,5E0,3.9E1,8E0,4E0,3.1E1,4.4E1,1.7E1,6.9E1,9E0,1.5E1,5E1,5.4E1,1.65E2,2.2E1],"tree_param":{"num_deleted":"0","num_feature":"14","num_nodes":"31","size_leaf_vector":"1"}},{"base_weights":[1.891289E-2,6.644135E-2,-5.074792E-2,3.1797618E-1,2.1145659E-2,-1.821297E-2,-4.8131314E-1,1.05228536E-1,9.37126E-1,2.2857532E-1,-1.7461801E-2,2.3209352E-2,-2.616259E-1,-2.8722057E-2,-0E0,1.8407948E-2,-1.1953761E-2,7.2783515E-2,-0E0,-1.4542176E-2,2.7724614E-2,-1.0737001E-2,1.342453E-3,-2.796252E-3,1.739938E-2,-2.0113481E-2,2.6267914E-2],"categories":[],"categories_nodes":[],"categories_segments":[],"categories_sizes":[],"default_left":[0,0,0,0,0,0,0,0,0,0,0,0,0,0,0,0,0,0,0,0,0,0,0,0,0,0,0],"id":52,"left_children":[1,3,5,7,9,11,13,15,17,19,21,23,25,-1,-1,-1,-1,-1,-1,-1,-1,-1,-1,-1,-1,-1,-1],"loss_changes":[1.7937224E0,3.3821454E0,2.422088E0,4.9348307E0,2.4794543E0,2.2489464E0,5.6903815E-1,3.6559079E0,4.552191E0,8.715994E0,2.2551782E0,4.626193E0,3.791157E0,0E0,0E0,0E0,0E0,0E0,0E0,0E0,0E0,0E0,0E0,0E0,0E0,0E0,0E0],"parents":[2147483647,0,0,1,1,2,2,3,3,4,4,5,5,6,6,7,7,8,8,9,9,10,10,11,11,12,12],"right_children":[2,4,6,8,10,12,14,16,18,20,22,24,26,-1,-1,-1,-1,-1,-1,-1,-1,-1,-1,-1,-1,-1,-1],"split_conditions":[3E0,5E0,1.6E1,5E0,9.166667E-1,1.1E1,9E0,1.9310344E0,6E0,6.666667E-1,9E0,1.875E0,3.5E1,-2.8722057E-2,-0E0,1.8407948E-2,-1.1953761E-2,7.2783515E-2,-0E0,-1.4542176E-2,2.7724614E-2,-1.0737001E-2,1.342453E-3,-2.796252E-3,1.739938E-2,-2.0113481E-2,2.6267914E-2],"split_indices":[12,6,4,11,9,3,3,7,5,9,0,7,0,0,0,0,0,0,0,0,0,0,0,0,0,0,0],"split_type":[0,0,0,0,0,0,0,0,0,0,0,0,0,0,0,0,0,0,0,0,0,0,0,0,0,0,0],"sum_hessian":[5.34E2,3.26E2,2.08E2,4.5E1,2.81E2,1.97E2,1.1E1,3.6E1,9E0,4.7E1,2.34E2,1.66E2,3.1E1,9E0,2E0,2.2E1,1.4E1,5E0,4E0,1.7E1,3E1,4.6E1,1.88E2,1.32E2,3.4E1,2.8E1,3E0],"tree_param":{"num_deleted":"0","num_feature":"14","num_nodes":"27","size_leaf_vector":"1"}},{"base_weights":[3.3474356E-2,4.6248525E-2,-3.5604772E-1,1.2829699E-1,-4.7285394E-3,-5.3821146E-1,-0E0,1.5546027E-1,-2.9267332E-2,1.7048694E-2,-6.09428E-1,-3.131816E-2,-0E0,-1.3737202E-4,5.504412E-3,3.799573E-3,2.123429E-2,-1.239224E-2,3.5679084E-3,-3.312736E-2,-0E0],"categories":[],"categories_nodes":[],"categories_segments":[],"categories_sizes":[],"default_left":[0,0,0,0,0,0,0,0,0,0,0,0,0,0,0,0,0,0,0,0,0],"id":53,"left_children":[1,3,5,7,9,11,13,15,-1,17,19,-1,-1,-1,-1,-1,-1,-1,-1,-1,-1],"loss_changes":[2.3495984E0,2.2847857E0,1.203387E0,3.6902084E0,4.7231774E0,2.932608E-1,5.455627E-2,3.7406187E0,0E0,4.1874895E0,4.056096E-1,0E0,0E0,0E0,0E0,0E0,0E0,0E0,0E0,0E0,0E0],"parents":[2147483647,0,0,1,1,2,2,3,3,4,4,5,5,6,6,7,7,9,9,10,10],"right_children":[2,4,6,8,10,12,14,16,-1,18,20,-1,-1,-1,-1,-1,-1,-1,-1,-1,-1],"split_conditions":[4E0,1.7E1,1E1,2.8E0,2.2333333E0,1E1,5E0,1E1,-2.9267332E-2,2E1,1.2E1,-3.131816E-2,-0E0,-1.3737202E-4,5.504412E-3,3.799573E-3,2.123429E-2,-1.239224E-2,3.5679084E-3,-3.312736E-2,-0E0],"split_indices":[13,0,2,10,9,3,0,6,0,0,1,0,0,0,0,0,0,0,0,0,0],"split_type":[0,0,0,0,0,0,0,0,0,0,0,0,0,0,0,0,0,0,0,0,0],"sum_hessian":[5.28E2,5.15E2,1.3E1,2.04E2,3.11E2,9E0,4E0,1.99E2,5E0,3E2,1.1E1,7E0,2E0,1E0,3E0,1.58E2,4.1E1,4.7E1,2.53E2,1E1,1E0],"tree_param":{"num_deleted":"0","num_feature":"14","num_nodes":"21","size_leaf_vector":"1"}},{"base_weights":[-0E0,2.649223E-1,-1.980444E-2,-1.6026272E-2,3.757217E-1,3.3545028E-3,-2.1651334E-1,5.958996E-1,-1.1743255E-1,-1.1058718E-2,3.91757E-1,-0E0,-4.4213444E-1,-1.4796446E-2,4.144895E-2,-8.699818E-3,-0E0,9.660792E-4,-1.3852154E-2,-2.423562E-3,3.7650045E-2,4.330721E-3,-1.7303659E-2,-0E0,-2.4278307E-2],"categories":[],"categories_nodes":[],"categories_segments":[],"categories_sizes":[],"default_left":[0,0,0,0,0,0,0,0,0,0,0,0,0,0,0,0,0,0,0,0,0,0,0,0,0],"id":54,"left_children":[1,3,5,-1,7,9,11,13,15,17,19,21,23,-1,-1,-1,-1,-1,-1,-1,-1,-1,-1,-1,-1],"loss_changes":[2.8991656E0,2.733228E0,2.5034225E0,0E0,4.3295016E0,2.8867621E0,2.4848094E0,6.2016335E0,1.428107E-1,3.7364051E0,3.701329E0,1.2093188E0,8.319535E-1,0E0,0E0,0E0,0E0,0E0,0E0,0E0,0E0,0E0,0E0,0E0,0E0],"parents":[2147483647,0,0,1,1,2,2,4,4,5,5,6,6,7,7,8,8,9,9,10,10,11,11,12,12],"right_children":[2,4,6,-1,8,