{"learner":{"attributes":{"best_iteration":"21","best_score":"1.12189369829417","scikit_learn":"{\"_estimator_type\": \"regressor\"}"},"feature_names":[],"feature_types":[],"gradient_booster":{"model":{"cats":{"enc":[],"feature_segments":[],"sorted_idx":[]},"gbtree_model_param":{"num_parallel_tree":"1","num_trees":"52"},"iteration_indptr":[0,1,2,3,4,5,6,7,8,9,10,11,12,13,14,15,16,17,18,19,20,21,22,23,24,25,26,27,28,29,30,31,32,33,34,35,36,37,38,39,40,41,42,43,44,45,46,47,48,49,50,51,52],"tree_info":[0,0,0,0,0,0,0,0,0,0,0,0,0,0,0,0,0,0,0,0,0,0,0,0,0,0,0,0,0,0,0,0,0,0,0,0,0,0,0,0,0,0,0,0,0,0,0,0,0,0,0,0],"trees":[{"base_weights":[3.7342936E-2,1.17064655E-1,-3.749724E-1,-0E0,2.487631E-1,-3.76172E-2,-0E0,6.405489E-2,-2.4003617E-1,2.8880635E-1,-0E0,-0E0,1.7218448E-2,-0E0,-2.3380112E-2,3.304648E-1,-0E0,-1.7368646E-1,1.2806936E-1,2.4496714E-2,-0E0,-0E0,-2.4179159E-2,1.4085555E-2,-0E0],"categories":[],"categories_nodes":[],"categories_segments":[],"categories_sizes":[],"default_left":[0,0,0,0,0,0,0,0,0,0,0,0,0,0,0,0,0,0,0,0,0,0,0,0,0],"id":0,"left_children":[1,3,5,7,9,-1,-1,11,13,15,-1,17,-1,-1,-1,19,-1,21,23,-1,-1,-1,-1,-1,-1],"loss_changes":[1.2575496E1,5.651114E0,3.2337923E0,3.0549474E0,1.8042812E0,0E0,0E0,2.085044E0,7.977948E-1,2.0676327E0,0E0,2.5127263E0,0E0,0E0,0E0,8.0065155E-1,0E0,2.174795E0,8.6569715E-1,0E0,0E0,0E0,0E0,0E0,0E0],"parents":[2147483647,0,0,1,1,2,2,3,3,4,4,7,7,8,8,9,9,11,11,15,15,17,17,18,18],"right_children":[2,4,6,8,10,-1,-1,12,14,16,-1,18,-1,-1,-1,20,-1,22,24,-1,-1,-1,-1,-1,-1],"split_conditions":[1.7E1,1.5283584E3,2E0,2E0,1.3E1,-3.76172E-2,-0E0,2E0,1E0,1.5894221E3,-0E0,1.5E1,1.7218448E-2,-0E0,-2.3380112E-2,1.6374889E3,-0E0,7E0,7E0,2.4496714E-2,-0E0,-0E0,-2.4179159E-2,1.4085555E-2,-0E0],"split_indices":[28,25,22,23,0,0,0,15,22,26,0,29,0,0,0,25,0,29,0,0,0,0,0,0,0],"split_type":[0,0,0,0,0,0,0,0,0,0,0,0,0,0,0,0,0,0,0,0,0,0,0,0,0],"sum_hessian":[4.055821E2,3.4922455E2,5.635756E1,1.8276398E2,1.6646057E2,3.392772E1,2.2429842E1,1.4294212E2,3.982185E1,1.4440485E2,2.2055717E1,1.0503276E2,3.7909363E1,1.5845541E1,2.3976309E1,1.2855931E2,1.5845541E1,4.785267E1,5.718009E1,1.1078508E2,1.7774235E1,2.2163769E1,2.5688902E1,3.9139782E1,1.8040308E1],"tree_param":{"num_deleted":"0","num_feature":"31","num_nodes":"25","size_leaf_vector":"1"}},{"base_weights":[1.2639033E-2,-1.5407513E-1,1.9339095E-1,-0E0,-3.2171786E-1,-0E0,2.053637E-2,8.2854845E-2,-1.6864115E-2,-4.2889473E-1,-0E0,-0E0,1.0516739E-2,-5.1738435E-1,-0E0,-0E0,-4.413452E-2],"categories":[],"categories_nodes":[],"categories_segments":[],"categories_sizes":[],"default_left":[0,0,0,0,0,0,0,0,0,0,0,0,0,0,0,0,0],"id":1,"left_children":[1,3,5,7,9,-1,-1,11,-1,13,-1,-1,-1,15,-1,-1,-1],"loss_changes":[1.1709484E1,5.264017E0,4.2428718E0,1.8870459E0,3.7543306E0,0E0,0E0,7.6924354E-1,0E0,1.5619841E0,0E0,0E0,0E0,2.4445238E0,0E0,0E0,0E0],"parents":[2147483647,0,0,1,1,2,2,3,3,4,4,7,7,9,9,13,13],"right_children":[2,4,6,8,10,-1,-1,12,-1,14,-1,-1,-1,16,-1,-1,-1],"split_conditions":[1.5086862E3,1.4955094E3,7E0,1.4927842E3,9E0,-0E0,2.053637E-2,9E0,-1.6864115E-2,2E0,-0E0,-0E0,1.0516739E-2,5E0,-0E0,-0E0,-4.413452E-2],"split_indices":[25,26,5,25,2,0,0,5,0,22,0,0,0,5,0,0,0],"split_type":[0,0,0,0,0,0,0,0,0,0,0,0,0,0,0,0,0],"sum_hessian":[3.7805386E2,1.8602664E2,1.9202722E2,9.4673805E1,9.135284E1,7.180857E1,1.2021865E2,7.6218185E1,1.8455622E1,7.057729E1,2.0775543E1,2.5658989E1,5.0559196E1,5.3452934E1,1.7124357E1,1.5821428E1,3.7631504E1],"tree_param":{"num_deleted":"0","num_feature":"31","num_nodes":"17","size_leaf_vector":"1"}},{"base_weights":[-3.5573885E-2,-1.4731961E-1,9.985435E-2,-2.0862065E-2,6.119625E-2,-0E0,1.502573E-1,-0E0,1.0307621E-2,2.3082474E-1,-0E0,2.0520752E-2,-0E0],"categories":[],"categories_nodes":[],"categories_segments":[],"categories_sizes":[],"default_left":[0,0,0,0,0,0,0,0,0,0,0,0,0],"id":2,"left_children":[1,3,5,-1,7,-1,9,-1,-1,11,-1,-1,-1],"loss_changes":[5.7072935E0,8.334202E0,1.2248887E0,0E0,6.255213E-1,0E0,1.5068002E0,0E0,0E0,1.4405894E0,0E0,0E0,0E0],"parents":[2147483647,0,0,1,1,2,2,4,4,6,6,9,9],"right_children":[2,4,6,-1,8,-1,10,-1,-1,12,-1,-1,-1],"split_conditions":[9E0,1.5E1,8E0,-2.0862065E-2,1.05E0,-0E0,1.2E1,-0E0,1.0307621E-2,3E0,-0E0,2.0520752E-2,-0E0],"split_indices":[2,29,0,0,8,0,0,0,0,15,0,0,0],"split_type":[0,0,0,0,0,0,0,0,0,0,0,0,0],"sum_hessian":[3.597407E2,2.1222603E2,1.4751466E2,1.2825897E2,8.396705E1,2.9688236E1,1.1782643E2,4.6523792E1,3.7443256E1,7.658457E1,4.124185E1,5.779045E1,1.8794125E1],"tree_param":{"num_deleted":"0","num_feature":"31","num_nodes":"13","size_leaf_vector":"1"}},{"base_weights":[-1.2887255E-2,-5.8105123E-1,5.252029E-2,-6.884667E-2,-5.346198E-3,-4.6754345E-2,2.2002646E-1,7.2818706E-3,-1.6979994E-1,2.4945872E-1,-0E0,-6.544902E-2,1.05257854E-1,-2.6748517E-1,-0E0,1.9054024E-2,-0E0,-1.5891578E-2,-0E0,1.1417919E-2,-0E0,-3.0967968E-2,-0E0],"categories":[],"categories_nodes":[],"categories_segments":[],"categories_sizes":[],"default_left":[0,0,0,0,0,0,0,0,0,0,0,0,0,0,0,0,0,0,0,0,0,0,0],"id":3,"left_children":[1,3,5,-1,-1,7,9,11,13,15,-1,17,19,21,-1,-1,-1,-1,-1,-1,-1,-1,-1],"loss_changes":[1.5728394E1,5.4428234E0,6.103574E0,0E0,0E0,1.8988163E0,4.838295E-1,9.92088E-1,1.3881338E0,7.046108E-1,0E0,1.2726424E0,7.5392145E-1,3.168813E0,0E0,0E0,0E0,0E0,0E0,0E0,0E0,0E0,0E0],"parents":[2147483647,0,0,1,1,2,2,5,5,6,6,7,7,8,8,9,9,11,11,12,12,13,13],"right_children":[2,4,6,-1,-1,8,10,12,14,16,-1,18,20,22,-1,-1,-1,-1,-1,-1,-1,-1,-1],"split_conditions":[-8.7626884E1,1E0,4.972688E1,-6.884667E-2,-5.346198E-3,-9.055958E0,5E0,1E0,1.5047294E3,1.510272E3,-0E0,-3.70358E1,2E0,2E0,-0E0,1.9054024E-2,-0E0,-1.5891578E-2,-0E0,1.1417919E-2,-0E0,-3.0967968E-2,-0E0],"split_indices":[27,17,27,0,0,27,13,17,26,26,0,27,16,17,0,0,0,0,0,0,0,0,0],"split_type":[0,0,0,0,0,0,0,0,0,0,0,0,0,0,0,0,0,0,0,0,0,0,0],"sum_hessian":[3.644659E2,4.128371E1,3.2318222E2,1.6318724E1,2.4964987E1,1.9005959E2,1.3312263E2,1.12609886E2,7.744969E1,1.1071178E2,2.2410856E1,4.3077038E1,6.953285E1,4.892813E1,2.8521564E1,9.349214E1,1.7219635E1,2.336304E1,1.9713999E1,5.0878277E1,1.8654575E1,2.9425594E1,1.9502537E1],"tree_param":{"num_deleted":"0","num_feature":"31","num_nodes":"23","size_leaf_vector":"1"}},{"base_weights":[1.2508111E-2,1.1349978E-1,-2.1217085E-1,1.6824023E-1,-1.1484512E-2,-2.960691E-2,-0E0,2.7657956E-1,2.5673632E-2,7.412228E-3,-8.649006E-3,-0E0,2.1809084E-2,-0E0,1.4952432E-2,9.8469205E-2,-2.1435596E-1,-0E0,1.2499521E-2,-0E0,-2.507836E-2],"categories":[],"categories_nodes":[],"categories_segments":[],"categories_sizes":[],"default_left":[0,0,0,0,0,0,0,0,0,0,0,0,0,0,0,0,0,0,0,0,0],"id":4,"left_children":[1,3,5,7,-1,-1,9,11,13,-1,-1,-1,-1,15,-1,17,19,-1,-1,-1,-1],"loss_changes":[8.092039E0,4.257542E0,5.3008337E0,2.5145926E0,0E0,0E0,8.234843E-1,8.6962223E-1,1.356523E0,0E0,0E0,0E0,0E0,2.4470284E0,0E0,6.541837E-1,1.2712523E0,0E0,0E0,0E0,0E0],"parents":[2147483647,0,0,1,1,2,2,3,3,6,6,7,7,8,8,13,13,15,15,16,16],"right_children":[2,4,6,8,-1,-1,10,12,14,-1,-1,-1,-1,16,-1,18,20,-1,-1,-1,-1],"split_conditions":[1.4E1,1.5686698E3,1.2E1,1E0,-1.1484512E-2,-2.960691E-2,1.8E1,1.5142857E0,1.7E1,7.412228E-3,-8.649006E-3,-0E0,2.1809084E-2,1.1E1,1.4952432E-2,4E0,6E0,-0E0,1.2499521E-2,-0E0,-2.507836E-2],"split_indices":[28,26,29,10,0,0,28,6,29,0,0,0,0,29,0,10,1,0,0,0,0],"split_type":[0,0,0,0,0,0,0,0,0,0,0,0,0,0,0,0,0,0,0,0,0],"sum_hessian":[3.6721097E2,2.658799E2,1.01331055E2,2.3507912E2,3.080079E1,4.8466877E1,5.2864178E1,1.17037285E2,1.18041824E2,3.0926249E1,2.1937927E1,2.4876392E1,9.21609E1,9.1951904E1,2.6089916E1,5.3373528E1,3.857838E1,2.1654829E1,3.1718699E1,1.868974E1,1.9888641E1],"tree_param":{"num_deleted":"0","num_feature":"31","num_nodes":"21","size_leaf_vector":"1"}},{"base_weights":[-2.2450626E-2,-1.8677348E-1,2.670465E-1,-1.05293326E-1,-4.7831476E-2,2.0592608E-2,-0E0,-2.1853504E-1,2.2491544E-2,-2.635026E-1,-0E0,-0E0,6.3609565E-3,-2.4965325E-2,-4.143175E-1,-1.3911776E-1,1.0311495E-3,-3.6014605E-2,-1.2586212E-3,-1.725303E-2,-0E0],"categories":[],"categories_nodes":[],"categories_segments":[],"categories_sizes":[],"default_left":[0,0,0,0,0,0,0,0,0,0,0,0,0,0,0,0,0,0,0,0,0],"id":5,"left_children":[1,3,5,7,-1,-1,-1,9,11,13,-1,-1,-1,15,17,19,-1,-1,-1,-1,-1],"loss_changes":[1.6533066E1,6.728924E0,8.588753E-1,3.8210301E0,0E0,0E0,0E0,1.6483688E0,4.5860505E-1,2.3431435E0,0E0,0E0,0E0,7.308634E-1,7.2357845E-1,8.093666E-1,0E0,0E0,0E0,0E0,0E0],"parents":[2147483647,0,0,1,1,2,2,3,3,7,7,8,8,9,9,13,13,14,14,15,15],"right_children":[2,4,6,8,-1,-1,-1,10,12,14,-1,-1,-1,16,18,20,-1,-1,-1,-1,-1],"split_conditions":[2.2592592E0,1.9E1,2.6875E0,1.882353E0,-4.7831476E-2,2.0592608E-2,-0E0,2.0714285E0,8E0,2E0,-0E0,-0E0,6.3609565E-3,1E0,2E0,2E0,1.0311495E-3,-3.6014605E-2,-1.2586212E-3,-1.725303E-2,-0E0],"split_indices":[6,28,6,9,0,0,0,6,4,11,0,0,0,11,16,30,0,0,0,0,0],"split_type":[0,0,0,0,0,0,0,0,0,0,0,0,0,0,0,0,0,0,0,0,0],"sum_hessian":[3.481331E2,2.310264E2,1.17106705E2,2.0918636E2,2.184003E1,9.706036E1,2.0046347E1,1.25489105E2,8.369726E1,1.0917343E2,1.6315676E1,3.063989E1,5.3057365E1,5.324697E1,5.592646E1,3.651071E1,1.673626E1,3.4651333E1,2.1275127E1,2.09256E1,1.5585112E1],"tree_param":{"num_deleted":"0","num_feature":"31","num_nodes":"21","size_leaf_vector":"1"}},{"base_weights":[-1.36090405E-2,-2.009866E-1,1.510984E-1,-2.51704E-1,-0E0,-7.038785E-2,2.4535713E-1,-5.7560347E-2,-4.22501E-1,5.222082E-4,-1.8403513E-2,-0E0,2.9949883E-1,-2.1953367E-2,4.5500588E-2,-1.5128682E-3,-5.610418E-1,2.303416E-2,-0E0,1.2591083E-2,-0E0,-5.540779E-2,-6.6549806E-3],"categories":[],"categories_nodes":[],"categories_segments":[],"categories_sizes":[],"default_left":[0,0,0,0,0,0,0,0,0,0,0,0,0,0,0,0,0,0,0,0,0,0,0],"id":6,"left_children":[1,3,5,7,-1,9,11,13,15,-1,-1,-1,17,-1,19,-1,21,-1,-1,-1,-1,-1,-1],"loss_changes":[1.2120266E1,2.2621036E0,4.7833176E0,3.3535004E0,0E0,1.7846674E0,2.9308014E0,3.5351086E0,1.817688E0,0E0,0E0,0E0,1.9651365E0,0E0,9.462125E-1,0E0,2.0571785E0,0E0,0E0,0E0,0E0,0E0,0E0],"parents":[2147483647,0,0,1,1,2,2,3,3,5,5,6,6,7,7,8,8,12,12,14,14,16,16],"right_children":[2,4,6,8,-1,10,12,14,16,-1,-1,-1,18,-1,20,-1,22,-1,-1,-1,-1,-1,-1],"split_conditions":[1.7142857E0,1.1E1,1E0,1E0,-0E0,1.0833334E0,1.4843933E3,1.65E0,1.125E0,5.222082E-4,-1.8403513E-2,-0E0,2.5333333E0,-2.1953367E-2,1.4705882E0,-1.5128682E-3,1.5714285E0,2.303416E-2,-0E0,1.2591083E-2,-0E0,-5.540779E-2,-6.6549806E-3],"split_indices":[6,5,24,24,0,7,25,9,8,0,0,0,6,0,7,0,8,0,0,0,0,0,0],"split_type":[0,0,0,0,0,0,0,0,0,0,0,0,0,0,0,0,0,0,0,0,0,0,0],"sum_hessian":[3.8102847E2,1.8866797E2,1.9236049E2,1.5497975E2,3.368823E1,4.5694252E1,1.4666624E2,8.463063E1,7.034911E1,2.1625452E1,2.4068798E1,1.6487743E1,1.301785E2,3.1821163E1,5.2809467E1,2.5945969E1,4.4403145E1,1.15040375E2,1.5138122E1,2.7310375E1,2.5499094E1,2.1616457E1,2.278669E1],"tree_param":{"num_deleted":"0","num_feature":"31","num_nodes":"23","size_leaf_vector":"1"}},{"base_weights":[-0E0,1.06258556E-1,-1.4320496E-1,1.27233025E-2,-3.8328476E-2,1.50955E-2,-2.5819376E-1,-0E0,-1.1590179E-2,-0E0,1.0162739E-2,-1.0363404E-1,-4.6755078E-1,-2.5835564E-2,3.518113E-2,-4.5672583E-5,-4.5506254E-2,1.2118341E-2,-9.2336275E-5],"categories":[],"categories_nodes":[],"categories_segments":[],"categories_sizes":[],"default_left":[0,0,0,0,0,0,0,0,0,0,0,0,0,0,0,0,0,0,0],"id":7,"left_children":[1,3,5,-1,7,9,11,-1,-1,-1,-1,13,15,-1,17,-1,-1,-1,-1],"loss_changes":[5.696531E0,3.06027E0,3.9320228E0,0E0,7.9485714E-1,6.609606E-1,1.254324E0,0E0,0E0,0E0,0E0,4.3670225E0,9.180813E-1,0E0,9.170382E-1,0E0,0E0,0E0,0E0],"parents":[2147483647,0,0,1,1,2,2,4,4,5,5,6,6,11,11,12,12,14,14],"right_children":[2,4,6,-1,8,10,12,-1,-1,-1,-1,14,16,-1,18,-1,-1,-1,-1],"split_conditions":[1.2E1,2E0,6E0,1.27233025E-2,1.4166666E0,3E0,1.7352941E0,-0E0,-1.1590179E-2,-0E0,1.0162739E-2,1.34375E0,2E0,-2.5835564E-2,9E0,-4.5672583E-5,-4.5506254E-2,1.2118341E-2,-9.2336275E-5],"split_indices":[28,23,3,0,8,13,8,0,0,0,0,8,11,0,1,0,0,0,0],"split_type":[0,0,0,0,0,0,0,0,0,0,0,0,0,0,0,0,0,0,0],"sum_hessian":[3.6416016E2,2.0193593E2,1.6222423E2,1.4404935E2,5.7886585E1,5.548843E1,1.067358E2,3.1088945E1,2.6797638E1,2.892806E1,2.6560368E1,7.4191696E1,3.2544106E1,3.1824402E1,4.2367294E1,1.6567837E1,1.5976269E1,2.6996416E1,1.5370878E1],"tree_param":{"num_deleted":"0","num_feature":"31","num_nodes":"19","size_leaf_vector":"1"}},{"base_weights":[-2.117E-2,-3.4101665E-2,3.1387035E-2,-2.4409745E-2,2.2376038E-1,3.5792608E-2,-1.3866438E-1,-0E0,2.0989284E-2,-5.1137437E-3,1.4533944E-1,-2.3873818E-1,-0E0,1.1852639E-3,-1.2433376E-1,1.613303E-2,-0E0,-0E0,-2.7957385E-2,-0E0,-2.0043021E-2],"categories":[],"categories_nodes":[],"categories_segments":[],"categories_sizes":[],"default_left":[0,0,0,0,0,0,0,0,0,0,0,0,0,0,0,0,0,0,0,0,0],"id":8,"left_children":[1,-1,3,5,7,9,11,-1,-1,13,15,17,-1,-1,19,-1,-1,-1,-1,-1,-1],"loss_changes":[1.0700188E1,0E0,4.0720277E0,1.9565479E0,1.6926136E0,1.1073886E0,2.0814753E0,0E0,0E0,6.02175E-1,1.1445872E0,3.8760824E0,0E0,0E0,1.3004539E0,0E0,0E0,0E0,0E0,0E0,0E0],"parents":[2147483647,0,0,2,2,3,3,4,4,5,5,6,6,9,9,10,10,11,11,14,14],"right_children":[2,-1,4,6,8,10,12,-1,-1,14,16,18,-1,-1,20,-1,-1,-1,-1,-1,-1],"split_conditions":[-8.592948E1,-3.4101665E-2,9.073723E1,1E0,9E0,9E0,2E0,-0E0,2.0989284E-2,1E0,3.2876286E1,1E0,-0E0,1.1852639E-3,1E0,1.613303E-2,-0E0,-0E0,-2.7957385E-2,-0E0,-2.0043021E-2],"split_indices":[27,0,27,10,0,2,21,0,0,21,27,23,0,0,22,0,0,0,0,0,0],"split_type":[0,0,0,0,0,0,0,0,0,0,0,0,0,0,0,0,0,0,0,0,0],"sum_hessian":[3.430856E2,3.8015392E1,3.0507022E2,2.2319257E2,8.1877655E1,1.2582346E2,9.73691E1,2.4085995E1,5.779166E1,6.850493E1,5.7318535E1,6.749926E1,2.986984E1,3.2973225E1,3.5531704E1,3.893682E1,1.8381714E1,2.492421E1,4.257505E1,1.714076E1,1.8390945E1],"tree_param":{"num_deleted":"0","num_feature":"31","num_nodes":"21","size_leaf_vector":"1"}},{"base_weights":[2.0529037E-2,-1.4579688E-1,1.9349277E-1,-4.1079652E-1,-8.514325E-3,-0E0,2.3050812E-1,-4.237764E-2,-0E0,7.947219E-3,-7.06132E-2,1.8711563E-2,-0E0,-1.793598E-2,-0E0],"categories":[],"categories_nodes":[],"categories_segments":[],"categories_sizes":[],"default_left":[0,0,0,0,0,0,0,0,0,0,0,0,0,0,0],"id":9,"left_children":[1,3,5,7,9,-1,11,-1,-1,-1,13,-1,-1,-1,-1],"loss_changes":[1.1360096E1,5.2191095E0,2.1204119E0,6.445877E0,9.1212887E-1,0E0,2.5003595E0,0E0,0E0,0E0,1.7003238E0,0E0,0E0,0E0,0E0],"parents":[2147483647,0,0,1,1,2,2,3,3,4,4,6,6,10,10],"right_children":[2,4,6,8,10,-1,12,-1,-1,-1,14,-1,-1,-1,-1],"split_conditions":[1.5086862E3,1.6206896E0,8.7096775E-1,1E0,1.68E0,-0E0,1.5686698E3,-4.237764E-2,-0E0,7.947219E-3,1.9E0,1.8711563E-2,-0E0,-1.793598E-2,-0E0],"split_indices":[25,9,8,14,9,0,26,0,0,0,9,0,0,0,0],"split_type":[0,0,0,0,0,0,0,0,0,0,0,0,0,0,0],"sum_hessian":[3.8304492E2,1.8438007E2,1.9866484E2,5.1629826E1,1.3275024E2,1.9606884E1,1.7905795E2,3.6360107E1,1.5269721E1,2.281328E1,1.0993696E2,1.5353737E2,2.552059E1,2.8832455E1,8.110451E1],"tree_param":{"num_deleted":"0","num_feature":"31","num_nodes":"15","size_leaf_vector":"1"}},{"base_weights":[-0E0,4.6664454E-2,-3.3408992E-2,1.7654039E-1,-1.4594563E-2,1.3726904E-2,-0E0,-0E0,-2.3673512E-2,6.997079E-2,-8.6008176E-2,-0E0,1.4104977E-1,-2.0473924E-1,-0E0,-0E0,2.0513144E-1,-2.6620116E-2,-0E0,-0E0,1.9080108E-2],"categories":[],"categories_nodes":[],"categories_segments":[],"categories_sizes":[],"default_left":[0,0,0,0,0,0,0,0,0,0,0,0,0,0,0,0,0,0,0,0,0],"id":10,"left_children":[1,3,-1,5,7,-1,-1,9,-1,11,13,-1,15,17,-1,-1,19,-1,-1,-1,-1],"loss_changes":[9.410134E0,3.5147564E0,0E0,5.1525736E-1,2.226154E0,0E0,0E0,1.2602898E0,0E0,1.1460886E0,1.3517308E0,0E0,9.080658E-1,2.361558E0,0E0,0E0,5.618801E-1,0E0,0E0,0E0,0E0],"parents":[2147483647,0,0,1,1,3,3,4,4,7,7,9,9,10,10,12,12,13,13,16,16],"right_children":[2,4,-1,6,8,-1,-1,10,-1,12,14,-1,16,18,-1,-1,20,-1,-1,-1,-1],"split_conditions":[1.9285715E0,1E0,-3.3408992E-2,1E1,1.6095728E3,1.3726904E-2,-0E0,1.4230769E0,-2.3673512E-2,1.027027E0,8E0,-0E0,1.4850732E3,1.5079587E3,-0E0,-0E0,9E0,-2.6620116E-2,-0E0,-0E0,1.9080108E-2],"split_indices":[7,23,0,4,26,0,0,7,0,7,2,0,26,26,0,0,2,0,0,0,0],"split_type":[0,0,0,0,0,0,0,0,0,0,0,0,0,0,0,0,0,0,0,0,0],"sum_hessian":[3.9320013E2,3.6127432E2,3.1925816E1,1.3381906E2,2.2745525E2,1.1119804E2,2.2621027E1,2.1200441E2,1.5450841E1,1.3697972E2,7.502468E1,4.7789703E1,8.9190025E1,4.3164753E1,3.1859928E1,2.692708E1,6.2262943E1,2.4420162E1,1.8744593E1,2.428176E1,3.7981186E1],"tree_param":{"num_deleted":"0","num_feature":"31","num_nodes":"21","size_leaf_vector":"1"}},{"base_weights":[4.2258375E-3,1.00599885E-1,-1.23089954E-1,-0E0,1.548926E-1,-0E0,-1.9440795E-1,-0E0,2.056753E-1,-2.9913275E-2,-8.330788E-2,1.7676618E-2,-0E0,-1.8039003E-2,-0E0],"categories":[],"categories_nodes":[],"categories_segments":[],"categories_sizes":[],"default_left":[0,0,0,0,0,0,0,0,0,0,0,0,0,0,0],"id":11,"left_children":[1,3,5,-1,7,-1,9,-1,11,-1,13,-1,-1,-1,-1],"loss_changes":[4.63857E0,1.3864641E0,1.8803115E0,0E0,1.1353657E0,0E0,9.589381E-1,0E0,6.0391855E-1,0E0,2.1301448E0,0E0,0E0,0E0,0E0],"parents":[2147483647,0,0,1,1,2,2,4,4,6,6,8,8,10,10],"right_children":[2,4,6,-1,8,-1,10,-1,12,-1,14,-1,-1,-1,-1],"split_conditions":[2E0,3E0,1.0833334E0,-0E0,1E0,-0E0,5E0,-0E0,9E0,-2.9913275E-2,1.4117647E0,1.7676618E-2,-0E0,-1.8039003E-2,-0E0],"split_indices":[11,13,7,0,24,0,5,0,28,0,8,0,0,0,0],"split_type":[0,0,0,0,0,0,0,0,0,0,0,0,0,0,0],"sum_hessian":[3.792909E2,2.3307396E2,1.4621695E2,7.859808E1,1.5447586E2,3.9539352E1,1.0667759E2,4.124619E1,1.13229675E2,1.968239E1,8.69952E1,7.658541E1,3.6644268E1,3.5261517E1,5.173369E1],"tree_param":{"num_deleted":"0","num_feature":"31","num_nodes":"15","size_leaf_vector":"1"}},{"base_weights":[-5.3801354E-2,-3.7227872E-1,2.2135181E-2,-3.557269E-2,-0E0,-2.785269E-2,9.818099E-2,-2.1737635E-2,5.8504336E-2,2.109485E-1,-7.715402E-3,-1.3635942E-3,1.8468331E-1,1.8477766E-2,-0E0,-0E0,1.7205268E-2],"categories":[],"categories_nodes":[],"categories_segments":[],"categories_sizes":[],"default_left":[0,0,0,0,0,0,0,0,0,0,0,0,0,0,0,0,0],"id":12,"left_children":[1,3,5,-1,-1,7,9,-1,11,13,-1,-1,15,-1,-1,-1,-1],"loss_changes":[9.535589E0,4.3783264E0,1.2864339E0,0E0,0E0,4.4602175E0,3.7067738E0,0E0,1.5814813E0,1.7093801E0,0E0,0E0,5.3720903E-1,0E0,0E0,0E0,0E0],"parents":[2147483647,0,0,1,1,2,2,5,5,6,6,8,8,9,9,12,12],"right_children":[2,4,6,-1,-1,8,10,-1,12,14,-1,-1,16,-1,-1,-1,-1],"split_conditions":[-5E0,1E0,1.4E1,-3.557269E-2,-0E0,1.7142857E0,2.0285714E0,-2.1737635E-2,5E0,1.8E1,-7.715402E-3,-1.3635942E-3,1E0,1.8477766E-2,-0E0,-0E0,1.7205268E-2],"split_indices":[30,14,29,0,0,6,6,0,28,28,0,0,11,0,0,0,0],"split_type":[0,0,0,0,0,0,0,0,0,0,0,0,0,0,0,0,0],"sum_hessian":[3.359111E2,7.211615E1,2.6379495E2,4.968735E1,2.2428797E1,1.3032352E2,1.3347144E2,3.7527164E1,9.279636E1,9.888506E1,3.4586376E1,4.0174572E1,5.2621788E1,7.9367065E1,1.9518E1,1.8525415E1,3.409637E1],"tree_param":{"num_deleted":"0","num_feature":"31","num_nodes":"17","size_leaf_vector":"1"}},{"base_weights":[1.9447424E-2,1.8793887E-1,-6.3591905E-2,-0E0,2.4707133E-1,-1.5917669E-1,1.0825581E-1,1.9575424E-2,-0E0,-3.76835E-1,-0E0,2.1898432E-1,-0E0,-3.140018E-2,-0E0,8.6003415E-2,-9.753261E-2,-0E0,2.1583797E-2,1.707362E-2,-0E0,-1.610625E-2,-0E0],"categories":[],"categories_nodes":[],"categories_segments":[],"categories_sizes":[],"default_left":[0,0,0,0,0,0,0,0,0,0,0,0,0,0,0,0,0,0,0,0,0,0,0],"id":13,"left_children":[1,3,5,-1,7,9,11,-1,-1,13,15,17,-1,-1,-1,19,21,-1,-1,-1,-1,-1,-1],"loss_changes":[5.4488378E0,2.3835902E0,3.9187648E0,0E0,7.5604963E-1,4.1836944E0,1.3834641E0,0E0,0E0,7.489319E-1,9.3750167E-1,8.7342334E-1,0E0,0E0,0E0,9.584869E-1,1.6802095E0,0E0,0E0,0E0,0E0,0E0,0E0],"parents":[2147483647,0,0,1,1,2,2,4,4,5,5,6,6,9,9,10,10,11,11,15,15,16,16],"right_children":[2,4,6,-1,8,10,12,-1,-1,14,16,18,-1,-1,-1,20,22,-1,-1,-1,-1,-1,-1],"split_conditions":[1E0,4E0,1E1,-0E0,1E1,-5E0,2.3947368E0,1.9575424E-2,-0E0,6E0,1E1,1.3793104E0,-0E0,-3.140018E-2,-0E0,1.375E0,1.6E1,-0E0,2.1583797E-2,1.707362E-2,-0E0,-1.610625E-2,-0E0],"split_indices":[23,0,0,0,4,30,6,0,0,0,29,8,0,0,0,8,29,0,0,0,0,0,0],"split_type":[0,0,0,0,0,0,0,0,0,0,0,0,0,0,0,0,0,0,0,0,0,0,0],"sum_hessian":[3.506972E2,1.2959497E2,2.2110225E2,1.6750746E1,1.1284422E2,1.5631184E2,6.47904E1,8.898221E1,2.3862013E1,5.5035233E1,1.0127662E2,4.255314E1,2.2237257E1,3.809878E1,1.693645E1,3.4772285E1,6.650433E1,1.5915779E1,2.663736E1,1.6270596E1,1.8501692E1,3.777022E1,2.8734108E1],"tree_param":{"num_deleted":"0","num_feature":"31","num_nodes":"23","size_leaf_vector":"1"}},{"base_weights":[-4.105825E-2,-4.915265E-2,-0E0,7.6333165E-2,-1.2990862E-1,-1.1028132E-2,1.3786407E-1,-0E0,-3.453725E-1,-8.475642E-3,-0E0,1.775785E-1,-0E0,5.4074086E-2,-8.466146E-3,-0E0,-4.086622E-2,-0E0,1.3823705E-2,9.69731E-3,-0E0],"categories":[],"categories_nodes":[],"categories_segments":[],"categories_sizes":[],"default_left":[0,0,0,0,0,0,0,0,0,0,0,0,0,0,0,0,0,0,0,0,0],"id":14,"left_children":[1,-1,3,5,7,9,11,13,15,-1,-1,17,-1,19,-1,-1,-1,-1,-1,-1,-1],"loss_changes":[9.394878E0,0E0,3.1243987E0,1.5535066E0,3.5164833E0,4.7008502E-1,1.278728E0,4.647352E-1,2.993751E0,0E0,0E0,6.2484145E-1,0E0,6.382135E-1,0E0,0E0,0E0,0E0,0E0,0E0,0E0],"parents":[2147483647,0,0,2,2,3,3,4,4,5,5,6,6,7,7,8,8,11,11,13,13],"right_children":[2,-1,4,6,8,10,12,14,16,-1,-1,18,-1,20,-1,-1,-1,-1,-1,-1,-1],"split_conditions":[1.4257705E3,-4.915265E-2,2E0,1.2E0,1.2E1,1.882353E0,2.2727273E0,1.3E1,1E0,-8.475642E-3,-0E0,5E0,-0E0,2E0,-8.466146E-3,-0E0,-4.086622E-2,-0E0,1.3823705E-2,9.69731E-3,-0E0],"split_indices":[25,0,11,7,28,9,9,29,10,0,0,29,0,23,0,0,0,0,0,0,0],"split_type":[0,0,0,0,0,0,0,0,0,0,0,0,0,0,0,0,0,0,0,0,0],"sum_hessian":[3.2564603E2,1.57123995E1,3.0993362E2,1.964008E2,1.1353283E2,5.679198E1,1.3960881E2,7.0410225E1,4.31226E1,2.7084557E1,2.9707424E1,1.2357665E2,1.603216E1,5.4589672E1,1.5820555E1,2.3107014E1,2.0015585E1,1.7812626E1,1.0576403E2,3.5757355E1,1.8832317E1],"tree_param":{"num_deleted":"0","num_feature":"31","num_nodes":"21","size_leaf_vector":"1"}},{"base_weights":[-2.4056118E-2,-1.6372019E-1,8.938258E-2,-0E0,-2.8537554E-1,1.625702E-1,-4.290055E-2,-0E0,-4.423713E-1,1.2802812E-2,-0E0,-1.5747217E-2,1.5601029E-3,-4.130589E-2,-0E0],"categories":[],"categories_nodes":[],"categories_segments":[],"categories_sizes":[],"default_left":[0,0,0,0,0,0,0,0,0,0,0,0,0,0,0],"id":15,"left_children":[1,3,5,-1,7,9,11,-1,13,-1,-1,-1,-1,-1,-1],"loss_changes":[6.2462883E0,3.877792E0,2.3421555E0,0E0,4.291665E0,7.36598E-1,1.4820027E0,0E0,5.4610977E0,0E0,0E0,0E0,0E0,0E0,0E0],"parents":[2147483647,0,0,1,1,2,2,4,4,5,5,6,6,8,8],"right_children":[2,4,6,-1,8,10,12,-1,14,-1,-1,-1,-1,-1,-1],"split_conditions":[1.5086862E3,1E0,4E0,-0E0,1.4690819E3,1.3E1,1.2E1,-0E0,1E1,1.2802812E-2,-0E0,-1.5747217E-2,1.5601029E-3,-4.130589E-2,-0E0],"split_indices":[25,24,19,0,26,0,3,0,3,0,0,0,0,0,0],"split_type":[0,0,0,0,0,0,0,0,0,0,0,0,0,0,0],"sum_hessian":[3.711354E2,1.8067987E2,1.9045554E2,7.548794E1,1.0519193E2,1.4055475E2,4.990079E1,4.1130817E1,6.406111E1,1.2144332E2,1.9111425E1,2.5571333E1,2.4329458E1,4.6107845E1,1.7953268E1],"tree_param":{"num_deleted":"0","num_feature":"31","num_nodes":"15","size_leaf_vector":"1"}},{"base_weights":[6.501635E-3,-2.052926E-1,8.9798994E-2,-3.2677747E-2,-0E0,-5.4943245E-2,1.5163462E-1,-1.3847116E-2,-0E0,1.7474382E-1,-0E0,1.505833E-2,2.4518235E-2,9.787465E-3,-0E0],"categories":[],"categories_nodes":[],"categories_segments":[],"categories_sizes":[],"default_left":[0,0,0,0,0,0,0,0,0,0,0,0,0,0,0],"id":16,"left_children":[1,3,5,-1,-1,7,9,-1,-1,11,-1,-1,13,-1,-1],"loss_changes":[6.246609E0,6.5119705E0,2.9342644E0,0E0,0E0,9.4858074E-1,1.1885743E0,0E0,0E0,5.642557E-1,0E0,0E0,4.8907563E-1,0E0,0E0],"parents":[2147483647,0,0,1,1,2,2,5,5,6,6,9,9,12,12],"right_children":[2,4,6,-1,-1,8,10,-1,-1,12,-1,-1,14,-1,-1],"split_conditions":[-4.062736E1,3E0,7E0,-3.2677747E-2,-0E0,2E0,2E0,-1.3847116E-2,-0E0,2E0,-0E0,1.505833E-2,6E0,9.787465E-3,-0E0],"split_indices":[27,13,5,0,0,23,23,0,0,22,0,0,4,0,0],"split_type":[0,0,0,0,0,0,0,0,0,0,0,0,0,0,0],"sum_hessian":[3.7300076E2,9.134379E1,2.8165698E2,4.13507E1,4.9993088E1,6.614765E1,2.1550932E2,2.4331297E1,4.1816353E1,2.0050584E2,1.5003479E1,1.307369E2,6.976895E1,2.2207209E1,4.756174E1],"tree_param":{"num_deleted":"0","num_feature":"31","num_nodes":"15","size_leaf_vector":"1"}},{"base_weights":[4.50225E-2,-1.756646E-2,7.741529E-2,1.2548924E-2,1.6486873E-1,-2.8844746E-2,1.3996459E-2,-0E0,1.3798284E-2,1.2363021E-2,-1.6283242E-1,-3.0107148E-2,1.00739546E-1,2.4217182E-4,-2.2978632E-2,-1.5876447E-1,3.6891846E-3,1.6285905E-1,-0E0,-1.9112632E-2,-0E0,1.6243126E-2,-0E0],"categories":[],"categories_nodes":[],"categories_segments":[],"categories_sizes":[],"default_left":[0,0,0,0,0,0,0,0,0,0,0,0,0,0,0,0,0,0,0,0,0,0,0],"id":17,"left_children":[1,-1,3,5,7,9,-1,-1,-1,11,13,15,17,-1,-1,19,-1,21,-1,-1,-1,-1,-1],"loss_changes":[3.3412983E0,0E0,1.4547434E0,2.670264E0,8.9032936E-1,1.6085653E0,0E0,0E0,0E0,7.4228555E-1,3.250691E0,1.0449817E0,7.2691876E-1,0E0,0E0,7.3052084E-1,0E0,8.2396364E-1,0E0,0E0,0E0,0E0,0E0],"parents":[2147483647,0,0,2,2,3,3,4,4,5,5,9,9,10,10,11,11,12,12,15,15,17,17],"right_children":[2,-1,4,6,8,10,-1,-1,-1,12,14,16,18,-1,-1,20,-1,22,-1,-1,-1,-1,-1],"split_conditions":[1.4257705E3,-1.756646E-2,2E0,1.5480105E3,1.4670361E3,1.0547101E1,1.3996459E-2,-0E0,1.3798284E-2,-5E0,1.4303724E3,1.6504797E3,1.8108108E0,2.4217182E-4,-2.2978632E-2,1E0,3.6891846E-3,1.497447E3,-0E0,-1.9112632E-2,-0E0,1.6243126E-2,-0E0],"split_indices":[25,0,15,25,26,27,0,0,0,30,26,26,9,0,0,15,0,25,0,0,0,0,0],"split_type":[0,0,0,0,0,0,0,0,0,0,0,0,0,0,0,0,0,0,0,0,0,0,0],"sum_hessian":[3.975301E2,2.4932785E1,3.725973E2,2.4053407E2,1.3206323E2,1.8471399E2,5.582008E1,2.7174303E1,1.0488893E2,1.216989E2,6.3015087E1,5.4631786E1,6.706711E1,2.3253294E1,3.9761795E1,3.8420628E1,1.6211159E1,5.1328064E1,1.5739048E1,1.8987234E1,1.9433395E1,3.5732334E1,1.5595727E1],"tree_param":{"num_deleted":"0","num_feature":"31","num_nodes":"23","size_leaf_vector":"1"}},{"base_weights":[2.0198476E-2,5.510257E-2,-1.5485498E-1,1.0306528E-1,-4.9922396E-3,-1.9906351E-2,-0E0,-0E0,1.2643783E-1,1.0730913E-2,-1.5885772E-1,-0E0,1.7780434E-1,-0E0,-2.692467E-1,1.1011664E-2,-8.908286E-3,1.4875499E-2,-0E0,-1.481644E-3,-3.051714E-2],"categories":[],"categories_nodes":[],"categories_segments":[],"categories_sizes":[],"default_left":[0,0,0,0,0,0,0,0,0,0,0,0,0,0,0,0,0,0,0,0,0],"id":18,"left_children":[1,3,5,7,9,-1,-1,-1,11,-1,13,15,17,-1,19,-1,-1,-1,-1,-1,-1],"loss_changes":[2.1541417E0,1.414809E0,8.240372E-1,7.9666233E-1,3.3284597E0,0E0,0E0,0E0,9.161179E-1,0E0,1.6390362E0,1.7959323E0,1.5278573E0,0E0,4.837098E-1,0E0,0E0,0E0,0E0,0E0,0E0],"parents":[2147483647,0,0,1,1,2,2,3,3,4,4,8,8,10,10,11,11,12,12,14,14],"right_children":[2,4,6,8,10,-1,-1,-1,12,-1,14,16,18,-1,20,-1,-1,-1,-1,-1,-1],"split_conditions":[5E0,1.4736842E0,6E0,3E0,6E0,-1.9906351E-2,-0E0,-0E0,1E0,1.0730913E-2,3E0,6E0,1.6469097E3,-0E0,1E1,1.1011664E-2,-8.908286E-3,1.4875499E-2,-0E0,-1.481644E-3,-3.051714E-2],"split_indices":[19,7,29,1,3,0,0,0,30,0,19,29,25,0,4,0,0,0,0,0,0],"split_type":[0,0,0,0,0,0,0,0,0,0,0,0,0,0,0,0,0,0,0,0,0],"sum_hessian":[4.0736673E2,3.5921732E2,4.814943E1,2.335531E2,1.256642E2,2.0420322E1,2.7729107E1,2.9478405E1,2.040747E2,4.87645E1,7.6899704E1,7.329561E1,1.3077908E2,2.9358862E1,4.754084E1,4.0579266E1,3.2716347E1,1.1415463E2,1.6624453E1,3.0459055E1,1.7081785E1],"tree_param":{"num_deleted":"0","num_feature":"31","num_nodes":"21","size_leaf_vector":"1"}},{"base_weights":[2.2082923E-2,6.7428604E-2,-1.657786E-1,1.2385162E-1,-0E0,-2.6030062E-2,-0E0,6.9695087E-3,2.1961544E-1,1.479607E-1,-2.688022E-1,1.0089211E-2,-4.9468808E-2,1.8777955E-2,-0E0,1.8598256E-1,-0E0,-3.102095E-2,-0E0,-1.4511984E-2,-0E0,-0E0,1.6695708E-2],"categories":[],"categories_nodes":[],"categories_segments":[],"categories_sizes":[],"default_left":[0,0,0,0,0,0,0,0,0,0,0,0,0,0,0,0,0,0,0,0,0,0,0],"id":19,"left_children":[1,3,5,7,9,-1,-1,11,13,15,17,-1,19,-1,-1,21,-1,-1,-1,-1,-1,-1,-1],"loss_changes":[2.7830582E0,1.1037815E0,1.7690121E0,9.865184E-1,6.0470285E0,0E0,0E0,1.1697091E0,8.7461424E-1,5.669358E-1,1.964108E0,0E0,1.0738001E0,0E0,0E0,6.249962E-1,0E0,0E0,0E0,0E0,0E0,0E0,0E0],"parents":[2147483647,0,0,1,1,2,2,3,3,4,4,7,7,8,8,9,9,10,10,12,12,15,15],"right_children":[2,4,6,8,10,-1,-1,12,14,16,18,-1,20,-1,-1,22,-1,-1,-1,-1,-1,-1,-1],"split_conditions":[1.9090909E0,1.3E1,7E0,1E0,1.4690819E3,-2.6030062E-2,-0E0,8E0,1.552666E3,3E0,1E0,1.0089211E-2,1.4333333E0,1.8777955E-2,-0E0,1.8E1,-0E0,-3.102095E-2,-0E0,-1.4511984E-2,-0E0,-0E0,1.6695708E-2],"split_indices":[8,29,0,20,26,0,0,29,26,24,12,0,8,0,0,29,0,0,0,0,0,0,0],"split_type":[0,0,0,0,0,0,0,0,0,0,0,0,0,0,0,0,0,0,0,0,0,0,0],"sum_hessian":[3.6371973E2,3.1062393E2,5.3095818E1,1.6204466E2,1.4857925E2,1.913715E1,3.3958668E1,9.207278E1,6.997188E1,9.836649E1,5.021277E1,4.354358E1,4.85292E1,5.315187E1,1.6820007E1,7.761346E1,2.0753033E1,2.4286495E1,2.5926273E1,2.2812572E1,2.5716629E1,2.5424232E1,5.2189228E1],"tree_param":{"num_deleted":"0","num_feature":"31","num_nodes":"23","size_leaf_vector":"1"}},{"base_weights":[-4.8803076E-2,-2.0516764E-1,2.890369E-2,-3.015555E-1,-0E0,-1.1610064E-1,1.3463837E-1,-0E0,-3.730335E-1,-0E0,-2.1301213E-1,1.7870887E-1,-0E0,-5.362404E-1,-0E0,8.215687E-3,-1.3232553E-2,-2.1307671E-2,-0E0,2.9626477E-1,-0E0,-4.537997E-3,-4.8478294E-2,4.0381344E-4,2.677629E-2],"categories":[],"categories_nodes":[],"categories_segments":[],"categories_sizes":[],"default_left":[0,0,0,0,0,0,0,0,0,0,0,0,0,0,0,0,0,0,0,0,0,0,0,0,0],"id":20,"left_children":[1,3,5,7,-1,9,11,-1,13,15,17,19,-1,21,-1,-1,-1,-1,-1,23,-1,-1,-1,-1,-1],"loss_changes":[5.0643425E0,2.43334E0,3.599324E0,2.180976E0,0E0,6.8959856E-1,1.5313921E0,0E0,2.8535824E0,1.2502886E0,6.1231613E-1,2.1938353E0,0E0,8.918133E-1,0E0,0E0,0E0,0E0,0E0,6.440296E-1,0E0,0E0,0E0,0E0,0E0],"parents":[2147483647,0,0,1,1,2,2,3,3,5,5,6,6,8,8,9,9,10,10,11,11,13,13,19,19],"right_children":[2,4,6,8,-1,10,12,-1,14,16,18,20,-1,22,-1,-1,-1,-1,-1,24,-1,-1,-1,-1,-1],"split_conditions":[3E0,1.6E1,7E0,5E0,-0E0,8E0,1.5391868E3,-0E0,2E0,1.5709249E3,1E0,2E0,-0E0,1.5031215E3,-0E0,8.215687E-3,-1.3232553E-2,-2.1307671E-2,-0E0,4E0,-0E0,-4.537997E-3,-4.8478294E-2,4.0381344E-4,2.677629E-2],"split_indices":[13,29,5,5,0,29,26,0,10,26,20,24,0,26,0,0,0,0,0,13,0,0,0,0,0],"split_type":[0,0,0,0,0,0,0,0,0,0,0,0,0,0,0,0,0,0,0,0,0,0,0,0,0],"sum_hessian":[3.57895E2,1.3338974E2,2.2450525E2,8.699006E1,4.639968E1,7.95151E1,1.4499016E2,1.5446814E1,7.154324E1,4.2677334E1,3.6837765E1,1.2902849E2,1.5961674E1,4.309001E1,2.8453232E1,2.3512518E1,1.9164816E1,2.1086622E1,1.57511425E1,7.0148926E1,5.8879555E1,1.9113804E1,2.3976208E1,2.8731144E1,4.141778E1],"tree_param":{"num_deleted":"0","num_feature":"31","num_nodes":"25","size_leaf_vector":"1"}},{"base_weights":[1.6023187E-2,-2.027472E-1,6.1377794E-2,-2.8163208E-2,-0E0,-3.5615028E-3,8.6222105E-2,1.8541408E-1,-0E0,-0E0,1.5748493E-2,-1.3083446E-1,6.420346E-2,-0E0,-2.4354305E-2,-0E0,1.13469325E-1,1.8938836E-1,-0E0,1.6443787E-2,-0E0],"categories":[],"categories_nodes":[],"categories_segments":[],"categories_sizes":[],"default_left":[0,0,0,0,0,0,0,0,0,0,0,0,0,0,0,0,0,0,0,0,0],"id":21,"left_children":[1,3,5,-1,-1,-1,7,9,11,-1,-1,13,15,-1,-1,-1,17,19,-1,-1,-1],"loss_changes":[3.3269317E0,2.608401E0,1.0926602E0,0E0,0E0,0E0,2.0624413E0,1.7649093E0,1.3516992E0,0E0,0E0,2.5960343E0,5.8990514E-1,0E0,0E0,0E0,1.3862159E0,7.5910664E-1,0E0,0E0,0E0],"parents":[2147483647,0,0,1,1,2,2,6,6,7,7,8,8,11,11,12,12,16,16,17,17],"right_children":[2,4,6,-1,-1,-1,8,10,12,-1,-1,14,16,-1,-1,-1,18,20,-1,-1,-1],"split_conditions":[-8.019622E1,3E0,1.0769231E0,-2.8163208E-2,-0E0,-3.5615028E-3,1E0,1.4424452E3,1.5087146E1,-0E0,1.5748493E-2,3E0,1E0,-0E0,-2.4354305E-2,-0E0,2E0,2.5333333E0,-0E0,1.6443787E-2,-0E0],"split_indices":[27,13,6,0,0,0,10,26,27,0,0,13,12,0,0,0,11,6,0,0,0],"split_type":[0,0,0,0,0,0,0,0,0,0,0,0,0,0,0,0,0,0,0,0,0],"sum_hessian":[3.8267606E2,4.975342E1,3.3292264E2,2.424247E1,2.5510952E1,3.173012E1,3.011925E2,1.2291485E2,1.7827766E2,1.5273139E1,1.0764171E2,4.2855972E1,1.3542169E2,2.0045612E1,2.2810358E1,4.8165764E1,8.725592E1,6.816203E1,1.9093885E1,5.21889E1,1.5973135E1],"tree_param":{"num_deleted":"0","num_feature":"31","num_nodes":"21","size_leaf_vector":"1"}},{"base_weights":[-3.2315478E-2,-0E0,-4.5500636E-2,1.0939939E-2,-2.2028783E-2,-1.0383208E-1,4.6872433E-2,-0E0,-2.0638673E-1,-0E0,1.5201977E-1,-2.187394E-2,-0E0,-0E0,1.7286127E-2],"categories":[],"categories_nodes":[],"categories_segments":[],"categories_sizes":[],"default_left":[0,0,0,0,0,0,0,0,0,0,0,0,0,0,0],"id":22,"left_children":[1,3,-1,-1,5,7,9,-1,11,-1,13,-1,-1,-1,-1],"loss_changes":[9.335913E0,1.6208739E0,0E0,0E0,1.8229214E0,2.1056147E0,9.910616E-1,0E0,1.6082916E0,0E0,8.4845364E-1,0E0,0E0,0E0,0E0],"parents":[2147483647,0,0,1,1,4,4,5,5,6,6,8,8,10,10],"right_children":[2,4,-1,-1,6,8,10,-1,12,-1,14,-1,-1,-1,-1],"split_conditions":[1.6095728E3,1.431492E3,-4.5500636E-2,1.0939939E-2,1.5079587E3,5E0,4E0,-0E0,1E0,-0E0,8E0,-2.187394E-2,-0E0,-0E0,1.7286127E-2],"split_indices":[26,26,0,0,26,1,13,0,12,0,28,0,0,0,0],"split_type":[0,0,0,0,0,0,0,0,0,0,0,0,0,0,0],"sum_hessian":[3.5130432E2,3.3302563E2,1.827867E1,5.296841E1,2.8005725E2,1.52411E2,1.2764625E2,6.650818E1,8.590282E1,7.517811E1,5.2468132E1,4.785416E1,3.8048653E1,2.3265453E1,2.9202679E1],"tree_param":{"num_deleted":"0","num_feature":"31","num_nodes":"15","size_leaf_vector":"1"}},{"base_weights":[-2.552879E-2,-1.2343379E-1,6.892573E-2,2.389566E-2,-2.458873E-1,1.2722722E-1,-1.1960811E-2,-3.0104253E-3,1.2655517E-2,-4.3576714E-1,-1.4634949E-2,1.5467376E-2,2.1552396E-1,-9.568968E-2,-4.8134208E-2,-1.9318225E-2,1.5197019E-2,-1.2447494E-2,1.3384065E-1,2.4243092E-2,5.8082584E-4,4.4002146E-3,-2.9751604E-2,-0E0,9.407865E-3,1.2562099E-2,-0E0],"categories":[],"categories_nodes":[],"categories_segments":[],"categories_sizes":[],"default_left":[0,0,0,0,0,0,0,0,0,0,0,0,0,0,0,0,0,0,0,0,0,0,0,0,0,0,0],"id":23,"left_children":[1,3,5,7,9,11,-1,-1,-1,13,15,17,19,21,-1,-1,23,-1,25,-1,-1,-1,-1,-1,-1,-1,-1],"loss_changes":[3.492605E0,4.3515086E0,2.2033856E0,1.4338672E0,3.5573301E0,5.494602E-1,0E0,0E0,0E0,2.1914701E0,1.5793874E0,1.9177061E0,4.6287107E-1,3.4760027E0,0E0,0E0,5.938554E-1,0E0,5.2153754E-1,0E0,0E0,0E0,0E0,0E0,0E0,0E0,0E0],"parents":[2147483647,0,0,1,1,2,2,3,3,4,4,5,5,9,9,10,10,11,11,12,12,13,13,16,16,18,18],"right_children":[2,4,6,8,10,12,-1,-1,-1,14,16,18,20,22,-1,-1,24,-1,26,-1,-1,-1,-1,-1,-1,-1,-1],"split_conditions":[1.5164148E3,1E0,3E0,1.6E1,-5E0,1.5158793E3,-1.1960811E-2,-3.0104253E-3,1.2655517E-2,1E0,6E0,7E0,6E0,1.5648815E3,-4.8134208E-2,-1.9318225E-2,1.4865585E3,-1.2447494E-2,8E0,2.4243092E-2,5.8082584E-4,4.4002146E-3,-2.9751604E-2,-0E0,9.407865E-3,1.2562099E-2,-0E0],"split_indices":[25,23,23,28,30,26,0,0,0,24,3,5,5,26,0,0,26,0,28,0,0,0,0,0,0,0,0],"split_type":[0,0,0,0,0,0,0,0,0,0,0,0,0,0,0,0,0,0,0,0,0,0,0,0,0,0,0],"sum_hessian":[3.5003586E2,1.9105885E2,1.58977E2,7.37722E1,1.1728665E2,1.420909E2,1.6886106E1,3.734514E1,3.6427067E1,5.4080296E1,6.3206356E1,8.30263E1,5.90646E1,3.2279633E1,2.1800661E1,1.6258535E1,4.6947823E1,1.8370943E1,6.465536E1,2.271369E1,3.635091E1,1.6208286E1,1.6071346E1,1.898681E1,2.796101E1,4.6524372E1,1.8130983E1],"tree_param":{"num_deleted":"0","num_feature":"31","num_nodes":"27","size_leaf_vector":"1"}},{"base_weights":[-0E0,7.0127055E-2,-9.584541E-2,1.328634E-1,-7.657996E-2,-2.9068506E-1,1.2273004E-4,1.5826625E-1,-0E0,-1.8299392E-1,-0E0,-4.2283803E-1,-0E0,1.8223071E-1,-0E0,-2.9949179E-2,-0E0,-4.4346195E-2,-0E0,-0E0,1.3535686E-2],"categories":[],"categories_nodes":[],"categories_segments":[],"categories_sizes":[],"default_left":[0,0,0,0,0,0,0,0,0,0,0,0,0,0,0,0,0,0,0,0,0],"id":24,"left_children":[1,3,5,7,9,11,-1,13,-1,15,-1,17,-1,19,-1,-1,-1,-1,-1,-1,-1],"loss_changes":[2.48835E0,2.4689522E0,3.7796052E0,8.680198E-1,9.359853E-1,2.8441215E0,0E0,8.1761646E-1,0E0,3.0306883E0,0E0,4.475011E0,0E0,4.8023033E-1,0E0,0E0,0E0,0E0,0E0,0E0,0E0],"parents":[2147483647,0,0,1,1,2,2,3,3,4,4,5,5,7,7,9,9,11,11,13,13],"right_children":[2,4,6,8,10,12,-1,14,-1,16,-1,18,-1,20,-1,-1,-1,-1,-1,-1,-1],"split_conditions":[2E0,1.6296296E0,1E0,2.5333333E0,1.2647059E0,9E0,1.2273004E-4,2.0769231E0,-0E0,2.6875E0,-0E0,1.8E1,-0E0,2E0,-0E0,-2.9949179E-2,-0E0,-4.4346195E-2,-0E0,-0E0,1.3535686E-2],"split_indices":[10,7,12,6,6,1,0,8,0,7,0,29,0,1,0,0,0,0,0,0,0],"split_type":[0,0,0,0,0,0,0,0,0,0,0,0,0,0,0,0,0,0,0,0,0],"sum_hessian":[3.777179E2,2.3925351E2,1.3846437E2,1.857802E2,5.3473316E1,5.7267326E1,8.119705E1,1.6474982E2,2.1030375E1,3.498986E1,1.8483456E1,4.148519E1,1.5782133E1,1.4819598E2,1.6553837E1,1.8739443E1,1.6250418E1,2.5548761E1,1.5936431E1,1.603474E1,1.3216124E2],"tree_param":{"num_deleted":"0","num_feature":"31","num_nodes":"21","size_leaf_vector":"1"}},{"base_weights":[-1.5125163E-2,1.1988782E-2,-2.3188457E-1,6.374179E-2,-2.1345593E-1,-3.0330965E-2,-0E0,1.18929535E-1,-1.9424576E-2,-2.8394619E-2,-0E0,-0E0,1.8509403E-1,-1.5363982E-1,-0E0,2.4525502E-1,-0E0,-0E0,-3.0437835E-2,-1.8585573E-3,9.575896E-3,2.0479405E-2,-0E0],"categories":[],"categories_nodes":[],"categories_segments":[],"categories_sizes":[],"default_left":[0,0,0,0,0,0,0,0,0,0,0,0,0,0,0,0,0,0,0,0,0,0,0],"id":25,"left_children":[1,3,5,7,9,-1,-1,11,13,-1,-1,-1,15,17,19,21,-1,-1,-1,-1,-1,-1,-1],"loss_changes":[3.0085406E0,3.1560647E0,3.6674738E0,1.6322861E0,2.1543236E0,0E0,0E0,1.7800179E0,7.7075654E-1,0E0,0E0,0E0,1.0756245E0,2.8945103E0,6.328854E-1,1.1660223E0,0E0,0E0,0E0,0E0,0E0,0E0,0E0],"parents":[2147483647,0,0,1,1,2,2,3,3,4,4,7,7,8,8,12,12,13,13,14,14,15,15],"right_children":[2,4,6,8,10,-1,-1,12,14,-1,-1,-1,16,18,20,22,-1,-1,-1,-1,-1,-1,-1],"split_conditions":[4E0,1.5538002E3,1.5913805E3,1.4E1,7E0,-3.0330965E-2,-0E0,6E0,1.6E0,-2.8394619E-2,-0E0,-0E0,1.3666667E0,4E0,4E0,1.2E1,-0E0,-0E0,-3.0437835E-2,-1.8585573E-3,9.575896E-3,2.0479405E-2,-0E0],"split_indices":[11,26,26,28,0,0,0,3,7,0,0,0,7,1,0,0,0,0,0,0,0,0,0],"split_type":[0,0,0,0,0,0,0,0,0,0,0,0,0,0,0,0,0,0,0,0,0,0,0],"sum_hessian":[3.6664627E2,3.1278595E2,5.386034E1,2.6963818E2,4.314776E1,3.0030619E1,2.3829721E1,1.8861183E2,8.102635E1,2.089648E1,2.225128E1,6.0442036E1,1.281698E2,3.1172697E1,4.9853653E1,8.9670746E1,3.849905E1,1.6034012E1,1.5138684E1,2.2568308E1,2.7285345E1,6.9389E1,2.0281744E1],"tree_param":{"num_deleted":"0","num_feature":"31","num_nodes":"23","size_leaf_vector":"1"}},{"base_weights":[-0E0,-8.494563E-2,1.1115475E-1,-5.001382E-3,-2.3008447E-2,-0E0,1.8510689E-1,-2.2518483E-1,6.562528E-2,1.8164577E-2,-0E0,-0E0,-2.5396569E-2,8.076551E-3,-0E0],"categories":[],"categories_nodes":[],"categories_segments":[],"categories_sizes":[],"default_left":[0,0,0,0,0,0,0,0,0,0,0,0,0,0,0],"id":26,"left_children":[1,3,5,7,-1,-1,9,11,13,-1,-1,-1,-1,-1,-1],"loss_changes":[3.5242577E0,2.8935304E0,1.9429164E0,3.2848732E0,0E0,0E0,2.1616504E0,2.71398E0,7.494712E-1,0E0,0E0,0E0,0E0,0E0,0E0],"parents":[2147483647,0,0,1,1,2,2,3,3,6,6,7,7,8,8],"right_children":[2,4,6,8,-1,-1,10,12,14,-1,-1,-1,-1,-1,-1],"split_conditions":[1.75E0,1.5666667E0,7E0,1.1111112E0,-2.3008447E-2,-0E0,1.1E1,1.4618207E3,4E0,1.8164577E-2,-0E0,-0E0,-2.5396569E-2,8.076551E-3,-0E0],"split_indices":[6,6,5,6,0,0,5,26,19,0,0,0,0,0,0],"split_type":[0,0,0,0,0,0,0,0,0,0,0,0,0,0,0],"sum_hessian":[3.64514E2,2.013052E2,1.6320882E2,1.6704105E2,3.426416E1,4.9457195E1,1.13751625E2,5.2037395E1,1.1500365E2,8.1144646E1,3.260697E1,1.651063E1,3.5526768E1,8.389668E1,3.1106968E1],"tree_param":{"num_deleted":"0","num_feature":"31","num_nodes":"15","size_leaf_vector":"1"}},{"base_weights":[3.7277814E-2,-1.6902585E-1,1.0705405E-1,-4.275588E-1,-0E0,1.3472E-1,-2.8611096E-3,-4.1460387E-2,-0E0,-0E0,1.9373439E-1,-1.1195527E-1,7.7983146E-3,1.4238331E-2,-0E0,-1.6305512E-2,-0E0],"categories":[],"categories_nodes":[],"categories_segments":[],"categories_sizes":[],"default_left":[0,0,0,0,0,0,0,0,0,0,0,0,0,0,0,0,0],"id":27,"left_children":[1,3,5,7,-1,9,-1,-1,-1,11,13,15,-1,-1,-1,-1,-1],"loss_changes":[5.74696E0,4.2763224E0,1.7020063E0,1.3427086E0,0E0,2.0633564E0,0E0,0E0,0E0,1.345013E0,4.7782707E-1,7.2034895E-1,0E0,0E0,0E0,0E0,0E0],"parents":[2147483647,0,0,1,1,2,2,3,3,5,5,9,9,10,10,11,11],"right_children":[2,4,6,8,-1,10,-1,-1,-1,12,14,16,-1,-1,-1,-1,-1],"split_conditions":[-5E0,1.2647059E0,2.5263157E0,1.8214285E0,-0E0,1.5E0,-2.8611096E-3,-4.1460387E-2,-0E0,1.5E1,1.3E1,1.3783784E0,7.7983146E-3,1.4238331E-2,-0E0,-1.6305512E-2,-0E0],"split_indices":[30,6,6,8,0,6,0,0,0,28,28,7,0,0,0,0,0],"split_type":[0,0,0,0,0,0,0,0,0,0,0,0,0,0,0,0,0],"sum_hessian":[4.0910217E2,8.872267E1,3.2037952E2,3.487968E1,5.3842987E1,2.9190707E2,2.8472452E1,1.8738844E1,1.6140837E1,9.7234085E1,1.9467299E2,4.3254128E1,5.3979958E1,1.7233792E2,2.2335068E1,1.9149115E1,2.4105013E1],"tree_param":{"num_deleted":"0","num_feature":"31","num_nodes":"17","size_leaf_vector":"1"}},{"base_weights":[-1.0811024E-2,1.8404135E-2,-1.5161024E-1,1.8790084E-1,-3.7189215E-2,-3.0417379E-2,-0E0,-0E0,1.9457756E-2,-1.1956178E-1,3.3457188E-3,-2.527931E-1,-0E0,-3.940395E-2,-0E0,3.5954101E-3,-1.0495982E-2],"categories":[],"categories_nodes":[],"categories_segments":[],"categories_sizes":[],"default_left":[0,0,0,0,0,0,0,0,0,0,0,0,0,0,0,0,0],"id":28,"left_children":[1,3,5,7,9,-1,-1,-1,-1,11,-1,13,-1,-1,15,-1,-1],"loss_changes":[1.9482344E0,3.1308072E0,3.1829839E0,2.4441726E0,1.6335986E0,0E0,0E0,0E0,0E0,2.4420357E0,0E0,3.8782172E0,0E0,0E0,6.8243736E-1,0E0,0E0],"parents":[2147483647,0,0,1,1,2,2,3,3,4,4,9,9,11,11,14,14],"right_children":[2,4,6,8,10,-1,-1,-1,-1,12,-1,14,-1,-1,16,-1,-1],"split_conditions":[1.5333333E0,-3E0,-5E0,1.1538461E0,1E1,-3.0417379E-2,-0E0,-0E0,1.9457756E-2,2.2592592E0,3.3457188E-3,7E0,-0E0,-3.940395E-2,6E0,3.5954101E-3,-1.0495982E-2],"split_indices":[7,30,30,7,5,0,0,0,0,6,0,4,0,0,5,0,0],"split_type":[0,0,0,0,0,0,0,0,0,0,0,0,0,0,0,0,0],"sum_hessian":[3.4676764E2,2.6702728E2,7.974035E1,8.104813E1,1.8597916E2,2.1893757E1,5.7846592E1,1.9616077E1,6.1432045E1,1.17280136E2,6.869902E1,6.2259968E1,5.5020172E1,2.0475933E1,4.1784035E1,1.9323357E1,2.2460676E1],"tree_param":{"num_deleted":"0","num_feature":"31","num_nodes":"17","size_leaf_vector":"1"}},{"base_weights":[-0E0,-6.1994035E-2,1.4343998E-1,-0E0,-1.8830167E-1,1.2714088E-2,-0E0,-1.5242197E-1,7.116951E-2,-0E0,-2.7767515E-1,-2.8444353E-1,-0E0,1.147614E-1,-0E0,-3.1911742E-2,-0E0,-2.7739495E-2,-0E0,-0E0,1.6612682E-2,-6.89586E-3,8.501498E-3],"categories":[],"categories_nodes":[],"categories_segments":[],"categories_sizes":[],"default_left":[0,0,0,0,0,0,0,0,0,0,0,0,0,0,0,0,0,0,0,0,0,0,0],"id":29,"left_children":[1,3,5,7,9,-1,-1,11,13,-1,15,17,-1,19,-1,-1,-1,-1,-1,21,-1,-1,-1],"loss_changes":[3.4202037E0,2.1816425E0,6.606364E-1,1.9116361E0,2.1039062E0,0E0,0E0,1.6685956E0,6.366675E-1,0E0,3.0496702E0,5.905442E-1,0E0,1.6324232E0,0E0,0E0,0E0,0E0,0E0,6.9961953E-1,0E0,0E0,0E0],"parents":[2147483647,0,0,1,1,2,2,3,3,4,4,7,7,8,8,10,10,11,11,13,13,19,19],"right_children":[2,4,6,8,10,-1,-1,12,14,-1,16,18,-1,20,-1,-1,-1,-1,-1,22,-1,-1,-1],"split_conditions":[2.25E0,1.4978654E3,2E0,1.1666666E0,6E0,1.2714088E-2,-0E0,1.6E1,1.7575758E0,-0E0,1.9333333E0,2E0,-0E0,1.375E0,-0E0,-3.1911742E-2,-0E0,-2.7739495E-2,-0E0,1.1E1,1.6612682E-2,-6.89586E-3,8.501498E-3],"split_indices":[6,25,23,6,2,0,0,29,8,0,6,23,0,8,0,0,0,0,0,4,0,0,0],"split_type":[0,0,0,0,0,0,0,0,0,0,0,0,0,0,0,0,0,0,0,0,0,0,0],"sum_hessian":[3.7614374E2,2.622444E2,1.1389936E2,1.7480513E2,8.7439255E1,8.243268E1,3.1466679E1,5.2095932E1,1.22709206E2,2.1464766E1,6.597449E1,3.3572586E1,1.8523346E1,9.379898E1,2.8910229E1,3.409881E1,3.187568E1,1.7855207E1,1.5717379E1,4.924834E1,4.4550636E1,3.0285225E1,1.8963116E1],"tree_param":{"num_deleted":"0","num_feature":"31","num_nodes":"23","size_leaf_vector":"1"}},{"base_weights":[-0E0,8.684656E-2,-4.193597E-2,1.3052282E-1,-0E0,-2.3440528E-1,-0E0,-0E0,1.3997997E-2,-0E0,-3.061504E-2,-9.5933676E-2,5.343458E-2,-0E0,-1.9479571E-1,-0E0,6.856975E-3,-2.2918114E-2,-0E0],"categories":[],"categories_nodes":[],"categories_segments":[],"categories_sizes":[],"default_left":[0,0,0,0,0,0,0,0,0,0,0,0,0,0,0,0,0,0,0],"id":30,"left_children":[1,3,5,7,-1,9,11,-1,-1,-1,-1,13,15,-1,17,-1,-1,-1,-1],"loss_changes":[1.3511797E0,6.514534E-1,2.4077556E0,1.0723438E0,0E0,2.2102284E0,9.782866E-1,0E0,0E0,0E0,0E0,1.2081431E0,7.27553E-1,0E0,1.6584775E0,0E0,0E0,0E0,0E0],"parents":[2147483647,0,0,1,1,2,2,3,3,5,5,6,6,11,11,12,12,14,14],"right_children":[2,4,6,8,-1,10,12,-1,-1,-1,-1,14,16,-1,18,-1,-1,-1,-1],"split_conditions":[1E0,9E0,-5E0,1.2727273E0,-0E0,-9E0,1.2E0,-0E0,1.3997997E-2,-0E0,-3.061504E-2,8.333333E-1,1.4074074E0,-0E0,8E0,-0E0,6.856975E-3,-2.2918114E-2,-0E0],"split_indices":[23,30,30,7,0,30,8,0,0,0,0,8,9,0,30,0,0,0,0],"split_type":[0,0,0,0,0,0,0,0,0,0,0,0,0,0,0,0,0,0,0],"sum_hessian":[3.6571405E2,1.1788329E2,2.4783076E2,8.885777E1,2.9025526E1,4.9023457E1,1.9880731E2,3.1175894E1,5.7681877E1,2.7552904E1,2.1470552E1,5.933224E1,1.3947507E2,1.5238455E1,4.4093784E1,3.3767273E1,1.05707794E2,2.6643602E1,1.7450184E1],"tree_param":{"num_deleted":"0","num_feature":"31","num_nodes":"19","size_leaf_vector":"1"}},{"base_weights":[5.1185437E-2,-1.3872203E-1,1.0626726E-1,-2.649846E-1,2.8143881E-3,1.3612407E-1,-0E0,-0E0,-4.2932093E-2,1.5618323E-1,-0E0,-5.3521483E-3,6.3653607E-3,-0E0,1.142695E-2],"categories":[],"categories_nodes":[],"categories_segments":[],"categories_sizes":[],"default_left":[0,0,0,0,0,0,0,0,0,0,0,0,0,0,0],"id":31,"left_children":[1,3,5,7,-1,9,11,-1,-1,13,-1,-1,-1,-1,-1],"loss_changes":[4.053126E0,2.5761614E0,1.0826495E0,6.5807734E0,0E0,1.0218549E0,5.500535E-1,0E0,0E0,5.7740736E-1,0E0,0E0,0E0,0E0,0E0],"parents":[2147483647,0,0,1,1,2,2,3,3,5,5,6,6,9,9],"right_children":[2,4,6,8,-1,10,12,-1,-1,14,-1,-1,-1,-1,-1],"split_conditions":[1.2972972E0,1.1E1,9E0,1E0,2.8143881E-3,2.52E0,2.4594595E0,-0E0,-4.2932093E-2,1.0384616E0,-0E0,-5.3521483E-3,6.3653607E-3,-0E0,1.142695E-2],"split_indices":[6,3,30,21,0,6,6,0,0,9,0,0,0,0,0],"split_type":[0,0,0,0,0,0,0,0,0,0,0,0,0,0,0],"sum_hessian":[3.9237918E2,7.186398E1,3.205152E2,5.3813976E1,1.8050009E1,2.5266032E2,6.785486E1,3.0855742E1,2.2958235E1,2.3314114E2,1.9519188E1,3.9492714E1,2.8362146E1,1.7678724E1,2.1546242E2],"tree_param":{"num_deleted":"0","num_feature":"31","num_nodes":"15","size_leaf_vector":"1"}},{"base_weights":[8.187442E-3,-4.412609E-2,9.3592316E-2,-2.5329238E-1,2.5433144E-3,-1.5239059E-3,1.3323413E-1,-0E0,-3.400877E-2,1.2212806E-1,-4.1287497E-2,1.5798312E-1,-0E0,1.5551586E-2,-0E0,-1.16554394E-1,3.483403E-3,1.7476512E-2,3.984469E-2,-0E0,-3.2813117E-1,-0E0,1.0430219E-2,-3.5571154E-2,-0E0],"categories":[],"categories_nodes":[],"categories_segments":[],"categories_sizes":[],"default_left":[0,0,0,0,0,0,0,0,0,0,0,0,0,0,0,0,0,0,0,0,0,0,0,0,0],"id":32,"left_children":[1,3,5,7,9,-1,11,-1,-1,13,15,17,-1,-1,-1,19,-1,-1,21,-1,23,-1,-1,-1,-1],"loss_changes":[1.9874045E0,3.1231055E0,1.2571213E0,3.2200234E0,1.2115605E0,0E0,6.305139E-1,0E0,0E0,8.656249E-1,9.878537E-1,5.14997E-1,0E0,0E0,0E0,3.0050676E0,0E0,0E0,9.356934E-1,0E0,1.5277181E0,0E0,0E0,0E0,0E0],"parents":[2147483647,0,0,1,1,2,2,3,3,4,4,6,6,9,9,10,10,11,11,15,15,18,18,20,20],"right_children":[2,4,6,8,10,-1,12,-1,-1,14,16,18,-1,-1,-1,20,-1,-1,22,-1,24,-1,-1,-1,-1],"split_conditions":[1.75E0,7E0,7E0,1.3636364E0,6E0,-1.5239059E-3,2.6875E0,-0E0,-3.400877E-2,1E1,1.1E1,7E0,-0E0,1.5551586E-2,-0E0,3E0,3.483403E-3,1.7476512E-2,2E0,-0E0,1.5187173E3,-0E0,1.0430219E-2,-3.5571154E-2,-0E0],"split_indices":[6,4,2,6,2,0,6,0,0,4,3,3,0,0,0,19,0,0,11,0,26,0,0,0,0],"split_type":[0,0,0,0,0,0,0,0,0,0,0,0,0,0,0,0,0,0,0,0,0,0,0,0,0],"sum_hessian":[3.976459E2,2.2005814E2,1.7758775E2,5.2606552E1,1.6745158E2,2.126574E1,1.5632202E2,2.9060108E1,2.3546442E1,6.663996E1,1.0081162E2,1.3562892E2,2.0693098E1,3.2566303E1,3.407366E1,7.77681E1,2.3043528E1,5.3702133E1,8.192679E1,4.250977E1,3.5258327E1,4.0472664E1,4.145412E1,1.7196457E1,1.806187E1],"tree_param":{"num_deleted":"0","num_feature":"31","num_nodes":"25","size_leaf_vector":"1"}},{"base_weights":[3.284874E-2,-2.1157366E-1,7.6402046E-2,-2.441145E-2,-0E0,2.468666E-2,1.559966E-1,1.2210371E-2,-6.256902E-6,1.5090975E-2,-0E0,4.7915377E-2,-5.0148178E-2,-0E0,1.1854224E-1,-1.6568166E-1,1.9180667E-4,1.5168042E-2,-0E0,-2.9016268E-1,7.250022E-5,-0E0,-3.2762162E-2],"categories":[],"categories_nodes":[],"categories_segments":[],"categories_sizes":[],"default_left":[0,0,0,0,0,0,0,0,0,0,0,0,0,0,0,0,0,0,0,0,0,0,0],"id":33,"left_children":[1,3,5,-1,-1,7,9,-1,11,-1,-1,13,15,-1,17,19,-1,-1,-1,21,-1,-1,-1],"loss_changes":[3.9412673E0,1.8951683E0,8.16005E-1,0E0,0E0,1.6738244E0,6.653364E-1,0E0,5.000826E-1,0E0,0E0,4.8846823E-1,1.463244E0,0E0,5.9796274E-1,2.460455E0,0E0,0E0,0E0,2.8138618E0,0E0,0E0,0E0],"parents":[2147483647,0,0,1,1,2,2,5,5,6,6,8,8,11,11,12,12,14,14,15,15,19,19],"right_children":[2,4,6,-1,-1,8,10,-1,12,-1,-1,14,16,-1,18,20,-1,-1,-1,22,-1,-1,-1],"split_conditions":[-8.592948E1,1.6504797E3,1.5555556E0,-2.441145E-2,-0E0,8.787879E-1,-6.6879964E0,1.2210371E-2,1E0,1.5090975E-2,-0E0,1.4823029E3,3.7353477E1,-0E0,1.5162959E3,1.5324999E3,1.9180667E-4,1.5168042E-2,-0E0,1.2222222E0,7.250022E-5,-0E0,-3.2762162E-2],"split_indices":[27,26,8,0,0,8,27,0,24,0,0,26,27,0,26,26,0,0,0,8,0,0,0],"split_type":[0,0,0,0,0,0,0,0,0,0,0,0,0,0,0,0,0,0,0,0,0,0,0],"sum_hessian":[4.1101675E2,4.742127E1,3.635955E2,2.8477081E1,1.8944185E1,2.5135548E2,1.12240005E2,5.238102E1,1.9897446E2,6.565971E1,4.658029E1,6.334679E1,1.3562767E2,2.0595118E1,4.2751675E1,6.3146736E1,7.2480934E1,2.1403791E1,2.1347881E1,4.7911125E1,1.5235609E1,2.1024044E1,2.6887083E1],"tree_param":{"num_deleted":"0","num_feature":"31","num_nodes":"23","size_leaf_vector":"1"}},{"base_weights":[3.5511464E-2,-7.5766206E-2,1.0136142E-1,2.3790603E-3,-1.3830523E-1,1.4659557E-1,-1.8440189E-3,-0E0,-2.0811334E-1,5.8403485E-2,2.146379E-2,-2.5365278E-1,-0E0,-0E0,1.9570269E-1,-2.2648193E-2,-0E0,-6.078819E-3,2.107407E-3,2.1557791E-2,-0E0],"categories":[],"categories_nodes":[],"categories_segments":[],"categories_sizes":[],"default_left":[0,0,0,0,0,0,0,0,0,0,0,0,0,0,0,0,0,0,0,0,0],"id":34,"left_children":[1,3,5,-1,7,9,-1,-1,11,13,-1,15,-1,17,19,-1,-1,-1,-1,-1,-1],"loss_changes":[2.8974223E0,1.2456408E0,1.9804447E0,0E0,1.481276E0,1.8093524E0,0E0,0E0,6.332092E-1,1.7621915E0,0E0,8.032646E-1,0E0,4.4499314E-1,1.1264839E0,0E0,0E0,0E0,0E0,0E0,0E0],"parents":[2147483647,0,0,1,1,2,2,4,4,5,5,8,8,9,9,11,11,13,13,14,14],"right_children":[2,4,6,-1,8,10,-1,-1,12,14,-1,16,-1,18,20,-1,-1,-1,-1,-1,-1],"split_conditions":[3E0,-1.3066452E2,1.5456956E3,2.3790603E-3,4E0,1.5158793E3,-1.8440189E-3,-0E0,1E1,2.030303E0,2.146379E-2,2.7005363E1,-0E0,1.534929E3,1.137931E0,-2.2648193E-2,-0E0,-6.078819E-3,2.107407E-3,2.1557791E-2,-0E0],"split_indices":[13,27,26,0,1,26,0,0,1,9,0,27,0,25,8,0,0,0,0,0,0],"split_type":[0,0,0,0,0,0,0,0,0,0,0,0,0,0,0,0,0,0,0,0,0],"sum_hessian":[3.7646326E2,1.1850721E2,2.5795605E2,2.1387285E1,9.711992E1,2.1230418E2,4.5651886E1,2.160048E1,7.551944E1,1.576334E2,5.467077E1,5.975706E1,1.57623825E1,1.00152176E2,5.748123E1,3.9552647E1,2.0204412E1,4.432828E1,5.5823895E1,3.0453623E1,2.7027609E1],"tree_param":{"num_deleted":"0","num_feature":"31","num_nodes":"21","size_leaf_vector":"1"}},{"base_weights":[-4.2981566E-3,7.4340114E-3,-1.8124531E-1,-2.3396254E-2,8.616083E-2,-2.6724573E-2,-0E0,2.6448801E-2,-8.216552E-2,1.8234609E-1,-0E0,8.669517E-3,-0E0,-1.9125347E-1,1.2128516E-3,-0E0,1.7537609E-2,-0E0,-2.1170823E-2],"categories":[],"categories_nodes":[],"categories_segments":[],"categories_sizes":[],"default_left":[0,0,0,0,0,0,0,0,0,0,0,0,0,0,0,0,0,0,0],"id":35,"left_children":[1,3,5,7,9,-1,-1,11,13,15,-1,-1,-1,17,-1,-1,-1,-1,-1],"loss_changes":[1.4193169E0,1.0338016E0,1.4571371E0,8.082814E-1,1.1608205E0,0E0,0E0,6.6896445E-1,2.0642874E0,9.042394E-1,0E0,0E0,0E0,1.2443669E0,0E0,0E0,0E0,0E0,0E0],"parents":[2147483647,0,0,1,1,2,2,3,3,4,4,7,7,8,8,9,9,13,13],"right_children":[2,4,6,8,10,-1,-1,12,14,16,-1,-1,-1,18,-1,-1,-1,-1,-1],"split_conditions":[5E0,9E0,-6.3712482E1,-4.748094E1,5.0307713E1,-2.6724573E-2,-0E0,9E0,5.664029E1,7E0,-0E0,8.669517E-3,-0E0,-4.734542E0,1.2128516E-3,-0E0,1.7537609E-2,-0E0,-2.1170823E-2],"split_indices":[19,0,27,27,27,0,0,4,27,28,0,0,0,27,0,0,0,0,0],"split_type":[0,0,0,0,0,0,0,0,0,0,0,0,0,0,0,0,0,0,0],"sum_hessian":[3.6329095E2,3.2324695E2,4.0043995E1,1.9928407E2,1.2396288E2,1.5234977E1,2.4809017E1,7.394678E1,1.253373E2,6.0398754E1,6.356413E1,4.0451763E1,3.349501E1,7.681092E1,4.8526382E1,1.9229986E1,4.116877E1,3.7889214E1,3.8921707E1],"tree_param":{"num_deleted":"0","num_feature":"31","num_nodes":"19","size_leaf_vector":"1"}},{"base_weights":[-0E0,-1.20855264E-1,3.7332114E-2,-1.601952E-2,-0E0,1.4035732E-1,-0E0,-4.6236166E-3,2.4390718E-2,5.0526824E-2,-2.4807844E-2,1.7628394E-2,-0E0,-2.1160701E-2,6.588248E-2,-8.882114E-2,4.1888943E-3,1.3486023E-2,-0E0,-2.1209279E-1,-0E0,-3.465883E-2,-0E0],"categories":[],"categories_nodes":[],"categories_segments":[],"categories_sizes":[],"default_left":[0,0,0,0,0,0,0,0,0,0,0,0,0,0,0,0,0,0,0,0,0,0,0],"id":36,"left_children":[1,3,5,-1,-1,7,9,-1,-1,11,-1,-1,13,15,17,19,-1,-1,-1,21,-1,-1,-1],"loss_changes":[1.3283639E0,1.1363313E0,7.127923E-1,0E0,0E0,3.8582177E0,3.6208658E0,0E0,0E0,1.4475001E0,0E0,0E0,4.4322893E-1,7.376177E-1,1.4283594E0,1.0233102E0,0E0,0E0,0E0,3.0938826E0,0E0,0E0,0E0],"parents":[2147483647,0,0,1,1,2,2,5,5,6,6,9,9,12,12,13,13,14,14,15,15,19,19],"right_children":[2,4,6,-1,-1,8,10,-1,-1,12,-1,-1,14,16,18,20,-1,-1,-1,22,-1,-1,-1],"split_conditions":[-6E0,1.1E1,-3E0,-1.601952E-2,-0E0,1.5126277E3,1.5456956E3,-4.6236166E-3,2.4390718E-2,5E0,-2.4807844E-2,1.7628394E-2,2E0,1.1E1,5E0,5E0,4.1888943E-3,1.3486023E-2,-0E0,8E0,-0E0,-3.465883E-2,-0E0],"split_indices":[30,3,30,0,0,26,26,0,0,2,0,0,22,3,30,30,0,0,0,2,0,0,0],"split_type":[0,0,0,0,0,0,0,0,0,0,0,0,0,0,0,0,0,0,0,0,0,0,0],"sum_hessian":[3.552083E2,5.9656754E1,2.9555157E2,3.311117E1,2.654558E1,5.4470737E1,2.4108083E2,2.039965E1,3.4071087E1,2.2161214E2,1.9468689E1,2.6440737E1,1.951714E2,1.0722907E2,8.794233E1,8.409941E1,2.3129658E1,4.227327E1,4.566906E1,3.5172997E1,4.892642E1,1.51745405E1,1.9998457E1],"tree_param":{"num_deleted":"0","num_feature":"31","num_nodes":"23","size_leaf_vector":"1"}},{"base_weights":[3.4651715E-2,9.840448E-2,-3.704422E-2,1.5005904E-1,-0E0,5.255935E-3,-9.844817E-2,1.9852711E-1,-0E0,1.2287671E-2,-1.2178078E-1,-2.9112884E-1,1.1767052E-3,2.3027657E-1,-0E0,-0E0,-1.9191138E-2,-2.6879761E-2,-0E0,1.8441057E-2,-0E0],"categories":[],"categories_nodes":[],"categories_segments":[],"categories_sizes":[],"default_left":[0,0,0,0,0,0,0,0,0,0,0,0,0,0,0,0,0,0,0,0,0],"id":37,"left_children":[1,3,5,7,9,-1,11,13,-1,-1,15,17,-1,19,-1,-1,-1,-1,-1,-1,-1],"loss_changes":[1.9858712E0,1.5299802E0,1.1873958E0,1.8086386E0,1.3955541E0,0E0,3.7944345E0,1.0376172E0,0E0,0E0,7.696233E-1,1.4843216E0,0E0,5.5311584E-1,0E0,0E0,0E0,0E0,0E0,0E0,0E0],"parents":[2147483647,0,0,1,1,2,2,3,3,4,4,6,6,7,7,10,10,11,11,13,13],"right_children":[2,4,6,8,10,-1,12,14,-1,-1,16,18,-1,20,-1,-1,-1,-1,-1,-1,-1],"split_conditions":[2E0,1.5470236E3,1.4280492E3,1.9E1,2E0,5.255935E-3,1.5179467E3,1.9E1,-0E0,1.2287671E-2,2E0,2E0,1.1767052E-3,2E0,-0E0,-0E0,-1.9191138E-2,-2.6879761E-2,-0E0,1.8441057E-2,-0E0],"split_indices":[10,26,26,28,29,0,26,29,0,0,23,23,0,16,0,0,0,0,0,0,0],"split_type":[0,0,0,0,0,0,0,0,0,0,0,0,0,0,0,0,0,0,0,0,0],"sum_hessian":[3.7877322E2,2.277794E2,1.5099382E2,1.6429207E2,6.348732E1,3.0841389E1,1.2015243E2,1.3854521E2,2.5746866E1,1.6966343E1,4.6520977E1,5.5767563E1,6.4384865E1,1.2181869E2,1.6726524E1,3.099461E1,1.5526368E1,3.7355526E1,1.8412037E1,9.196465E1,2.985403E1],"tree_param":{"num_deleted":"0","num_feature":"31","num_nodes":"21","size_leaf_vector":"1"}},{"base_weights":[-0E0,-5.505772E-2,7.238576E-2,3.474855E-2,-1.6461316E-1,1.5082493E-1,-0E0,1.3109395E-1,-0E0,-0E0,-2.6563084E-1,-0E0,1.9453938E-1,4.2063035E-3,-1.20274555E-2,-0E0,1.7402863E-2,-1.2680368E-2,7.1006473E-3,-2.5743378E-2,-0E0,1.6315527E-2,-0E0],"categories":[],"categories_nodes":[],"categories_segments":[],"categories_sizes":[],"default_left":[0,0,0,0,0,0,0,0,0,0,0,0,0,0,0,0,0,0,0,0,0,0,0],"id":38,"left_children":[1,3,5,7,9,11,13,15,17,-1,19,-1,21,-1,-1,-1,-1,-1,-1,-1,-1,-1,-1],"loss_changes":[1.4885207E0,2.5451674E0,1.3889196E0,6.772378E-1,2.2736511E0,7.1935344E-1,1.1505446E0,7.383737E-1,1.3575228E0,0E0,2.282251E0,0E0,6.8835735E-1,0E0,0E0,0E0,0E0,0E0,0E0,0E0,0E0,0E0,0E0],"parents":[2147483647,0,0,1,1,2,2,3,3,4,4,5,5,6,6,7,7,8,8,10,10,12,12],"right_children":[2,4,6,8,10,12,14,16,18,-1,20,-1,22,-1,-1,-1,-1,-1,-1,-1,-1,-1,-1],"split_conditions":[1.4333333E0,1E0,1.2E1,1.875E0,1.0666667E0,1E0,1.4054054E0,1.1E1,2.2E0,-0E0,2E0,-0E0,2.0370371E0,4.2063035E-3,-1.20274555E-2,-0E0,1.7402863E-2,-1.2680368E-2,7.1006473E-3,-2.5743378E-2,-0E0,1.6315527E-2,-0E0],"split_indices":[8,23,28,9,8,17,6,28,9,0,21,0,8,0,0,0,0,0,0,0,0,0,0],"split_type":[0,0,0,0,0,0,0,0,0,0,0,0,0,0,0,0,0,0,0,0,0,0,0],"sum_hessian":[3.658035E2,2.0445149E2,1.61352E2,9.44939E1,1.099576E2,9.605129E1,6.5300705E1,4.3424953E1,5.1068943E1,3.7243565E1,7.2714035E1,2.04341E1,7.561719E1,3.7224022E1,2.8076687E1,2.3462818E1,1.9962133E1,2.6628407E1,2.4440535E1,4.8871265E1,2.384277E1,5.9004326E1,1.6612865E1],"tree_param":{"num_deleted":"0","num_feature":"31","num_nodes":"23","size_leaf_vector":"1"}},{"base_weights":[-1.3003566E-2,5.34368E-2,-6.298448E-2,1.3770778E-1,-2.832148E-3,1.0258727E-2,-2.092922E-1,-0E0,2.0153092E-1,-1.2691245E-2,1.0217677E-2,-0E0,-1.8013213E-2,-0E0,1.6542476E-2,-1.3214314E-1,3.6317408E-2,-0E0,-3.4715854E-2,1.0075651E-2,-6.728459E-5],"categories":[],"categories_nodes":[],"categories_segments":[],"categories_sizes":[],"default_left":[0,0,0,0,0,0,0,0,0,0,0,0,0,0,0,0,0,0,0,0,0],"id":39,"left_children":[1,3,5,7,-1,9,11,-1,13,15,-1,-1,-1,-1,-1,17,19,-1,-1,-1,-1],"loss_changes":[1.2298347E0,1.36191E0,3.2987385E0,1.1435164E0,0E0,1.000107E0,8.7382936E-1,0E0,4.5028782E-1,9.800505E-1,0E0,0E0,0E0,0E0,0E0,3.9674318E0,7.888106E-1,0E0,0E0,0E0,0E0],"parents":[2147483647,0,0,1,1,2,2,3,3,5,5,6,6,8,8,9,9,15,15,16,16],"right_children":[2,4,6,8,-1,10,12,-1,14,16,-1,-1,-1,-1,-1,18,20,-1,-1,-1,-1],"split_conditions":[1E0,1.5565391E3,7E0,6E0,-2.832148E-3,1.3636364E0,6E0,-0E0,1.2592592E0,9E0,1.0217677E-2,-0E0,-1.8013213E-2,-0E0,1.6542476E-2,1.4618207E3,1.0769231E0,-0E0,-3.4715854E-2,1.0075651E-2,-6.728459E-5],"split_indices":[22,26,3,2,0,8,2,0,8,2,0,0,0,0,0,26,8,0,0,0,0],"split_type":[0,0,0,0,0,0,0,0,0,0,0,0,0,0,0,0,0,0,0,0,0],"sum_hessian":[3.538284E2,1.1942571E2,2.344027E2,8.379162E1,3.5634094E1,1.4077502E2,9.362766E1,1.8016266E1,6.577535E1,1.0054919E2,4.0225845E1,2.5731676E1,6.789599E1,1.5372637E1,5.0402718E1,5.0246838E1,5.030235E1,3.4790974E1,1.5455863E1,3.5254383E1,1.5047967E1],"tree_param":{"num_deleted":"0","num_feature":"31","num_nodes":"21","size_leaf_vector":"1"}},{"base_weights":[3.6534737E-3,-4.1105136E-2,1.3323408E-1,-1.8808524E-1,-0E0,1.2171958E-2,-0E0,-0E0,-2.111883E-2,8.024116E-2,-5.882641E-2,-0E0,1.3820848E-2,-1.3857083E-1,-0E0,-0E0,-1.9022085E-2],"categories":[],"categories_nodes":[],"categories_segments":[],"categories_sizes":[],"default_left":[0,0,0,0,0,0,0,0,0,0,0,0,0,0,0,0,0],"id":40,"left_children":[1,3,5,7,9,-1,-1,-1,-1,11,13,-1,-1,15,-1,-1,-1],"loss_changes":[2.4077518E0,1.3561329E0,4.838922E-1,1.2316148E0,9.235627E-1,0E0,0E0,0E0,0E0,1.2165878E0,6.7920184E-1,0E0,0E0,1.4830651E0,0E0,0E0,0E0],"parents":[2147483647,0,0,1,1,2,2,3,3,4,4,9,9,10,10,13,13],"right_children":[2,4,6,8,10,-1,-1,-1,-1,12,14,-1,-1,16,-1,-1,-1],"split_conditions":[2.1290324E0,1.2962962E0,1.2676353E2,1.2857143E0,1.4705882E0,1.2171958E-2,-0E0,-0E0,-2.111883E-2,3E0,1.7E0,-0E0,1.3820848E-2,1.4347826E0,-0E0,-0E0,-1.9022085E-2],"split_indices":[6,7,27,6,7,0,0,0,0,11,7,0,0,6,0,0,0],"split_type":[0,0,0,0,0,0,0,0,0,0,0,0,0,0,0,0,0],"sum_hessian":[3.4975375E2,2.3975978E2,1.09993965E2,4.7101322E1,1.9265846E2,7.2709946E1,3.7284023E1,1.967339E1,2.7427933E1,7.687734E1,1.1578113E2,3.8943764E1,3.7933575E1,5.3926243E1,6.185488E1,2.4747707E1,2.9178535E1],"tree_param":{"num_deleted":"0","num_feature":"31","num_nodes":"17","size_leaf_vector":"1"}},{"base_weights":[3.2418504E-2,6.1971225E-2,-1.31345345E-2,1.1114978E-1,-0E0,1.4668736E-1,-0E0,1.1602299E-2,-8.897581E-2,2.0376523E-1,-0E0,-1.8074483E-1,-0E0,6.411553E-2,2.1608457E-2,-0E0,-2.3071028E-2,1.1540082E-2,-0E0],"categories":[],"categories_nodes":[],"categories_segments":[],"categories_sizes":[],"default_left":[0,0,0,0,0,0,0,0,0,0,0,0,0,0,0,0,0,0,0],"id":41,"left_children":[1,3,-1,5,7,9,-1,-1,11,13,-1,15,-1,17,-1,-1,-1,-1,-1],"loss_changes":[1.8518494E0,1.3501817E0,0E0,1.2754426E0,1.5363586E0,1.7673817E0,0E0,0E0,1.1068051E0,7.254224E-1,0E0,7.732351E-1,0E0,7.090354E-1,0E0,0E0,0E0,0E0,0E0],"parents":[2147483647,0,0,1,1,3,3,4,4,5,5,8,8,9,9,11,11,13,13],"right_children":[2,4,-1,6,8,10,-1,-1,12,14,-1,16,-1,18,-1,-1,-1,-1,-1],"split_conditions":[1.3E1,1.875E0,-1.31345345E-2,1.2E1,5E0,1E1,-0E0,1.1602299E-2,4E0,1E0,-0E0,1E0,-0E0,3E0,2.1608457E-2,-0E0,-2.3071028E-2,1.1540082E-2,-0E0],"split_indices":[3,9,0,2,2,4,0,0,13,20,0,23,0,13,0,0,0,0,0],"split_type":[0,0,0,0,0,0,0,0,0,0,0,0,0,0,0,0,0,0,0],"sum_hessian":[3.4152267E2,3.1881558E2,2.2707098E1,2.064522E2,1.1236339E2,1.7661115E2,2.9841055E1,2.4558487E1,8.78049E1,1.3273415E2,4.387699E1,5.302144E1,3.478346E1,7.749696E1,5.5237183E1,3.387897E1,1.9142467E1,3.2298805E1,4.519816E1],"tree_param":{"num_deleted":"0","num_feature":"31","num_nodes":"19","size_leaf_vector":"1"}},{"base_weights":[2.5073264E-2,-1.24148495E-1,6.4661145E-2,2.4329894E-3,-2.3328615E-2,-0E0,1.8211149E-1,1.3070077E-2,-9.3027174E-2,-0E0,1.6359922E-2,-0E0,-1.8363872E-1,-2.9981814E-2,-3.2147154E-2,8.847506E-3,-1.2519521E-2],"categories":[],"categories_nodes":[],"categories_segments":[],"categories_sizes":[],"default_left":[0,0,0,0,0,0,0,0,0,0,0,0,0,0,0,0,0],"id":42,"left_children":[1,3,5,-1,-1,7,9,-1,11,-1,-1,-1,13,-1,15,-1,-1],"loss_changes":[1.8516912E0,3.142581E0,2.2389417E0,0E0,0E0,3.583087E0,1.7866421E0,0E0,1.6104444E0,0E0,0E0,0E0,1.4216838E0,0E0,1.9013866E0,0E0,0E0],"parents":[2147483647,0,0,1,1,2,2,5,5,6,6,8,8,12,12,14,14],"right_children":[2,4,6,-1,-1,8,10,-1,12,-1,-1,-1,14,-1,16,-1,-1],"split_conditions":[5E0,4E0,1.5E1,2.4329894E-3,-2.3328615E-2,5E0,8.5714287E-1,1.3070077E-2,1E0,-0E0,1.6359922E-2,-0E0,1.5E0,-2.9981814E-2,1.4978654E3,8.847506E-3,-1.2519521E-2],"split_indices":[29,5,28,0,0,28,6,0,10,0,0,0,6,0,25,0,0],"split_type":[0,0,0,0,0,0,0,0,0,0,0,0,0,0,0,0,0],"sum_hessian":[3.4477963E2,5.105378E1,2.9372586E2,2.1281738E1,2.9772041E1,1.9164987E2,1.0207598E2,6.1190098E1,1.3045978E2,1.6358246E1,8.5717735E1,5.132229E1,7.913749E1,1.7803541E1,6.1333946E1,1.8106337E1,4.3227608E1],"tree_param":{"num_deleted":"0","num_feature":"31","num_nodes":"17","size_leaf_vector":"1"}},{"base_weights":[9.0881065E-2,-5.4343946E-2,1.23763196E-1,5.348703E-3,-1.865302E-2,2.2844808E-2,2.0616111E-1,8.233901E-2,-1.7582962E-2,1.5880432E-2,-0E0,-4.3252367E-4,1.0075314E-2],"categories":[],"categories_nodes":[],"categories_segments":[],"categories_sizes":[],"default_left":[0,0,0,0,0,0,0,0,0,0,0,0,0],"id":43,"left_children":[1,3,5,-1,-1,7,9,11,-1,-1,-1,-1,-1],"loss_changes":[2.0930638E0,2.3356135E0,1.87953E0,0E0,0E0,2.3113117E0,4.6795273E-1,1.4845312E0,0E0,0E0,0E0,0E0,0E0],"parents":[2147483647,0,0,1,1,2,2,5,5,6,6,7,7],"right_children":[2,4,6,-1,-1,8,10,12,-1,-1,-1,-1,-1],"split_conditions":[-8.019622E1,1.6486486E0,1.3636364E0,5.348703E-3,-1.865302E-2,1.3333334E0,4E0,1.4347826E0,-1.7582962E-2,1.5880432E-2,-0E0,-4.3252367E-4,1.0075314E-2],"split_indices":[27,8,8,0,0,8,11,6,0,0,0,0,0],"split_type":[0,0,0,0,0,0,0,0,0,0,0,0,0],"sum_hessian":[3.7669626E2,4.8031963E1,3.286643E2,2.0626518E1,2.7405445E1,1.699206E2,1.587437E2,1.5317793E2,1.6742657E1,1.2807295E2,3.0670753E1,4.3379448E1,1.0979849E2],"tree_param":{"num_deleted":"0","num_feature":"31","num_nodes":"13","size_leaf_vector":"1"}},{"base_weights":[2.2905735E-2,6.0744982E-2,-1.505453E-1,1.3450737E-1,-0E0,-0E0,-2.173101E-2,1.8796337E-1,-0E0,-4.936777E-2,1.204445E-1,1.45844305E-2,-0E0,-1.4037439E-1,-0E0,-0E0,1.5238043E-2,-2.5073474E-2,-0E0],"categories":[],"categories_nodes":[],"categories_segments":[],"categories_sizes":[],"default_left":[0,0,0,0,0,0,0,0,0,0,0,0,0,0,0,0,0,0,0],"id":44,"left_children":[1,3,5,7,9,-1,-1,11,-1,13,15,-1,-1,17,-1,-1,-1,-1,-1],"loss_changes":[1.9679669E0,1.4983274E0,1.255391E0,1.7284706E0,9.1615605E-1,0E0,0E0,6.032033E-1,0E0,8.0334973E-1,4.7573757E-1,0E0,0E0,2.120781E0,0E0,0E0,0E0,0E0,0E0],"parents":[2147483647,0,0,1,1,2,2,3,3,4,4,7,7,9,9,10,10,13,13],"right_children":[2,4,6,8,10,-1,-1,12,-1,14,16,-1,-1,18,-1,-1,-1,-1,-1],"split_conditions":[1.5700354E3,1E0,2E0,1.5537571E3,1.5194005E3,-0E0,-2.173101E-2,1.9E1,-0E0,1.3214285E0,1.5352775E3,1.45844305E-2,-0E0,1.5992327E3,-0E0,-0E0,1.5238043E-2,-2.5073474E-2,-0E0],"split_indices":[26,10,23,25,26,0,0,28,0,7,25,0,0,25,0,0,0,0,0],"split_type":[0,0,0,0,0,0,0,0,0,0,0,0,0,0,0,0,0,0,0],"sum_hessian":[3.44697E2,3.0231894E2,4.2378048E1,1.4223026E2,1.6008868E2,2.3471626E1,1.8906422E1,1.2038218E2,2.1848066E1,1.2046736E2,3.9621334E1,1.020381E2,1.834408E1,5.3197903E1,6.7269455E1,2.1287146E1,1.8334188E1,2.0263865E1,3.2934036E1],"tree_param":{"num_deleted":"0","num_feature":"31","num_nodes":"19","size_leaf_vector":"1"}},{"base_weights":[2.4838714E-2,-2.137557E-1,6.2010262E-2,-2.8099883E-2,-0E0,9.073624E-2,-5.8231135E-3,-0E0,1.582368E-1,9.70739E-3,-4.193625E-2,-0E0,2.0729752E-1,-0E0,-1.2981255E-2,-8.682224E-3,8.111522E-3,2.7488524E-1,-0E0,2.3927901E-2,-0E0],"categories":[],"categories_nodes":[],"categories_segments":[],"categories_sizes":[],"default_left":[0,0,0,0,0,0,0,0,0,0,0,0,0,0,0,0,0,0,0,0,0],"id":45,"left_children":[1,3,5,-1,-1,7,-1,9,11,-1,13,15,17,-1,-1,-1,-1,19,-1,-1,-1],"loss_changes":[2.6373618E0,1.6580529E0,1.4277557E0,0E0,0E0,2.064374E0,0E0,5.7065827E-1,1.2785349E0,0E0,9.4784033E-1,7.904824E-1,1.2872257E0,0E0,0E0,0E0,0E0,1.2802677E0,0E0,0E0,0E0],"parents":[2147483647,0,0,1,1,2,2,5,5,7,7,8,8,10,10,11,11,12,12,17,17],"right_children":[2,4,6,-1,-1,8,-1,10,12,-1,14,16,18,-1,-1,-1,-1,20,-1,-1,-1],"split_conditions":[1.16E0,-8.5404335E1,1.8095238E0,-2.8099883E-2,-0E0,1E0,-5.8231135E-3,1.4482758E0,1.25E0,9.70739E-3,1.35E0,9E0,2E0,-0E0,-1.2981255E-2,-8.682224E-3,8.111522E-3,2E0,-0E0,2.3927901E-2,-0E0],"split_indices":[9,27,7,0,0,18,0,9,7,0,7,5,16,0,0,0,0,24,0,0,0],"split_type":[0,0,0,0,0,0,0,0,0,0,0,0,0,0,0,0,0,0,0,0,0],"sum_hessian":[3.5486264E2,3.2352375E1,3.2251028E2,1.5790252E1,1.6562124E1,2.9249164E2,3.0018618E1,1.1576282E2,1.7672884E2,1.5801511E1,9.996131E1,4.5177364E1,1.3155147E2,7.263985E1,2.732146E1,1.9502678E1,2.5674686E1,9.0633026E1,4.0918446E1,6.274949E1,2.7883535E1],"tree_param":{"num_deleted":"0","num_feature":"31","num_nodes":"21","size_leaf_vector":"1"}},{"base_weights":[9.457514E-3,9.395652E-2,-1.7474473E-2,1.1978219E-2,-0E0,-1.9073348E-2,-0E0,-1.9933399E-2,9.046708E-2,1.8959738E-3,-1.6150558E-2,1.0276887E-2,-0E0,-3.2485486E-3,9.531621E-3,3.807635E-3,-1.4951559E-2,-4.6052827E-4,9.321903E-3],"categories":[],"categories_nodes":[],"categories_segments":[],"categories_sizes":[],"default_left":[0,0,0,0,0,0,0,0,0,0,0,0,0,0,0,0,0,0,0],"id":46,"left_children":[1,3,5,-1,-1,-1,7,9,11,13,-1,-1,-1,15,-1,17,-1,-1,-1],"loss_changes":[1.1355913E0,8.700695E-1,2.0492742E0,0E0,0E0,0E0,6.323095E-1,1.6688962E0,6.287544E-1,6.2009645E-1,0E0,0E0,0E0,9.8997116E-1,0E0,6.264076E-1,0E0,0E0,0E0],"parents":[2147483647,0,0,1,1,2,2,6,6,7,7,8,8,9,9,13,13,15,15],"right_children":[2,4,6,-1,-1,-1,8,10,12,14,-1,-1,-1,16,-1,18,-1,-1,-1],"split_conditions":[5E0,1.1E1,4E0,1.1978219E-2,-0E0,-1.9073348E-2,2.4265957E1,2E0,2E0,8E0,-1.6150558E-2,1.0276887E-2,-0E0,-1.24070425E1,9.531621E-3,1.8461539E0,-1.4951559E-2,-4.6052827E-4,9.321903E-3],"split_indices":[1,5,28,0,0,0,27,17,22,0,0,0,0,27,0,9,0,0,0],"split_type":[0,0,0,0,0,0,0,0,0,0,0,0,0,0,0,0,0,0,0],"sum_hessian":[3.674055E2,1.2094669E2,2.4645879E2,5.8742382E1,6.2204315E1,2.3473335E1,2.2298544E2,1.562697E2,6.6715744E1,1.2921248E2,2.705723E1,4.8222992E1,1.849275E1,1.0134599E2,2.7866486E1,8.423904E1,1.7106956E1,5.469211E1,2.9546926E1],"tree_param":{"num_deleted":"0","num_feature":"31","num_nodes":"19","size_leaf_vector":"1"}},{"base_weights":[2.4340782E-2,-1.2581097E-2,4.662772E-2,-0E0,9.101047E-2,-1.8914312E-2,3.196161E-2,1.7917679E-1,-0E0,-5.6649387E-2,1.23509094E-1,-0E0,2.3673627E-1,8.882537E-3,-6.080727E-2,-0E0,-1.1732654E-2,1.2554344E-2,-0E0,2.0144206E-2,-0E0,-1.652755E-2,-0E0],"categories":[],"categories_nodes":[],"categories_segments":[],"categories_sizes":[],"default_left":[0,0,0,0,0,0,0,0,0,0,0,0,0,0,0,0,0,0,0,0,0,0,0],"id":47,"left_children":[1,-1,3,5,7,-1,9,11,13,15,17,-1,19,-1,21,-1,-1,-1,-1,-1,-1,-1,-1],"loss_changes":[1.3346529E0,0E0,1.0662026E0,2.176428E0,1.6541526E0,0E0,1.2851311E0,1.3992972E0,1.0458037E0,6.065633E-1,9.5132375E-1,0E0,4.8488903E-1,0E0,1.3859838E0,0E0,0E0,0E0,0E0,0E0,0E0,0E0,0E0],"parents":[2147483647,0,0,2,2,3,3,4,4,6,6,7,7,8,8,9,9,10,10,12,12,14,14],"right_children":[2,-1,4,6,8,-1,10,12,14,16,18,-1,20,-1,22,-1,-1,-1,-1,-1,-1,-1,-1],"split_conditions":[-1.1E1,-1.2581097E-2,1.2727273E0,1.5142857E0,8E0,-1.8914312E-2,7E0,1.2E0,1.0454545E0,2E0,7E0,-0E0,1.3E1,8.882537E-3,1.3666667E0,-0E0,-1.1732654E-2,1.2554344E-2,-0E0,2.0144206E-2,-0E0,-1.652755E-2,-0E0],"split_indices":[30,0,7,6,5,0,5,8,8,17,4,0,28,0,8,0,0,0,0,0,0,0,0],"split_type":[0,0,0,0,0,0,0,0,0,0,0,0,0,0,0,0,0,0,0,0,0,0,0],"sum_hessian":[3.871308E2,1.8750717E1,3.683801E2,1.4504176E2,2.2333832E2,2.2954203E1,1.2208756E2,1.0705344E2,1.1628489E2,4.165209E1,8.043548E1,2.1965448E1,8.508799E1,4.0189262E1,7.609562E1,1.9975128E1,2.167696E1,6.060814E1,1.982734E1,5.719777E1,2.789022E1,2.4822449E1,5.1273174E1],"tree_param":{"num_deleted":"0","num_feature":"31","num_nodes":"23","size_leaf_vector":"1"}},{"base_weights":[2.5191475E-2,-2.475516E-2,1.0815374E-1,-9.423329E-2,1.015238E-2,1.5398037E-1,-0E0,-2.6112777E-1,-0E0,1.3864314E-2,-0E0,-2.497429E-2,-0E0,6.0103167E-2,-6.72338E-3,-0E0,8.773598E-3],"categories":[],"categories_nodes":[],"categories_segments":[],"categories_sizes":[],"default_left":[0,0,0,0,0,0,0,0,0,0,0,0,0,0,0,0,0],"id":48,"left_children":[1,3,5,7,-1,9,-1,11,13,-1,-1,-1,-1,15,-1,-1,-1],"loss_changes":[1.8265617E0,2.2785714E0,9.629042E-1,3.2389672E0,0E0,1.2196431E0,0E0,1.3160119E0,4.8204416E-1,0E0,0E0,0E0,0E0,6.8729395E-1,0E0,0E0,0E0],"parents":[2147483647,0,0,1,1,2,2,3,3,5,5,7,7,8,8,13,13],"right_children":[2,4,6,8,-1,10,-1,12,14,-1,-1,-1,-1,16,-1,-1,-1],"split_conditions":[1.4375E0,1E1,1.5370944E3,1.5E1,1.015238E-2,1.7E1,-0E0,2E0,1.7E1,1.3864314E-2,-0E0,-2.497429E-2,-0E0,8.888889E-1,-6.72338E-3,-0E0,8.773598E-3],"split_indices":[8,3,25,29,0,28,0,15,28,0,0,0,0,8,0,0,0],"split_type":[0,0,0,0,0,0,0,0,0,0,0,0,0,0,0,0,0],"sum_hessian":[3.6026242E2,1.9773752E2,1.6252492E2,1.5808917E2,3.964833E1,1.1936445E2,4.3160477E1,6.5635956E1,9.2453224E1,9.3562546E1,2.5801897E1,4.0356792E1,2.527916E1,7.541939E1,1.7033842E1,2.1532228E1,5.3887157E1],"tree_param":{"num_deleted":"0","num_feature":"31","num_nodes":"17","size_leaf_vector":"1"}},{"base_weights":[4.1765556E-2,1.01360925E-1,-6.9976956E-2,1.303521E-1,-0E0,-1.5260474E-1,1.9363438E-3,1.4803888E-1,-0E0,-2.3861814E-1,-0E0,-0E0,1.698732E-1,-0E0,-3.0339343E-2,1.3043983E-2,-0E0,-1.0146299E-2,-0E0],"categories":[],"categories_nodes":[],"categories_segments":[],"categories_sizes":[],"default_left":[0,0,0,0,0,0,0,0,0,0,0,0,0,0,0,0,0,0,0],"id":49,"left_children":[1,3,5,7,-1,9,-1,11,-1,13,-1,-1,15,17,-1,-1,-1,-1,-1],"loss_changes":[2.8745522E0,1.3400178E0,1.4801192E0,6.490874E-1,0E0,1.9902015E0,0E0,6.593728E-1,0E0,1.9976273E0,0E0,0E0,6.944866E-1,4.9199972E-1,0E0,0E0,0E0,0E0,0E0],"parents":[2147483647,0,0,1,1,2,2,3,3,5,5,7,7,9,9,12,12,13,13],"right_children":[2,4,6,8,-1,10,-1,12,-1,14,-1,-1,16,18,-1,-1,-1,-1,-1],"split_conditions":[1.4E1,2.5333333E0,2E0,5E0,-0E0,9E0,1.9363438E-3,1.4285715E0,-0E0,1.4586699E3,-0E0,-0E0,1.6469097E3,1.2E1,-3.0339343E-2,1.3043983E-2,-0E0,-1.0146299E-2,-0E0],"split_indices":[28,6,22,19,0,2,0,6,0,25,0,0,25,29,0,0,0,0,0],"split_type":[0,0,0,0,0,0,0,0,0,0,0,0,0,0,0,0,0,0,0],"sum_hessian":[4.080619E2,2.883096E2,1.1975227E2,2.5207538E2,3.6234226E1,8.517207E1,3.4580204E1,2.244249E2,2.7650494E1,6.812299E1,1.704908E1,3.1812819E1,1.9261208E2,4.1426285E1,2.6696705E1,1.6471811E2,2.7893963E1,1.868857E1,2.2737715E1],"tree_param":{"num_deleted":"0","num_feature":"31","num_nodes":"19","size_leaf_vector":"1"}},{"base_weights":[-0E0,-5.9493724E-2,1.16177596E-1,8.9600176E-2,-1.4981581E-1,-2.4170487E-3,1.7435166E-1,9.57143E-3,-0E0,-2.0268221E-1,-0E0,2.256919E-1,-0E0,-1.4066317E-2,-2.89586E-1,1.8794307E-2,-0E0,-1.3779527E-1,5.149344E-3,-2.3319807E-2,-0E0,-2.8015349E-2,-0E0],"categories":[],"categories_nodes":[],"categories_segments":[],"categories_sizes":[],"default_left":[0,0,0,0,0,0,0,0,0,0,0,0,0,0,0,0,0,0,0,0,0,0,0],"id":50,"left_children":[1,3,5,7,9,-1,11,-1,-1,13,-1,15,-1,17,19,-1,-1,21,-1,-1,-1,-1,-1],"loss_changes":[2.6857817E0,3.4748316E0,1.7478162E0,5.6439847E-1,1.9152198E0,0E0,7.730849E-1,0E0,0E0,1.0874538E0,0E0,1.0878353E0,0E0,9.3239516E-1,6.441493E-1,0E0,0E0,2.826782E0,0E0,0E0,0E0,0E0,0E0],"parents":[2147483647,0,0,1,1,2,2,3,3,4,4,6,6,9,9,11,11,13,13,14,14,17,17],"right_children":[2,4,6,8,10,-1,12,-1,-1,14,-1,16,-1,18,20,-1,-1,22,-1,-1,-1,-1,-1],"split_conditions":[1E0,1.0454545E0,5E0,3E0,1.5992327E3,-2.4170487E-3,1E1,9.57143E-3,-0E0,1.4856855E3,-0E0,1.875E0,-0E0,2.0769231E0,2E0,1.8794307E-2,-0E0,1.466027E3,5.149344E-3,-2.3319807E-2,-0E0,-2.8015349E-2,-0E0],"split_indices":[20,8,4,19,25,0,4,0,0,25,0,9,0,9,16,0,0,25,0,0,0,0,0],"split_type":[0,0,0,0,0,0,0,0,0,0,0,0,0,0,0,0,0,0,0,0,0,0,0],"sum_hessian":[3.692028E2,2.3554263E2,1.3366014E2,7.311755E1,1.624251E2,1.9330442E1,1.14329704E2,5.4854465E1,1.8263084E1,1.340862E2,2.833889E1,8.227107E1,3.2058628E1,5.7014126E1,7.7072075E1,6.6262596E1,1.600848E1,4.109501E1,1.5919116E1,5.7955757E1,1.9116318E1,1.8170546E1,2.2924463E1],"tree_param":{"num_deleted":"0","num_feature":"31","num_nodes":"23","size_leaf_vector":"1"}},{"base_weights":[1.5934313E-2,-6.613072E-4,7.8333534E-2,-3.7410304E-2,1.1367885E-2,-0E0,7.4226246E-3,5.7138413E-2,-9.737147E-2,-1.1591849E-2,1.9830164E-2,-1.5278846E-1,-0E0,1.1090733E-3,-1.3279716E-2,-2.2097069E-1,-0E0,-0E0,-1.9765785E-2],"categories":[],"categories_nodes":[],"categories_segments":[],"categories_sizes":[],"default_left":[0,0,0,0,0,0,0,0,0,0,0,0,0,0,0,0,0,0,0],"id":51,"left_children":[1,3,5,7,-1,-1,-1,9,11,13,-1,15,-1,-1,-1,17,-1,-1,-1],"loss_changes":[6.8897295E-1,1.1268872E0,5.708498E-1,1.4822686E0,0E0,0E0,0E0,2.1849232E0,1.2622114E0,9.1739905E-1,0E0,1.6307819E0,0E0,0E0,0E0,6.8827677E-1,0E0,0E0,0E0],"parents":[2147483647,0,0,1,1,2,2,3,3,7,7,8,8,9,9,11,11,15,15],"right_children":[2,4,6,8,-1,-1,-1,10,12,14,-1,16,-1,-1,-1,18,-1,-1,-1],"split_conditions":[2.1290324E0,3E0,1E0,5E0,1.1367885E-2,-0E0,7.4226246E-3,-1E0,1.6923077E0,-8E0,1.9830164E-2,1.1E1,-0E0,1.1090733E-3,-1.3279716E-2,1E1,-0E0,-0E0,-1.9765785E-2],"split_indices":[6,22,17,2,0,0,0,30,6,30,0,3,0,0,0,29,0,0,0],"split_type":[0,0,0,0,0,0,0,0,0,0,0,0,0,0,0,0,0,0,0],"sum_hessian":[3.7949503E2,2.5423225E2,1.2526277E2,2.2910773E2,2.5124535E1,1.7254915E1,1.0800786E2,6.455443E1,1.645533E2,3.9916767E1,2.4637657E1,1.1922764E2,4.532566E1,1.9332546E1,2.058422E1,8.892876E1,3.0298883E1,3.2214886E1,5.671387E1],"tree_param":{"num_deleted":"0","num_feature":"31","num_nodes":"19","size_leaf_vector":"1"}}]},"name":"gbtree"},"learner_model_param":{"base_score":"[1.6619916E0]","boost_from_average":"1","num_class":"0","num_feature":"31","num_target":"1"},"objective":{"name":"reg:tweedie","tweedie_regression_param":{"tweedie_variance_power":"1.68173027"}}},"version":[3,1,3]}